{"biases":[[[-0.07710407652203163],[-3.086068166366709],[0.4402631793794177],[0.9527185366208838],[0.6009767863175879],[-1.6182369581149738],[-0.6285901193963271],[1.697002455726595],[-4.018923902110009],[-2.2759137010382284]],[[1.1242355900964491],[0.979412626468155],[-0.343839933240161],[0.0700465483541225],[0.05156707399186324],[-0.7114579043411753],[-0.47002653032457964],[-0.1962776956098021],[1.6611214771377774],[-2.005718362069185],[-0.30163990951272696],[0.7007010633165655],[0.679423973713607],[0.9301686657474703],[-0.3205951695363058]],[[-1.1093068892752764],[0.9505541224733596],[-0.3650134391442969],[-0.4024447818743948],[-0.32256128764857944],[-0.5150936876366436],[-0.7555007859166838],[0.5042474363382964],[-0.024703414809963714],[-0.2754621556940707]]],"weights":[[[-0.5625700995215899,0.8663824909202233,-0.8363007273453025,-0.009477564907918623,-0.937070946605117,-0.40997881064279973,0.3233776102471859,0.43125816983004195,0.08021868246956587,-0.4077312482584641,-0.9936886315227507,-0.19271291682588831,0.036474705847969205,-0.42994185785631356,-0.7696374559854583,0.8465649085757273,0.32229581527723616,0.44823403264308515,-0.046235147046433056,-0.6695315949270497,-0.4702001755634817,-0.6519191709351329,0.40524251292795643,-0.5135290936615013,-0.25632381994446063,-0.771058152061451,-0.858928104129971,-0.4289226513053743,0.7049961278399202,-0.7030345669185631,-0.8936147813179454,-0.4366003161508465,-0.32993367170885424,-0.14680416168875515,0.3250040231241904,-0.843155212298299,0.8597483909848644,-0.7458684384932017,0.07281552493193325,-0.415368290382283,0.19843463831947772,-0.601186993155053,-0.7553796521079493,-0.5473810648204809,-0.7886164846062894,0.48325245591258936,-0.5193275698443354,-0.16594652379001912,0.9306217407213834,0.2914276292268101,-0.5081966966329513,0.8359570713559134,0.9466757494466076,-0.13039540310151554,-0.5150625460336169,-0.013738928912713444,0.14096828748799584,0.8969338261325808,-0.156224415273209,0.3039639995961097,0.18196543814884852,0.8049401428365378,-0.9256119126636617,-0.7520090927202948,-0.09166536227803114,0.6202806117639115,0.32046454568256283,0.23732913170754646,-0.4854830817030464,-0.8587197547873736,0.6978269761960134,0.19991860564299835,-0.9209044882126461,-0.909202967253295,-0.15582888503364742,0.7584820885965725,0.3938961252984683,0.381701132692591,-0.9431845585793227,-0.006245715580355685,0.09450499834921791,0.0001239218466277968,-0.13797839139012447,-0.8458803322584041,0.31400789436443555,-0.18827557211766321,-0.0941187262754179,-0.6090453296731975,-0.16241780639222703,0.954331924288834,-0.6369262262163672,0.7984911407170996,-0.3271876561733322,-0.5592420272883558,0.3946959006139209,0.24369787295587206,-0.2151900206122796,0.15500490318282897,0.9488044660428092,0.9233488091920848,0.2735681031357115,0.6104194039708424,0.8066445314749344,-0.12387142699788106,0.3903022557321238,-0.9407700451718352,-0.2431074296763664,-0.7463277131279138,0.20739818029453203,0.7253778981831978,0.1334248610433004,0.5934670161970492,-0.14595686590234136,0.4152806152214929,0.4303694056275484,-0.48536607229881984,-0.9330556743159587,-0.28430174252480767,-0.9959269432991745,0.003124075503031534,-0.8889888564611691,0.4758494906375106,-0.420589305377818,-0.7491703100014534,-0.24406693850749328,0.42776510844457927,0.7908046119391285,0.2980918742576855,-0.41642088941743155,0.6278045602875957,0.010378799792184642,-0.36991744083173167,0.034796541412602064,0.19513701991117702,-0.6497274996467499,-0.8349529828840129,0.21511250513212277,0.3878727016907433,-0.5629463141746957,0.5143883105871446,-0.22397532027109301,0.5501862692511623,0.9877047052189686,-0.3174354049001768,-0.12397535025764697,-0.32175603199561015,0.28616923900056845,-0.6999144923064671,0.3634768967315987,0.36886233986914396,0.5539138169198997,-0.3458804718753499,0.7709122966361474,0.6378958068209638,0.7649285606821322,-0.571890584775314,1.0483820246134274,-0.677400399781609,-0.27712842758896916,-0.6371719679349247,-0.6549988822993217,0.9388102189418085,-0.5849261348926614,0.7846384282298964,-0.8783102902448864,-0.5264646015139339,-0.8333379130799589,-0.8417783721443396,0.9229987781543338,0.08998029848291994,0.7851512164723958,0.8376333282067301,-0.4715053008238492,-0.45762193041104965,-0.09054999935246867,-0.13622149562909786,1.0273272840397147,0.04899435891112817,-0.7553361694017933,-0.027540961637137436,0.23077121580751686,-0.5594033283102129,0.3911831297814301,0.5124855667092398,-0.5870957452854688,-0.023698965912010365,0.2744213734229968,0.7986981055501828,0.11633053242104914,0.872470008535975,-0.08791619714341807,-0.17634353778184247,-0.8199044645961521,0.6988115847750354,0.8774710688915481,0.7675773450057545,0.30188964855224987,-0.5618343376963646,0.6132885688006959,0.9069659013131045,0.483359001670801,-0.3170533823356606,-0.3953219248898248,0.0108429367349353,-0.7264126642927973,0.1860570975101068,-0.3642923954173775,0.4613574979559498,0.4147057981442171,-0.28049646868399886,-0.5154500174224564,-0.36005683364050534,0.5814102240825447,0.7822169666497787,0.5430933716924555,0.213899644592268,0.43160610085196305,-0.44973296145273745,-0.23831068624726437,-0.24978916236451876,-0.955682474098106,0.8848304828786155,0.28705187709904184,-0.1201538986304602,0.7710878465138905,-0.8124759397182834,0.2486877661701233,-0.14510196208772738,-0.329181754540867,-0.7095727626496521,0.508172827435996,1.0025382205829638,0.6531018148127454,1.0822526751484793,0.26231248256514195,0.21070999540063154,0.009044558619854613,-0.35674927966352377,-0.2497074129444303,0.4690260142950705,0.4937075513367659,0.171211379999116,0.9215546723832778,-0.39591341059533247,1.0943740024112034,0.8102688481554652,-0.4088044078798569,-0.4974524842835681,0.5328330290162677,0.8795445254520678,-0.17462543038103923,-0.7763406698914703,0.5306211267098392,-0.06614178939122509,0.9992684440913457,0.6525144200857179,-0.40171442574943844,0.556022096198842,0.5297956523917117,0.8764417689480265,-0.037579010619412365,0.9747270753638461,0.48670531512346393,0.33435457004055613,0.28205556386017805,-0.20463453675268523,0.5930848811343576,0.2621308026720612,0.41237145304074685,0.9715438414829215,0.229200740741592,0.4691048250825975,0.10576952122378346,0.42128389453589643,0.05802197902189083,-0.20645134788007694,-0.32004331423941534,0.1772514883706558,-0.9487689980514431,0.48015699607368206,-0.7328823026350713,0.04856327552367999,-0.7764949051153797,-0.5874068199305397,0.4169572419378779,0.22648673763172453,-0.8260982549691028,-0.08866219525777315,-0.08553224450761909,0.439692215630593,0.43660673909044806,-0.27706366271191896,-0.08569659810576535,0.31401789432403404,-0.6432748809049617,0.5098072834719303,-0.1075701563390557,0.22721292628214512,-0.20563034561765803,0.12025469064121307,-0.35574636372191526,-0.37839658908814033,0.544104621561445,-0.8364306922023995,0.15330215884443518,-0.7517957302850605,-0.11701297441237875,-0.6787299937315364,0.41867989856077836,-0.3607934663259455,-0.9037217880295997,-0.3291095135056006,0.12142888936833626,0.16635983703253185,0.24234535569477647,0.17800693404269452,-0.15748356748984468,0.3146399082940634,-0.11824100249670932,0.342319582639802,0.7703965168654475,1.1215077119553725,0.12104765437081802,0.3086862659547851,0.40067660958449514,0.757243292820166,-0.2618533076986382,1.0632150729053338,0.38898568871146755,0.7016409317207272,-0.3591470351533015,0.0985056046331955,-0.9166764122913633,0.3663968068564714,-0.7080130110163594,0.3658735933789171,0.8248760613261122,0.9797934196387597,0.6193559170996554,-0.35651129774728,0.6688459072326326,0.33069538693807893,0.7243592067301382,0.24402421706689809,-0.7903854457607272,0.8435439256269696,0.7318551449637984,1.0425344990621448,-0.771718660180672,0.718492285772949,-0.5775721014612548,0.6909116790730863,0.32489872732441083,-0.3986825041900788,-0.6519995820313902,0.20847958230512506,-0.3260521441028445,-0.015760717938270035,0.7388544963604979,-0.7454951070978397,-0.9420230063665633,-0.07260242631143218,0.492868719525985,0.5889855735881647,0.540011683074273,0.5735869918163996,-0.8329770516561626,-0.3085243874304961,0.39450704980225404,0.4689094626718081,0.8995240724733544,0.18830429731128132,0.20629595803394646,0.6968224710934896,0.12910096194550286,0.4548921703508108,0.7753450511618304,0.26168447255362637,0.1410278393401034,0.5355391382742509,1.0172197276874264,0.6398247785595258,-0.012985343228438856,0.5543685028408807,0.5672023097600772,-0.5278252293876567,0.07635658761787247,0.6210305422735877,-0.4087947773196247,-0.24396915180069295,-0.16700244092906658,-0.9533880075919345,0.7465636857863995,0.2170837550496961,-0.41203699685713446,0.28544885691677696,-0.5538881812673926,-0.49296917083679787,-0.4991890518320323,-0.3033300417325835,-0.1836234867816853,0.8068824416602792,0.10459633865606607,1.1061496972364717,0.15548611162892048,0.6243440601720016,0.3675685802112974,0.4596232599070839,-0.5828549614789615,0.35089270306899695,0.8963364439157698,-0.16369838023163755,-0.09012551276472389,-0.7844605391009599,-0.5429439909325992,0.7895129758645053,-0.04471813109335021,0.29354983796395245,0.7252654935177822,-0.8631305257204825,0.05401022766140251,-0.37851857662985167,-0.5192141306258562,0.4006106356981076,0.7250239079516144,-0.1528892002087328,1.0526740403008774,0.7739727722877328,-0.12665660467836232,-0.011720777019760207,0.9976733626338905,0.05302519794596033,-0.37321191881549937,0.36016073047620334,0.6448922759235727,0.518993940226301,0.5199474284597115,0.9884736285165668,-0.30634628770346367,-0.31780125317735,-0.2017834087230321,0.33480797969425513,0.8650546202830123,-0.17429106949110953,0.0035470546885499267,-0.6417805618885111,-0.45093814098973534,0.16065718342277177,-0.9460252292795129,0.9432520194046274,0.16959534879923388,0.861413719833615,-0.7862398330236543,-0.7972875926306328,0.771077585664313,-0.49770662066203003,-0.3216330322708697,-0.5408337570055589,-0.1438046956072265,-0.4905979391226897,0.8264360402302615,1.0633286722915354,0.1628124936890104,-0.19767122206505605,-0.6007717261466203,-0.48808579028943216,-0.1831857914093617,-0.5598316369473132,0.5736664071784003,0.4400619247017694,0.3338833575789043,-0.5441404142125418,0.7889000843265529,-0.7410037629193245,-0.526881167586822,-0.7375661663279706,-0.49886674901839334,-0.3144072407961346,-0.42519788012746995,0.4963551781265857,0.05749879363461713,0.6990606998288671,-0.8057996423784347,-0.6978508389585842,-0.17593506059198083,0.733958052659844,-0.4391003905070644,0.13715068058432575,-0.5072069844519904,0.3900636953585186,0.1386147253911633,1.2348849092820238,0.358517306484981,-0.3789407178419904,1.131398817367573,-0.07610998110906667,0.7606590723896405,-0.27230116954659767,-0.4391394816045667,0.20450507266743478,0.0986852884344238,-0.9145434879752278,-0.9623062393205237,-0.7390817462791568,0.38660217704816013,0.3377055731914935,0.8463937986142258,0.3496611155466253,-0.17296295983295673,0.15880722486895385,-0.4070432022430926,-0.5416999364723533,0.8314108015318079,-0.397948285582585,-0.03478943603684996,0.8919558525162603,0.3640661019770762,-0.42632392693539656,-0.046304256288343726,-0.22839458105051363,-0.08909004660331368,0.09331662279717791,0.8527608693615925,-0.7632180999452313,0.9025105676547415,-0.12583772745892471,-0.49195357096346537,0.061780759274356147,-0.625231570188369,-0.3147811883982413,0.6108958536144983,-0.5212937324077694,-0.11973347419699627,0.5621842785461031,0.25648121956921727,0.7629038943764833,0.7110113884606084,0.8177471501188663,0.2561739203444192,0.2648816259284579,0.8418708197601036,-0.6632692255286059,0.1987684694350712,0.505394387474714,0.49627297544629967,0.3084736847387757,1.053322585892033,0.5683778442227421,0.24402395622935288,-0.4662036353901466,-0.6704145306427657,-0.19355610472293838,0.4854329317906295,-0.7011786487156938,0.9613935345366801,0.17439044718630745,0.6754309836719036,-0.8967939625851992,0.7632405927969966,0.46415224574977115,0.862522879587508,0.6776305747675226,-0.8655529506578594,-0.9802551823524898,0.7158766060993449,0.3570346026193022,-0.40413510907968264,0.28482647906217495,-0.5366137410824707,-0.6294288950716331,-0.07655399997845759,0.6300495364073418,0.6559029105835509,-0.6253208634579149,-0.2523039875806326,-0.14413175577041304,0.40391259977000654,-0.6983382210594122,-0.3330096110044431,-0.24950733155294608,-0.7318776864660949,0.5978923730704176,-0.8169023535438666,0.32236758892787876,-0.08255105677744123,0.2784238414477751,-0.34669414680714905,0.11767858313529857,0.22133269809898456,0.3807013522372855,-0.7283361426531565,0.3168491199677391,0.9740312279168708,-0.24751460867757652,0.8352115298889534,0.9955396357321338,0.3996369832910321,0.6379765551325998,0.8857626376669392,-0.14827375605832305,0.522470110185037,0.4052518545247397,0.9174916591567999,0.9077016662127466,0.7323189638553096,0.46348690503641593,0.5266254032842849,-0.8857440532012976,0.1758275865649953,-0.33840352001374857,0.02786740359280905,-0.01903530443185301,-0.08921944103081907,-0.7326566820944665,0.28543400770110905,-0.11622165115910592,0.36601077675911514,-0.9575007383531803,0.5719773044877755,0.14890976559532249,0.49439441130367184,0.7140799500580948,0.08022350262999932,-0.25973645391604366,-0.4381553373468323,0.7606247984864781,0.13060355789413403,-0.6991080353343363,-0.5058493397198232,0.452087000365438,-0.21689055682644034,1.0851642714496932,0.08299616459169781,-0.15826419025584548,0.2677475678568288,-0.13005643511421408,0.9433613022113413,0.0018057138663813378,-0.9197291988061168,-0.29588849078086277,-0.6699765100222658,0.3386106773623121,0.2912857439500466,0.749590673112171,0.2271496110866551,-0.1693411666770881,0.289118041514519,-0.41307545982750854,-0.38114640824399876,-0.9872191865666012,-0.3259133277061551,0.624392821374009,0.7010175890649781,0.3872093822495469,1.0681374484988573,-0.33808203013787785,-0.15120634350807255,0.11066833728583228,0.2290550836186881,-0.5431246741022243,0.8334349179778302,0.01763112303485177,-0.66272884815383,-0.7067319934777488,0.45093516178969323,0.18793760156865336,-0.16862806461793967,-0.21384069805525377,0.18562428992393018,-0.6626166791492991,-0.06522428129803769,-0.3769537199076147,0.22799682704076507,-0.599700003684358,0.3409182555945929,-0.7371249835912708,0.08778165222334135,-0.04814528762831104,0.8563732921962405,-0.09435454684022031,-0.39242184301883226,0.320813591795198,0.9704444440886015,0.697540234828834,-0.7530125729903403,-0.7902299623442494,0.4956278769952768,0.1461556750792401,1.0527313831066079,-0.09314337742451904,1.0082438216321437,1.014407235020268,0.7671511172175521,-0.46326825254307274,-0.5129801893874236,-0.1886378735090504,-0.7815066912892432,0.9647196559053342,0.8873785436823732,0.02155533317559999,0.2770816809090042,0.8886915765607561,-0.28417765786186666,-0.6026228227239656,0.835828855627851,-0.9017744685200821,0.13921177016162942,0.6139160900712247,-0.32814191544789495,0.0842666885686121,0.9392976134036303,0.17047932904108662,0.2010138166508607,-0.43789578594164663,0.6520104631566347,0.47598187547662524,0.6163027210979426,-0.14913683996847338,1.0093158996178508,-0.8739647960528792,0.8941175609973327,-0.22775966788996763,-0.00803146407529622,0.15854572948869786,-0.37292372886956127,-0.4847363889894381,0.8764793330102533,0.19522282801541913,0.7330545661625312,0.649420114326646,0.9383630602875355,-0.7005966695007836,-0.09813025395198781,-0.2288070684041016,-0.6920942971411628,-0.9677994346821296,-0.6035513918283995,0.39683368590279544,-0.7524962590297856,-0.5466939808409208,0.24046092592654705,0.6251722057519794,-0.5060802550921915,-0.31155320117265184,0.9073472188909906,-0.6327894627644031,-0.1436089375301292,-0.7697038725475187,-0.821499881961258,0.5633002099831188,-0.9827914118357114,-0.8080155966456201,0.406120904304731,-0.35281735953075394,-0.4536634688001109,-0.1822923289848961,-0.28576773798426647,0.7876731040599507,0.9624033551755367,-0.028649119160192082,0.5506100422335692,-0.5360756798587362,0.3493125749781139,-0.4422738364789366,-0.24686265231644314,0.8832842646587217,-0.14451093358413888,0.9032545844103392,-0.7825688021370845,0.10550991690046492,-0.16302050176032426,-0.06264317892318323,-0.7332850027145984,-0.5313429532784429,-0.7744837508163332,0.8798203080069219,-0.8856578707871584,0.8897859616127098,-0.23272001131380138,0.08177348742664317,-0.9509914879230457,0.3698984043552289,-0.5527701423519933,0.07500128951533536],[-0.3498751621219611,-0.6903779763022844,0.8841087454054721,0.7473139223050971,-0.6700718870370328,-0.8393511115383927,-0.09391670684747022,0.5494124594942937,-0.5029313558759569,-0.9685765877611372,-0.10947819118862223,0.4891218683402925,-0.6351794907047177,-0.522245155163366,0.28408137872393524,-0.5460601253977896,-0.7842413396464363,0.1349304904930282,-0.3678569135172507,-0.72137312399645,-0.3379600936977645,-0.4960601813254817,0.9991137281138323,-0.011194328328213654,0.9684663211106488,-0.2634291813981269,0.2435949894385483,0.2385304412412712,0.8500134270863355,-0.5624427602674749,0.5097478441114149,0.9351427071419987,-0.48761354745938684,-0.42250110008022274,0.8648574760113963,-0.19025956208159145,0.16023521103164723,0.6651819441675518,-0.40873416529155765,-0.969721068722902,0.6821242813750313,-0.708315551894119,0.8192626146264363,-0.6423163566651802,0.041905519997518015,-0.05576126584756459,-0.9806387828802321,-0.9299483846503023,-0.08146092679901054,0.7812144804778761,-0.07061101498148592,-0.34082163093666445,-0.21872509742470148,-0.11220651630313672,-0.4089763855130484,0.5092489083545784,-0.34588108961023445,0.1433479153734083,0.07197610366251268,0.08655963173693342,-0.9103106659579105,-0.3082760529971089,-0.035735472756004895,-0.9314560475504366,0.7015507113083524,-0.4640040948500211,0.6683540998951841,0.5959991991438742,-0.8456580760800978,-0.7531667202384302,0.1654796388538203,-0.9106329129967307,-1.047654815908876,-0.05721245423179041,0.4871291013577132,-0.9957244174824906,0.47020921226061,-0.3326870141638358,-0.8031633346585555,-0.4869736893701335,0.4755623113286216,0.8701229185891154,0.5017922107775294,0.15253791292092456,0.9101100019222621,-0.6994687109928794,0.3385752949867946,0.3272672373503038,0.19838082720156766,0.589839877522222,0.10174892802947137,-0.06254300860261444,0.3249250577510187,0.002437041764652152,-0.6482925992509635,-1.4017634807817798,-1.0500140392293393,-0.8905399944177642,-1.1813379148174408,-0.206220887107573,-0.11978732487718104,-0.5996955002945596,-0.8006481877856717,-0.280197087999013,-0.49033629040918275,0.17060992344790793,-0.3117528772428772,0.8442369811483976,-0.656445762370228,0.5000808924972142,0.8135045352803641,-0.34213499241238865,0.9761273341241945,0.8155820727588542,0.8018863751545837,0.11332924369836757,0.780038723481592,-0.8072063454723671,0.5869884923533476,0.17153350268270548,0.5255810030332286,-0.5063438297679224,-0.7786538607533747,-0.34760028532647536,-0.210309031248994,-0.4348453265177677,0.32261619381070183,-0.17535483444915215,-0.30091650046828294,-0.5688277074773725,-0.32698470517718925,-0.5151196197455934,0.16960259578263062,0.2852338903221515,-0.649122210167444,-0.1596332942051723,-0.11025318475694088,-0.5263049248966855,0.3315045815080827,0.18111640067208964,0.2618619827464015,0.1339604128730998,-0.2776539858438417,-0.9726890761214678,-0.9257184118081736,0.3860976941788917,-1.0771693762334293,-0.9162674047245205,0.003333255084325079,-1.226560447930564,-0.28416220153870597,-0.7148919532962347,-0.13189598904995828,-0.5443834775754316,0.1448819519453756,0.04192254407746454,0.38576975337267666,0.3345357462274744,-0.09386735328992289,0.6783869103985598,-0.3328122335467469,0.08045845893056079,0.584176462613359,0.6676366652828912,0.3412111579719505,0.16190769545864575,0.9333925315686976,0.6465993566370755,-0.28929553750908577,-0.5299507063121784,0.4240177714130269,0.9150876734331086,0.32357540090696985,-0.1804459151350019,-1.0846119643348684,-0.18378401674422645,-0.931685266046394,-1.438932618036142,-0.3706097348844322,-0.747242709725539,0.139333338146928,-0.2950614760871761,-0.24176327096757974,-0.9826296455899233,0.9787948554921235,-0.626318191526606,-0.22013374158047413,0.03229806252365118,0.7341844675645652,-0.17015491192770024,-0.32737252202764533,-0.23539942145579246,-0.9271040478298126,-0.36029731290074674,-0.07428121072964233,-0.7149360934376038,0.3097395325137505,0.7887403405063971,-0.020505287492059744,-0.09861036669251576,0.41239043517636553,0.6213558693871829,-0.4885190921153494,0.7021162548613066,0.2252349069803699,-0.10307577044554524,-0.38565974179930357,-0.8489171217815095,-0.6347650631958628,-0.9243124550716713,0.18788231845502418,-0.027842362541475364,-0.5398423387914609,-0.053213933220984035,-0.5500034127030963,0.29506487500076506,0.33281630678447854,-0.3174541984014134,0.2738151808590252,0.39996125040157726,-0.8077770708025491,-0.23986028486622887,0.5151353104422388,0.4943313292041372,0.06424658852541437,0.44697872957688434,0.5073269605802224,0.3439719455292934,-0.45798741321015607,-0.6074010022895543,-0.2274457915990082,-0.12154388514820148,-0.006850178355780753,0.2709313270152483,-0.2642808059209473,0.6496002413308721,0.2009260843741071,0.3658548557822938,-0.511272056554607,-0.5623024593464737,-0.08000862722804418,-0.29754162047456,-0.32800218764244915,0.5189520835937855,0.34234179393277875,0.6282360004666351,-0.5629091326926153,-0.7677279557841937,-0.7602701713385638,-0.800982027533979,-0.7667783994940627,0.493824358831151,0.9086140325676745,0.18770611718440525,-0.7918004421599806,0.9310689670007647,0.6674086729859225,1.115473244744555,0.42848846782853794,-0.055669775311970635,1.080799480057659,0.2679003690002505,0.4581721846461427,0.5879977786164455,0.5161639079122872,0.12741084786214493,-0.07436096644302732,-0.11047856757074045,0.30123536147982716,0.5395213863512722,0.42450358575296354,0.14194889138704853,0.05644231196730515,0.4269464500886961,-0.6028765692781308,-1.061600431019841,-1.9907766279847505,-0.19002015493437532,-0.7009312093834379,-0.3581345337789826,-0.6294468940372013,0.250553030365012,0.050086997836699745,0.15949514359180758,0.10092309872746807,0.9941993518364732,1.1475053850000203,0.9888762358802685,1.0787711494581116,0.6638241602442543,2.2360639533627604,0.7254623065375502,0.8531088605295661,0.09910133238717284,0.6124385539565885,-0.2856582089087713,-0.27735724777368775,-0.33177392770202807,-0.008519983932120532,1.7409124301367194,0.582083166810042,0.26764592677393517,0.327634512145439,0.5601266077961662,-1.1907825984854037,-1.2237928945375876,0.3268720958079166,0.009214236672628195,0.6652673905636023,-0.009272473347322653,-0.9153117934055971,-0.3018613515279893,-0.5818060774569112,0.3201335157887164,0.2796012190872566,1.889863342528168,0.5673835230132267,2.086169021822443,0.9522259931390892,1.4969263651615952,-0.18937827317979303,0.9552623547400133,1.326927465052093,0.8308989269497168,0.1288680682259573,0.4922230634793213,0.8437619586424308,1.0662291872749818,2.3750805301652433,1.5811848646508713,1.7115698747897563,0.9078019584406978,0.07133096249547054,0.36160948892728734,-0.45070294409627737,0.5328097502721828,-0.16482796341415912,0.9002431280050249,0.73478806242543,0.5079120285718105,0.45599118710937897,1.0991780593641698,1.0303242985029262,0.1249084893643393,0.9916808639679047,0.41018713774488946,-0.3056798071558657,-0.2849354985869835,0.6879035451874327,0.32300819401858577,1.447720434850503,1.4067945116216107,0.8009977163186399,0.736522628108579,0.7582710012039812,1.6426473573151605,1.047597638882344,2.097398596563775,0.7285944344144509,0.2443964390259702,0.09501824785543785,-0.04111621217176377,0.25057815530132427,-0.2736197633938139,0.5803498964084361,0.4418132593746921,0.08717317204692066,0.11647668361094633,0.0498891677278675,-0.03433934032470764,-0.5131705364368385,1.1052390833208154,0.09510997745029597,0.295653466933471,-0.1804363769303841,-0.18618273045638378,0.4299322858100673,0.25600810838784915,1.2400053620799614,1.654458658316283,0.0893197823031902,0.3788610450455039,0.6952343519358064,1.680855808873933,1.1437039327301448,1.0409220702257527,-0.23917980618741425,-0.5357270432266595,0.18275297479663177,0.8665133452825149,-0.7259069738346696,0.13381740783433504,0.5589701664610637,-0.4285529428084258,-0.11533256080640214,0.9258783674579577,0.06500565725483586,0.319345237259412,-0.5549726200763763,-0.38236365605056644,0.26626093368651144,-0.7441694607528814,-1.3344779630829884,0.3211964352933913,-0.04691802068467457,1.764349593017823,1.1787797032681158,1.4198357511544428,0.4420799438544397,0.60793531908332,0.7349262445203226,0.6914048898854313,0.819373321829769,-1.1535275743177549,0.32433713387372454,-0.8774935862535189,0.3695814367932339,0.5434785200829699,-0.7223471412385982,-0.20838833667940465,0.5955533209279344,0.45421064605864536,-0.2854859370693953,-0.17573263606212236,-0.6022199429922531,0.3587282678571395,-1.3103085636883922,0.22038321368379987,-1.8589117992533755,-0.40595430227569956,-0.6331201338095623,1.1601630209379132,0.7175593929576065,0.8358759515900055,0.43260383191372326,0.06892675715227008,0.48687669330415906,-0.15506041001028897,0.05839162986528287,-0.26627680647210217,-1.5785710575504157,-1.6305420981349705,-0.8403616801346863,-0.4106524412371987,0.11303325885166823,-0.1863249976897296,-0.05651454177481847,-0.979981560500136,0.9160439408683675,-0.16713486737472313,0.6506149912361443,0.5057299847547125,-0.5523385696869269,-0.4438809052602504,-2.139024094938163,-1.4131246915826412,-0.6545079225985905,-0.6572924573440556,0.4162343164556139,-0.16146804020201316,-0.7507312251612279,0.6662432198006675,1.0793304590537574,0.7934831625478073,0.5234666579296904,-0.5678932274064088,-0.9311168865136834,-1.4838764888539375,-0.7481856519371209,-0.9860918246447566,-1.082436278684633,-0.8936307460414562,-1.246717815795797,-0.8412440210935447,0.13471872146535327,-0.22342097033415823,0.849289333718664,0.8147892946757477,0.9753762932534394,-0.46206175727717647,-0.19649848363245173,-0.5860507927694386,-1.58381118953049,-0.8861217323264228,0.7429125104132261,0.997523702721751,0.8133496668516383,0.8180535344303947,1.3534479494798017,0.9521959161118956,0.6387949071507327,-0.5248511589162337,-0.611620093099861,-1.2810896935135796,-1.3791332106893737,-1.3176042527163856,-1.7427491920946327,-1.292635519554212,-1.546100742973403,-1.1504131003699307,-0.20197781005013407,-1.2633734949911082,0.6581783704625812,0.6391145998385777,0.24071008768470092,-0.3156225939912409,-0.4588531028502777,-0.9936852774514151,-1.437079255353566,-1.1264603361204388,-2.481641845462744,-0.5934060668916179,0.40144020411703635,-0.14338273929756098,0.6335471184755356,0.16502992356288806,0.4918568948023104,-0.03252896451472048,-0.5373697397934741,0.39015643831729774,-0.5205345428126489,-0.8751375261896681,-0.9036470764097206,-0.5232679150283774,-0.8337200129654283,-1.2444520425773915,-1.3381698461533083,-1.9808963891719036,-0.2790074752736978,-0.4234958696906989,0.8070603816443498,0.2465607298258076,-0.24633143737916638,0.6558480095277344,-0.09421800723294645,-0.8421276625896833,0.16044031525257924,-1.5083998727275916,-0.6939061084124378,-1.0450306617853695,-0.06525335059066487,-0.5096793528137067,-0.6680073213294427,-0.568980273524462,-0.8302726979427029,-1.0535579940315518,-0.8091952840792543,-1.367681212146815,-1.08394721556724,-0.984556486684438,-0.9996547041853163,-1.399608285324541,-1.799275919705096,-1.5495741441310549,-1.1987572666613235,-0.8348867138085295,-0.3111639980446452,-1.1618173654112203,-0.22493981796648654,-0.6689538655258853,-0.25166106185015447,0.03206973703226892,-0.15021081898941666,0.6419153397944436,-1.6228942569840246,-1.110143064138525,-0.9855898845379317,-0.2869117054313656,-0.6197549793889876,-0.9134006768267082,-0.7688348883409202,-0.8689426498841402,-0.8997920759813246,0.270284883938118,-0.17758329787487534,-0.9275376477831919,-1.1301418928852147,-0.4274901555229501,-1.71331443175412,-0.2630866317922183,-1.53945321165513,-0.22468739305514016,-1.5536530996770976,-0.260717540138784,-1.3598861825347448,0.42622264856918496,-0.8270247919685605,-0.5519105666004818,-0.19344384013708169,0.1283532444103095,0.19371163793835905,-0.8698348237664928,-0.41045422070936344,-0.6244675162606959,0.10680895811384153,-0.6330080719082242,-0.3832399641517794,0.038665023023921725,-0.4111300505648428,-0.3646492799592087,0.27526995356481393,-0.8425523164954059,0.1661831903066999,-0.7136896377923887,-0.6030467039105789,-0.665239395512144,-0.5425673690961115,-0.9995874756889047,-0.016686463248564192,-0.13768175196825447,-1.4400967043974968,-0.26455036672780335,-0.5364485845819766,0.2893118622399237,-0.3758679811618398,0.5564950323076322,-0.5622152424418264,-0.9609007179345245,-0.1124352253014993,0.6243201703958015,0.07508055984383255,-1.6596188171541717,-1.3328047473615998,0.44067312153063815,-1.0264282717371722,-1.1774033706133873,-1.1653452275340086,0.08175056933390243,-0.592872638954329,0.3220653681724737,0.168003849352701,0.04030274612439419,-0.3564888594180945,-0.775489059122281,-0.08834425965226442,-0.3989808053727638,-1.209954198639892,0.5618068869213569,-0.14880514558909763,0.12179206893861846,-0.5191617136509166,-1.0271947156403478,-0.8800543173641591,-0.6444892300568567,-0.27375868495287903,-0.9253304999813734,0.9646737354096804,-0.207544070994397,-0.11490281597728663,0.05960373402487909,-1.2746652362911848,-0.08311784889146233,-0.9309042075892651,-0.4175527246835464,0.12206234506168538,-0.5836315836089779,0.2598632280537207,0.5013028426228953,0.2955260514466784,1.2283599862463421,0.9385398267768832,1.1381585948462516,0.05111480376547926,0.24435399446333533,0.7769282613517157,-0.450340335090272,0.8396067752349112,-0.2544942526795882,-0.8275927389989616,-0.3331960922588739,-0.26020933662625667,0.0638685030339643,-0.21864342562069883,-0.17348188002865195,0.880852172545325,-0.7444490152713737,0.24227325786176152,0.17738897960777625,0.2856749729207953,-0.018289468524993843,-1.208460695752391,-0.3281468301452085,-0.2765655959117622,-1.9617905676303962,-0.6247583975101189,-1.6506098383357415,-0.40004643003632706,-0.1771392560743989,0.3856605717325669,0.400140318137374,0.7927766835092953,0.7369559292786011,-0.2803360109801867,0.40855051241491686,0.1942498018694861,-0.5741462698816109,-0.33009653506221487,0.7635254900498785,-0.5225183917028283,0.9153699032054172,0.18788955885119907,0.05322326952418166,-0.05470745574188565,0.764462440972344,-0.6884016678823378,1.0412691722044671,0.33180666055826585,-0.1641065250634291,0.3332944872569624,0.26183784576637525,0.3997099433640019,0.12962376380105364,-0.02766421680867939,0.2927466345965889,0.2773157895131683,0.7801950939998179,0.05932713816144206,1.3490713530100835,0.15083863357929994,0.5947174596320028,-0.20133422490323158,1.2065175875848928,0.06239615939572978,-0.41557358726742605,-0.9746043752828283,0.07878464933466287,0.0688163282629634,-0.680131954508794,0.7212688294408744,-0.16057300946590947,0.45506756561009554,-0.31551594630195917,0.7515832785517994,-0.23751403863455828,-0.778590467670728,-0.4227614420657066,0.524637085126468,0.8132775377680609,-0.3455341361621893,0.6496296956494538,1.2899295776208173,0.36522907861262416,1.2632048903497022,0.3221437336369689,-0.29112502862790224,0.35178269785699157,-0.185587779901883,-0.1720777017230615,0.28822577051123455,-0.5804511406400084,-0.5315937744380628,-0.8082788272452907,-0.45420427591040075,0.9262846381488757,0.1257418289287282,0.5074662196603157,-0.1110595442553246,0.576096672360719,-0.8184216495148604,-0.2640092296348784,0.17426986001142147,-0.3463603452193167,0.18433468987226334,-0.19544489274692153,-0.4895527924226786,-0.8960582810212279,-0.8329870726227633,-0.9799437105057087,0.024459726573515684,0.2744850999378504,0.8006221561642434,-0.9151595056629288,0.8069207224820215,0.30760536537242295,-0.05924184060616351,0.6104960575700965,-0.5682024339741878,0.47575745366392613,-0.7389053701993828,0.10458733512378421,-0.4282751211197413,-0.227185775720937,-0.927438050851149,-0.8476275635646913],[-0.43941811182096036,0.7780087526243775,-0.5421686067080951,0.9477751116290438,0.18621797415432817,-0.6117329356074672,0.8940531919415224,0.9712913023732341,0.4303418713118714,0.9435374334759667,0.40153455095168367,-0.06420731897753429,0.9124625981265747,-0.7074213500106957,0.6756659276590089,-0.5641473400010061,-0.5235856502100715,-0.777568696031486,0.771215303463503,-0.9848286976264626,0.8090499296009488,0.7184642438865145,0.10056860890563613,0.7037328997760235,0.34048036184280983,-0.46618081384005383,-0.2887783567047142,0.3892004816575023,0.09787819994005598,-0.533800099599492,0.7836664400008959,-0.49535759814384583,0.542647991255802,0.3788053391294094,-0.7695792953669183,-1.0001317025029213,0.23775672696969724,0.4119711645226923,-0.6027496946678575,0.5320046897662158,0.2844038912794963,-0.20375083226257726,0.6701898924297185,0.92673260676617,0.4504476364236517,-0.16528945080122381,-0.044624963419550454,-0.872845808351359,0.3194805832696862,0.5776675921996538,-0.915252819534646,-0.8428254970461757,-0.9395236986267395,0.7534878536124234,-0.09805156166673346,0.19735426912591114,-0.11674450787432122,-0.32347180007400067,0.3451962645125644,0.04581214211031833,-0.4949723500409361,-0.6507554623013304,-0.38770350628547895,-0.9354229474574777,-1.0059883004825028,-0.15618691056704914,0.11263938930750214,-0.7930154451141257,-0.24131084394840852,0.2017138023650889,0.1678656368765703,-1.4495690164322015,-0.39087005668694413,-0.9000643915162069,-0.6015787906532879,-1.3120549943921176,-0.4390798239369766,-0.7847972848078701,0.5633888619226336,0.7173903243620551,0.2346771018496374,0.93948843093856,0.7789570276752051,-0.1012324206777735,-0.15341995429877509,-0.859785633109478,0.16674823057809732,-0.4936854382587483,-0.8094108735440924,0.3606845570275029,0.9505720821189823,-0.3796376544528854,-0.34385201268106363,-0.1624771405095294,-0.31384000011811874,0.13911750605171866,-1.0109133816243667,-0.8510022227602191,-0.7143985466145212,-1.5655572801550364,-0.9351899816856418,-0.4066470591317007,-1.2452867152841418,-0.40176840120043034,-1.1627490269631438,-1.0723345000501365,0.22602327863797275,-0.4858741074618229,-0.0255953584799204,-0.3062032278559266,0.6453937948445629,-0.02420999672090529,-0.4024422439288249,-0.7096037519138327,0.206962696927073,0.4959205049750003,0.445272175495842,0.7368047974656177,0.5435948608518651,-0.8749413064120232,-0.04730280245516052,-0.20999252588496373,-1.3792975491662731,-0.060098889952037944,0.021824151175847305,-0.3673501956462363,-0.057151886025564744,0.08241512863239828,0.030298718687378795,-0.06268220506840985,-0.8478992291136683,-0.9796597378139685,-1.132048767676146,-0.0551257438021576,-0.9142495876004261,-0.15597572761072961,-0.8587219857029793,0.8338246116234644,0.8079363743395237,0.5869559338852315,0.018206947467793944,0.3884600600951158,-0.8612716697263427,0.9096605235668268,0.11788389951418164,0.49977320727840235,0.6930179532569049,-0.24623658497526177,-1.4655306799913919,-0.03899424082690213,-1.1486661215905667,-0.02618745541206984,0.16092543823161023,0.045429663329695634,-0.24545154355499815,0.5609121687623607,-0.21952371677546043,-0.13302318290245402,0.716701957500776,0.5919043851796003,0.09953383997823342,0.529916456731534,-0.491271307386026,0.5690356547319945,0.17330832544800523,0.9190057541320782,-0.156812970227926,-0.15126391158536548,0.34147778139066287,-0.4031034570849965,0.2780473418805306,0.17339520610678907,-0.913438425040616,-1.1054246533951895,-0.25754388103053605,-1.3113610704364556,0.2058768620092624,-1.1195461144381416,-0.9792703660450094,0.056164873016496315,-0.8319266271512488,0.10989024237965474,-0.15859843613049315,-0.8242655009338764,0.7047747886163599,0.6848723802670922,-0.3539463540866521,0.2649121904243065,0.17423343436463093,0.11522804232079836,0.6713829381634313,0.09540575746306361,-0.42176049107876284,0.1729455792007276,0.42810527980448754,0.4351881948598302,0.7649946717462885,0.48515835291743514,-0.03735549015862579,-0.6698532156934789,0.6200376083987347,0.25460795467460745,-0.7647466155730204,-1.0657030243710923,-0.12321492395550798,-0.5923102444190387,-0.21477215188283494,-0.7074112748392797,0.20230465443892898,-1.1689382727855162,-0.5321179197930672,0.6318153109728563,0.4157884657483371,-0.4100432988493481,1.436396747296409,1.0725844943187255,0.8061270512811357,0.8990610604463171,0.10912703640163558,1.3318641227322567,-0.1527294339651386,0.26375007117397,0.9935807609336003,0.40256473642543233,0.8902022091714985,-0.41617063125656434,-0.6011150384596471,-0.18095851361992543,0.3783434683010951,-0.21293476930617303,-0.6607151546351306,-0.16730569570868906,0.8928296628915325,0.3154339512788664,0.9137781733745636,0.1536880738819169,0.49183105017028067,0.9115260354021706,0.4851858814169525,-0.5364048165946366,0.7698519212366135,1.3580867115586297,0.3558327729938236,1.5079166612578498,-0.14690804498405266,1.1106563761005317,1.6805482801728444,0.8906507591682606,0.6273769093645825,-0.4592245329633875,-0.16506119805778155,-0.46406193544529256,0.6553532106042846,0.7047696337085927,0.8174922157294265,-0.2084385128661965,-0.6462196372576252,0.5297334083368215,1.3671612616088733,0.3192951374390758,1.4902866393539362,0.6471750883156805,0.7777915515995082,0.7869887463007293,0.8692251811011906,0.6298263617809304,0.18314987965960083,0.9408887112378848,1.0865910573528672,0.34128680504148057,0.6783210773182903,0.8778418473607735,0.47910366359155837,1.8949368805014757,0.41452403648292585,1.9984634078572348,1.492197676634546,0.9243502686127117,0.47531375661201813,-0.7447394696853376,-0.8114765324483276,-0.40890223343617804,-0.1950015674106283,0.1739228079080719,-0.1386562539813015,1.126868330449068,1.089313709947211,0.6543647061244005,1.2791905309168692,1.136559721774748,2.140287946699712,2.095764149033544,1.4303172803223614,0.15359911534110682,-0.20662237704929415,-0.3491139391252293,0.7907761140082183,0.903006916464088,0.24931679721774017,0.5395082966499968,0.07007191156683329,0.5176645697449951,1.3075435176072236,1.8151960602298856,-0.26783184335180876,0.30738877752741445,-0.7863264501007791,0.5049373820344021,0.9554360609095507,0.4663111973775094,-0.05457853722494193,0.06721508526226533,-0.3660140778652167,-0.019949021174460378,0.7815462821225415,1.3343655685414866,1.7626579152072623,1.4794596246762999,0.2927315564852093,0.4092819942547221,1.3744911075683963,0.603057880014935,-0.9417185989158101,-0.8966478712173124,-0.4311778537372326,-0.6731613174204404,0.532965769973035,0.6131122376518559,1.3276675405641118,1.3360804141804978,0.3787288103523685,-0.43689642467185497,-0.5296323181201863,-0.8171130718787724,-0.956585102991881,-0.5259144042122159,-0.6873680043350495,-0.20358622655502887,-0.8968863845431194,0.6557237356416162,-0.09759728393156801,1.025002427233021,1.0990612147861611,0.5464486294772583,-0.21642531474487342,0.07316531090152575,1.3171225660271757,0.43719184764308033,1.1858466782933557,0.06288562510681638,-1.2716593532286546,-1.5930383921969877,-0.10464594749424051,-0.6056058038850141,0.8350020009967464,-0.052792936308427234,1.2039474239077175,-0.6474452890836733,-0.7256874245794175,0.8086365982982165,-1.0161446697878505,0.6155447965951469,0.40967371669811986,0.14225382220826616,0.6188369881225863,0.3423472000178737,0.0951322090942819,-0.18704793654915064,1.164139807391191,0.20305411017309094,0.0638302116539941,0.4332864974551436,0.9749153698855568,0.8908091519603961,-0.3994161150792513,0.9257541199920191,0.3183365296550012,0.20215989237273016,-0.59389366488338,-0.1293436809047659,-0.1980847562542416,0.04023445911926735,-0.5602098224084658,-0.19611254531243955,0.23250538032156848,0.4383787727202503,0.683726624371359,-0.5364886990492587,-1.0601325274255569,-0.7886374168423422,0.6182467212140759,-0.06048621446898441,-0.4821764186457958,0.4456520957013901,0.7324732694673469,-0.8306561576996888,0.8075202578559332,0.9390787230119819,0.6545454254228492,0.4452452960784125,0.475377802781393,-0.21490264866549583,-0.1692949445458304,0.4571159481563539,-0.012425361022824223,-0.07987547396309187,-0.29450404058246793,-1.019015413233766,-0.8478536345282461,0.09254358720646227,-0.4383622950500184,0.5868328728981979,-0.7299940494488074,-0.058534053562520685,-0.25265969152437034,-0.8642289960698931,-1.012815103498406,0.2736700153067955,0.30859706973695333,-0.47624898371855884,0.2403563719591044,0.5669576191648029,0.5645616590448612,0.5206458242252243,0.29480312136608916,0.1982950372537597,1.002000015928721,-0.3731641183043453,0.7971529607782338,-0.41621343130775135,0.07280066608667735,0.15301812763735392,0.406773240139228,0.4798802300926385,-1.3228420984588656,-0.2925689881528478,0.050603474609066425,0.13839896566847812,0.18351396086372665,-0.33256657035519993,0.23403999518965038,-1.4123112015885968,0.1658371651678454,-0.4673568186271146,-0.24876948094550333,-0.2191383673440522,-0.9642697519621671,0.3513717015070137,-0.7529056446907939,0.5871018481333323,-0.05747880751929291,0.6090504417315,-0.24902746756002955,-0.2809322496445883,1.108842547002175,-0.2762901121274509,-0.3715070419902286,0.9372964238582041,-0.1187236642951368,-0.5352460047228752,0.6048913367850715,-0.17954233576383105,-0.3225840785273503,0.6647441362444978,0.6453776501613872,-0.44252834586781914,-0.09070766416969075,-1.3070334758237645,-0.3390177949996382,0.18686925953745767,-1.1350810778691947,0.11509192869691202,0.10714849823107059,-0.0001864894463738093,0.0007650893912855859,0.7892178510401776,0.9574926346786539,-0.11602800169730958,-0.41880379534253503,0.27983739182605677,-0.17294265757065863,1.402997938203599,-0.1732855277283607,1.1458971433277754,0.3586455781111281,-0.35121203366542914,-0.0896727428199157,-0.18953532604436002,0.23488620998031481,-0.5969717787142941,-0.27981655676029993,0.0667600338290568,-0.560222448704225,0.3489189065313782,-1.3889515023784236,-1.3053033968820658,-1.0797872320569974,-0.9492533657024799,-0.6260349903953304,-0.6825125889048137,0.06431689570435964,-0.5294922565365727,-0.09093424285600335,0.5546808450744044,-0.014599084073767253,0.7479910447488032,-0.42042560697340764,0.3381473477537887,-0.7025242631532218,0.7160618131355544,-0.16768150270472176,0.40651120008741487,0.5148952447436645,0.43387257355707093,-0.9226946832343126,-0.19741518671930663,-0.9091819440870434,0.5940445571436347,-0.5694969477999758,0.504004983876976,-0.21749479887167067,-0.6366144243338367,-0.5475054723644436,0.18954276143769483,-1.1649886648461016,-1.312364275416699,-0.9209896661239579,-1.1128962492678491,-0.818282279635016,-0.8899690814928676,-0.5963520710064817,0.3159912412824925,0.6267310834829735,-0.8446020529686173,0.29490396896223553,-0.5169975167209456,-0.3056583819459041,-0.4280648578288432,0.0930854900504319,-0.8637049144409268,-0.04243805779000391,-0.3416115208202654,-0.6556900611859717,-0.8607740947658328,-1.3507556663322633,-0.3098141768052388,0.10033540307936359,-0.6642526155468599,-0.35762564667580254,-0.8451003541087599,-0.8294244145191003,-0.7980921097262185,-0.017424400001209216,0.010222734445026119,0.19582022504367988,0.7675347218219543,0.028707012096165763,0.393962914736894,-0.11669755162701002,0.9926004979336573,0.5885392504353892,0.7733212800224829,-0.06297308518395509,0.06341500816499616,-0.8467362465101311,0.4747004635407994,-0.6275130438943824,0.7648062451002042,-0.8006877593559432,0.13744586653530627,-0.4469288838274639,0.008938711571909081,-0.6021872053717615,-0.7161533132891759,-0.7270644308293568,-0.4488513478256217,-0.19557405250267174,-0.7328796694321579,-1.4022079859242107,-0.21918435839466388,0.10715529134595293,-0.2904465870082093,1.1578327630562966,0.1314554493533795,0.8795162790493449,-0.6487799028553727,0.4247718499636247,-0.41488602979797434,-0.6254470522131668,0.12104542367228718,0.5936085451944908,-1.1830799317465859,-1.3756883597234943,0.16223181187724933,-0.40355969659295293,-0.1912969911971791,-0.4644986293338374,0.35435414915338787,-0.0699269363816969,0.07356196852500294,0.058070310038299294,-0.8739821404338113,-0.3913008825964189,-1.040960556265894,-0.7402739230783547,-0.03294539673257697,-0.2789136432560395,-0.7159072816246902,0.30371334390169363,0.26356130652992543,-0.4090056293543703,0.3564413981733889,0.7660509871948258,0.9505842079424555,0.1533955656092695,0.17435906803289322,-0.8251907453867903,-0.8206126219571513,0.583539448135613,-1.166518253785642,-1.170801675874943,-1.185283764211129,-0.5980692313545752,-0.836747158020794,-0.814083352679767,0.16582244190461212,-0.35500492013316604,0.2668685863265319,1.0734911404300205,0.22727445727966636,0.5665807949161398,-0.05435153837929177,-0.8659304848073958,0.29503099917692327,-0.5798663197247176,0.6302334217903925,0.16414826842498562,0.11041967657644326,0.6071798634736161,0.2321930618744931,-0.49184841901539045,0.204951356135294,0.2524187509172739,-0.8337489146454761,-0.35000474474327614,-0.682443865130363,-0.1108612044851627,-0.2631279779670699,-1.1889529613925789,-0.5523498132227237,-0.5166975433858052,-1.2371029883376061,-1.2647856929755612,-1.0686372567394644,-0.09174099868765694,0.5645517462077426,0.28456772748356207,0.8538190327726259,0.4901781482817225,-0.30234717915909126,0.6847002371656681,-0.6009650775206025,0.8335013981224557,-0.19326787343437055,0.17844507595580483,-0.0371142647439324,-0.1144986047585817,0.19478584560885476,0.34245264832801375,0.15242516350074548,0.5952760425134433,0.0585576126463605,0.6144260368486523,-0.6085168518031672,-0.9228952748519963,-0.7072698456347122,-0.2806151596936764,-1.130093667188735,-1.3036418489801727,-0.19893599656552377,-0.27148715880176055,-0.15723974753624123,-1.0267947753854558,-1.3075250853955414,0.24846475198942033,-0.4262229724830264,0.43105307007750654,-0.04867006472630593,0.46707287105729384,0.5355111283857027,0.4377564256430301,1.019753645477108,0.41451511235313526,-0.1745009061434864,-0.8149368898120327,-0.5082976510348314,0.2793476497380501,0.8987434967059439,0.3320326722838611,-0.05218367311504868,-0.17866002858174923,-0.2421736883014931,0.9215842877876766,-0.023647254911719692,0.2587970641950905,0.9000856982444555,-0.3066174512795466,0.7702446790164608,-0.7081018561361347,-0.10108246510970673,0.7353556125321238,-0.7245620662007641,0.08190692183129324,0.7693690173194317,0.7298901609938693,0.35122025592455464,1.3740795472628282,-0.48444475565607853,0.443261238983008,0.13537809093054448,0.701157249457686,0.3914585376109599,0.03391837319115696,-0.4920868593122829,0.9746107886080818,0.11607561958380785,0.8943358929266215,-0.031755305317773486,-0.8424532009653467,0.8360541310498468,-0.2600597223039225,0.1060538154773692,-0.0037590979490314843,0.32116120503956264,-0.30647002236125503,-0.6210202441600712,0.8861573201712301,0.9792052973695111,0.49648627583322313,0.2433843698799073,0.4794408199016624,-0.1126760311046979,0.7311362637591379,-0.005117652861404246,-0.7748124351160056,0.23549591208799986,0.28683257409527646,-0.6166802278518315,-0.2731292183450513,-0.14213567758880555,-0.6032569532363564,0.39510542640834173,0.548138683595113,-0.2825369800753926,0.9486253593435552,0.8557430204475425,-0.5383546128919443,0.10924453739942108,-0.8168300913373403,0.5904544248641608,-0.10621769483711864,0.6591937420772318,0.23941419476477854,-0.13482584139561687,0.6437028242310711,-0.7694832609539953,0.709343435520814,-0.38208005817126184,-0.6042439781139328,-0.25466875256071264,0.2815451765123245,-0.9463500333191593,0.1843962418678197,0.8520711288335919,0.31074775195330556,0.853975806577807,0.24393462141357883,-0.30887536289456236,-0.6588676881049808,0.9024721903064823,-0.6276823566206327,-0.5696741648606609,0.762796870458194,0.20565355847439526],[0.18178223289293727,-0.7869925835493985,-0.47856926525652077,-0.8987500956358563,0.16857752578999863,0.38476323769856036,0.21806058247263493,-0.1721671812512957,-0.8995376885734525,-0.7349415969327553,0.5629300647602011,-0.08304399770187643,0.6960972399775411,-0.5774847783723962,0.4586678497962686,0.859486581283398,0.04496341267599435,0.3866062346105259,-0.23451058265936808,0.034660774636296576,0.873750831695661,-0.3296774714035222,0.5865962580628008,0.026982945375060963,-0.9249733405817948,0.7266625837788097,-0.8382991395073787,-0.5162467544684461,0.7690068699360562,-0.09465384434486368,-0.8478245505006854,0.18364072662065944,0.4344206618736615,-0.11923281810551972,-0.2719038321282276,0.7342579090491905,0.3762976803659144,0.023920848385688157,0.5027039553478433,-0.8550466460072522,-0.8517703653201448,-0.09494159456004264,-0.6466183360559054,0.1249074264874545,-0.3868511036144912,-0.8431478720762269,-0.3871291268195413,-0.3377444401329045,-0.7783381783025759,0.7716317841552285,0.1571701132839187,-0.4566375411787271,0.569268919303902,0.11711154244373523,-0.7896956331182512,0.23527661839929226,-0.7811666251379838,-0.700831647058967,-0.6186093046325951,-0.1697891776964757,-0.8049523044892712,-0.6211868858437509,0.04289795216718847,-0.5966596460769149,0.21497675750316833,0.1252359548518659,-0.8398273331543881,0.6781498176323333,-0.24040484095743728,0.8149680325664977,-0.46044854853447775,0.037145116630046424,-0.0915748866956411,-0.16218328381177108,0.5618625360014136,0.6388266673434951,-0.3118623429696919,-0.3812477461001543,0.9628614586933896,-0.12028245957549268,0.2801534864803975,-0.6449882194181472,-0.9295079017943106,-0.18817877784913417,-0.03248741724029647,0.2678829824203275,-0.9534288768148896,-0.5509210407741275,0.10695234133833172,-0.5078366500264841,0.6800328430675215,-0.7259648043442356,0.9454181564049157,-0.21412509064775356,0.4260239602465815,-0.6727967934370092,-0.1222582722136146,0.5786950081947415,-0.953885839035388,0.12274306534703895,1.005190395676668,-0.7424141451816505,-0.8866487126626311,0.6369822786250168,0.8529791536870408,0.08737901701206173,0.07018682388379799,0.23440923793270158,-0.3925885436452987,0.5385007230216144,-0.49502015425569296,-0.11260708415988518,-0.713132561544364,0.6795491274823637,0.5287568788396237,0.04708353539211105,-0.6033874795189546,-0.21560792585023103,0.512843924681637,0.30282470338843714,0.8965708927533492,0.5255921248996391,-0.3758909783681851,0.8821200854098269,-0.6402134222656799,-0.8888528016557767,0.2802073033477569,0.004246550218246711,0.8490994339278611,-0.3343090570489117,0.3867440328129715,0.9541480725960422,-0.5066673003748232,0.3552676015839852,0.045813167070560386,0.2238271322941294,-0.7047517707015598,0.4639084549582581,-0.14607048568836722,-0.13680688864840232,-0.5175895830836406,-0.9139802608727345,0.3074825886080982,-0.9214736818443774,0.12394755018133734,0.37662521568217855,-0.5418745267430649,0.8286492974512574,0.9720328459963549,0.5026479407654194,0.3638959583516199,-0.08399120611743345,-0.044199929628449125,0.4444482696443393,-0.323828934497098,0.6485506165190664,-0.5099829435664719,-0.7502501105938522,-0.6521433382269797,-0.5862980583387396,-0.05157824779811082,-0.6483969600889905,-0.7969884695200382,0.12177479526718415,0.12742694393294804,0.44028426349095917,-0.4894232662449505,0.8773829223640606,0.1454967625682495,-0.00996665327470337,-0.4726207804380478,0.6489373115171236,0.31719370818713444,0.4952346787923089,-0.5271376611474574,0.6596841387399996,0.36791386981359914,-0.445506292962039,0.461626575369179,-0.0985957583576565,-0.6121088151757833,1.0202505354802192,0.9955203134083036,0.8342025982641531,0.6556436182169056,-0.49993715665170385,-0.1512157156601065,-0.41993431398764874,-0.16463228686771175,0.05841939515387779,0.596182477121074,-0.17414114872274067,-0.2504307739807805,-0.19994238812229043,0.790972644415798,0.583698466680639,0.07911220472006163,0.13080498954801578,0.09984538873320331,0.029168532566188878,0.6815340813100094,-0.9792921056884161,-0.45093553589114493,0.9412371051732628,-0.1534321498680096,0.17057576086997964,-0.8948704830088424,0.4503061478759535,0.28931879398607274,-0.2226433210629899,-0.4019790387476618,0.2760166403473671,0.8503420403019109,0.45376164747631376,-0.7157262533243938,0.8173889139955927,-0.5721498809678833,0.6552540433830792,0.6612594529124347,-0.9030621110497564,-0.478596811812021,0.40508293277194807,-0.30188060750047097,-0.38885492325709226,-0.9435666928629323,-0.4641171917426084,-0.377874347619532,-0.8177036232832339,-0.14385004335426166,0.9821058327690797,0.3701916371748128,0.5478778032893047,-0.038088321263583205,-0.7326991019297159,0.8878025784135457,-0.08107477399748808,0.48637050421807326,-0.5875862749639705,-0.26063870662463723,0.5274296600121411,0.7332459284411988,0.4119518914365681,0.8197727965013947,-0.42684178832052105,0.2626567345757268,0.9252635394143864,-0.2824840873795212,-0.6572793340388141,-0.03371034941270393,-0.877829607510147,0.8744257120222333,0.05147896967362065,0.4220788252636033,-0.6655776987037519,-0.39294749634914583,-0.7297551747029674,0.5637730355737339,0.04004836026901005,0.33028782062900786,0.11233857652274687,0.8841177613247618,0.22874324497160606,-0.7421285860497824,1.11653158272013,-0.10570054377739348,-0.12107118032315271,-0.4542136616981542,-0.7481296923142791,1.1383525065332643,-0.3876684676148643,-0.16881538857729383,0.8573887908478232,-0.36617367106110216,0.03154076338307043,0.37792106926532953,0.017434622792728,-0.5817042923239253,0.09662067342507227,0.7337268596679493,-0.6165801626789156,-0.11026089436236663,0.3356686881933232,0.2760529985097181,0.28637021524956824,-0.20261202809605722,0.8558766670970233,-0.060208667299755714,-0.28973334633473297,0.6052113613220187,0.359766410963561,0.41044298647539484,-0.48948873106330204,-0.4498533859825016,-0.287072468385101,0.5195176650535805,-0.464471138046486,-0.6260308286410026,-0.7573032579827048,0.24440601580446483,0.28335967801900996,0.4662916460140099,-0.23849200620569103,0.8429815385365462,-0.8287842515111724,-0.40919993932574256,0.02239171216593848,-0.578738506463969,-0.4270923136177755,-0.7877989400939938,-0.30002226822743816,-0.1590044476138262,0.30266862824526736,-0.036183258685794355,-0.5388714206593012,-0.6650718323213117,0.20308710296899887,0.8349439291481642,0.9249359411002898,1.0360909551029678,0.6942426679039427,1.0538363776250603,0.04758997585055954,-0.04991513450017231,0.32241688876667574,-0.158802296573132,-0.048959771313156,-0.29281787734697573,0.471077618147882,0.7895533424767022,0.24190033641673972,0.22197769461044126,0.8254361247092274,-0.7419236321682574,0.16177603284927541,-0.26546697164099015,-0.09735160457677898,-0.7682104256136421,-0.3710388746839994,0.17245542763774113,-0.6340332150096932,-0.8422491756424341,0.2821678480198408,0.9111675145878028,0.4680127119392525,-0.016397729934759235,-0.4900263778325912,0.4958803853587358,0.6925516207827874,-0.12193317560556963,-0.19644319962935214,0.07810932583916752,0.06807307735078533,-0.8195936354489399,0.03020281510031668,-0.21156047008059817,-0.05193882245427856,0.11831187041674233,0.4516801127737828,0.8859774899083365,0.991844968547642,0.245206159430129,0.8479810463800838,0.43324277365895314,0.3140156777170263,-0.7420918486594906,0.6283743175141775,0.8696599155237413,0.17296402422419618,-0.04073771164296881,-0.341355382532813,-0.26797311276155744,-0.1892648425182232,0.5713249307016844,0.1713833401394322,0.94463455546908,0.524816492134252,0.06993611766421949,0.25848610862901034,1.0400813764925294,0.14991991124291246,-0.4780252475002213,0.6075125928271218,-0.5331334397776174,-0.7829393261585033,-0.19371676716086117,-0.8999692183532513,-0.869579839822335,0.044922359656018054,0.3245823260490433,-0.07730037032088646,-0.5989461540294267,0.6735388362849508,0.22226565174450472,-0.43554787774023995,0.31001480035137907,0.8341218014229418,0.07833306800275734,-0.3714720553731372,-0.5214407360687009,0.5538482897042948,0.41295649856115996,0.37011839742596997,0.71687603015328,0.7631966651475176,0.7289021303404503,0.6260252018429496,0.7578268730318884,0.6800814533037505,0.43844453217825435,0.4386115475867516,-0.3729104619321341,0.9594072736368386,0.4998413693996338,-0.6090994602725447,-0.16364582138128894,-0.5728128676525639,0.7398334819987546,-0.9115018587029533,-0.5574481588040467,-0.07971435402360755,0.6694083551862404,0.1664610660681924,0.1767780428829144,-0.2908981719521769,0.162492264804261,-0.11328729661089855,-0.06805741064253469,-0.6770200890709964,0.5088720804933949,-0.6058082350464116,0.4943894045650534,0.6195597613292166,0.34494451420523803,-0.42908719223027947,0.3704709988657001,0.9996466022748429,0.02541413144287285,0.7396719634868468,0.9520858544206243,-0.31258584411603774,-0.3159538224875821,0.6446521149409336,0.31038936531614203,-0.5104492661636689,-0.01785252741616496,-0.46118425245573325,0.09218315449978964,-0.26963170958700344,0.6825373511278466,0.0254580440600723,0.9667697488981644,0.7898541315126186,0.8255413999565193,0.0003776349290287592,0.6668521174465035,0.5017563624670257,-0.7314697470898779,0.1953712872521656,0.1168635502705048,1.1535913275569165,-0.21154121827375336,-0.59979735568328,0.21900878722459174,0.2593598898637959,-0.17134129676746365,0.9814798942945067,-0.3424956713162232,0.8127361826220045,0.4867352046585128,-0.27112997386539306,1.0459045907223588,0.43778106246008713,0.530271349602801,0.5510979382344844,-0.7565627254123878,-0.7429271620674849,0.8356690047991466,0.31225441408755783,-0.2443167768167553,-0.6839025191135841,0.8805188270958668,-0.13994064248486748,-0.5964213281585233,0.864410103440536,-0.5689253882982727,-0.3304763485496567,0.6454316459655689,-0.039020301525297216,0.8434808391115419,0.5995934921904282,0.5756215444562465,0.35098321017846595,-0.6051824189336182,-0.6579148804512039,-0.4403458722667185,-0.815404506632985,-0.7442172786522091,0.08903482630326397,-0.5666298849879928,0.04586729166389144,-0.8266878304074198,0.7234689143439647,0.4859507583700553,0.27125419404653,-0.9730178781790327,0.43422138922095205,-0.8976535671093318,-0.6901426548413787,0.00006833906561842829,0.45538814870158556,-0.3618517555068125,0.8891342251965413,0.5321207783964234,-0.8889800457151357,0.3087597607575663,0.7894000500983229,0.8334064280679382,0.6630350550530113,0.9516008918731128,0.781272899848399,-0.4873475622463645,-0.6784821463735821,0.6279179780099782,0.29353021924649536,0.7991734529245268,-0.5527043024472055,-0.5205382491452248,0.7103744190947927,-0.5977243913040649,0.9962194562971323,-0.03089305049362899,0.05752954443787043,0.6247475045835854,0.9254629770538072,-0.540987108151912,0.008068123764833044,-0.6866477506770633,-0.33461772817056545,-0.35290959473637395,-0.3714587693344006,0.5998364760163548,0.22338921365556544,0.8885286727747028,0.7663803667451365,0.7614550240743857,0.6600640609124757,-0.6003658496602278,0.6440826343814053,-0.6267237986439392,-0.1433943805564492,0.029588817724438395,0.1682539964529846,0.1270274323259089,0.92132667324358,-0.255382087289457,0.7607259907405125,-0.31424868717736104,-0.3394416425322715,-0.8420422495434371,-0.5849929866801837,0.5563655551796021,-0.5757607780071073,0.3848071282355094,-0.06821364077769564,0.015165418868401318,-0.9462155229853315,-0.03411740505813176,0.5144516002239613,-0.7706989153419694,0.36620183367528997,0.620203421228102,0.5863022523790028,-0.46259077589352554,-0.10263510915897948,-0.3544086438355532,0.8296105718480851,-0.14147684527442983,0.6169807935406973,0.5526500167735834,1.0201248935094345,-0.3346413054198049,0.5584784623612096,-0.35366341687174735,-0.43858763164382647,-0.9193319904691796,-0.7721858750434767,-0.870570267763958,-0.6101449291222916,-0.5904247575703205,-0.33148656764833045,0.27614310690551397,0.9745716095731619,0.7109115057210621,-0.9613085065666945,0.3803368608065725,1.0923747872193221,0.17049203666569046,0.8151465317893969,-0.5201209282008509,0.4289163565475044,1.0263745111332336,-0.29721595684222285,0.4008688611827414,1.1161184898747416,0.6168601680741748,-0.7922241640020652,1.0114273312380804,0.19850727905200202,-0.01767810052252639,-0.2645128596694524,0.8813735309060036,-0.09122398930676007,0.04231733549977139,0.5733535829524329,0.16014842282483166,-0.37751837444742203,-0.5676868871636798,-0.8528347400662032,-0.4778880151657877,-0.8538264585391081,-0.15239333949555509,0.24913832538187172,-0.41311510565492593,-0.3671382422468005,-0.3912928990133016,-0.5520332080616888,0.7577487565335356,-0.051584049006225284,0.7418698614404152,0.16416707529082128,0.07187288271178864,-0.369133061627349,0.6526676916871657,-0.6776304377115624,0.1756164740975838,0.8832543064920975,0.6071683868823728,-0.8004012452929233,0.15821411396611262,0.7352542567864764,-0.43944567105626997,0.789184021089437,-0.10213111074932743,0.4160405572075294,0.9294946131555879,0.8231784372419855,0.7195331412345626,0.687523548572974,-0.6665297625710432,-0.7310190707349855,-0.48259904524646496,0.974141665990254,-0.0894342510406831,-0.46705019445175416,0.051218022133397864,0.3212385746381289,-0.1028144853864705,-0.32966956621254484,-0.7259106729603765,0.0808308018390118,0.6434793770195544,0.7419955198432232,0.37747700351951,-0.8747546194370789,0.15041038634977583,-0.16364466338702818,0.48492650079002964,-0.5519878697671802,0.5494049960166301,-0.688602047437843,0.38028924828050026,-0.7197288134123319,-0.39365649106355494,0.24574831478477832,-0.08641519299452448,0.9682870073894662,0.8731365004383088,0.9631731373832295,0.49006193968462575,-0.39598567982245814,0.01658221547676691,-0.36347090129279264,-0.12050967167731082,0.742940397311466,-0.1724120424624629,-0.7054474295785859,0.08013142437662267,-0.45161957117507423,-0.4332501913019086,-0.18168182131707147,-0.4389873311219506,0.6931923071668615,0.21838055301268808,0.7528435193371005,0.2189755930629503,0.5674304731174159,-0.5253840800182481,-0.788268980192528,-0.23791063761275572,-0.8178494827516931,-0.21970542512064695,-0.8807527688441621,-0.859677778652421,-0.6347714004844238,0.7260440029387077,-0.35127339965504917,0.043742183631187134,0.05510354987960957,-0.4537519090959008,0.5749944080041806,0.7652030488968513,-0.20841516552830566,0.81269808453931,0.07699713946355775,0.8953582815964826,-0.852530413114507,0.07305990373858097,0.4701461647255169,0.47546344458333323,-0.07102866244799969,-0.7455362665030199,0.27208794178018736,0.9644917831607833,0.9345079931822756,0.06053826613311539,-0.8544964223668731,0.26977479087383394,0.7599358201571516,0.0995690536865379,-0.3301751305844014,-0.7308390455105545,0.5003519656228602,0.18292249323214255,0.8859092623991179,0.19325791568342376,-0.5436456731636562,0.6493331255904895,-0.7260299933668111,-0.657596055804454,0.2385215863812573,-0.41210537772192174,0.7109487227088416,-0.5213455401931919,-0.40710639428701667,-0.7943953474282333,0.1992960522957679,0.5160278106855098,-0.5522226341847952,0.7839867665940815,-0.30420757651089847,-0.4577070812415881,0.7824763984696808,0.6107095134982583,0.4321221196689282,0.6605892754579985,0.316782712918658,0.533501510325429,0.17645664202871458,-0.26228140165547176,-0.21463976071967839,0.7092753460852924,-0.5261805763269516,-0.7861115675293483,-0.6033529837363287,0.05898187497413935,0.35864096535279477,-0.10151979556345365,0.1412638548844809,-0.5630361018111459,0.9683096794145357,-0.8151297955627507,0.6816407540406121,-0.9335049667351738,-0.972566847555353,-0.892868257105263,0.3366447411590861,-0.41406836282990683,-0.5018665186790395,0.695467596081212,0.20400438938125948,-0.7674268563228448,0.658397408178294,0.8841487766394673,-0.49969875001078545],[0.9474308152007294,0.007168341197156591,0.25915648065602404,-0.5269270406615929,-0.12094986781095596,0.6937046357471228,-0.9871471258584577,0.4851241110540625,-0.10093365070156146,-0.7451154488259286,-0.6329459207425752,0.49053828519644593,-0.02275030252145775,0.7497663991701687,0.3333563409731369,0.6157856193220538,-0.20643000441397197,0.5275098546583539,-0.5040006206279923,0.22195334004351785,-0.921150383585472,0.5893138666442852,-0.4647552939886175,0.002866625728835892,-0.08797640342142876,0.29270480918009034,-0.8174849657288943,0.5523882050649265,-0.9255996445522974,0.6220752541576315,0.7975709725805757,-0.7714184738298637,0.179632351475446,-0.6842640869884237,0.6674186546007839,-0.2818010042026876,-0.2969631314609534,0.6003977538242694,-0.2665647763350723,-0.90711581854396,-0.4356444203799184,-0.6496323106998575,0.6265839522341152,-0.44598323367486636,0.4193708541446719,0.14743264391523925,-0.8361697530045032,-0.9160651739461038,0.33680355696244146,0.8002961717579014,-0.28938179936172254,-0.9883488426762794,-0.4770382523748036,-0.24619506375423583,0.2826147062062998,0.8403413658476002,-0.26586265585973234,-0.18163723748196436,-0.6432887715432223,0.5917002467143313,0.9754845199251325,-0.6540479730491938,0.7989848304869812,0.0297593780027129,-0.41952341924875497,-0.15403093318646546,0.12953213105184638,0.2778511698495592,0.896782143090003,-0.9063376072470806,-0.4800304287250822,-0.6984615651166562,-0.3322323050135622,0.4995817308641889,-0.6006842773116778,0.9802819164893062,-0.4661389772264246,-0.6881384975739776,-0.8819691674340173,-0.8968682753429809,0.6271276470755047,0.22834815879898648,0.16577629989327236,0.033200872671034665,-0.9723517933622539,0.660391700389267,0.41732066433702697,-0.6191828864337863,0.522068819407457,-0.9012117840264456,0.5212871612201138,-0.6591885009917982,0.04932400763316615,-0.4184876698706328,-0.6826222191534383,-0.7208055128975874,-0.05011756401346202,0.42834085964365265,-0.012800367143602031,0.35395386014763547,0.5262030590923035,0.08300807792033,1.0174319672350858,0.5535190494551451,-0.46100888657477973,-0.8728509372052712,-0.6484440186281211,-0.3850328217716459,0.7025887530674013,0.37623161571536307,0.7138420847869574,0.5073385821711554,0.3674125046536769,0.15288897440369564,0.7728327553083161,-0.24998049424785146,0.09804101144442239,-0.82770204840326,-0.5726846376458535,0.9109497722845173,0.08425204596501931,-0.3009747392093033,-0.5645588464180392,-0.22973817724915793,0.9471127089583417,0.8315483134841178,0.3468471041660431,0.929504715611632,-0.8696604844708329,0.6007417988735391,1.0445735054414385,-0.08899666948547273,0.41977128505232547,0.6263236870483465,0.7591253072484826,0.44500319221791584,0.5209564706712179,-0.40299779450997686,0.5737679536455643,0.03788349551809053,0.30245934935312047,-0.9986075515263213,0.48947555430497053,-0.3198860118925934,-0.33483797868260745,-0.9488541159892012,-0.6039968606105458,0.16880732722594868,-0.511901115757814,-0.49275726880973136,0.9683984427663933,0.6186296938085172,0.6026914229552023,-0.5702893924420286,-0.5456553846136578,0.9169747930128104,0.35722325879266936,-0.5722696182602804,-0.5439500495548737,0.5748432554196419,0.4605223777879934,-0.1012309628867555,0.2256550919897184,-0.6353983098502133,-0.37776915069317046,0.4802707471048343,0.737246331869304,0.7807507784074315,0.9708933066751364,-0.17601162889853103,-0.27975063484455487,0.9899998660739455,-0.15009618480339063,-0.5277324408617354,0.6672610670038431,-0.49245023131910953,-0.5454371997641435,-0.5704228731520061,-0.8206868924606048,-0.6092987389939105,-0.23725608086940755,0.8183381899847764,0.6005078489217456,0.8878388253052789,-0.5836937038465544,-0.33722477701459136,-0.6792379449237136,-0.723090968910349,0.2805972105093894,-0.02190772596906168,0.9345616632311456,-0.3277087002380854,0.0281411169206396,-0.16996367401040147,-0.442668996869379,-0.37687143161581144,0.2153158471850664,0.5885781135357538,0.28330295437666375,0.9908180347584024,0.03318991649529921,0.7892316643021088,0.14786014176747495,-0.821362137694964,-0.43314380769428024,0.13460993512249197,1.0939358108030475,1.1487102055792087,-0.6326079444156723,-0.6926093637082871,0.6244755770713153,-0.14504076548740022,0.11783483038014825,0.9110589750560826,0.8454104409956346,0.6594322922636527,0.5084309199408161,1.0264759852301053,-0.0076405054146359,-0.4830975959777359,0.0833958505710232,-0.9379350486027865,0.5517265685398265,-0.5703257590420554,-0.09243324239580258,0.9550918909911463,-0.5107343687019521,-0.6797957601149959,-0.5698189112310522,0.675575810683186,0.5225281999801216,-0.7979267951147861,0.6825606322148545,0.8336550028483443,-0.4743218375501324,-0.703575003463362,0.7201840617806469,1.204230436255134,0.7088216268847747,0.8680274364606543,0.11221220425568279,0.9192001699126052,-0.6943181718556698,-0.27459491513500295,-0.23563201345700494,-0.7095876709614392,0.11781893880240965,0.9940380051550269,0.29845763081413107,0.6883801314270944,-0.4479809735258726,0.18644521549940177,-0.8162780000581318,0.5761827713683295,0.43124028652869445,-0.18091946526268043,-0.823427114250833,0.8166114770022299,-0.6764076150391867,-0.6604291835474694,0.8346698350557256,-0.2571484602864427,-0.7062977861777807,-0.12718486867189807,0.5935285986417078,-0.4073008917149984,0.08408902290127099,0.8480428720859744,0.11294916427575011,-0.5978407331878732,0.603624638315624,-0.2200036771916995,-0.4418691907904836,-0.3378535439373836,-0.8950730001709793,0.8136961249643249,0.806102854949004,-0.7594561168101586,-0.579525449839359,-0.8015429826384116,0.3872993415411882,0.2332430211294326,-0.3849339759024851,-0.5284120447035002,0.9795753824669083,-0.24561396864332855,-0.48366086407715253,-0.19708162834509968,0.5059278127520528,0.547392317346444,-0.07746264692252923,1.1498313642614808,0.8869368603278605,0.4068858815125379,1.0022342474854578,-0.5745333685966598,1.0622786087689973,0.007548119806255451,1.2630074942424458,1.1332241846675302,0.2110943463864362,-0.6009082510229629,0.3272641506820638,-0.007977978680630538,-0.5894856028038727,0.31809955377681653,0.5029208514498227,-0.15223615122361323,0.7145269158062364,-0.8167559419205519,-0.8265352666914694,0.8745102330721326,0.32634977415895644,-0.7848057493250349,0.19179066820734103,0.23009293523240937,-0.0035861248976999495,0.13351211008699898,-0.03280824049872894,0.14639569606409303,0.30299180736299575,-0.43991112966620666,0.38442023622879895,1.102617980418848,-0.19364126491081357,-0.5469126320783827,0.5993890918205965,0.12102041783199638,-0.6669742125334442,-0.3600655362604594,0.11479202290767004,-0.21404859933561587,-0.014463902109782779,-0.6952771424362079,-0.7112782107466121,-0.5532431184750595,0.8016769978575718,-0.2719626185719933,0.2084363593716144,-0.9428289098087848,-0.16561410274179458,0.6793236408828285,0.7631391504715148,0.8221738229016531,0.6882020687028054,0.9969433757201348,-0.4349568785210597,0.4421326148828951,-0.4251830072278076,0.7485779386846032,1.0169370565074256,-0.12512564702878887,0.642412056682227,0.1473022564725928,0.3770111680032083,0.9302544434163962,0.4286758418936973,0.5483941492818408,0.4334065574039587,0.9158658132518014,-0.304714218742551,0.35343483274942233,0.719405073568893,0.24351482674833713,0.6279146949582287,0.09956867252433288,0.1579542103396217,-0.06506690025739192,0.1678717144632218,0.006932787359921183,0.7985233873309405,-0.35227298825176384,0.5960308790446925,0.40436214971340406,0.019419711962322988,0.6725468343389588,-0.13490694240453108,0.6304013662619141,-0.44806126750569936,-0.6447757130728404,0.7410737052035472,0.8962043767503385,-0.3852100968502352,0.6709321975614766,0.9474310462048816,0.00942718383892943,0.06347310407601277,-0.3874806629287652,0.9255250238353441,-0.5948679719776787,-0.24230828023405288,-0.02090482381035619,-0.737517236050863,0.5394641734553876,0.9527251621107187,-0.803923319547734,-0.022141764573934276,-0.4230432920369794,0.43964297950038544,0.06259903362646102,0.330886851599983,1.0361753184390041,0.03396696041238769,0.33250209175072065,0.0637686087467279,0.6410348350748215,0.0216810246817259,0.5692864875817965,0.23881123934435738,-0.5109968808266462,0.5986210976847139,0.6872463833369739,0.9999808789894672,0.9959890979180411,0.7785536940250112,-0.8296239253236495,-0.19111761574653335,-0.7022571542979177,0.6762227247841125,-0.25764121929135564,0.04209932977230028,-0.7872725855187614,-0.38690992152137793,-0.2201278701226482,0.726007013937983,0.7383015118592864,0.3806003253060666,0.5554285981936063,0.6240571883160176,0.25049602934076376,-0.45984452748297966,-0.5993135295316514,-0.3758157330760986,-0.49093561872446945,0.003834363525693797,1.3694134586105795,0.5261168253239858,-0.3363666216790651,0.19874567304094043,-0.16101690131998142,0.7372273609837923,0.8750579301705977,0.3155877587263771,-0.18858271757440934,0.8048023068145082,-0.9085587906543584,-0.40489482173980446,0.033138888303364915,-0.4222950051873854,-0.7738996155151081,0.6026177724966408,-0.43279301344575966,0.09060579275617237,0.9509264607583797,-0.5421898476957657,-0.6328813582546925,0.5792580101919023,0.19914424505412617,-0.35568879596077857,0.6168252520869475,0.90736464433857,0.15177828223417522,-0.36289070375762095,0.12490223753309415,-0.4649628583488877,0.9898070977587169,0.31793448980582567,0.4445717931415174,1.062349456458035,0.8880606226394477,0.35954398864404935,-0.40721365473312277,-0.8901889276313077,-0.09877696211161156,-0.3240139208791815,-0.11784686959100252,-0.2289733071563269,-0.38306810813111825,0.6635319954115699,0.609361094684995,-0.8684656719661827,-0.8414492559227411,0.7179163933060623,-0.784684411228624,-0.1438202642315894,-0.38477717536317085,-0.6991774973456478,0.4686334852102136,0.7116196518750055,-0.1350460304111876,-0.15189480397427774,1.1179909301156492,-0.5356618629495228,-0.6058603522825134,0.5412613386132155,0.6524789179031131,-0.26278392277752133,0.5803786088172682,-0.2869916099557159,-0.572888977887509,0.7968631282780758,1.0070005161377098,-0.9821535124049047,-0.24851182983593964,0.6258405809503322,0.08375481544151514,0.21935680758277853,0.40546810706236824,-0.363339298803924,-0.718273840764457,-0.3944709180649082,0.9416056978237252,-0.21279663165774584,0.2375031288334102,0.1808176360385726,-0.7340718160784168,0.010072764882706389,0.1268017502775252,0.4029104965982676,0.5689183857540805,0.5241138261731624,-0.5422745677857932,0.9331963385495745,0.07719458878595305,-0.1917326861219903,-0.5716777152123934,-0.5339786319662738,-0.8016921682229625,-0.12958658948229584,-0.3990795235106046,-0.70586900310814,0.886985357138812,-0.6095881704000212,-0.4075950340066484,-0.7632095763031282,-0.07994929762961349,0.8688335390338038,-0.10999210787431057,0.07886434796219433,-0.5742897970428933,0.5150326264437615,0.17713765263306508,-0.052773365932863955,-0.13824984674677113,0.8480676216172124,-0.45294991014241165,0.7780684046286376,-0.24504422738942855,1.1953509504916222,-0.19519614428684387,-0.6268885105987154,1.1483681849313632,0.8687784702494755,0.596143446354747,-0.12030701614053868,-0.14902440699328326,-0.8084038996716654,-0.8111564109333744,-0.1478119882155452,-0.4251663600784345,0.7065276165532794,0.37383346306941856,-0.7481932029917395,0.6433686208888224,0.2678226805198619,0.535325468349075,-0.42469707216336583,0.1732419102711468,0.9283712614710432,-0.5557280804427589,0.25713509451303934,0.1546179214137085,-0.03347649585114472,0.8015396916755314,-0.2322708130381075,0.41201338741335286,-0.6713849815764382,0.8542198974214622,0.24962739846506612,1.0204434569292131,0.0427208119190964,0.8115804783890371,0.4284297042416875,0.7570380231804653,-0.7322629741798286,-0.6610296837413004,-0.48348901009584444,-0.29515766766662743,-0.60409884362801,0.41260497008469416,0.5488955364958471,0.6798521941490848,-0.7117633365820594,-0.6623223469657711,0.883206281315186,-0.17163129492196877,0.36400592865441644,-0.3787440638542413,0.39203009107927156,0.44292462912479097,1.091145385972722,-0.43027029262042366,-0.12914865770633155,0.10275076283078287,-0.7081150552749622,-0.3672154562745243,0.47509139265042,-0.6803870970398851,-0.7570152235090093,0.993712676707845,-0.5534254102883688,-0.26202752640406834,-0.2923518580937951,-0.2706585928699589,0.6697227089729989,0.8037861069394412,0.09337005257156233,-0.059248904838450835,-0.7356911150684282,0.9230468266809488,-0.5417718200064883,-0.18138479349376652,-0.2387801792646145,0.7836562276572877,-0.20800126779142658,1.0594812728549095,0.7797579674996347,0.42115628471147415,-0.4676635370010854,1.0665237557824203,-0.6354785744436477,-0.14039312829885084,-0.13758044773896153,0.8587516056658566,0.6170025668395587,0.6995557416465142,-0.7229211760046663,0.733667218585121,0.021354042924571104,-0.1856206863234424,0.05913829452474112,-0.9493377914769255,0.16578621455215706,0.8643115200670586,0.3059552241359551,-0.4598896387447271,-0.27739685985287643,-0.10855235451302986,0.6405390477551882,-0.8246588595078941,-0.4994186057613409,-0.8821170887834511,0.7743983199229292,0.8083479538084014,-0.6308397610332932,0.24447197029170323,-0.8515919530831921,-0.009626177054124945,0.5286505304660891,-0.17889672433688683,0.06732770205225742,1.007705760355231,0.7612493497583079,-0.7603518031981454,0.9111028117407172,-0.36790774076281313,-0.5282440485683172,-0.1030871431413928,-0.7490427009446864,-0.26350603445720633,0.37298034631089455,0.33054905829491377,0.3206299061042934,0.01680972539830128,0.12641438329336382,0.22687637572271108,-0.5313344992506281,-0.5474166073669895,-0.48118903141629743,0.8831800848296428,0.1649323312755633,0.6545078248183669,-0.3692368245487466,0.5354568171479103,0.2371799253082427,-0.271033148601647,-0.011666061010919056,0.544321638257716,-0.02163796664045602,-0.11293177911334078,0.31255125735700395,-0.8972987456472139,-0.48303846504116693,-0.24916110090457996,0.19324072158163003,-0.5605959949016861,0.6756811190604045,0.11342131504492582,-0.7985315025382286,0.6892489773606476,-0.8259566584907727,-0.3645665848693431,0.4588553448016388,0.16415150945674561,0.616540710851242,-0.22354981785712275,0.129237761003576,-0.32221128566099827,0.8486021954896683,-0.4487803993845376,0.16656889319430118,-0.4038683671112148,-0.5501959334293484,0.5283225258348517,0.31850925773649935,0.6750700697620711,-0.9554454760304595,-0.05229211861130834,-0.569560002621864,0.13405348074100037,0.0005058228217141539,-0.9918145594678602,-0.9547517142986893,-0.9824014771396424,0.4422384099162948,0.386758069679841,-0.7368726092882715,0.966939686745143,0.30018668587841324,0.6791587871486224,-0.8045618405268311,-0.16952711582210714,-0.6412280762346932,0.24407681463901368,0.22981776414562502,0.16763016774690107,0.8343785778669991,0.5314811172085305,0.8383525854958422,-0.19529802633316326,-0.4118137946549781,-0.7604249559980254,0.337793902442504,-0.8354406145809719,0.7646541139214817,-0.6986898786550764,0.6961291924326143,0.787751830262881,0.932737854522333,0.2515585223654356,0.5975080420917493,0.05560963146822026,0.44679532695071456,0.0793006426938043,-0.09197314425631986,0.3236215222106371,-0.524443920463656,-0.5324551376081759,0.9151021374519581,-0.2323768092496341,-0.47413251822510766,-0.2500550687972469,-0.1802956881746866,-0.08722570536820416,-0.5230820369617019,-0.7978424490782295,-0.17052890700602494,-0.5853943151348977,0.8677675290932005,-0.9303323053900594,-0.8849364441552979,0.5493534233678871,0.319821382655837,0.3790300030478228,0.3128783241671345,0.4361572282043324,-0.7334754972027933,0.05331621881466086,0.12252916289002955,-0.13503376836584816,-0.3409498175688397,-0.684788656437642,-0.9043062913573734,-0.12317664571737708],[-0.33764837582489626,-0.14749626895962709,-0.20800262791260216,-0.9938172388775866,0.5157021266195607,0.5183920920474268,0.5325614495814148,-0.7073132725982076,0.6014992874631584,0.1197324313652246,-0.7602324649045133,0.9380115020317457,0.613760370347498,0.01790142700603437,0.6601230318883795,-0.5379594924084601,0.24634073051393246,0.1879694520797477,0.5285329066362341,-0.057635498009669384,0.3194072171003106,0.7454711752461438,-0.6728598061934141,0.7140210510798382,0.21839369777513262,0.640306997169672,-0.7572480828343291,-0.1117271956359629,0.8838980606283071,0.0800842860971629,-0.06061275147514067,-0.9715989038638879,-0.5461989632174483,0.7811756449747467,-0.33201497699056576,0.6536057845633136,0.1515117744658521,0.7339687951503463,-0.16755307258754656,0.15174343972333995,-0.9076450572809116,0.21030146213436796,-0.7518276702453075,0.48120980350887305,-0.9012955453183835,-0.39473344073667,-0.589366761643824,-0.9855857850637747,0.7529478639546037,0.9501251818102537,-0.14742821618456686,0.280611258082039,-0.14438144485517834,0.47393957677223586,0.8440688058010231,0.4863769823462438,0.8104292863930591,0.9396211263890426,0.8061963042391967,0.35703115902505883,-0.8579371490795171,0.5588048542977604,-0.09597390251209265,0.05498182374025709,-0.06962125833046347,-0.34731186862459934,-0.43313922820370876,0.532378318365672,0.8890929706102749,0.43773791161571385,0.2507199251730993,-0.4938250661665613,1.1230167100168542,0.533059982380059,0.5370106656216339,-0.47732076026825226,0.033997229065427986,-0.5003207174993043,-0.400584191635579,-0.7056567573237253,0.05563665116383323,0.4908510709597303,0.8627336658750702,-0.4794919248744627,0.49694275695302625,-0.6837536135635554,-0.7465417964768879,0.4298375124626416,0.348522505349645,-0.6057626019363612,0.3812997811224672,0.8006180889064849,0.5470479598875349,-0.3539225784794008,-0.02214638272150386,-0.22688169250282883,-0.5337589100629215,-0.3721118084381824,-0.42931191105002786,-0.2853100239856654,0.9898282243082329,-0.1635720483429764,1.4737951319647604,0.9682745271718949,0.5191694853853946,1.1231349954798906,1.5500073937017373,-0.31880215528754363,0.836859737870826,0.6599128374336594,-0.5939911061939198,0.6845708935563599,0.09422219418977718,0.02138457502832184,-0.24439651726474945,-0.019332867084718916,-0.12234408176528906,-0.1620166324340362,-0.9392002714866546,-0.699973608758889,0.5627907029225868,-0.8983100526528318,-0.21574003164176775,-1.841058291971864,-1.8303211885924047,-1.6780651790982273,-0.8472490031699339,-0.682945454290218,-0.559396914370311,0.05638369675472446,-0.01953817415687715,0.14662404186021064,1.0404657444815792,0.23727079956022312,0.2635129353358211,0.4410195747972128,0.9826266706599953,-0.6919291817066603,0.24085774359116116,0.1788697693572438,0.9774714610457398,0.16387429635274864,-0.8539928678127454,0.4031000334051994,-0.9589526094326589,-0.7473108189541893,-0.2904411169565809,0.5967869730567645,-1.1334478534763488,0.09028520405870678,-0.5914503160174354,-0.9454135949330026,-1.2857332699443975,-0.7009701048980851,-0.3708557425701496,-1.5441471195587984,-0.20908558530192087,0.1169946191666714,-0.03674679172963945,1.1748534952829797,0.3204542383744563,0.252596330707995,-0.2768745616524915,0.6075460599521157,0.6583499571303224,-0.665182086817934,0.2134013612292106,-0.2486081802123202,-0.49501876418819757,-0.5309957142803909,-0.7876800911846278,0.6752828545604792,0.4999182810417765,-0.12249084167432503,-0.09062357697666698,-0.010828871674855462,0.6359371917767097,-0.667321667648723,-1.0261328307797377,-0.5304074954976994,-1.1893027786246224,-1.9516689415580843,-1.4547823613569504,-1.0380060815846495,-0.9359978477420308,-0.9426689929628977,-0.2769841677422603,-0.3823567592644844,-0.4262175349217632,-0.15305953802312802,0.5922399150888763,-0.19369052170993134,0.29049727220724647,-0.26142925039608195,-0.6832104379624285,-0.16471090471683927,-0.6266156135817152,-0.5929925861314471,0.6398560520062595,-0.27973530675141517,-0.9985560824219026,-0.6328057689238789,-0.198862871898462,-0.7655199393876856,-0.010559197010080039,-0.3664900725851748,-1.4042360328827543,-0.834798225671293,-1.0656694775998017,-1.7709017151591853,-1.6365698846828145,-2.037492683189971,-2.2886587791733284,-0.7359210570941355,-0.6199915221574396,-0.2978073647707719,-0.8410092118624699,-0.24729574050167913,-0.08875157531315087,0.08054694355085779,-0.34666973211489205,-0.7735778603732125,-0.5800660504554287,0.6706604403028602,0.6414662010659703,-0.48509613659911766,-0.10355690547566528,0.5180670013218083,-0.7198379215375529,0.645492253340515,-0.19493574641473493,-0.4304531118122642,-0.3371670983616549,-0.6797588927887618,-0.8184303609816583,-1.3503093406593323,-0.8936648918867881,-1.7768848490869051,-1.95318482869042,-2.3615622053837506,-1.825137615170145,-1.1860287592834495,-0.835009945314116,-1.5572617734935985,-0.3921061518622053,-1.1596549202179371,-0.6996058143947783,-0.49196643195857825,-1.7180806236356956,-0.6003304303417056,-0.9329713838724398,-0.5166328113862058,-0.1289920568785989,-0.8539495046404877,-0.14645127479870115,0.7937956443415233,-0.3636360334360826,-0.5221441195618446,-0.6490267652846642,-0.7182620659553672,-0.8122473788295185,-0.7467154319770035,-0.5877569568352491,-0.9334239907942298,-0.42631503968668205,-1.1236877405789945,-1.788016150088495,-1.6768305512251371,-0.7970223825931348,-1.6596247276835494,-0.4632703607848298,-1.3004503328916275,-1.1277013922119075,-0.8997444862393854,-1.6596502900091614,-1.7652543152791482,-2.197522498470566,-1.4617122796912132,0.8309450224347811,-0.16699359257428062,-0.17424379715995925,-0.13510402358953208,-0.38836757169872593,-0.9484049735633622,-0.6284398514785915,0.2987908865622543,-0.10360654844848857,-0.14153177181943297,0.23397203504597583,-0.032725129337741375,-0.6343385862512401,-0.15410000546690453,-0.02485188543730751,-0.5382179319274324,-0.3021716852949538,-0.41949678017139297,-1.2010978896036892,-1.194346410228234,-1.1277247015490814,-0.8873684684379424,-2.1187171597736945,-1.3765413117398109,-0.48155772916688466,-0.34957975291038346,-0.22481834992803393,-0.21565456003219788,-0.8858387853195965,0.1104026376520002,-0.8643370751662222,0.05310908682154905,-0.9492630086000278,-0.622462378678044,-0.7496531502935238,-0.4616300931511484,-0.17041256344461825,-0.7434141994159059,-0.4384912691445477,0.3381535777539742,-0.3570544884258307,0.3882214855928424,0.14563197334172504,0.03373353057175783,-0.2992603294988221,-0.37780989117305797,-0.08081738748503152,-0.022874491744763296,-0.6344824292046709,-0.24704222933864184,-0.3673327297541913,-0.31987277584549256,-0.39911114222595334,-1.3283196615902852,-1.4346208539114875,0.2096411679299353,-0.5467178249095342,0.8576132463242578,0.5837804236380242,0.35583596117365024,0.11959657447291647,-0.5203095518753149,0.006913150552551929,-0.433976690967573,0.5804825919679564,0.0037417903705705487,0.8627038782129579,0.9907830817540848,0.458377335929127,0.9271030792170771,1.56105996939307,0.015899037272689945,-0.5471819861851023,-0.21254861352499752,0.8272078271545478,0.42956880152285254,-0.5134059038249394,-0.7683401678726979,-0.49803485876210907,-0.2579318918026129,-0.20796063293033087,0.9421465474242074,0.6302381044972069,-0.8769657245146457,0.31285745472333887,-0.9863547423537239,-0.2521715677889692,0.40355253436343963,0.6508397916512488,0.4190828696598476,-0.8737857373435981,-0.7109334160582993,0.02155270871314258,-0.045318846954076134,1.0609462231409483,1.0843389600778235,1.2355969595490568,1.907552662632104,1.1398119521699501,0.5670501205442973,-0.8648655804032309,0.008189878213991381,-0.016817913980788666,0.3006010341286362,-0.17782759419488442,-0.475085419843812,-0.13215842896047147,1.5101718373132087,1.1492657383709022,1.0637847853005333,0.41439134367288527,0.05178589550062633,-0.2648380283438958,0.6548522950954794,-0.02242593482956792,-0.7548098646900404,-0.45028790617048864,0.51324273835847,0.4321567549020677,0.1325305826821116,0.8295273343873706,1.0936122842269536,0.8056808601998429,1.0943621388083702,1.2148088573033984,1.5511186604696707,0.46072062050322854,0.39614686285447753,0.21885720452209748,0.2171570185123047,0.16670995052612328,1.030196586953674,-0.9493268972114557,0.5656257471688949,0.7110933106749026,0.04856826470048601,1.556116011555391,0.8761969903401152,0.691592788949579,0.5303060823460081,0.12520721094376489,0.6386798307940293,-0.26824797147291524,0.9534845506976818,0.9579184377385682,0.009309591912126134,-0.917947096303178,1.1663740853151492,1.3411212542334967,0.9481625558929894,1.2269280719191975,0.2777887508932282,0.5758221881872828,0.6161327126323682,0.5661831503421608,0.21782765424087575,0.402032215222627,0.7645924336364213,0.25275311189255034,0.4887799442067857,0.9323831773887313,0.06224734583956664,1.198646316709351,0.6140984659312788,1.5905509812240424,0.5100345021483715,0.9839392248697605,0.2738526032350074,-0.24871313156611882,-0.5411178898300476,-0.06312553838344007,0.3525497920199039,0.02085184378369758,0.22982583952679578,0.1202767585793956,0.6511872676802921,0.721829585196139,0.7664312421938722,0.027991345584228243,0.5600394727884309,1.0307407987686743,0.22295954138940505,0.06645577914373893,1.0764435013151896,1.2863655010150532,1.1623139170157772,0.3807644055569371,0.620704098448194,0.1721471324261405,-0.07487297178305095,0.6526651194615924,0.6204016211354352,0.3904284471267633,-0.3676534687022445,0.5425582677553317,-0.17887302524991355,-0.3795938967916487,0.4060723268830482,0.3436702825587168,0.6290541811891059,-0.3192729181595356,0.5591568040040711,-0.4584189380900766,-0.8264242359863754,0.5922155425469976,0.5368256404663312,1.3325413794559366,0.7783629661445436,-0.06070961638513474,0.8179972458953334,-0.14795146528939712,1.1814301604686925,1.5949073771309663,1.808822316861742,-0.06986577980275502,0.21308429046754537,0.31034319953836387,0.45354830094125886,0.6075250843775117,-0.6438001760398553,0.8053758352071844,-0.7135016246880015,0.4776604090319731,-0.20265132645369932,0.5303069984919065,0.6534920338805086,-0.9043645647379837,-0.047294122296090355,-0.47776249723115327,-0.3305869458189566,-0.9447496864069506,-1.0830767018139547,-1.2866907076774161,0.6885244187829928,0.7484436361122051,1.341386710490749,0.8422824229995417,0.3563281575757585,0.894083096174907,1.3471437456691353,0.2695764699433103,-0.005719648697601521,0.3585789262241571,0.8245712258567988,-0.6504036722598419,0.06565766091998021,-0.7951238229552398,-0.11330899447256432,-1.0805199038016118,0.48940067263662856,-1.3352929001239109,-0.32291499391238787,-0.7748994435100252,0.24102454792433145,-0.004349604205024335,0.39827715061317975,-0.6761731674430771,-0.9526437910032707,-1.3047249208521055,-1.4513135979276284,-1.064112142679004,-0.8096459623145333,-0.2549001641547316,-0.06101013200809165,0.2756087772513576,0.9664593545655756,0.47979776608369346,0.9086570251148663,1.2825914767071216,0.43096674630066667,-0.2624596591729939,0.19957601431127808,0.5589045618158277,-0.27581521777464324,0.41578429423927493,-0.8366589829173056,0.043948337825757834,-0.9355863256361363,0.4313850723098686,-0.17842433063652333,-0.22031306515357127,-0.5871931246711622,-0.7778144402337179,0.9048041320779072,0.960578620211855,0.6098056509203434,-0.42605475567721707,-0.526553610552754,-1.500650007117564,-0.7807850899658856,-1.5160548339712756,-0.7849572385897855,0.1265343139913765,0.6875772887153734,0.7934673782789194,1.0840406687275241,0.6877646653256552,0.4801737515727452,1.4552097732992262,0.6235535251956469,0.49407473419647846,-0.7768096605104391,-0.07972798176712831,-0.798488777725434,-0.5917161715366803,-1.3298821285644467,0.28397325366538423,-0.10535629820158432,-0.5103046519915895,-0.8449914817518023,0.6784746453237147,-0.022244105101612743,0.35394560720437096,-0.963966657702143,0.1795416039166467,-0.05443239363869719,-1.6093013192099979,-1.7989140466184832,-0.6312276491875204,-0.9264820657062048,0.5992148319216196,-0.006662106904541072,1.5579844463715977,0.6877363721259623,0.693039620696307,0.46653191093899044,0.2908368824276823,0.2084423635744462,0.6704681490776495,-0.17904896570250411,-1.1410886414939423,-0.20146730844783983,0.009064914640302572,-1.085400555528282,-0.3548808802914884,0.21110885511243063,0.9666053886593182,-0.1468057513668735,-0.48845195163795085,-0.26600561512077076,-0.3625205391476185,0.5489304207719754,-0.6886275508260338,-0.9667309332695949,-1.8595130355567189,-0.9655817203038509,-2.0329055790968407,-1.0613619255104585,-0.5646530393391309,0.30455174654082917,-0.24669819066195017,0.9074541156777648,-0.2654672252090215,0.7900046896826342,0.32504302483468017,-0.482050056708831,-0.7418182074948609,-0.6844377979402997,-0.20183628387869906,0.5948113576936033,0.34883309697837417,-0.7448094628345017,0.3931179622452295,-0.708300528866824,-0.04351037306220806,0.8221243329923676,0.48389530276856685,-0.6311923170508313,0.5745138501721229,-0.2524357548204822,0.9426258388688208,0.10918105731881342,-0.8791222589368654,0.3256071671636006,-1.0459058178233096,-1.6680194687377452,-1.277491927774666,-0.8183994859537705,-2.1327462499307264,-1.1309997797429756,0.969280723075326,-0.935034560997551,-0.2146192712489863,0.24766056995605895,-0.24035712767183748,0.2692632168252843,0.25350805432373064,0.28831814872754263,0.5144722180711105,0.16370200855567357,-0.38744610409432495,0.8229700773358446,0.03780538052483656,0.0937933444051331,-0.44554769408433703,-0.5259869517056122,0.031576529643246365,0.18350145661120038,0.7422081935347512,0.5567725529263747,-0.32889828380281905,-0.46069103447719617,-0.2550663467088168,0.2804509365335347,-0.4536111467946759,-0.4315146293506119,-0.20303004088654278,-0.689695430512287,0.03414840614341798,-0.36745883112674,-0.4222960710490536,-0.10948821353358741,-0.4504593328353506,-0.13450761552680446,-0.19016565110773936,0.8189045803577081,-0.2988293885036927,0.3560582297882525,0.07185539526128365,-0.640406266606008,0.9897385724116023,0.8601840901767352,-0.5673456626688653,0.4922360956071128,0.40919834217233536,0.8515903457088917,0.895603258224763,0.6460046916945216,0.19051663496796023,0.4581794686449697,0.3210019670529437,-1.138997080886446,-0.11445026950956398,-1.224791638713376,-0.5353775368266867,-1.249166013576754,-1.3164446903335425,-1.091761197907975,-0.7778834324423932,-1.8471532428634876,-0.4397667669411548,-0.23211990852671338,-1.1374089539188723,-0.11217733761203746,-0.4826407037557444,-0.8447976858723449,-0.5951153259014813,-0.008563838534647693,0.40784526357658224,0.9345237557351811,0.4706271716642334,0.21503417748389064,0.9742556020983759,0.28587977098871314,0.20160343881354584,-0.9224378574949528,0.23533788037659498,0.2634684064073583,-0.4812326635187564,0.26189891642496654,-0.02656499698062847,-0.10310971493276061,0.12431205440437637,-0.9965710830595667,0.14401686316005952,-0.4770694734875699,-0.32593768758826375,0.30162397428995125,-0.7167780117865925,0.08789923672922416,-0.3440961201729224,-0.5520238624502343,0.6481687506379045,0.4635667835863532,-0.12163830254505677,-0.8185570091812803,-0.6464334303361776,0.7010283823009382,-0.5447163414110476,-0.9187913419936964,-0.8178529059700197,-0.5856227048924965,0.578769219928308,0.7539172922044391,-0.2770761238525752,0.21044296924949413,0.07195227229397591,-0.7117313085069478,-0.6319511418554749,0.28600802779740425,0.6804588135632372,-0.7764227526398919,0.7705790754423374,0.1052726117517281,-0.9110936995293114,0.9776152674533888,-0.45674917518907465,0.3360382806843605,0.2177811791075338,0.4091627468777589,-0.4298558063882142,0.049457933429372596,0.5462400612067586,0.6998710956283143,-0.07381709276195747,0.14164643041641156],[0.9490180085101982,0.43778372666894083,-0.6272562926848086,-0.7305483510151574,0.7200156587844091,-0.7436552608029272,0.6710830390255424,0.45679872852264625,-0.0037718180195329687,-0.5468148521569198,0.5167222858910909,-0.41876824261602397,-0.14450531985141485,0.5662085476124168,0.22409225664746507,-0.1098290705218238,-0.2091113591349667,0.3859978145738798,-0.09915962769356668,-0.12058613472667523,0.9264656148399313,0.3782417033836998,-0.43940510737229443,0.4112934270036659,0.4420435197701902,0.3552445739160177,0.7950932655013763,-0.8543243797261288,-0.13516101516019186,0.050882428289557025,-0.2688170667180674,0.27717956235063235,-0.07868023497311247,0.3606181013613352,0.23471712393387636,0.9374445707146002,0.5087249088492891,-0.29325846512165427,0.5671898175845979,-0.3723540013309694,-0.2228057717470923,-0.3022798606799829,-0.18248115298405876,0.808712429297935,-0.42922038826676134,0.4952565756288787,0.6417936563895696,-0.22466729181434897,0.7022207065192618,-0.041582791709879,0.8169993916161775,-0.20612269000796363,0.42940944638114487,-0.5115654334181272,-0.25635470173645114,-0.4785964041019506,0.1866493772136033,0.21169833237336722,0.023805767253200986,-0.9614786660042366,0.010578757266406906,-0.028417777842402226,0.05521962920067443,0.5610364623783071,-0.7545351565035088,0.38225938362937706,0.6942549049603237,-0.7362196637740397,-0.4674075703116979,0.7715628746354526,0.9812547340709159,0.8878356531989813,0.9419734311027124,0.38301064059229767,0.9285896667983601,0.5080378127654896,-1.0093889052301965,0.5994853485595277,-0.4463311621502284,0.21211320725521554,0.5988974578001104,-0.674958905335113,0.1640405329197665,-0.9730498557529823,-0.4793503823376015,0.02978866685372883,-0.7673976244748839,0.15927435376109092,-0.6640099145276686,-0.4437850337087138,-0.6761893942855763,-0.5477288238148799,0.2868690204221627,-0.024568600347621004,0.08193820795132592,0.14950649163277546,0.03815125905814981,0.47298010021932835,-0.2479648313685077,-0.04529254076713022,0.02323100816600914,0.2278500172646071,1.1590157794550056,0.1677431390252538,-0.4748614003924272,0.21736132135123723,0.3582756127298777,-0.5054824447285649,-0.7377140587609265,-0.059377793254446906,-0.9162763002731869,0.18439047046808832,-0.01662648551131629,0.7683504111063831,0.6959086158543045,0.8212359785103344,0.5940049936628988,-0.4490881572050806,0.4553022451819553,-0.2758252370572204,0.39725112230461007,-0.04794526138429801,-0.12953480046821658,0.7707884990746128,0.9464772681227738,1.00936162488343,1.5143862907914285,0.37523034556889934,0.130466358800981,0.9821123485144607,0.060336247131736305,-0.39413932257012935,0.12146599736805676,-0.568194768067234,0.28275641562897436,0.04837806126442492,-0.03261036288878243,-0.40101507055164853,-0.5378923214562177,0.26083561982824627,-0.24256773936394294,0.0021347981802786187,-0.2933182761387585,-0.8521341824532804,0.8337389585608139,0.1116728941502176,0.13110726740543596,-0.18124748005199137,0.4308367056403983,0.7011752706458395,0.4868005016308438,0.3291489669438288,0.8682312917419941,0.7823738641665023,1.1401935618430443,0.5950315737848754,1.4370680154908477,1.2494992479590508,0.6290822367302425,0.830832052786971,0.11777288809282893,0.7299871381841441,-0.6051202780961817,-0.6859099547243988,-0.7290074691797375,-0.5828574257625037,-0.04009253443957467,-0.4682255806162999,0.8384949955604366,0.12032166800134196,-0.08949484076007491,-0.2901398629218858,-0.005696597418577757,-0.2136411096830523,-0.2728046316558202,0.6880060312015565,-0.5441258676324147,0.056769040087637467,0.3263807627445916,0.267348405638789,0.8669402268954703,0.7649939607432965,0.2163815547885855,0.32275661586045107,0.33552054648923996,0.3403327775941334,0.6719394071461658,0.8071799483462847,0.026513786117843614,-0.1925825402674999,0.5017046308194713,0.031858975157728,-0.5544199189970149,0.05976227231154011,-0.33497623551052697,-0.8145940749694368,-0.2690943682765869,0.8627680488296615,-0.713871650529979,0.6946546963266811,0.008710509505113076,-0.6178333974673633,0.4577057255999641,-0.10851459528653788,-0.7507689610706619,0.04886960790234571,0.4831998894017688,0.2378504271359873,-0.5212738393556611,0.12757332284667117,-0.4971178345571603,-0.4637465411968069,-0.43217653125065814,-0.3567204286273734,-0.221311264882924,-0.21364016444090828,0.076720862625859,-0.043899343425841876,0.26634775328469745,-0.012549514922308368,1.521266417581713,-0.30618522523251646,0.6357433238153338,0.06136182863047733,-0.711874013821107,0.012260851675915055,-0.26248867197987763,-0.17188252576529203,-0.5298843539474595,0.7364057995907077,-0.3257781465499787,-0.2904184296892574,0.4706421295622024,-1.0960610566120275,-1.0655081455819142,0.5727532267282464,-0.15629954256656955,0.09182248421383427,0.4948785943019268,0.4159914875717194,0.7863782381089474,-0.0837550024637907,0.534738301381369,0.7808778901660282,-0.2766354472174554,0.8966843621732303,0.12425852939442943,-0.013680133153822905,-0.16400999389525991,0.24495878648196676,0.5843122540337503,-0.7959195084690047,0.8314374776040241,0.04874401578610494,-0.6190563792255755,0.7520927320472303,-0.5790507787689249,0.5153190039106711,0.23846037481962334,-0.3523495465808286,0.542465251127876,0.2481055252542585,-0.09709303988104347,0.2927209792663636,0.23098783800687123,-0.4852111263690726,0.17895268731882105,-0.8808277528645474,0.4438657997542074,-0.7647834440068303,-0.7477079321221998,-0.9065563843412393,-0.47959585281620937,0.2898203097429182,0.9582822375298349,1.813422295876978,0.24953771758474694,-0.3371318435373287,1.0146184097388182,-0.551441556517275,0.7402220325521452,-0.7049776483630683,-0.6842300481238603,-0.5689579984007592,0.9822355482594138,0.07345776925909288,0.22306331812247226,-0.20012539974115132,0.4570641317036,-0.4089353013466733,-0.5202134940808599,0.4981070062132275,-0.7651054737319812,-0.47795439785165444,0.21027760854897543,-0.38957801561193295,-1.2774710556409266,-0.5113570783024235,0.03594628621566935,0.4969744751449303,-0.2747562776504991,-0.27298291154797033,0.21476684066755458,1.2943480135513914,0.20797390873219176,0.0183023800927574,0.6983419729211486,0.6613748107242958,0.27660254168401865,-0.6855648129487006,0.7688344165338301,-0.17089963701114547,-1.0312346016956206,-0.5028911172674655,-0.8615272924037455,0.022915927427005437,-1.1575657915167434,-0.3994048924149623,0.41539159250097,-0.8447143768691007,