{"biases":[[[-0.9788746625355761],[0.8761481300192544],[-0.5029653403511694],[1.7302364993658212],[-0.3229688706856692],[-0.2080221154048592],[0.9036852186154131],[-0.8770217179870667],[0.3193675261663106],[1.312439666626824],[1.24134689203102],[1.6095579714415127],[0.4462197964703203],[0.018684223035229576],[0.0016021274086165948],[-0.13865986241433007],[1.3400434389100409],[2.4637254810280353],[1.8456579733944367],[0.5954571599077598],[0.7125459785020626],[0.6798844659148362],[-1.9932412275659097],[0.010607830349407507],[-0.4815090779736434],[0.07326574219316537],[-0.8181173140234257],[2.3579619858295913],[0.49859903747625683],[1.603859881128212],[1.564877136349922],[-0.19375241350614084],[0.7475222044142257],[-0.10621015682583178],[0.5789533724854572],[-0.9984559550345911],[1.6406634756777077],[-0.0001183997735431634],[0.1360863792190971],[-1.2704174316912846],[0.5415470573464528],[1.162253942128876],[0.7623007585891315],[0.5167873909465257],[-0.4825982430807803],[0.6465336693963648],[1.6959610545741661],[0.7311797025821345],[3.026789231784076],[0.9347643309176359],[0.015941863530477038],[1.72304342644484],[1.1377552569533702],[-0.23567657468874423],[0.23831822988120543],[-1.2685198977257914],[1.03359132318978],[-0.006474132522442995],[1.1703983060807552],[2.15202037607246],[-0.6800198379718956],[-1.0987283067741116],[0.2654941450966087],[-1.1471332719091574],[0.9152397159239701],[-1.14959390928651],[0.9217781378369387],[-0.8791098009644575],[1.7797643131460652],[0.4279585990042518],[-1.2184041125209228],[2.1907451782094793],[2.857284035670984],[1.2579843821202428],[-0.1778539062882705],[-0.006008727283456654],[0.2789484934907161],[3.220289610683417],[0.45204728155171264],[-0.3539491698508709],[1.7004845174078003],[1.8961094289835583],[-0.8558563374542677],[0.03036667333514993],[-0.11000092910432042],[-0.34622405222722935],[0.6408403493136601],[0.9639776321582784],[-1.2632471317642648],[0.04947407949621839],[0.4692032385128321],[0.6525262830225986],[1.2971237851280524],[1.0533403511566781],[-1.4580803360593835],[0.6690092797670407],[-1.8459703191586068],[0.21028601015145354],[1.379882734515771],[-1.1289271806677543]],[[1.0996922074921884],[-0.16812624759671813],[-0.5802171727572244],[-0.007479001150251702],[-0.06598966029528805],[0.5726968950737997],[0.5892660733036328],[0.5741575808689815],[0.13417582072176887],[-0.41379236127278346],[0.5246630821508654],[-0.3825658918411459],[0.40599696358263865],[-0.36137302892556966],[-0.8021687877237748],[-0.9498174617775096],[0.8082682341591884],[-0.7935679525222262],[0.8132621476947145],[-0.42173037293497206],[-0.5322880708540968],[-0.536332594169029],[-0.3333065894222289],[-0.49408732953156786],[-0.7096405909432466],[0.7203642679766475],[-0.1750715594659733],[-0.6342631260074416],[0.056991416912768184],[0.1353553821144454],[0.7719735130131957],[-0.06908513047683226],[-1.014570397155604],[0.4447281359189062],[-0.12185944936336512],[0.16750428670289821],[0.40216160544483326],[0.5063550702177847],[-0.043363810485446956],[0.5386145405630155],[-0.5961265284923729],[0.616574818403105],[-0.6847466093172234],[-0.9282350952175302],[-0.6372625785320363],[0.5723580165890446],[-1.0369964330125216],[-0.05249136978488145],[-0.1103544800166853],[-0.6970419090722348],[-0.3730237680858791],[0.3450796234788754],[-0.5833554222475829],[0.6911475141211249],[-0.22464589822934933],[0.42864858714733706],[-0.15540428580341256],[0.9108004440873982],[1.011474480672229],[-0.36723269958312676],[0.5158152651304135],[0.28770632703288107],[0.361139832779205],[1.0096085467385525],[-0.1967816673538803],[-0.5482172011713339],[0.34694827678865037],[-0.27713302877337914],[0.4943080315364372],[0.5780392419494467],[-0.490783485408023],[-1.01230208604204],[-0.8562107955324465],[0.3116754299623879],[0.3275345535066277],[-0.5323352932070868],[0.6655580813506269],[-1.1427113685212078],[0.9731818624014804],[0.12707765159145604],[0.6173192532322415],[0.6029059339911271],[0.6184103824120131],[0.269631261151722],[-0.11426123027717633],[-0.5889241882264303],[-0.4815207711979431],[-0.9926981522689411],[0.3522927483569985],[-0.48950190246701153],[-0.3302371306035989],[-0.8712750632639163],[0.8758393537266052],[0.2941260494663736],[0.4192610145967575],[0.21487225756475964],[0.1713872046378943],[0.2879869579716414],[0.44823732685918455],[-0.2762988111774059]],[[0.6624155496364271],[-1.0302212748497348],[0.6429902970615776],[0.7511285277945124],[-0.8615214070483266],[0.09622854622464566],[0.12021232460783159],[0.1659405715646882],[-0.4532925396264293],[-0.3959158546413762]]],"weights":[[[0.9695418967226619,0.3376408187950162,-0.2608926983825608,0.01892717157188728,-0.6373443282813427,-0.19153305789278385,-0.9085078548107757,-0.3986414232246098,0.2606669169449196,0.22561929700531302,0.7409121220541779,0.9519625789593067,0.9734668454813348,0.6174396152374821,-0.6846486488291434,0.03615344838837312,-0.8772700389691173,-0.4508456105279399,-0.9245974768825229,-0.005009048807905314,-0.41574677649874414,-0.6355369106879791,-0.35335815942239623,0.4937387682206582,0.9902072146005128,-0.3834584611002243,-0.027081205148734355,-0.17925124823253902,0.5354069862435877,-0.16609349670862228,-0.23672102110361015,-0.6716483493951322,-0.10324459591752772,-0.5166087465136975,-0.575702087458986,-0.24056881770098867,0.3375238364817823,-0.016554317442212873,0.48813518003819734,0.9235771521206129,-0.04565702389342374,0.8354896874430043,0.9110510942768544,0.5138792997680613,-0.580069919143581,-0.9669856307358892,-0.7352280675893451,0.5660194392481909,-0.04622290241888272,0.840771412266883,-0.6232040842123013,0.18214493678083127,-0.5715182514014419,-0.2588120647426644,0.5405941525962048,0.06899325303644921,-0.27772831286665745,-0.9646095517521871,0.7937511824103314,-0.901473952124279,-0.81005411057051,0.42580975755600825,-0.8256234824945929,-0.31320189807756377,0.8410366764869298,-0.25395129271701056,-0.6394470167642959,-0.43025002252482497,-0.09716842234455114,0.43745951543769834,-0.6708404619759026,0.7396411699012649,-0.7291722073967468,0.4898425793572183,-0.22888829236766695,-0.6343667653879295,0.49688219783182,0.24948229244574835,-0.8341002433327176,-0.09370743364102396,-0.6555183946466006,-0.9807082824374481,0.375770267516943,0.5307308296377728,-0.7420723926667367,-0.5954110709605114,0.7467123415710046,-0.2385584528090751,-0.8982043351299476,-0.11316264255966509,0.12896877289325143,-0.5019142907099824,-0.04508950942351738,0.7398226235010705,-0.43705402881596506,-0.3016605911960683,0.9659460601745805,-0.1767247765543726,0.22209048076412247,0.6160718881049941,-0.10423271293122773,0.5917337721201041,-0.5579623272496864,0.693327639186491,-0.0069864697572545684,-0.6133972427601581,-0.17239625676453116,0.19688414897780673,0.6791870428675861,0.9518413631392401,0.7577904177086681,-0.24921321050026224,-0.6893987445584739,-0.9544865184048118,0.876453560060048,0.4629177100099544,-0.1258908351040872,-0.3970083871476891,0.6831187342108234,-0.5437058287032913,-0.6593103780056031,-0.6717242356605484,0.04329883806929484,0.042900155405601104,0.04612291578240935,-0.4432456470734558,0.6206102532168679,-0.7777655507894693,-0.5954451374845756,-0.422620747792526,0.2652966696697716,-0.015234372451038071,0.9523677315710227,-0.45426730710199764,-0.1711214103940785,0.24554983743432293,-0.7563030513498386,-0.5467311457274429,-0.15359466239304814,-0.3746891467286085,0.3770295997722808,-0.31993054076462,0.15511506235331157,0.32402624012757025,0.22103183217167208,0.15792614041921632,-0.8478642769052818,0.5439356785394233,-0.45916110220978157,-0.31468058048693487,0.900436174728645,1.1463855825118965,0.01573724285218688,1.0665145476106868,-0.3738573327911342,-0.3265249762337618,0.13689800810276007,0.3360593552831957,0.38627761651252346,0.3958673644811735,-0.009260650412083644,0.39500384969341423,0.3601114204949078,-0.4014855667721474,-0.8307524547917786,0.3466794902989284,-0.024620593940530636,0.7946630217187863,0.1057586153510186,-0.693773058968304,-0.19630851684792555,-0.27204939380226956,-0.8750795803963609,0.4160058225165167,-0.9824819682902213,-0.1440754249597418,-0.08469127442611211,-0.5350937670769513,0.6858648687290104,0.495982298730295,-0.5852821457487852,0.07335218530942553,1.2212879055692725,1.0212061888725932,1.059955644324523,0.4620325338986401,1.4806482940010006,-0.35254275424657655,0.9511099175379316,-0.27715767315156586,-0.8705773564470791,-0.5835036557134837,0.040076851112277684,0.07242278319951609,-0.7917108888930269,0.4657035728087986,-0.1045249105541673,0.636208291382941,-0.03809446683814091,0.6748007234552622,-0.922470055642516,0.5419114028631261,-0.4281873773773145,-0.41485809759900893,0.6145515251664089,-0.38614929675109444,-0.9338907406542908,-1.136076311470194,-0.6661151837937566,-0.3951156237228655,0.5719327380351291,-0.3313269131109858,1.2221787887365447,0.6276840671838892,1.0192085315781656,0.6677749100669087,0.8284882031517085,-0.441979461830402,0.10446273837229214,0.5386141648691962,0.543911080412021,0.17748578234300436,-0.8176562092034194,-0.4437359994682024,-0.15257361973344946,0.836916992299799,0.6354479705241272,-0.3465782426237555,-0.7804484635771844,0.4780358931935987,0.6748448713122672,-0.6437853284716314,-0.8769288866386923,-0.6085878128433323,-0.6509382721549194,-0.7666615142393556,-0.6142969240893966,-0.809939763859366,0.49552901908556446,0.17863798323996566,0.27276440458115564,1.0518089182773194,0.19093548289887688,0.8636030641229603,1.0158551234827087,1.0281093644157764,0.6774449642666736,-0.6239255171491525,0.12375834911810336,-0.391206190650667,0.9890205016563092,-0.7919522892396651,-0.8198720225975112,0.3735230746022974,-0.01032447934810087,0.7107359781443628,0.3658861312984602,-0.3027782317351739,0.24133702548526936,-0.28271030140482506,-0.8921162136916898,-0.5664646441409895,-0.33639567650158786,0.0609945739118299,0.9278666150875727,-0.797492653531643,-1.234105794091161,0.04987531428057047,-0.5561286606871961,0.3221732561432054,0.4180560883589656,0.01735405120736124,-0.2964664087117231,-0.12486770220609351,1.3113104280001902,1.31018976405174,0.056923040788018374,0.3225214679640164,-0.5719819021463751,-0.9987923881801941,0.6888120734675096,0.8723627507322993,0.5437357740362189,-0.18406518357969656,0.2628345703958219,-1.346763150896229,0.8776536182527439,-0.5523256700031957,-0.5627080810152663,0.555740478387945,0.27527455094048414,1.0400780786172108,0.5678700678893214,-0.6077627156634686,-0.7473392204609065,-0.5628757971306491,0.016816974753323517,-0.15945167700498614,-0.117164246709139,0.38580405015430974,0.5934438772499033,0.006102700465134998,1.1158533687475334,0.14902449890899086,1.0842811014103817,0.4709824314411765,0.21920901042100627,-0.2276732819380907,-0.41197224260941867,-0.21673080476041873,-0.5895238752929436,-0.16375298799085306,-0.8779292198089321,-0.5584687365057608,-0.6531534444584566,-0.05573198238693722,0.29465176703323936,-0.15765657135356345,-0.22573552129996755,0.11000256465612912,-0.48764111930583703,-0.32501688560936426,0.795871672506494,-0.7889098758201103,-0.10914305954873199,0.3201143182851348,-0.03621869130445358,-0.06682673223004189,-0.06868781117965707,-0.1119829698821266,0.3462414449674299,0.4131230470531154,0.2158444157421374,0.0620219028088164,-0.5949724099631707,0.6817828075078499,0.8807165108010859,0.23384260396886491,-0.6407298677353699,-0.2140272590443991,0.41996446418957245,-0.5796185272470696,-0.05974538680563529,-0.5777982323799793,0.16787827285030868,-0.34577917284339155,1.0089807037225733,-0.3892848466518959,-0.8048852018878694,0.2519511396464933,0.8067520216297043,0.5061536882102764,-0.31058354119798753,-0.9639917566664609,0.8665227828884794,0.21914052592649627,0.8579989325858637,0.4818813663084624,-0.4628707375123761,-0.36749580358407774,-0.17297234065709938,-0.7430928044387145,-0.5572438531844599,0.3343371929710143,0.4210088042640432,0.8256390876126175,0.9638896159211787,-0.3749410705985005,0.245617512168879,0.0919542494968142,-0.6092941251515563,-0.7263519565640523,0.013299286689097977,-0.6796658170467982,-0.8830753341735724,0.8054317946221529,1.021667772908357,0.0916438369090173,0.8427234399826081,-0.6143064265846317,-0.14779264729849043,-0.7493693451839798,-0.7047285205194483,-0.5171961957190359,-1.0715018680392583,0.126867211947259,-0.5750725905958006,-0.7292190231275303,-0.9302281076014071,-0.7112740278432018,0.07585846343783789,0.4803021061133483,0.40002265188230846,-0.4073268751352037,0.16052822991502014,0.39234465949202196,-0.43969205996792754,0.9102976343237353,0.20013823658941193,-0.8482297361271798,0.18693262795168336,0.10658631974108049,-1.0429036073324787,0.18368882033004924,-0.3167718734449439,1.4510206368998748,0.7737689863647722,-0.4766139315202483,0.5072293054782483,-0.3506592068062832,-0.5941888302694218,-0.4254137778304875,-0.279792725827281,-0.9792362032582796,-0.17241259136619616,0.057969199266903276,0.6738299378194467,0.49307172903006397,-0.20608479620105674,-0.489451789752964,-0.4120369833679517,-0.050296498886763345,0.4052217994455801,-0.4092666941602944,-0.14913040329447944,1.068183903387671,0.8561339604371552,-0.04396640199301081,-0.9485713488602839,0.5077311097867836,0.24358223323751557,1.0456283820985346,0.7571840220166333,0.6569069177788878,-1.3267913579326442,0.44027124607411605,0.26535940017639703,0.1819622525166289,-0.5741359038088355,-0.09991084845317046,0.20428111352859693,0.17302166552478432,0.5589206453888056,-0.3502158382308317,-0.27159791874837147,0.9479053715777107,0.5691647163814975,-0.7615198584651238,0.890093829144113,-0.2687489006936483,-0.002721077511810437,-0.10371086126805569,-0.4615062642271023,0.3639106705014266,-1.2664516470512117,-0.8633966832175635,0.2773678533260823,-0.3653536230269812,0.9057049655544549,0.9310116421140454,0.8675211125168045,-0.07431851495664633,-0.8502202445626399,-0.24523735983700967,-1.3874494372835107,0.21716170682587407,-0.1755495071240981,-1.0232453408930362,-0.8290445153365936,-0.804563404412379,-0.30414020999861235,0.21045558658849706,-0.19076095039925473,0.2230569821032921,0.0840204586971401,0.5576771720249566,0.7642817343613943,-0.753918461572106,0.9265913848867218,0.38957016622549717,-0.02932724588888227,-0.3719675823139199,0.788022328180336,-0.15515061756359433,0.29707300390738445,0.35784273656121535,1.473603458704833,0.30522041613978096,0.8973292853686845,-0.9168632606616824,-2.1045177771226253,-1.5379554154064285,-0.3936920135855133,-0.3418253707374897,0.6039866531306703,-0.5183905558373886,-0.14871945073207593,-1.4792206499645553,-0.5460564498163472,-0.8937390351661435,-0.7518652259890481,-0.1631829585085551,0.9045618533290403,-0.3819970131436241,0.8952084625832817,-0.7124473608808614,-0.6243902489362682,0.5568257096187156,-0.521200804894061,1.1913366520437643,-0.1563666716926286,0.33254580602987394,-0.48675560246072685,1.2167804602453094,2.221070807964321,-0.09180730049378387,-1.2895660259519457,-1.3408127796399323,-0.4913692869943163,0.16411065163586538,-0.867434117468053,-1.2689988176327238,-0.7047385733027319,-0.1727480192052556,0.6796310115755297,0.5440676382391386,1.2064847834506742,-0.17005505724036,0.636324607503944,0.41595390215331457,0.7382252390680185,-0.7958101805209288,0.48332794460303985,0.8240364443156577,-0.1783618356813325,0.8842036266886734,0.3314094158779276,-0.8302479732088355,1.1036877323526046,0.36383397187877375,1.4209875353741723,1.0094757322473107,0.1311702384426894,0.21694435869513473,-1.1215767525652476,-0.5063788113729389,0.05336006249086508,-0.43907950487042463,-0.2365068000518676,0.4108406007209542,0.5685763978241888,-0.18431863284751082,-0.08727446072714477,0.07905461825188782,0.6736379383491917,-0.6141503212637682,0.6502922043153305,0.24969898215334974,0.7775389701891164,-0.5683288955000187,-0.18780858738083483,0.9198483738638451,0.46662647175837196,0.323584703987479,-0.058454084209977886,0.5982486203800399,1.2864571483367464,1.0288122117113032,1.3360235639527247,1.2818732967235629,0.5582904013703123,0.922002308124721,0.21895523184433507,-0.535222953779831,-1.8302899004477644,-0.8321317804875246,-0.36952915093061606,-0.7850253666408304,0.12782957775531203,0.35875646426871444,0.19456198224227214,0.12034932558302328,1.1239111711326866,1.4233051134884926,-0.2801493328001259,-0.557204962370673,0.055626502915673004,-0.3344225160011389,0.1930583467881476,0.1543413385966933,-0.15738237991899487,-0.7609611366286639,-0.5890144782194053,0.3556386025661477,0.20406380366358187,1.1884141471686078,0.9998506116556907,0.5700415499964081,0.06706038274810074,-0.7406505898303394,-0.06695758648998554,0.14610892904067346,0.5197696490094147,-0.5361970171873521,-0.45234277338161905,0.28477354184133313,0.31190879461108617,0.15207295754162165,0.08887280449410782,-0.347073568198139,-0.3362587225079211,0.8734076193794389,-0.6276427111746945,0.5018245538671094,-0.35264218826270755,-0.2719802408016108,-0.7990406391133409,0.48657437855116265,-0.576231606884258,0.12691207772579902,0.978332306555906,0.5734670997170065,0.23546694584550557,-0.22374477430942707,-0.28857257340807047,1.3302613964154835,-0.3720615823140451,0.9416392809982208,0.4485966944432923,0.604972249831348,1.431213861849997,1.0496531246805147,0.7344208644195688,0.46096904451017506,0.9299168325588605,0.7832725937870862,1.211998796784668,-0.3376142994441312,0.0749230631155262,0.7280151751660026,0.6058636953540391,-0.5755009921332709,-0.17384348921760054,0.596572714801939,-0.4942566708929552,0.24036721788615267,-0.9643846736796702,0.02643969258142736,0.26816836686453555,0.356324083496697,0.1384213990735928,0.7318690716836171,0.8215320141946278,-0.15004365698790648,1.127441274265746,1.114438907698528,1.0345084172489196,0.923667074138297,0.01563755526352418,1.1791330071218096,-0.04419468920792156,0.6427287245068404,-0.876518223559476,-0.40131754019014126,-0.3282459838894029,-0.1665465364348503,0.059476851787282264,-0.4909431982600249,0.5398042410116775,0.4192333395470957,-0.7499808936941089,-0.6293547523384213,0.1388210738917861,-0.9009198529606832,0.43650946517228423,-0.608313305780067,-0.8693453050884923,0.41763829226025295,0.35518611517502824,0.4905637237562886,-0.6800255129802193,0.9912062128061875,-0.5290468571871041,0.7197013109119017,-0.14835641353133347,0.6339758288506988,0.9155466613940533,1.2125925897522927,0.08847616923762805,0.13594518186755136,0.346491019133887,-0.6566933879839147,-0.5588873833649337,0.47576350411365115,-0.24519845940276402,-0.560546482724755,-0.10093803113358876,-0.545855693895384,-0.3007745611252327,-0.08545552987108862,0.09673397263339334,-0.9562501201920923,-0.9555116071886232,0.6653715988995705,0.23324546485507383,-0.020395416925395798,-0.046274718979969556,-0.7510743600915395,0.9424452881070399,-0.4463930773604967,-0.20042734684433106,0.15418150357966112,-0.2144048504172347,0.4638843582885807,0.4749349039860864,0.7491348173957991,-0.40958222722084076,1.2697394628934968,0.3597285293406809,-0.1979931987408783,-0.00023368438598236435,0.3351839240571748,-0.36584055202537014,0.8750457940681268,0.8643906885377909,-0.4749142733856432,-0.2524992030347077,0.7594087792256436,0.3310597925049559,0.3568001651824231,-0.42214439443523033,0.10201451467699005,0.9066373904674285,-0.7890353293963734,0.01707543264015533,0.26264199517168624,0.3924824355814546,0.9095727463233646,-0.46525150130500614,0.8690115034799561,0.02778601072271158,-0.1152509749777971,1.3579394506485587,0.42870661168520946,-0.6085900068745217,-0.13822032449240057,0.10033638015799505,-0.24009612089380875,0.010059700609350112,-0.9527501907328363,0.7824616057285297,-0.6699097848170691,-0.26293488278356664,-0.6623401535370574,0.4483765431742881,0.3788749087547292,0.5930623677051781,0.19567715578668077,0.017695597354407733,-0.7082932650881522,0.6383272355405785,-0.8311898280003812,-0.6129081086584478,0.11012441011292,0.5968940560483731,-0.9589605792499207,0.1885245065985663,-0.8026954396244358,-0.33977966453888037,0.23749505371261878,-0.8005292301544403,-0.5523505634176521,-0.6337933241905852,-0.3378627501472365,0.5270522661415393,-0.3660167140118332,0.2875243263930014,0.34659501907426205,0.4960234840785443,-0.8493738431344455,-0.716076006143759,-0.7650755794022659,0.5681746322225385,-0.20394589230806393],[-0.9383237162919702,0.6796020138821335,-0.6151376364930163,-0.23948373064032724,0.3423559690405664,-0.8103427828360246,-0.43625117741170905,-0.9491538647779725,0.2925457739216195,0.4774868655501101,-0.47391067047228286,-0.9842444519079605,0.6948403313225678,-0.39076937092027475,0.4610510603888422,0.5771623142025263,-0.286589478999254,0.4134434004121377,0.01227282183450007,-0.20455605843393987,-0.9669475250409996,-0.37661365435197425,0.3587212403833808,-0.6483547781263319,-0.562001505633124,0.19062956863013558,-0.05496860261565706,0.6839254814307354,0.6849507631402327,0.9430999241553362,-0.9625770014299115,-0.2344686015746249,-0.6954469811068398,0.0652470761902917,0.6353575277333319,-0.9779887549215219,0.7907459703352858,0.817879870365266,-0.988039535846492,0.5355226938830325,0.14092721014253762,-0.10529141603324474,0.6566520681910684,-0.7761565443688238,0.8214173365737708,0.7604076249686917,0.7855856590512051,-0.04687548065915891,0.07021124810777231,-0.6861885458619547,0.17792998690146894,0.22921866955814404,0.5305390899743905,-0.16047382743055572,-0.8824676831447065,0.15256475265098524,-0.21306570016466897,0.7189496935152482,-0.5995682845517953,-0.7809998226125856,-0.35276370152304015,0.2203100281465829,0.7641624368009581,-0.415458225555656,-0.46848610627298176,-0.10136866228916282,0.41358575757336524,-0.8368761747059744,0.20395870100477032,-0.2842504426118864,-0.704647019726626,-0.008358630607025725,0.16488204702057996,-0.8057548606292837,0.9964198735738916,0.7703888533098266,-0.9068078651346793,0.42411051732307653,-0.8879086385912403,0.77967659627245,0.262636589824397,-0.4508681738368237,0.541052025026983,-0.06995359769504939,0.3555104322682541,-0.8668829793102628,-0.6261116661216258,0.2993444826305139,-0.962031833169255,-0.08976915354646002,-0.24623521579557348,-0.4313810247424598,0.8585796355944332,-0.5294666702726424,0.822551627815076,-0.16688526006825363,0.3707248562287331,-0.377843696356248,0.10622285587342427,0.20829098377408975,-0.8264503933096002,-0.22204456255196908,-0.07990185742519171,-0.7622523888071276,0.4513884024796383,0.7319404682472805,0.5406554345734462,0.41732001357868254,0.8558234417326469,0.9169516228854331,-0.35716574460054323,0.27273615650604177,-0.34651983177452705,-0.5470090499427146,0.9593262498533788,-0.7106939821022079,-0.6105160177877567,0.0785598360554419,0.1496618967568297,0.37406563085605854,-0.6446952301937108,0.4007806198299658,-0.4136952285277362,-0.5115521425486302,-0.33466331760444423,0.5259763419075748,-0.4767693583937095,-0.23601626742713167,-0.5042362609684029,-0.5612572087174879,-0.2716200994755631,-0.7631061830342407,0.11878843199755576,-0.5600907492114466,0.6640944858989191,0.3949997113646992,0.6099772294031839,-0.700292931956154,-0.989572071231625,-0.8682610565761207,0.18753153478666817,-0.5042847570894662,0.19932409749315394,0.29006560157254674,0.5179591767884607,-0.4771014522670684,-0.03889952330813591,0.463619489737685,0.5499688305774526,0.7090708046411274,-0.9169597882688014,0.6469205038714065,0.10832134173438802,0.03467722379638784,0.6581542611098614,-0.31105333786220274,-1.02481352905591,-1.1169030590069924,-0.7761181134983497,0.21269301780002728,-0.1693617493345352,-0.7886927338518391,-0.9518553097547295,-0.8586922930464832,-0.162911738092291,0.41874663929998357,-0.4981811073205121,0.12172099168222038,-0.5190977350081285,-0.3351332316317473,-0.8224209577137078,-0.09420301734399725,-0.6723780932867961,0.3240433390353993,0.7952756859523985,-0.01448119471338258,0.15793266640612424,-0.6948182908362077,0.4675658000899632,-0.17609357252737098,-0.7450326950313053,0.5164723845571709,0.5700796630913917,-1.1346795935479894,-0.938505241846648,0.23395185292606985,-0.055670082762255726,0.288283029689938,-0.07867440126744832,0.42325320372936304,0.2419352494069417,0.4052278586846604,0.9617630748489752,-0.5455633539742871,0.9784307524879257,0.9029787485836598,-0.22789264124580255,0.4739627932349281,0.0318748472342675,-0.10454425721407548,0.3697982892691782,0.7186633864952141,-0.7702706424054605,-0.8451511701718011,0.6666445642227429,-0.6267501758844649,0.43702360727812195,-0.4219128260318919,0.2592029137549945,0.42436093867121616,0.5430138547971006,0.5084886584337198,-0.10868740435371814,0.9996369282164173,-0.4578141452886281,0.4166279100320066,-0.19335463317482315,0.8405792254021847,0.8349115696405959,-0.500211546943994,-0.7602896646471528,-0.8055926935993692,0.395434351147755,-0.03804625676328697,-0.0564633116915449,-0.8976438895822051,-0.6559611828690646,0.47442211989661376,0.42197717253060607,-0.11704290562930475,0.3121972697601444,-0.7051527545748456,-0.4390073644118092,0.2498083078808464,-0.6848049054865069,-0.12948723832047584,0.523253069434566,0.14965412999750344,1.1873799274210541,0.8740466646329821,1.818247639958173,1.3988477590831658,0.9828092561819579,1.5424324104823794,1.5022820394539405,0.1812635797142988,0.6802026381136417,1.2827116035363835,0.3759078039985468,-0.22350472927592926,-0.641067021229437,-0.10104129366426456,0.5077978844797457,-0.7240669168378875,0.21962820464955696,-0.4359247835020732,0.7237443548981226,-0.344497417236567,-0.17170363447748588,0.20645245682253857,-0.9309195287534732,0.572652068545597,0.29277857673647745,-0.6901994426360545,0.32130964414167174,1.2471688156124165,0.5321480927722634,1.597679401359843,0.08827044461840589,0.255384240194948,1.3189483772953514,1.5374672194915682,1.3170617771249276,-0.26041643987478064,0.1157468727049275,0.5480608954905549,-0.8675261124987592,0.1146933424926887,-0.34777085216754855,-0.6560650979442816,-0.16216802668909128,0.5703012748505875,-0.4525932803130204,0.45989063541915837,-0.6259856345784678,0.014827533595549737,0.7958782820980834,0.31968707344883,-1.0539924868777242,0.49835966176087027,-0.8007394729707091,0.5044685612312568,0.49755651136962903,-0.3101930170762473,0.14053141633455463,-0.48380940813174184,1.0600334982024051,0.50832786857879,-0.4352617071920596,0.1541393354342896,0.754665077223789,-0.8937542057094324,0.22924649926178844,0.6470057423196439,0.3147344891460787,-0.7053135083132885,0.6853044373663115,-0.46787898856528226,-0.11753210574094416,-0.5307545012426992,0.5570893557146039,-0.5579953384899542,0.42479903517828066,0.15045897039695091,-0.02909739317943419,0.27168301707198145,-0.2637190395583833,-0.7379638415576351,-0.7875469828750818,-0.8051428820465271,0.18547473181568178,0.5892298421658904,-0.8974075731492429,-0.1739572402888225,0.12394609271237302,-0.4556989733652802,0.04725691771977458,-0.6897541155799222,-0.0973333737382963,0.5294554334460282,-0.9078386770027171,-0.03626251419775949,0.04664823013018841,-0.7504687220176912,-0.24718314153409207,0.4130120885082434,0.4960655306533894,0.07862241816116826,0.005518594517942246,0.2386497772498969,-0.7511076091246583,-1.0358390061980471,-0.8049306508498083,-0.05816533230168238,-0.9044835485505887,0.7008710022497752,-0.042928097976158645,-0.8566555480672003,-0.67220045356792,0.30461174703608807,-0.42314908116482536,0.19790595015455373,0.48285206916822493,-0.5362536125343893,-0.29556877361126904,0.11736370545341109,-0.8810658965060485,-1.2392866983995896,0.5343287875883129,0.3868240877385062,-0.2220299069588714,-0.8905423599762013,0.2669677805389772,0.6155282699387634,-0.9570628270355859,0.31840693830605427,0.2866023722537538,-0.48068898869738785,-0.653984584778132,-0.4888076160124005,0.34576099178552727,-0.23098196367215612,-0.44537015359133747,-0.1465768640322938,0.3905355866607662,0.43276420291007733,-1.0548368112228996,-1.0323391474519084,0.4229769916897708,0.45113283479040195,1.0259477488426199,-0.31881563946310926,0.5205992974477903,-0.909593183088738,-0.6620890272391948,-0.2092671235444063,-0.2360075853403652,0.4464779663115045,-0.01506008011868086,-0.5769642390533254,-0.5170115883292447,-0.7896852566669208,-0.9911941737211898,-0.23358028036577108,-0.8102243938427622,0.9218824368766471,-0.3020759116586475,-0.2524864556274883,0.16979238088540863,0.9560703660655413,0.15594674238043907,-0.5436975165531921,0.29519880128391296,-0.13983216620323596,0.1701062306262133,-0.5433156156304083,1.043432144395986,-0.05734783414132806,0.2888780643336697,0.17218642769387402,0.5896011411979392,0.03621296015336374,-0.23550362667592745,-0.17087562120010763,-0.5090485806459428,-0.19576152050792192,0.49648919028852834,0.9120657321879417,0.9442478733528159,0.8081814548879186,0.060270185905641156,-0.6750939777574898,-0.874471601880876,-0.10245401306830249,0.2704896782198969,0.9398865804348258,-0.48160347659169883,1.2811860935156738,1.0243213753767548,1.0647449875250012,-0.21491383594746674,0.02313703833097376,0.14958571715751692,-0.5371920109802366,-0.1556636290557691,0.8169354358886084,0.6596930729580038,0.8736065299074218,-0.5385270970604112,-0.25336558237418044,0.581672423030736,0.5424224482530607,0.12835654443470912,0.5949888078775201,-0.7690073862266867,-0.13279372745819057,-0.17906779537657422,-0.42257230470872253,0.3011875212320916,0.7576998886011027,0.5957986075153292,0.8892656733106992,0.7832706244075964,0.829181525717254,-0.3334266968883647,0.7676671480523356,-0.03445587350964071,0.5409519164457461,0.5630695392678942,0.4855895643024488,1.0509927481460906,-0.30344917598872845,0.8518157814250149,0.2886992128345044,-0.05199655690113423,-0.5429026735802845,-0.7221249578006409,0.25646726083774607,-0.6371653481765039,0.2964427147796813,-0.998294648992189,0.1488826529459591,-0.44617129130942673,0.5689720378263322,0.37759996740312723,-0.2760204602658543,0.45735091296691155,-0.30135378875314595,0.03706688491596814,0.6406643911530296,-0.5121978241489434,-0.559157389499484,-0.40522314126736914,0.26626999200606216,-0.021579749562673098,0.8201562394321478,0.6349422328203691,1.206447470680068,0.8326210002541369,0.38270243729032655,-0.12493674890293509,-0.5851894368634575,0.6352259320981852,-0.5547132990446427,0.8255770602183332,-0.6985157456739234,-0.19135210926467894,0.5849088367162455,0.9256357569183631,0.25001887044921217,0.4835659733302811,-0.08755933201422006,0.3555880060156066,0.023099029706402967,-0.36220878429003356,0.06757110541001306,-0.5274600295124499,0.2235575974933777,0.3738175181797216,0.6493364790325317,-0.43387007999712124,0.7716324744954051,0.5988107901555687,-0.6126188627418782,-0.3682236971439957,-0.5228434194539517,0.9064657026195615,-0.2528672742227253,-0.3748272095832855,0.7459616401102014,0.49294655504330487,0.661658484842725,0.9056058518982459,-0.2139344214397333,0.3337666222688363,-0.2839234533641262,0.968664677163429,-0.0580677784277127,-0.7555661322041721,-0.017051159026293554,-0.36631114412608135,-0.7332829628755462,0.23052757043070168,-0.6467841559465367,0.13836494090474186,-0.8329886062749431,-0.6985088184761166,-0.28465545535236525,0.4306212836276688,0.14344340133851727,-0.5109426738808416,0.5391714745411126,0.713768133983604,-0.06255726483817466,0.30015143175761344,-0.033265500733917944,0.3407010765319922,-0.734443704429968,0.35143518888190656,0.015288326153680531,-0.5915669878496932,-0.5493354344159753,0.8214845954961487,-0.7123475923061394,0.4809802524469794,-0.507428570552805,0.40083399105527323,-1.0062706290491983,-0.10899198132044667,-0.8221138570392427,-0.8920160417435321,-0.8424828285116501,0.7199036683375046,0.8339828269481575,-0.7323781446703733,0.2543184945398514,-0.16031947121136894,0.2707477728532028,0.5528942199008721,0.6495991457903265,-0.15231652283238542,0.005231541583161084,0.9949854579816717,-0.47314761442553455,0.9095313623871072,0.10981696482928065,-0.863344462819262,-0.24788803709152113,0.09606605341194972,0.08794049382294686,0.33419176445261956,-0.2441624358170315,-0.14519685238813831,-0.7201123414041025,0.09475970241328326,-0.20538964746273516,-0.4027839474849874,0.012771654107732748,0.5823285302701834,0.9159001834467336,-0.025682988048776435,-0.8980809933403996,-0.5727560799918613,0.8183027344202607,0.5023075163989005,-0.15875860791293023,-0.3563048107884014,0.5135020563169905,0.7501294623073088,-0.5439120879533665,-0.4554953674750456,0.8002480256358678,-0.38780294832649376,1.0252078329622722,0.7006643356445903,0.28569170037754554,-0.1354443971815859,0.8699525197101153,-0.7428454651250703,0.8406823185160328,-0.49348603316871104,-0.8143990158360007,0.06512297501805325,0.36988734664625456,0.9963854056138663,-0.7590762331479851,0.4105005415265817,0.8947932901125453,-0.6030000354944332,0.2248441238189228,0.7972055373705494,0.07213632856614689,-0.6241747773736684,-0.22891799096343735,0.3760739656161969,-0.3615533983286902,-0.39378611993170476,-0.5742014154438648,0.9894647605223058,-0.44414141203294233,0.07612303257460375,-0.6851457804397919,-0.3611326349595769,-0.4673624761769376,-0.2664311088340886,-0.9556634310930003,0.7046388615067014,0.9581128308673711,-0.711591421789483,0.17469291406609783,-0.4403412289195347,0.38210429095360227,-0.5201751983221475,-0.644128304952785,0.7892808484097003,-0.7309322237197688,-0.2173250347346521,0.7656083566397838,0.020403375107552888,0.282712476776183,0.7844809917702912,0.49932618304289117,-0.6536281206268195,-0.00023251631778084737,0.029003748821678388,0.496247360579354,0.2600232324023963,0.8260860614272877,0.8377500789519329,0.08270318832514627,-0.363960795027047,0.03826937373873003,-0.5968681402296786,1.001665122708951,-0.4827133086959093,-0.5129294336602558,0.9265775810560223,0.48553375015499933,0.2862247260571961,0.7347545335967598,0.62396476139101,-0.5974977403326931,-0.9560726296077318,-0.893968162559891,-0.6661614916473699,-0.9565455712078137,-0.5600315661483587,-0.21454359564297204,-0.06858017213036048,0.48225032026537124,-0.7162491397381109,-0.43400311821737075,0.7749967219983099,0.0064417266931943475,0.46099534298631906,0.9819006593521371,0.1133497273760944,0.5492239983282047,-0.5175753329839838,0.325741911619753,1.0072718097046278,0.10770552534301274,-0.9641212882516916,-0.5859827202323719,0.7238656100294876,-0.019862914621572823,0.29738314952342004,0.8804287889664663,-0.13519915774813301,-0.25265658520002376,0.6658191564340927,-0.42232911735850887,0.04353347855898102,-0.1043896438210873,-0.7023505616329366,0.981560700854695,-0.5910746142687122,0.6286766048004934,0.6853512827559753,0.9243216481149009,0.4557107508208069,-0.0836297374140835,-0.7662935882556421,0.5711078420190931,-0.34400604761786335,0.8895824284956649,-0.7161874489467884,0.13631606513637934,0.6695211980573179,-0.013805626006873541,0.9363751030136355,0.5298177508546277,0.09380198756237239,-0.21097096827232664,-0.8220101157462099,-0.22947947371552943,-0.5716040825441352,0.8487739905504521,-0.660760079984555,-0.0413168395145036,0.09715659584764236,0.7332031050301231,-0.30854055588560153,0.6927757315722737,0.13846661091678877,-0.7648836219947603,0.25357863821451254,-0.10214951063305197,0.7262300402102578,-0.48421570809860204,-0.28146852148501517,0.5875669544544967,1.0091864248015794,-0.4676934117291599,0.4821767645059287,0.6491636878508585,-0.6436365752180732,-0.7417965387603465,0.4946828833787522,-0.7341137370920436,-0.9733177128709848,-0.5354787235179161,0.006148260978661213,-0.651814285999039,0.42147180553720975,0.08154191983495296,0.16420633979478527,0.2660059824957035,-0.5079419824523193,0.2370683501324793,0.3312123795940977,-0.45067146816071796,0.4925820062757994,-0.14114328489262234,-0.31800756457146356,-0.755743641651043,0.8112519097755837,0.9896095804201407,-0.3510439327060189,-0.37042215267964085,-0.9145965170056174,0.03322046936965861,-0.3651265914721861,0.13032622586218334,-0.10839289846311156,0.04414377643623713,-0.15879819942439405,-0.1962745892445975,0.9784250563159868,-0.0929530854853408,0.43743942073153885,0.5303094211246395,-0.23751414630095558,-0.9372011497795885],[-0.5617362820099425,-0.9266213116030497,0.9943018978370202,0.42510951455986157,0.6506518254825708,0.10929693603219426,-0.9626025661729865,-0.3775654187177082,0.5325648621863204,0.5058167583486048,0.9737199689343323,-0.47877068927789934,0.36542308313760846,-0.2676329877445649,-0.8966067907335877,0.48085103202307145,0.7925113628884741,-0.24939156199294454,-0.696100520818066,0.7534149854659895,-0.4202425191235588,0.6583778960533584,-0.11873533274999049,-0.8944789881618169,-0.9014181172138451,-0.5076757016788493,0.1684021955263546,0.8894555739242533,-0.8874631061523575,0.05020683034428819,-0.07654659897693339,0.12301971474664053,0.6067870818931186,-0.691455365601773,-0.06275643096619922,0.46301255685016507,-0.5830021692274864,-0.6029389736473725,-0.19809659692763704,0.06528307259798173,-0.3434449884413952,-0.4540748781533712,0.3344641780516204,0.5392728703570981,-0.07606657158660583,0.6588428786647873,0.9627094493793306,0.42537806411759416,-0.9456496115374984,-0.837440701212422,-0.6172020159952494,-0.93153695792458,-0.2630881375553642,-0.7697864646734565,-0.7365527754361934,0.9568900362149055,0.0794165705286427,-0.21696662456887617,0.5667744213407157,-0.943879603742608,-0.5018804704753328,0.9278066511895685,0.9084696694722547,-0.09441864473010399,-0.662527026818647,0.185907970424173,0.01768194182842197,0.03477804179806683,-0.13676136755530666,0.7718285844927555,-0.23801869916610408,-0.5725100669992537,0.34727483074592835,-0.45771856853086984,-0.044133464682827445,0.7097178402204898,-0.23347043869528256,0.798325047732857,-0.4371905698379976,-0.8807618974400727,-0.8219724311429951,0.6844838655204178,0.5952218398172024,-0.5115024736947664,-0.8401937433920892,-0.21728309506289456,0.5588867413920651,0.5380996086024717,0.2202005785518314,-0.7719425558620537,0.07511229541155665,0.8872744683306945,1.0046509843172535,0.31530742866448586,0.9566667600259823,0.5742837659080453,-0.31872906335341067,-0.5744416556728129,-0.24745167474379157,0.4758017322760937,1.169521313673871,-0.07947589729207973,-0.08173393555478319,-0.7050230520980799,0.5149140817020268,0.5164003837125156,0.9720999714760354,1.008834207165397,0.2921203263190956,-0.028304213871027686,0.9064129539993144,0.6545060680232306,-0.9459790647693078,0.9110662863859437,-0.3820329144148849,0.563325410127227,0.6213421538569026,-0.6604308781179742,-0.5937664085696304,0.414092990599666,0.8535494700758759,0.45917976359166934,0.5032247660358177,0.4428444924999834,0.7373996393853032,0.4009919219133256,-0.173600179678212,-0.5273491715309766,0.7049308050954847,0.2638781766143159,-0.1160433596285964,0.04158317089338808,0.8988445352670889,-0.6464192320290479,0.3304976561972589,-1.1354429806600592,0.09622165305786046,-0.4725320492082635,-0.4894763673765018,-0.2692288363366373,0.6769690667849015,0.47769769944511764,0.8224550737742986,0.8407238776954542,0.9603953695437683,0.1128736658616064,-0.7944175579733169,-0.6093774569055656,0.9356927141454406,0.17511414790972193,-0.4794101611796111,-0.3690425053858677,-0.7165497057413325,-0.1578994730052715,0.07828883703822415,0.46503481094966265,-0.32710894628447096,0.22184691346632532,-0.5833740181115782,0.29223647203872083,0.8836308081257327,-0.9168222567926185,-1.4099578297628315,-0.7288742552465383,-1.0302215759610385,0.8647590051273466,-1.0219520152148436,-0.1304167452389309,-0.06288651374216014,-0.5308636380281657,0.42421961392385593,0.7714916488290116,-0.6813354410900813,0.9016129200783176,0.8300130426583362,0.33265294588461913,0.6206107410846793,-0.2958892060847085,-0.6361071677319355,-0.12725272436253118,0.8759528035749198,0.21610572605764117,-0.4618757340783267,-0.44924199122490194,0.20681529502829912,1.0359486636002262,-0.3061888736371437,-0.1064841490242559,-0.8157438861206243,-1.0492677292707073,-0.6624272300180426,-0.7171637645622347,-1.3465105386183533,-0.3236594038891563,0.3615481335792624,-0.00004550732667377601,-0.48127808380217263,-0.6274016134393132,-0.8210958049031112,-0.8804031621148349,0.9423259400119428,0.5880019618691821,-0.6687542155206169,-0.3261570080224086,-0.9412218788777523,0.04338037922070992,0.419458396452043,0.4403342456244757,0.061043310561788855,-0.4155184152759121,0.9650133346770239,0.7284645221634684,-1.2786166018244092,-0.6517449171399191,-0.3457246918415016,0.2820884919701053,-0.34222862405122567,-0.6066238411902867,0.08620891765912478,0.3283995370748156,-0.9255429836527684,-1.1852252406564219,-0.4322921044753744,0.36257246994027614,-0.5123721366683293,-0.32913529284618087,0.8016043289709499,0.6730940967504746,0.12712751344306492,0.3426546905333876,-0.8216317842593038,-0.8237783027878226,0.8252767738659557,0.5371746583211693,-1.0879905477402034,-0.0593152852959953,-0.21902725517663138,0.9856343726792545,-0.18655828194816804,-0.06747089676674282,-0.07982062015798093,-0.1642586037791182,-0.5062461035100059,-0.661585770329011,0.030739594974367724,-0.09026046666683116,0.13254335920208696,-0.8241952979095261,-0.9096091953956785,-1.107448591684337,-0.26458175687891483,0.5475448059416527,-0.46253683916597627,0.9473947531154953,-0.32849176502553,-0.6295947768829855,-0.2712854646319207,-0.03402243356023467,-0.8589031845593424,-0.24667988415668987,-0.7447036429827636,-0.08919761364498383,0.4969780046715212,-0.040446646870811384,-1.0386924405919595,0.06751929798742755,0.0934579726334608,0.027838067670496004,-0.5250669421471996,-0.38096246012446866,0.5397831847937613,0.3825506931933475,-0.17935496287234853,-0.7175686292350353,0.5538988846877014,-0.6157385289623878,-0.1826328633468416,-1.4094160978859371,-0.8262848818143887,0.5951626291891631,-0.28307085234640006,0.6362472000816506,-0.7365138696077762,-0.8662624810853572,-0.3958376199037221,0.21461591077888406,-1.1251977728723406,-0.7603421238553446,-1.1189714036100107,-1.4936345143874727,-0.32631990184182985,-0.9803867323174782,-0.44178794972329094,-0.4426617518627376,0.9003665781783989,0.40249521844361447,0.8371431592854824,-0.2677020875528894,0.9241849240302834,-0.03637628806238524,0.4954267062077341,1.035190706396785,-0.112632049707868,0.916713011151435,-0.5783506044369552,-0.35597603124857885,0.43816409550187374,-0.39623748044776763,-0.3981818650056465,-0.1474698532073593,-0.14042611818799172,-0.6016891911517926,0.13706654187157186,0.056489943396409156,-0.7071298757517817,-0.986767699939123,-0.09216120498081087,-0.19371107963732725,-0.675259017062843,0.2379645867637099,-0.5419266672249137,0.1898482194434361,-0.5447252793052237,0.9591543426000283,0.5408863809485802,0.38079541171821973,0.3926528239762162,1.507640712742205,1.1487542875814845,1.120542662179911,1.8833451221419084,2.140951819086986,1.7340669635145296,0.5610989301444973,0.08011543134419455,0.5204291441056416,0.5489267709650117,0.27583990437067385,0.23481445798842931,-0.6675092095526137,-0.24672274680076878,0.4611974772773022,-0.1980002369372063,-0.9569019816178571,-1.0758343771339334,-0.13442379799727133,0.16161648386672015,-0.12130386323602499,0.5833711357160997,0.5051926207457466,0.9657515414385264,-0.5021589640108377,-0.04994697221907886,0.5338083873100403,-0.7533877721442885,0.49740876482464486,0.14935679346512945,0.13168645264367024,0.5253305508228472,0.9363547712327117,0.8495060851684517,-0.3985934399219934,0.7161551608106138,0.5302725508845969,0.6208939661097302,0.48855910302882055,-0.8450017112272522,-0.6054138261850727,-0.7060675723817991,-0.7009032838494653,-0.8849301899227199,-0.058660047834223426,0.7401677282993875,-0.18658784932600034,-0.9034934478293488,0.5154099945571511,-0.9439287822488207,0.4285448828132164,0.5384865176277273,0.5924785325072115,1.214197757437433,0.7882557046229667,1.0024532389120024,-0.059911081144412674,-0.2315745505062047,0.915779526930539,0.306087923804748,0.05778874880683951,-0.39116033016901297,0.9942378176686769,-0.17700135191404193,0.31916494778224946,-0.20649180502211117,0.1998321051562296,0.28263066023672173,-0.1083791743218514,-0.3685157068736238,-0.7679537172212431,-0.12309149422537259,-0.1655536391515019,-1.1271790308803178,-0.4542599126806149,-0.11935802690806041,0.01692899539387034,-0.1790762693261771,0.7044390655953966,0.7037223311664657,0.4057880943668819,1.1512633078577827,0.4576646413462676,1.0941071679493293,0.1258849909044251,-0.2876677807050986,-0.34077869426850366,1.1145754963663406,-0.5121065109674924,0.5620839450918609,-0.3557076029667374,-0.8990446675334397,-0.3561237916585562,0.5505984707793451,0.1631180476990994,-0.6144501755344457,-0.3816050180462925,-0.2864041461622184,1.3240841354367427,0.21370775712045337,-0.22942865479356148,0.4024646745345627,0.2777117574076762,-0.13152928288569601,-0.4788211083145658,0.7012972041352614,-0.04484442146871831,-0.29071972523954615,0.33773438226835417,0.921383044355513,0.7432704899384766,0.4479621035525059,0.5424826232072496,0.6688550525264514,-0.6407304652117173,0.5786675695296194,0.2511133234269022,-0.024062089086171506,0.2623758809182734,-0.033047505272850025,0.551528748184499,0.7794562404440258,0.09046706904174728,-0.444586673006757,0.11306647375784419,-0.401786197132017,1.5384673788898455,0.7784527969967951,1.353643666851626,0.7903514803253863,-0.35924493722179157,0.4106281263080358,-0.38153442637125523,-0.8695673730685154,0.9106303395077495,-0.03398268861316654,0.6075363314957958,0.31582388794509997,0.411533094904389,0.03289020329839019,-1.13315368458196,0.4225492780195729,0.6890827331167761,0.43646314457498725,-0.6066539702771073,-0.8944508374329854,-0.47856545309181275,0.04681659721285902,0.3326903156489477,0.6023112804052031,0.231378566072401,0.7211279785242728,-0.9424262104097079,-0.5587506391385627,1.2007864123421172,1.323019166495331,0.6452695661607929,-0.08322595485674851,-0.03147464358504856,-0.9890434797958816,0.8351843730204438,0.6469083678296363,0.28680313884110153,0.3240677273102955,-0.7794678663537961,0.15601261993592658,-0.23734883166404142,0.7051219250135877,1.0836505794930975,0.09438013148558227,-0.3740345688465414,-0.0830916143752396,-0.3349588614935127,-0.7070888069889107,-0.767588000597314,-0.7352877672141717,0.4778985555122968,-0.3696631709771657,-0.14525237442681735,0.18069725681188895,0.2894566371467745,0.13391709397673793,0.8299453736432811,0.29795820898404857,1.5616278590734571,0.5840203874282253,0.7771586514690009,0.5331522292716963,1.107034209035805,0.44227438261041596,-0.20277491619872146,0.039989776906706354,0.8917215510355627,0.7019986736079067,-0.10083279758949505,0.399328174109922,-0.009208178469950572,0.2903490597746111,-0.39865515331112344,-0.8638586892250698,-0.4591483863793116,0.17084533147255349,-0.08419425701004732,-0.3039918198591511,-0.03753033579234341,0.16224555187809298,0.23451634313601133,-0.2960338026735945,0.7068667683770297,-0.21709472535136126,-0.9404434523078902,-0.5857637514247087,-0.09668087830489049,0.9751553063982487,1.8212623860314532,0.3938161908069413,0.025979872091682586,1.25605309014201,0.5036204526762555,1.1955744770040568,0.6245213599201241,-0.2899441614301548,0.4848491509889309,0.8940392314861637,-0.48588653793529674,0.8130861642712349,0.8992106976219627,0.7126650548500387,0.24811989141203522,0.6435885142862233,0.30954060861959487,-0.8352786506756347,0.4371821181170557,-0.6201957540369958,0.9861056639634906,0.9246673691116472,-0.3701623916666464,0.033420570864132255,0.30758648489416135,-0.1733932641912744,0.9737542106477932,-0.41755697459195446,0.34338829871756915,1.0867046334036663,0.19691957475625618,0.7605896389870452,-0.31605016587004037,0.5775114010735155,0.9608885666565452,0.5510006656720148,-0.4264475151885781,0.3250469910269751,-0.43493282356974744,0.5448099948837076,-0.8618162558981869,-0.3092047608675111,0.3707021711943992,0.2453498585370802,-0.3081982929256285,-0.8250540432728529,-0.8451190393399295,0.6965193069563258,-0.6899604175752526,0.12711931354944508,0.4041713471025033,0.19971611989959523,0.1076138099465617,-0.4979121583518593,0.39746578903075924,-0.1110014766920171,-0.9941206658139565,-0.17734641236704832,1.0027385405042748,-0.6645103969109011,-0.7548062319805448,-0.7626668616792435,-0.9281677517409324,0.060648758148171354,-0.8599288062819445,-0.6933322566264076,0.6374416847001406,0.4602211984966152,-0.03711882981681947,0.1577083328948873,-0.34464234118662657,-0.4752614396792651,0.5566379379634755,-0.45421403158833396,-0.08452244449123367,-0.00033476261701776366,-0.3753508381521841,-0.3316171118881974,0.04397684621476184,-0.9381509762451334,-0.9215217733962692,-0.7599434830639136,0.09839872510001232,0.013268256870328166,0.4797338070351795,-0.111563157305919,-0.6519009824578834,-0.26049569188898425,0.7135352856820647,-0.2897979492951539,0.3381070307004932,0.18205449132839688,0.6435811719788632,-0.9841185418942598,0.6647233527146628,-1.0137340847358531,-0.7155806270213411,-0.2619246714802946,-0.1510811614915003,-0.20004904504376556,0.8243220728261572,-0.5453231953793939,0.6997670821429427,0.08303998819403913,-0.8705044138496352,-0.06093207410408656,-0.9052086001133925,-0.3894475084573531,0.3772112045296269,0.1547214268958457,0.2917379774897513,-0.7668712952929009,-0.13023694611355688,-1.1092619368780112,0.6352345184230996,-0.6807232037381103,0.2670421748411909,-0.3550231550116128,-0.5776771847756756,-0.778853647844378,-0.05644925247201879,0.31923924625775807,-0.4360830235084019,0.6025532130101904,0.44451852300548533,-0.8043191177947491,0.31957640210195815,0.6918597950262959,0.8184595576696805,-0.907676903602289,-0.8264525441757904,0.3242847567373397,-0.43240230742870844,-0.7709681207024444,-0.0020502915096602247,0.9237852804209532,-0.6739786926357596,-0.30617951652971503,-0.18790660476636542,0.5332842818251312,-0.04475063649864287,0.5867752454920048,-0.31044752750872545,0.7911440558087547,-0.0768425388059441,-0.07361484927065032,0.09353737160160844,-0.3570236165169702,0.08951299879366244,0.423470827645524,-0.8359442237670704,0.5768247136493438,-1.0189047933178883,0.4388513446965633,-0.7630223652864652,-0.34838410275404524,-0.8755996516943025,0.6993641171696713,0.30854922701188636,-0.8809733163323514,0.040606805167966664,-0.11928164549945869,-0.7526564601997467,-0.3659605583610464,-0.8847951574478238,0.8773659306998132,-0.13156616525636655,-0.7751661161622171,0.8754750561818772,-0.37981723159282105,0.16084886276148405,-0.27744533983809083,0.24499227736816542,0.4306130041387603,0.1349668091677082,0.41224650947297015,-0.023697115317327003,-0.7426968937396764,0.21338616499153248,-0.6963272832645229,0.43304792616610216,0.741253395209103,-0.7275305095452437,-0.1407661140876189,0.49281940957957904,-0.08162899277753134,-0.07318088282937807,0.14708711365350502,0.2691841668828041,0.45671250994003976,0.8891331052552675,-0.9438292923931039,0.23689252584842482,0.8835993017285456,-0.112525543218152,0.34192790398605594,0.29179715202582207,0.168567866603153,-0.13644636387004724,-0.29051543901086535,-0.7974060817259262,0.3202294449980616,0.19022223992295567,-0.47120996532741016,-0.40951174188931383,-0.2707478200584257,-0.6527617485942785,-0.5760711423769385,0.3526682554542121,-0.25091340756023034,-0.08536058993913263,-0.3443770358678244,0.6058636013286985,0.729211342237448,-0.06302639391749243,-0.043000550923239844,-0.10640887000027988,-0.06865433014209055,0.2912080617926027,-0.7184619460008353,0.4654759444888591,-0.4685355827955922,-0.4461555527307034,-0.5760021366769411,0.05426629766672774,0.8608644695599403,-0.5910947018496507,-0.7202477844540144,-0.6902065453654341,-0.015613873890791361,0.9230561471301383,-0.07621131561421392,-0.9845573013078066,-0.5862758314483667,-0.9362004628941133,-0.42249573564209036,-0.16404145497648367,-1.0517693545601259,-0.3641265564374374,-0.19207173824228363,-0.6990463954143549,0.023640419945000213,-0.13602376290582585],[-0.7922670007331707,0.34183861075104627,-0.9902855570644697,0.903035569599181,-0.8544453362669238,0.7589068177259739,-0.34487664504564663,0.6951146697841122,0.5404236261406059,0.39441329026841143,0.601548444497487,0.19488821589114602,-0.4226535305296611,-0.03690541691266355,-0.7633066684654942,-0.3034589762401455,0.9281678585924562,-0.923658125331849,0.7934253142923646,-0.3340712546422835,0.9643060486210788,0.4914887458323127,-0.000496378909528028,0.6776742578151711,0.3274814552331806,-0.6222152234371834,0.04637334240667568,-0.5900985514894503,-0.05054510444322635,0.9892036135070823,-0.29030988696423,0.7807866158227483,0.49849100288752846,-0.4187352659609891,-0.41743797374001634,-0.2787915404441016,-0.5151794355223233,-0.6288174152795754,-0.1410924726092683,-0.844097026257953,-0.8642622321209262,0.9143146233804986,-0.16787866599798593,0.8718937546335572,0.3590771053098471,-0.1695468282722527,0.08181143510416106,-0.16657208959296566,0.8311084741294942,0.5730264919161564,0.8512434641084196,0.9356415199392508,0.9952010975619157,0.3397039834666038,-0.3102205524423951,-0.08430085919140673,0.03033791714029288,0.9813769499279026,0.8569302386916515,0.7798178955878887,0.921392325187101,-0.1901614581297954,0.5008808410498768,-0.4510608169732694,-0.5447860539901128,-0.8058626656360816,-0.12207345486979412,-0.07953077089562686,0.05056907002650646,-0.22256227218183328,-0.026080071974006008,-0.37635404681050477,0.01527353379684053,-0.2615320422923526,0.4155785224838861,-0.28633646121342987,0.17384607559833967,-0.2693110884076907,0.5416352607702639,-0.5236722469369063,-0.9292284578046807,-0.4213988360426435,0.7902035192119297,-0.9387830334469114,-0.6589914014282956,-0.5715634594407979,0.6031202611056344,0.9716118037738385,-0.3389885315087665,-0.6932028149641429,-0.9628947613382877,-0.22617102136575684,-0.9258329599201267,0.2611929478049664,-0.8342625115319203,-0.44281574841219334,0.7085630162782285,0.15525757455710779,0.6340911354940806,-0.5957815933105285,0.5186861551252488,0.05608070972706071,-0.40756793581580186,0.09134245262861748,-0.506575493086795,-0.5012818416724817,-0.1836925153445333,0.335864090971771,-0.9495521098641234,-0.7572640379198444,0.7689102486206684,0.9417549744914995,-0.9996078595906199,0.7113309210525127,0.8591749189727352,0.6412801801400844,-0.311947960516347,-0.9043894120989676,-0.7581034726097227,-0.40635188927020066,-0.08865877867933142,-0.5377112382749546,-0.8551366930743917,0.40863436125456126,0.4473750787419358,-1.1574371398248517,-0.08444358960488083,-0.20918754727862282,-0.546919010482203,-0.17244827261734064,0.622093257377437,-0.3016890762337677,-0.12070039894996036,-0.7109303347133332,-0.4073593098107101,0.6308683202613827,0.5676455825560108,0.12331160600879311,0.7919491584965669,0.7684514304822981,-0.10383813758335392,-0.18982438835097137,0.1879485089789965,-0.08390995190945538,0.10603234515103137,-0.9462790445059596,0.5436053229521506,0.012517127953835422,0.23019502131056274,0.3582955293632986,0.1770049254997504,-0.6136596491301405,0.24283872968148484,-0.718506399235875,-1.159688743030558,-1.3399037014702557,0.20370986414442596,0.41188341689605534,0.7037471189625738,-0.8639978535165055,-1.3760842666337374,-0.01191828440873863,0.06257568662708209,-0.009556587805251851,0.0894509958293198,0.9726283140216554,-0.13656992326527387,-0.5552649114495749,-0.15311228107315844,0.33846902356392927,-0.236450612331797,-0.8989119223707858,0.03630648812029382,-0.9591127798139845,0.5820699557683796,0.6478235614110955,0.0789264384537445,-0.6267954226956831,-0.005906071215350142,0.20654206145318366,-0.2999986780733708,-0.8339922329106034,-0.6542722990033694,-1.1566909753032415,0.5264722192632735,-0.45407259087324997,-0.10081105754481753,-0.19708994432701105,-0.5474482545699314,-0.04510255830599868,0.780803425189494,-0.7493583715528901,0.07105370346735608,-0.21563029280842355,-0.5951938690198938,-0.1472231253301842,0.2165394831488674,-0.7079478433472524,0.07940757574514634,-0.7540575118579308,-0.6884354804592574,-0.13957363561549568,-0.6151492770722335,0.40513633088851103,0.7572684010297172,0.8132734130553319,-0.274230650371203,-0.0036862777361782685,-0.16974395334256256,-0.30653007304828095,-0.19713213995374665,-0.42641547881029923,0.06117185196155209,0.7249911161835938,0.5999546605527298,-0.6932981199425926,1.0888111072831954,-0.2954045939863137,0.35918481515280654,-0.4575453731777576,0.7658582879721265,0.0011760092211500035,0.21699989853996748,0.5599839872392228,0.8179768080951411,0.539995959087306,-0.5355968028683182,-0.0012596026599923987,0.5815521889976616,1.0241987584961512,0.9312911599039373,-0.3210099839075368,0.8117227452588309,-0.1677145213669757,-0.21682025002128447,0.5349055255431913,0.8888314700175743,-0.32667511107971064,-0.6115259597857832,1.0324425321056077,-0.42416941422144144,0.8446005459298154,0.7899545570212589,-0.6467160925511768,1.0669535444233471,0.7500706171464244,0.8444757942645688,-0.13411785560540943,-0.112637360254025,0.6226251560327681,0.9281189504201988,-0.0030948965679477446,-0.25630309381171806,0.09179327204260802,0.6299522996342196,1.0795611528589615,0.25311541899494167,-0.577870701966761,-0.759655364043246,-0.7383891686479491,-0.5183649451304992,0.1999077140224131,-0.3801276138690131,0.1736544170578123,0.2640404955035346,-0.27553797753044174,-1.165014216923516,0.0724650945679579,0.869421381075916,-0.49530711359152035,0.22013804703803527,0.7205606167304092,-0.9965424951146167,0.539821655314989,-0.8883145552048591,0.07821706997449636,0.4160916837272461,-0.7294063675655332,-0.3165916195081678,0.8350673642287966,-0.6076242501158476,-0.0031903075098223084,0.3320051336193049,0.5807253675444826,-0.2190894489799973,-0.292527199076077,1.0624773950250757,0.6922969173506374,-0.24475116400472105,-0.5247485807033249,0.6895626007658439,0.5417306268316929,-0.4418515158132896,0.05990271058375512,-1.1420393992174613,-0.8990884983754149,0.6799244568223686,-0.2663626099590011,-0.45872132480371763,-0.42951497917744436,-0.3427508657275618,0.17635050238303832,-0.3337240933219807,-0.41439451767379276,0.13919305099786017,-0.32984870116808,-0.7145963552277759,-0.9857329818902983,-0.5178565180686597,-0.5443539753246838,0.3360091510393343,0.44896357523031055,-0.7829325338619689,0.09999284759884344,1.2154821033761065,0.35664016740964843,0.3167747989150628,0.3262515506737041,0.5813965333176552,-0.32633836091959423,-1.138643975659025,-1.9321970613053416,-1.0750291506548442,-1.874816854242983,0.8388058331219318,-0.3118938202935453,-0.21246216283249209,0.8072962846455913,-0.07482355552898491,-0.14735299609979913,0.04245419910029278,0.3626644804625001,0.8031635542144928,0.3875498119523596,0.5430077461632499,0.5894024083257535,-0.5883296381128779,0.3412378059217441,-0.347341606371062,1.0557351222459068,-0.3577131723553181,0.06577186581003396,0.007089362619929253,-0.4198582356411595,-0.7070735989678076,0.8171975216711449,0.5620953738882896,0.05042229962115064,-0.48935652353915404,-0.9431410170834554,-0.46589406190818533,-0.7168489381780494,-0.02226342656441068,-0.008184035037097718,-0.149424797086733,-0.5130230553193461,-0.07264146979981627,1.199879007837968,0.8382137039922797,-0.08748075352562425,0.606144311298965,0.4657312930086335,0.04680711906973397,0.5904939280509387,-0.8147939404465823,-0.40921280479135064,0.34716245631182446,-0.18023632467694906,0.12697512163908167,-0.30995710602694493,1.2400591829153882,1.0536228418348461,0.2154208591146051,0.7112875202070363,0.023335559961600444,1.0123481412667292,-0.8120132181369183,0.040491496332794884,-0.8815830281596733,-0.6535780615065641,-0.28166219249339136,-0.07205419011339244,-0.5195792317722905,0.4449105192429709,-0.4586919814602666,-0.5033816580986408,1.6807678196377434,0.5032412040895675,1.242114336369318,-0.6053077712845403,0.8534039402073804,-0.12306193689784238,-0.252638739938841,0.43358103324851144,-0.9194246676040209,0.25606690435033114,-0.67139894928553,0.81233399559571,0.2588903645631648,0.14212304197022288,-0.17709654002309752,0.7153107108684791,1.0717975380127809,0.9778684432643763,-0.3633821838022542,-0.5428333948789472,-0.6008133470630271,0.8972396648155936,0.13227721204158413,0.7917119844150413,0.28138559178509986,1.2351672631662645,-0.49117975799157687,0.09984164734625976,-0.07420008401770943,0.3780912093304435,1.2933908485239198,0.8671460425074459,0.8323693685257462,-0.15177979064591665,-0.6322429185316835,-0.6832396341306876,-0.7750705892653532,-1.0360102472962678,-0.7009239526527449,-0.5456089025587033,-0.3912205724019386,0.55856576750946,0.2557514444426915,-0.059707604127495234,0.8655141228946501,0.9886503575838264,0.4979824330196737,-0.04430125236133626,0.16310569701151503,0.2248936858081492,0.8899684151330036,1.1092614973568993,0.4949506658220529,-0.1777262573068077,-0.36088755078583956,1.242414147888838,0.7750477139273849,-0.30492945537382454,-0.4699086528614608,-0.16747462256606252,-0.3248894939524089,0.8601722617558245,0.20762923733655486,-0.41389539910910655,0.8863877222861744,0.3437933979853088,0.4690552772795659,1.1697474524285516,0.5035214422151105,-0.4542246859200666,-0.3443923324239173,0.5588953525556037,0.45803769781161846,0.35163167155527697,0.9444482549481036,0.8714193702280305,0.04818638975338009,0.4271635210275862,0.8319851537393125,0.30765577038958986,0.2365169459633469,0.321097591259181,0.11592126271309301,-0.002344088977157759,0.008364827258913767,0.12646454237587823,0.4396103029730846,-0.46281148324881033,-0.7498608191155441,0.024007362079693177,-0.815804862436311,-0.5852193784420612,0.6287805755149504,0.07390729080513132,0.7337503054752696,-0.1680308455106907,0.9580368983088329,0.5009237310228245,-0.7108988551538009,1.0358121018768307,0.043901669867598615,1.6341288728121994,0.3516669090620788,-0.7554797498104395,0.3866782784313742,-0.6963123486514416,0.14263990639478938,-0.7719598841150421,0.3524209606088,0.07270560798186639,0.37307937756137055,-1.1034999747942869,-0.4137990685240537,-0.4985829902901384,0.20411710133228098,0.6675216059518156,-0.08208844706551705,0.6599247827237876,-0.7865812719498715,-0.3555743679105175,-0.8618405797376008,0.09140361487272447,0.44082009409042655,-0.6133255777692121,-0.7474007679388288,-1.0892543659703355,0.08621007286858284,-0.4406005335906497,0.7657083892751393,-0.6198603210177256,-0.23469877193577265,-0.675319379952068,-0.03705772591316934,-0.03572716565824792,-0.5604739976359389,0.023327972245946984,-0.3787575719463076,-0.6128308246036119,-0.17095580596614252,0.8975307159019896,-0.4310109873604,-0.34340526294751667,0.13359582869058248,-0.32125137888215277,0.5340832646848911,-0.8863474968482192,0.21959741498663546,0.3116675671030145,0.48832424512766076,-0.47876492635087226,-1.160019853611092,0.46787573027340934,0.5243583215271137,0.7679090211283225,-0.6954373312986448,0.35089178073071137,0.587960100878454,0.06745820538262967,0.44866575533967035,-0.9193101225162087,-0.2998423952782828,-0.6421973249286763,0.3688359779908565,-0.3462141927219573,-0.5695826514348664,0.5160795892462005,-0.6213395676494043,0.2345278884835225,-0.7947718907012117,-0.09446704656351837,-0.7676880974075025,-0.3039571418153065,0.30979936512638495,-0.7103107816102399,-0.9433894565390821,-0.692300929088758,0.11191192978025552,0.2695880609215758,0.3900555468507773,-1.124820748343343,-0.8665213284110456,-0.6625419695185268,0.9407836277381635,0.5877058692835778,0.45372962729069655,0.3073865734962126,0.8803714806924291,-0.08210229564730719,-0.5383761446544978,-0.6828591696138686,0.19008186030578914,0.8006230212409471,0.5615374194038383,-0.7276762472277352,0.6887741097826213,-0.5666252834421827,0.22380662622613837,-0.9543493644972906,-0.013735410819084068,0.5640013975908031,0.06936814370773907,-0.6161740374523479,0.4814486024439032,-0.05393398791635319,-0.4946702102311339,-0.26457230427711453,0.09849915350878938,0.14159277282001553,-1.0128246347691543,0.7489640925311108,-0.005160336136301807,0.024926075235461684,1.368807806950741,1.296616769825095,0.1764595409552894,0.3894820251373378,0.6755578169058611,0.27831410736346135,0.21653352735561998,-0.5421868027222192,-0.34602281964780435,0.10927329691919414,-0.038803462019923726,0.287013348495955,0.6588778492004409,0.6835892046912374,0.627664686588144,0.44100267790137043,0.9598205975065336,0.19097049989079234,0.3880363704979576,0.11366043307174896,-0.18695285388868005,-0.8598701155344315,0.780945781302248,0.8631068599063946,-0.02478789202168366,0.6307693181260422,0.8319346235105723,0.1509469649883296,0.6674484606823063,0.5291041296264978,0.7281740194435646,-0.6823634688720009,0.26455114453946804,-0.8567367303550678,-0.21912457103308317,0.11989065814565485,-0.40621854744390967,-0.26570953170997996,-1.048989232665752,-0.9008305964043396,0.2710780687096657,1.0337883419215803,0.9428609426267041,-0.8654435424690856,0.40233651060794395,0.014289944982798947,0.01710819764383431,-0.5190652344351034,-0.6834867173641117,0.6037431806317634,0.35772592564050737,0.6099195110864694,0.7026934302554079,0.6695718142151966,-0.7538238921172841,0.031019831835041152,0.2698528189913832,-0.24822621883551685,-0.525969904526927,0.5240843574157282,-0.052878650810971616,-0.34292164686394,-0.2958655518515654,-0.3062007476375085,0.31764363315887356,-0.13827160021613852,-0.4737350093848195,-0.9554211816655142,-0.7953327495285221,-0.004744842688222136,-0.5207824276699373,-0.46486222370090086,-0.5724768922766703,0.20235651605553207,-0.9215938842552074,-0.9570671161286028,-0.8681841472405526,-0.26614022289193573,0.8981284677377709,0.3442360689408201,-0.08859773064431041,-0.854266227171356,-0.6087666094511811,-0.051755242515956985,0.9466693658617222,0.5086397554039522,0.10148692350732456,0.9902014909334538,0.810138356932591,0.10069071073570755,-0.4020452301243908,-0.1778364889427811,-0.7519994288498544,-1.2168001734915554,-0.21055843351257095,-0.24003807624080697,-0.6165882297513484,0.6237136085628131,0.014005939116481217,-0.11990122180502696,0.2778563323509185,0.4420678039303738,-0.38996296824700627,-0.8317766893824654,0.4277679729686506,-0.5199431340584642,0.37375049538803307,0.030665838011217805,-0.04166370359093879,-0.08237042772089144,0.48482403325322604,-0.19204145798755362,0.8160785623871405,0.521212133663774,0.9673318599935659,-0.01739099349704574,-0.2946856328004941,0.9640309718273364,0.6284772476228868,-0.3337225655863402,0.737133388961091,0.3628145351092602,-0.9598738613392954,-0.8017480481251172,0.7598468877436949,0.5357045994495563,0.7782987499115698,-0.39513468181237194,-0.9079300364987999,-0.7118974339237418,-0.14188517870600004,0.9888494241496912,-0.7972899106762248,-0.6869486423125994,0.4873399742299187,0.1027960984461068,-0.6150570385992777,-0.7273735961177099,-0.22916754751210006,0.6306660076714458,0.9021461305970842,0.23305656607035233,-0.405457420575021,-0.09989392724453006,1.0908842493735615,0.42374370260783417,0.544805264148793,-0.22481274671910634,-0.4621759936636085,0.876113381008842,-0.1861942536419199,0.4640051449482641,-0.9643268990104469,-0.5626979284464007,-0.6933620636761574,0.6165969685997408,0.979678006045656,-0.4931947123239282,-0.026047104503318597,-0.018661361035177126,-0.832814071193164,0.8267349524883272,0.10395526303185704,-0.710002094596912,-0.6545094290138409,0.5458411417011206,-0.7576902747017771,-0.9200514347182795,0.9308393170555609,-0.8586348582286313,-0.6758694377857916,-0.4304926462591816,0.5856969530684415,0.6737819715807336,-0.8678950886429163,-0.4928699670103482,0.8675597444890185,0.7179612018689052,-0.5197303654813777,0.16284053751726418,-0.4006026762788893,-0.4844309147579577,-0.36501869737089354,-0.326954284571074,0.6066827860671933,0.014225688995494368],[0.34854636166774955,-0.5448188958872149,0.3209405326701209,0.972482765693532,0.11300893648173505,0.3443558135461897,0.7625229713095543,0.3251174918712736,0.19314474699075856,0.6991682424091861,0.6862977611036356,-0.4627586043794307,0.6514184435951491,-0.1190663756097488,-0.21637898285635182,-0.889541487301938,-0.7338940720570148,-0.16193235026952024,0.7638811592087453,-0.4718975716180258,-0.6332031337297028,-0.025272194690175498,0.18862594296513757,0.14244267254826415,0.5629500186182739,-0.43900173897863315,0.9670136478934193,-0.08777679068774158,0.2056542471700311,0.8618599247262033,-0.5746558876716241,-0.294943467570675,-0.6592648299372008,-0.5627306086525515,-0.5057026353944919,-0.3017570072090229,-0.6028022706407791,-0.05299689262240992,0.0542297584675137,-0.644120695845491,0.06813965232579594,-0.012250973979444971,-0.46610069415553546,0.44175231920069263,0.05169622471367702,0.5781391171456105,0.26787288288207084,-0.674951664371364,-0.9062857317553558,-0.6530470480905136,0.30053360326086676,0.2324720311151779,-0.6582864973488065,0.9135387011375922,0.7918756656719208,-0.46839615138958024,0.8008350080989155,0.27831472572864846,0.2636803338860809,0.7293241708250756,-0.6249211578780433,-0.6507540141023477,-0.8783217849981748,-0.460159465242557,0.8913511928547735,-0.4351934955778566,0.031828847504337766,-0.42243429186543296,-0.5430266350668592,-0.060634369675237304,0.2440829243927966,-0.7973535494465043,-0.738899330088881,0.45537833801436706,-0.7111281783296884,1.032936400144492,-0.7678300522312543,0.2778506840787436,0.4231566839212576,0.5051626649351669,0.7880747745762332,0.9677848240268685,0.3476351346104054,-0.6893110682211452,0.7610104057181584,-0.3037210419937586,0.644840596932265,0.08564100039171701,-0.5811625647739367,0.5601222697067985,0.8478945639500551,0.6624787776094395,-0.33500704693351435,-0.41171576590111264,-0.3245542115326113,0.9471524529017739,0.44674204903083903,0.2856514440087105,-1.047331842984972,0.3493132163554067,0.06309791640068117,-0.42824690996159365,-0.1747478742842681,0.4835324073686724,-0.26978156807720904,0.01361033722272398,0.11811667702610572,0.06136590648161314,0.7916202106033725,-0.7928678502181885,-0.8497093711183761,0.7057984773326886,0.9560690407998813,0.5336369181956352,0.7113113285648428,0.9837970000983692,0.7980660188625515,0.0014381513239909722,-0.15195709611981786,0.10771667923251406,0.5617496649736037,-0.19444751110232733,0.8575422962441382,-0.3585105779510956,0.08364419647982789,-0.18888037547598743,0.6946611297784278,0.660600320520893,-0.12492687303040957,0.1386442168816662,-0.3489377511887757,-0.6021050563385082,0.8151578345785554,-0.18238749783183694,0.804710391199859,0.7844858402594436,0.48263283715499333,-0.795795267170392,0.49503302422532297,0.47392367568086796,-0.4046073128785981,-0.10625048830757455,-0.34042545172453254,0.7785082409838486,0.6412646802985679,0.5978927455419417,-0.8188037247247156,1.101116327706431,-0.43771746975922143,0.09704330879379404,-0.7180625119343906,-0.7775865830586389,0.3047994959446114,-1.0216636388511107,1.133685590876105,-0.30646318859584537,-0.24128586358371854,0.04869528613338811,0.20637608681429426,-1.0415784842350255,-0.21212240220412037,-0.1783277147839533,0.9950079614421312,0.643964580100883,-0.48929787919243684,-0.5500248909988718,0.722039469316535,0.5191601220084882,-0.2737757261541056,-0.007650273490507475,0.2512282907882067,-0.4186570491272209,0.3769809761835311,-0.9689884765179105,-0.8693836202498871,0.7018653000169282,0.42434909709911006,-0.6807138165397368,-0.23271548682958773,-1.2679940224875506,-0.4773480499888858,-0.011276014559003764,0.14533394260799842,-0.5094214785643647,-0.879133169414638,-0.44835170763997767,-0.3343617333918039,-1.0752329069608575,-0.07097482565314296,-0.15463287983098598,0.5575790480498161,-0.6643602352882991,0.750351191119772,-0.2724594485823936,-0.12754042244113115,-0.3979055277999657,0.7784197760910089,0.9768253318981557,-0.1633762358362476,0.8299694582893397,0.7725098089975102,-0.9415270001122893,-1.1863926295361231,-1.2964237659441171,-0.41801660017253073,-1.5585914568428283,-0.10113469458250388,-0.732192494536626,-1.1357943405092248,-1.4263801604679824,-0.9658978154136079,-0.06396206672398036,-1.0986899482563701,-0.8888414042614238,-0.4938165431675369,-0.3601820984222884,-0.2627506848563922,-0.38595535338061365,-0.22728919268740755,0.7569856555233274,-0.563638472668017,0.37043583351712095,-0.6052945001506674,0.376255308150471,0.9766983212722641,0.3216003066002091,-0.8668109575819274,0.6002042396873712,-1.0973811438747587,-0.5415859881747837,0.23491236030326493,-0.9092081097629082,-0.7455094090625574,-0.05754048377380361,-0.9685170558245317,0.14269907098297677,-0.8476621916516281,-0.7838178340543316,-0.3447347201597249,-1.0872061074275583,0.09478584791504199,0.14539751510881505,-0.12447125691532855,-0.18938716859754165,0.6783864650013948,0.2752214557073264,-0.2063663303521395,0.3625572767228844,-0.5479618939702817,0.1681377122012597,0.45458032944583193,-0.6584781243401241,0.508921923485612,0.6345128053069957,0.025207209382418914,-0.5248168584867788,0.5033979872382819,-0.232383029813767,0.0963819244111836,-1.109843577366329,-0.19809183077061357,-0.3881447957253256,-1.0317926045244983,-0.13869393037657612,-0.6537709289696635,-2.009879297102776,-1.119593809703097,-0.8050522195091393,-0.22760131035363804,0.12533382288129435,-0.5067180937387844,0.010844140344497473,0.24655708043842106,0.40229397205291756,-0.01356652985099643,-0.18818504558432095,0.5283310686388617,-0.594241800293635,0.600596175902126,-0.7350539498593147,0.8138040339338832,-0.4574825077263216,0.5599037322214675,0.49993872131573575,-0.4462731085284797,-0.5586182349810427,-0.5458892757255477,0.45039082450680173,-0.2894918775815386,0.5436655351074505,-0.7861710640536126,-0.6719055820281142,-0.35900671605868173,-0.25107762347125434,-0.7648773640413749,-0.7871584769295923,-0.03131687652504666,0.8773735524003669,-0.38138335156040143,0.7361857254451553,-0.45810652898550436,0.19896024279647348,0.6876593687725298,0.29828326803406136,-0.4236053838539639,0.8741781731204515,-0.3337732206663165,0.8030453781700297,0.8289722985689424,0.6938756376024954,0.23463514467079502,-0.6766080251116945,0.4044887070466443,-0.36521113448523473,-0.2318017549381536,-0.2901007818683756,-0.17595160388352848,-0.4810939442587983,-0.1469232136352286,-0.10041003180196277,0.05282999779447939,0.7698854420943265,0.36679847234704993,0.5819396964849172,0.15415871169658418,-1.4408048248694358,-0.7258058769614536,-0.20532066344286448,0.12485576519953137,-0.10760432210988809,0.04119073015741545,0.02396097765874691,0.7357216095342394,0.332855330741398,0.515227106268466,-0.9616109711131341,-0.870584042146235,-0.5339095138057596,-0.8354835798815848,-0.7579140871639237,-0.555371526599487,0.2546591639312914,0.2570743229206133,0.21646955396947054,0.6064144260620009,-0.10773225841360547,0.17681024863104658,1.165146419869193,0.14159454994516565,0.555608340585443,0.9717266943428413,-0.34570816203760846,0.4733070963187995,-1.227645948101682,0.14218673612562718,0.1499114958080626,-0.05622933839977338,-0.04132585302019624,0.6303988761502468,0.35239759826580025,0.5132526731329192,-0.2593007805093677,0.8420542441950595,-0.6165905524454175,0.03320813087819189,-0.9973272511915136,0.8492043766691738,0.8684148769632923,-1.265377277274967,-0.4696931428341341,0.022471888549062454,-0.37327752783781476,0.288248186131483,0.5904381719589489,0.4217117411698803,1.5356935070768536,0.8206498911776843,1.2099240918921876,1.3254956010014833,0.4225482654354315,1.3568287441535234,-0.45879065015139237,-1.2486104543289767,-0.6109260331682356,0.15971982810115773,-0.31594321732346586,-0.3510776186587316,-0.8057329746516955,0.0028385223060589534,0.22201271598561448,0.9322454896292801,-0.4665689635176183,0.21384354430071154,-0.05239224419557576,0.502690743756702,-0.756038427256671,0.7524130160460885,-0.027973165439541738,0.10496764440170116,-0.4046976616245868,-0.5102148711196446,0.2898095238586257,0.15100353885412207,0.41430715604927326,0.8047480960963653,1.2098833733221477,0.7098388114276429,-0.5292050998572745,0.7438995218792769,0.7275362770734336,0.17408107337828368,0.5135659020430634,-0.6706602454946521,1.2336406415370684,-0.32064612476599624,-0.13449442296759873,-0.22586413801078561,-0.3835341394118852,0.6650367145273787,-0.8515554437995007,-0.29858992837307935,0.11375249930572677,0.8579330769223098,0.5533257829202051,-0.8116495100505265,0.350328212586017,-0.21314654109030914,0.17783041179941256,1.0686061025364242,1.1523375501621091,0.9262073741599521,0.5807358018611024,0.15330964313508935,1.5301064320942552,1.1447988070786541,0.617546543919813,0.533213347051506,0.1657443055919206,0.10678168574354631,-0.11660643502154891,-0.6468380880668375,-0.3882241767445381,-0.24343765005655246,-0.1725628019595053,0.08962302069890507,-0.7958004856950028,-0.5072033009867053,-0.9545874430210476,-0.1886568007896478,0.16791078025921202,0.7669744891884093,0.7962329755837703,-0.9754629640936285,0.0890006422542317,-0.42278052219310297,0.2951697756294619,-0.11352787706391933,0.7300885948629424,-0.7783798221949005,1.0865815372022813,-0.18004757776935543,0.6942809417579183,1.011283322988554,0.7017150445697224,-0.039812355681992116,0.611346534765414,-0.5990648524131005,-0.44848771812774957,-0.06365994591179552,0.527615373293642,-0.5532909434770247,0.8994256335418421,-0.5186128059665478,-0.3929445713891814,0.36070069514980363,0.5586788731361473,0.1944482183748104,0.6520628555066804,0.2317228562773101,0.6699362479697634,-0.5195586884817308,0.05410749714403693,-0.2232326632806806,0.29986763940129824,-0.3284285873135107,0.04651225362338937,0.019047258953844143,0.38265995467173686,0.95261436057502,1.920384504482159,1.0259757416904909,-0.8558494979664478,1.1590428470652356,-0.35836441215633175,0.8805137828723884,0.3546421880063978,-0.23555802810320403,1.107710295970124,0.823436153789961,-0.2839896992687519,1.2428836977440338,-0.755030900523804,-0.31317241284902303,0.781793179603011,0.8084511393481054,-0.3747703119723191,-0.44703993676563225,0.7341226548254222,-0.552076668481919,1.3204682965835912,1.4439245518052013,-0.32782225608514387,0.9670811997157214,-0.3748863152262714,0.24489229221488465,0.8751808607829354,1.8729358112519858,0.6204631010538546,0.6914213798027987,0.1190373661670898,0.9066672575626246,-0.6123660247606884,-0.3677769092679652,-0.5132986809217249,-0.7619905333667981,-0.6921930593414084,0.10971086979277936,-0.5314020223157717,-0.16907457593281086,0.936993982337921,0.6667908971980512,0.8800506008974053,-0.5692346659513504,0.5042743674748167,0.6315574631109779,-0.7018166654111555,0.007362038075628401,-0.2000613187391024,-0.11642110589279761,1.213005158592286,-0.0864662842923672,0.8228650157387922,1.3885600234305098,1.10570756987625,0.6612487203126871,0.9187349575451854,-0.4133844217596752,-1.0369809649930493,-0.5263070404302961,0.5044132839012389,0.3700391276049485,0.5214510007297313,0.4379111633612563,0.14374927767688825,0.6757458195281522,0.5293496566385301,1.2140282581076602,-0.0928811771380354,0.10058025527746987,0.1689164645514371,0.2293417806763547,-0.42875241889526944,0.3046018393991387,0.7739316841663448,0.4412777319625232,0.47412420594687354,1.3386160084887817,0.46337096297481284,0.8797921639824828,1.2766644167598329,0.8613919711252174,0.41475163994206593,-0.11234621736850851,0.26634532057679977,-0.196097500261797,-0.39637087340246274,0.36062937169961723,-0.8403613803918042,0.2626368467684193,-0.24439264895341972,1.041330612156155,0.117059869374574,-0.3321120692894167,-0.6090853127584888,-0.4263114822462614,-0.7688145796897699,0.8610152710813046,-0.4236678724125171,-0.9862835570542338,0.11075072310261934,-0.19378570668812442,-0.08276885628647852,0.22453247357769773,-0.5032446816277463,0.26883563152345374,0.9520796470182232,1.1469575192428914,0.2765865952504526,0.4641871998816242,0.15805912402996342,-0.8582856147224479,-0.8743671573222597,0.7310546906121366,-0.27989528538684433,-0.049282244868054284,-0.2245759824288114,0.7532468777650846,0.6735999572592073,0.8012685345322518,-0.07173317239658117,1.153399738133051,-0.6023461119213785,0.2729881408909329,0.5791660543520906,0.6445307869762888,-0.23898250199053686,0.5672967506318117,-0.8282108776841349,0.26163845210824677,-0.7772868854304997,-0.564299226382471,-0.6094543402693008,-0.36266487346000836,1.4830837278238986,1.0543566207344308,0.33407104230644424,-1.0243684408523104,-0.7408008781468198,-0.7382073640783219,0.2960508436366165,-0.09510556338537483,-0.8964843666110653,-0.13216692997404217,0.10985830428582552,-0.8794524060168648,-0.5594575170788981,-0.21665989686800016,1.0770145545479892,-0.07252777229932578,0.07073283358419799,0.0014480681484550354,0.11273146095857162,-0.7059702574991096,0.00680248368341872,-0.7064824287960856,0.5373592456655465,0.020002030157488464,-0.2809317931149218,-0.6226090299967221,-0.25068830791367,0.9718094593774358,-0.7990761478302613,-0.740952707512125,-0.5785751134650483,-0.09084252124343649,-0.6381292802514662,-0.02560750561881513,-0.5018247279539422,0.7666362217980018,-0.4318261897112558,-0.267731138021959,-0.758777941030056,-0.23966578523116713,0.15605387149381833,1.1966272942172052,1.1231096195944072,0.35029697898916723,0.49444682348814706,0.5225566552987466,0.3985956853647783,-0.05205270734512226,0.3381052451086586,0.49344999140908974,-0.018008353179453263,-0.0670995697773749,0.39686564189350604,-0.9074681389842882,0.6989966615988624,-0.9367642089717465,0.07279250582594984,-0.4436141583112064,-0.8449319407524407,0.31649417483803766,0.04293340872631466,0.14407750109659787,-0.1566033003515029,0.13764628981719215,0.7278659428447529,0.09392550472751313,0.5224230541874836,-0.7995923972658552,-0.19661232868004977,0.26285683075115573,-1.0083283082520151,-0.06584239684208584,-0.6256729649081852,0.8543518278140619,0.7515892457270321,-0.33267878782570487,0.9915061034151404,-0.5865676412814931,0.0052466379900284466,-0.3084063247509128,0.4770474484599918,-0.4047950644778937,0.6553053565258605,0.6004977186777768,-0.3582948727766813,-0.5033894499964826,-0.7136853456517243,-0.39810164831810574,-0.538530889136642,-0.23494747955720385,-0.4545166604180449,-0.3320417839270007,-0.39023537936689556,-0.834799601476834,-0.7984057790762783,-0.07826130647817181,-1.234259590324513,-0.8727819289920666,-0.10213156042294631,1.0011134023050734,0.924155788943446,-0.40654755472159665,0.1764385145881269,-0.9881842084981002,0.9489298799380281,-0.7218279930000131,-0.7523553486370251,-0.3705103977683595,-0.31012491168213946,0.3006534416876332,0.034475117106398695,0.24116351729879656,0.43925102310054764,0.6784273129352628,-1.207622518897238,-0.8111689536101439,-0.9709824628993323,-0.13659584811134337,-1.225801319374179,-0.9634491580376627,-0.9070887574704626,-1.2061276375676087,-1.1414745795103816,0.2190155775344706,-1.1265781913500281,-1.2660572141370685,-0.30119899710540904,0.8764191954404338,0.46785270261129386,-0.7681670170858332,0.3068642391655385,-0.4564948129600155,-0.39854262338170066,0.672803830461083,0.01846582040386835,-0.7577797925881582,0.33184056626769487,-0.7692781144308882,-0.4573064039101344,0.7263534975656106,-0.563745753429127,-0.8301102711321062,-0.9908394879026553,-0.5187327029943498,-0.8038923141212222,-0.3451352730517885,-1.0143286791455632,0.32422886841595533,0.028164372939136924,0.6670009518547028,0.4278912713097242,0.6444378469621943,0.9046957314615475,0.08826624949917047,-0.10917401421442577,-0.768840552529393,0.15282141646467592,0.23782800438060692,0.501347144934609,0.07422625958816509,-0.0002694539492504866],[-0.05242601924427048,0.9863509690973367,-0.6437950262237129,0.7197775597035911,-0.8145201599366079,-0.012925865000136483,-0.810801699136189,-0.04458513725540558,-0.9378767780606407,0.6581476107926394,-0.914141315867929,0.8832128430466775,0.8112531555100196,0.928484732351114,-0.5015190952307763,0.848717390000236,-0.9081887490644414,-0.44823010154784915,0.5490978131576891,0.28762349577994417,0.4739820910549044,-0.2603201227042409,0.7855015270315606,-0.833710152543008,-0.9030020730738584,0.21490723154528912,0.271768413823956,-0.7773842413657437,0.8244707625798218,0.8918958332677034,-0.134449234003847,-0.5166102742747929,-0.5691896293269568,0.9777999138083515,0.06594811946166847,-0.5723775708005098,0.5312803702957016,0.01012678236824073,-0.6159555749514597,0.8871588334814385,-0.6076154467485522,0.7933069702828284,-0.1006561389853929,0.07915514731725427,-0.2745884286213199,0.03439063473041557,0.7160908136757106,0.5631131555455685,0.5671003103587092,0.911876743469898,0.06778529063094144,-0.2042968896435097,-0.7524918951962312,-0.7350994071184291,-0.83305580327053,0.9236204112261874,0.10839222905533763,0.6127620175010806,0.5805845740740297,0.6979274204699587,0.16266567144325988,-0.06492265487734714,0.5177550046361897,-0.9277953253998702,-0.3330628450671955,-0.31193627931933177,-0.9028305226559425,-0.7777399294277894,0.3008840748605098,-0.181970678578854,0.36948443485389365,-0.8304352554534662,-0.5345078037562982,-0.9837270735057309,0.019968887735080976,0.3569006154751774,0.16544598850043082,-0.8618063969726488,-0.8746773549302673,-0.3811030323250655,-0.9668913424979275,0.9306885816609198,0.9485170268730592,0.7298219566551631,-0.9176843746878123,-0.26367710804176037,0.5586424767284065,0.079761728137029,-0.6320980516413683,0.879035749581073,-0.8257532797704782,-0.6590699304371359,-0.2866919195788243,0.7642350110671481,0.6779162211363086,-0.5322415813583474,0.5568464494762646,0.25778450509230566,-0.9498914459505498,0.4826704665436586,0.5281843920284588,0.9787678818647784,-0.09487590155728831,0.7675822418387026,-0.36702364355434464,0.27924909741680914,-0.2465718069915417,0.2352447268290548,0.8530462359958499,-0.8521771641115933,-0.6905238673303183,-0.5791539766376366,0.2025246152602973,0.3201538331752536,0.8928241293096977,-0.2796405798990804,-0.39670001618022693,0.36918537430929343,0.8263025493811388,-0.0612764248450505,0.9129811401606706,-0.4269048112764541,-0.09471972173359244,0.37499487910391577,-0.16848103889813765,-0.22901210512080028,-0.0025552204126460904,-0.8120654559403544,0.7935455805299224,-1.0140046002408136,-0.13787577772755052,0.29867542993736845,-0.16180215766220366,-0.8355854083330471,0.2996773016522427,-0.6971196753597584,0.7709450701076669,-0.57069622262702,-0.7028894167668134,0.46523879940951424,0.2776000458431507,-0.9598020160980099,0.3346752515421527,0.9790965720862498,-0.927864756004787,-0.4066672425091218,-0.6340270973661687,0.06923219356756702,-0.1764740292295894,-0.27975283673209683,-0.16227733151687365,0.07244682556625355,-0.14705450181769456,-0.1178161072951765,-0.5625036290381495,0.14472727824759513,0.07805753262004443,0.5581259830680544,-0.199983008633611,0.1768602948903106,-0.05160092767498343,-0.7073121848753477,-0.6441805525326397,-0.859248327794091,-0.1835400787528985,-0.0073848842151602555,0.42194747154554363,-0.702815422611493,-0.050518143652924286,0.0859625545060766,-0.556502579057019,0.021788469727186906,-0.5157915862548367,-0.46107984786872297,0.8144853124375668,0.7329155703551505,0.7782525237339659,-0.8013464354932841,-0.8791833583499282,-0.8019217733640543,-0.10188845883779739,-0.3235024584320473,0.8276373273653648,0.11509967526478178,-0.12392719753290866,-0.8013147112733674,-0.5129987481857289,-0.5963032727338913,0.41486632952299096,0.4205806236250377,0.2676309386179721,-0.4163491941875396,-0.19128882672684663,-0.33907771034787043,0.34674749234768226,-0.36213591632418063,0.9674793495195757,-0.9816671280701248,-0.912452760877879,0.9766267117264964,0.9346319537997358,-0.07633222713873888,0.26874067560284537,-0.4791761797095654,-0.7020460288901558,-0.20540363886257493,-0.09655581250290965,0.0621106171590596,-0.6626593854361061,-0.7553954195369836,-0.3950072430224465,-0.8878300293110383,-0.3412612173608041,0.03133642514593577,0.28451534537135653,-1.0637663056147428,-0.5475744998492519,0.8784206463445409,0.3276369397800282,-0.7052168697914574,0.4785925357570966,0.23115632059938918,0.7706880973821538,0.26081361673365033,-0.5188298851758847,-0.7412759396950656,-0.5598613945683438,0.7148496967372763,-0.7853032559461557,-0.27077710457709997,0.8461625561464656,0.6990786123341267,-0.6556542383803087,0.8402298100609412,0.17345618420791623,-1.1030992030875038,-0.02651853749088865,0.4472585482750199,-0.7814492855814161,-0.17722084014451905,0.18995222595687158,0.6816516851803677,-1.0275076099021745,0.20252544928873695,0.07566135618259963,-1.0480762367421694,-0.7263047705297437,-0.6944748140410953,-0.45114980730488713,0.6203127333572064,0.5079071319398503,0.16428383293856813,0.07336071155751342,-0.8076659659152707,-0.554608096127107,-0.5483591491124135,0.6550489151105735,0.7490481452688145,0.0782525787513792,-0.9022133677805456,-0.20117336751385365,0.4800201648077021,-0.14642171808380877,-0.19709804213206705,0.050437784186881045,-0.08215768876329799,-0.12457616006121087,-0.31612677310391774,0.31631984659320433,0.5982915412540727,-0.7180459426522535,-0.07926361089438654,0.17806121157420265,0.6111213415276094,0.8644326355645557,-0.5941749333516003,0.20236195530384102,0.07921266891444281,0.8955864046839339,-0.7862865364339352,0.10136828200160261,-0.8086931665898869,0.8070734993229337,0.10454165412769297,0.9773917736388277,0.09840262859409593,0.2588653628061477,0.4943613725423712,0.242548339660566,-0.9658560721821935,0.6948683722144513,-0.09674644405216876,0.39438484392383627,-0.32809341974804485,-0.22826860102489807,0.29148114359305166,-0.5665456033355585,-0.49394383019781646,-0.2654787537168807,-0.15281755871831554,-0.6670589268178249,-0.693944394107117,0.8535450434348557,-0.7935845188826514,0.47180235462847053,0.4192993826725533,-0.4220046684771982,-0.2179651804650199,0.5671441159547415,-0.5997164584210254,-0.9940442079247143,-0.6271195652240886,-0.6493233905752077,0.4393462444596182,0.5492353266332118,0.7936318999730834,-0.2609401529987634,0.6594978921984315,0.3421455546261135,0.797462513113995,0.006861019697694131,0.18207024414920928,0.37364540027667925,0.26149798095097815,-0.8657107049118324,-1.0497216893109977,-0.3704436946305775,0.7350395959247233,-0.5787539494709415,0.7154623001079762,0.8953559531234789,0.6226360085112769,-0.9170260189854788,0.618018823402173,-0.6094910956928584,-0.7707087583805586,0.07196576197258618,-0.9388696457107134,-0.9747889090463061,-0.19437474443709427,0.32485931010621893,-0.08871175771786555,-0.6472080726780041,0.4224129901301541,-0.6222584678608708,-0.09576584801116944,0.10618231701362334,0.8346907762131087,-0.7257876559497893,0.41336638704659423,-0.42446586687591614,0.20848213056682605,0.21421537668720983,-0.9719925131294006,-0.39192807732072416,-0.9213454298526361,0.2652152901532698,0.06724123545412769,0.8289526767126912,-0.8988562172218647,-0.7200931375693131,0.11284291384797832,-0.43306711918147206,0.30440882989796925,0.8726353118496325,0.30847291594523657,-0.43086464014047754,0.8438034091193624,-0.8084665625531117,-0.3919920599599824,0.1150898487528727,-0.5284711023645339,0.6604617411283333,-0.2480745466173178,-0.3389317463733052,0.29021293496636896,0.03350337890271268,0.4851141994435081,-1.0135768888823664,-0.43759661367637515,-0.5013786988069189,-0.8590592537982683,0.33885864294108836,0.9294992882209133,-0.3731752363554643,-0.7350963791244227,-0.11090252326353692,-0.7302913078365818,-0.08809036407397322,0.6654491654708541,0.3664425728461976,-0.6655246194840985,-0.10507684929762362,-0.892375976542791,-0.824997295567281,-0.5108391748558495,-0.8088959262011526,-0.7540211198165798,-0.4300961364250211,0.17139472607753325,-0.8618827598686918,0.10236224389500187,-0.9736990378769658,-0.13077987820107556,0.8102837182466703,-0.03359846031701433,0.36744231974164865,-0.25616386599863616,0.11799699641690535,0.5511019522304844,0.5865764027128041,-0.33702202167766065,-0.3127033878435659,0.4918702716058894,0.40681699663585685,0.511728814230964,0.7303139066036233,0.9366799787149394,-0.02270276431193351,-0.5744836130284288,0.4468294390750905,0.6024592197337437,0.297930566799828,0.25099402573770635,0.06374932975404193,0.04562177879543825,-0.14767359410504924,-0.5577461029330297,-0.3400097659037866,-0.8390325803111254,-0.7770817826071605,0.10447423790872867,0.5436998968664869,-0.7399105182579077,0.39798259817289006,-0.0791536813650517,0.032291628050250994,-0.5649873581852006,0.2689174097460984,-0.839138788888265,-0.8346482466910797,0.8171452939415204,0.9665440736793092,-0.9874694381435,-0.11445228602610398,-0.7207800652408964,-0.40519483189821415,0.6767895708560774,0.3344626463832503,-0.5854393796300249,-0.6176205609065168,0.09260317230577991,0.45532911455636654,-1.0198572578257894,-0.5355254818263947,0.8126424281314554,0.11817198189761308,-1.0306843688694027,-0.04387494668404326,-0.9428889570891079,0.3728123161825139,-0.7937585750873376,-0.012389963420494867,-0.8448888792997106,-0.8645630507661101,-0.6695850799139357,-0.8947487509994201,0.4581767207819714,-0.224721837485319,-0.9651658180062375,-1.0082113012399578,0.6585101015610485,0.15919157158529332,0.19202909104574603,0.3127951394657721,-0.28259843884206026,0.35881735937558523,0.6686559981762136,0.20872512409232447,0.19892304728657917,-0.647082321130777,0.3144822331679947,0.21451721851830216,0.7796691148129974,0.45957567417297773,-0.6190202474507202,-0.32551402583472555,-0.7120236149005366,-0.36403639631027795,-0.2871639659282429,-1.0208068825738499,-0.2546259706907636,0.6674105585139719,-0.8358801525143227,0.2341306985082937,-1.0014622491727319,-0.8703710244032834,0.7413965695661751,-0.30943564413608965,0.3824097473704191,0.12229288337248773,0.3974502081529814,0.2397267692570751,-0.25166957494385706,0.58555914985409,0.6271935088628298,0.9484553569401273,-0.6081371542574668,0.8936099385864372,0.6837452728454134,-0.9078100853865638,-1.0451326310703286,-0.3807059168019824,0.5666270136501393,-0.9583971050895431,-0.9144200891287865,-1.0003576702652035,-0.7663535810118929,-0.7721400831445971,0.6030022146219969,-1.0792048222262418,0.33505279711789093,-0.07794134190895828,-0.09355603919153871,0.5771124171708863,0.0849259490749775,-0.9087369652650107,0.9108030758864654,-0.5102069774763796,-0.1375220943392255,-0.33546714288632223,0.34589812113402607,0.8651191723171708,0.10474517141927336,-0.07779754283447378,-0.6160715875326422,0.25667286997070876,0.5525831910194126,0.5689044525589769,0.7478101915074737,0.24718349684124055,0.5844556298148487,-0.30794219788711147,0.18902840692465622,0.8726184138993743,-0.4763940942003452,-0.7202584361259561,0.33135684942514987,0.5442704729655469,0.16535691596366336,-0.9175637742967901,0.2373857862348633,0.9374242735358649,0.02736620304102162,0.4832087791302955,0.2441374305572429,-0.7770329604607373,-0.22173081155281874,-0.3355553495663492,0.6857773406120536,-0.8859822549773257,-0.3447906051414826,-0.5142318695788328,0.5388237974211324,0.7589980762123589,0.05792116416089361,-0.527175732271948,0.18629877439734413,-1.0065450696913953,-0.2640474903932098,-0.681132554362267,-0.9511875744273082,-0.3731864699630991,-0.21282192798433194,-0.9104310619573622,-0.43659696475156134,0.5565824921616795,-0.45797924362677067,0.19240952239558365,0.6138304645903908,0.6216581705268676,-0.1463195359352909,0.1631318046791618,-0.025531627484126417,-0.02490334573954825,0.6516899631243904,0.009030092140884398,0.3674208654344832,0.44584725337930736,-0.9296788811634179,-0.45996359860737107,-0.4241180650419407,0.47225878582694353,0.44088367319119914,-0.909577191160317,0.8497022729769002,-0.8387950859478587,0.7401860767473953,-0.47890461198200746,0.5492266059891773,-0.7117905881907743,0.6187894638891364,-0.7588467707330029,0.29020940974860504,-0.9501143011725818,-0.2514912429611455,-0.14274410044183655,-0.3638327122447906,0.6707448179087997,0.6450288907947083,-0.3400436558707132,-0.3941302840866016,0.6288582965929711,-0.3808321211760477,0.7179535061248737,0.07160105944482638,-0.8191929095353537,0.6037237543236643,-0.011832309521928626,0.5667888514084578,-0.9074115095518588,-0.6394608216283348,-0.22772443123611852,-0.11050167495134125,0.060156631342519376,-0.25957073312033585,-0.00460410755699815,-0.40546134844774884,0.0037937710516492552,-0.1819457680067754,-0.6382788592965435,-0.582085569957877,-1.0527845395738342,-0.2034215726578435,-0.8162254507781841,-1.005216849998457,-0.32177237560120436,-0.7878798439347474,0.48675894629738764,0.607880804607132,-0.4771736841072303,0.6909013221472674,0.7458455295136234,0.2837230144931671,-0.17005164719387045,-0.7619255381149956,-0.5970090167242623,-0.7544416205869229,-0.9685351896146555,0.334306844481957,-0.9502580154323115,0.12055846214428244,0.09927710225826583,-0.5472994807567417,-1.0137825455052345,-0.6168928923286505,0.21415584598593368,0.4608187132552153,0.3779859702977409,-0.18463425872154562,0.8582450772651434,-0.9327726651978409,-0.9748723141938991,0.051085556339132344,-0.17579316510691093,0.7529335064184847,-0.39199572080320205,-0.06664506608725164,-0.25453673561495926,-0.6106639493784495,0.5452546866808913,-0.5934900551208191,0.6722818561869708,-0.6574285228116241,-0.37801500148488737,0.9503543269840037,0.5939939319076227,-0.3973189379750346,-0.4757431653624652,-0.3494333285353059,-0.42740318744846917,-0.7815787437306767,0.9365676942699068,-0.703621005679788,-0.8385802550818234,0.3054275603859297,-0.3022609989220246,-0.5456448299736834,0.6222347314471666,-0.5819173109067177,-0.8561993716834684,-0.4310663136855587,-0.722205927340739,0.7554725105615909,0.3201066515284959,-0.10693079074149946,0.7079556742470726,-0.6624363712743798,0.5461699616938118,-0.9905556793374524,0.9544152419811234,-0.5537898130146353,-0.2996621775999488,0.18343494421467846,-0.3784975855941145,0.13924916840730991,-0.616491035926768,0.5234559252945835,0.12208102869966891,0.07602887844718972,-0.4908555339900585,0.08142144482089586,-0.9920356232088986,-0.5732375606152298,-0.4594675344062688,-0.07978076575612406,-0.6298235071991803,0.6228902802735086,-0.51670127265699,0.03517305850535361,-0.3839923697274111,-0.3742416609361536,0.4771995107410997,-0.1307333023805847,0.24671707223965342,-0.6809935419342383,-0.5736728687126077,-0.653743166650455,-0.35128418634983816,-0.5515053928999234,0.6368334633370987,0.33487620283552144,-0.7537184711479256,0.07273402903004253,0.29513775631552497,-0.02359755933068528,-0.7818560173055857,0.547960545502388,-0.6232445913741449,0.3104119307892098,0.21421689436217928,0.6951484566330792,0.30758830826799727,-0.9779818163284508,-0.9769362217239447,0.5277765586703153,-0.6086894403782349,-0.7795404260390675,0.045840457649487236,-0.7867541929393975,0.6713579032572246,-0.6251885562578992,0.4760474614613705,0.6594344753133345,0.9712602639337449,0.39375409979511033,-0.9196188697021326,0.8159118584799079,-0.10924673676453867,-0.34873611478685884,-0.7878019528949264,-0.7314138979230363,-0.854676031339073,0.5674068387970621,-0.6594911302806623,0.09213763274320885,-0.6693605870519193,-0.5783610218163251,0.4835234768435634,-0.294087297412448,0.6053254741986229,-0.9178990129622989,-0.21353092324855039,0.6890018000493402,-0.31353769988170355,-0.7085158425670325,-0.04412574433184172,0.518730090454334,-0.0050686828157970355,0.8623612834438064,0.852471503288112,0.13846417144517909,-0.7013877388830374,0.10146643942256284],[0.9193880258631126,-0.9744196507190528,-0.020907758294571366,-0.8173291118740955,0.4556339317314084,0.9748875541575892,0.6813288621488167,-0.15195702849193404,0.8347996931671371,-0.2779191772624623,-0.22403608885375803,0.2474225544282589,0.30774699333090705,-0.9734468507710674,-0.43309568635484735,0.0686724657984547,0.3519812290404758,-0.22116261003032522,0.748189433857005,-0.23457565830334381,0.45987705156662195,-0.6428029637114445,-0.7049957375174578,-0.8004953560555366,-0.4179236146844716,0.4606568882026092,0.10479089310015222,-0.09466948092166394,-0.08660658831712986,0.5880010028303349,0.2002720085077494,0.609606684661429,0.5379562148459852,0.3646931909528042,-0.07727867355988498,-0.783383505114516,-0.18602687821496683,-0.5259311049927122,0.10695188719069482,-0.32186300057400624,0.3854246906305618,-0.7038478703406869,0.9271195835695959,-0.4787567241792012,-0.6482282406867825,0.5824099019348794,0.7575582838245448,0.31139521713430524,-0.004119261232193821,-0.06700655095586923,0.06468598440055502,-0.8831944270807552,-0.6595611746520573,0.023198232333267566,-0.014547445425043826,0.98455221664028,0.8352307719404981,-0.1644497080587064,-0.5352820204008604,-0.760365323283267,-0.9109247463837886,-0.917659291162628,-0.13632454014544879,-0.3479392951373781,0.3741997940700499,-0.5127007670409868,0.6430722550468645,-0.8357681093608553,0.6540301884966998,-1.0519814015175493,0.08324327971645981,-0.24782797001945328,0.1856251649454822,-1.1432008137539462,-0.4911326513780592,-0.3533725449325768,0.08312355832309229,-0.7178442127376244,-0.04086426470939119,0.010831109600678627,-0.5148211631088678,-0.608183496313436,0.8829638759032543,0.38359394353117193,0.3387261566742463,-0.9443625386733931,0.2300535515067745,-0.9855238550554967,-0.978116691251395,-0.17711126131404895,0.05971625741698333,-0.5143019180738951,0.8661625850461826,0.7855330488750318,-0.7493644528632059,0.5588693975283011,-0.1400202966246002,0.8057661113375226,-1.0334666602645854,0.16111546956135742,0.06558396007414037,-0.08109889648908873,0.05334901352437295,-0.7655066541989396,0.4609027708147921,0.748338363423843,0.5525364913872897,0.9601336596815616,-0.1698213223433099,-0.07930468466511004,0.34487605653531,0.09863648752327125,-0.9350120151749624,0.7589996569074908,-0.18505878219375294,0.5608866457724343,-0.9638846612083773,0.482211774431572,0.4882994377699109,0.555043802195184,0.24794726856440794,-0.5775715826942542,