{"biases":[[[-0.5568575067097304],[-0.6539864633258243],[0.8289986595425212],[0.5017524717254563],[-0.18906829802040864],[0.9689581471302249],[0.6573636197081538],[0.08817627355238106],[-0.2118974467191011],[0.8377381417453383]],[[0.405782318689161],[0.9699402532452732],[1.2281696540406648],[0.19434313339330686],[-1.553140855345921],[-1.182587088804247],[-0.5836792683176292],[-0.03419858894080761],[0.6258218876126347],[0.560490488785037],[-0.5193883145095658],[0.18666379809835215],[0.4745232532637957],[-0.7940448185634901],[-0.24947319000980325]],[[-1.0371297191849551],[0.48525640630938915],[-1.1619565446255902],[-1.1672049112155676],[-0.08095485862519265],[-0.5684573265806818],[-0.20699778833360774],[-0.13715303379667076],[-0.8577680216372117],[0.4638200461759271]]],"weights":[[[-0.28733420869293913,-0.05764643236579681,-0.9664953277912101,0.46368451854436343,0.5487881001393942,0.7229407565595567,0.8542410302146732,0.9609268418296539,0.7835351084811835,0.61401459334922,-0.5404278119762898,0.26422680334172033,-0.9705755273426628,0.2135816394281278,0.5643473450505947,-0.6034621230172741,0.28891888581041814,-0.7580460275084326,0.14420278543606035,-0.03684325125795329,0.42389100022554893,-0.6733036827666563,0.7358831458496933,0.6215190388630487,0.2632601061351001,-0.963108006788256,0.2713250231423949,-0.1984927437099595,-0.054633866339860226,0.5671785346537861,0.5090643396415162,0.2619852556806461,0.08721347039951821,-0.4520264854354361,-0.9945808882365597,-0.6704831616506433,0.4671356957005519,0.6522736532979259,0.8782861618190105,0.3761259570709281,-0.11066889148615022,0.16027567071564275,0.4200828430968111,-0.495188892382302,-0.6309849727304573,-0.6299165538078517,0.8183944410730821,-0.7912929945208345,-0.9791001698876318,0.9197875218252738,-0.10406168995305687,-0.9738056480219557,-0.6349329435661122,-0.23983712986256656,-0.18758369071632197,0.14809677481697303,0.4634074063966127,0.04168265351625022,0.02070189519630894,0.20679677532514829,-0.6606902392522283,-0.3621897287561271,-0.6472562552336623,-0.21852772649543706,0.9168996207778035,-0.7614904124944545,-0.15777223184785066,-0.6383066552483472,-0.025868875562589766,-0.8505237423871359,-0.4200024066110971,0.4210175004233108,0.16424326633095993,-0.35755179861667086,-0.2858382767035089,0.943220466623432,0.2023747370926161,0.8319675228193937,-0.607062917529402,0.1284930979628116,-0.11332678346124614,0.05563823125059497,-0.06575389282583832,-0.5603239112129754,0.542591869417739,0.6859470759169879,-0.16752359489394508,-0.13955665581672605,-0.32913496271107934,0.3347541598052304,0.9825678947521108,-0.18554389825107223,-0.72145165011419,-0.03962248411240263,-0.8346216727828663,0.9665457191798029,-0.45110567078144836,0.6946061251537046,-0.2540539782262438,-0.3470521575270286,-0.16726267269182574,-0.4426386869937749,0.9613919209866533,-0.690507204257862,0.21677122440665514,-0.6878854902981613,0.8958048128298388,-0.1779167263424397,0.19984537784103362,0.8297012620834252,-0.9559311999429392,0.5835244523844698,0.4809311886432974,-0.13865693449489958,0.9954877309607042,-0.2690327922017679,-0.6653663785721464,-0.9417702451242729,-0.16651113685956725,-0.07691839556406677,-1.123593747478897,-1.1480421378272627,-0.2611801873924979,0.08040846988754262,0.6206836056448911,-0.1403278131257742,-1.8666020541173043,-2.288462257670468,-1.6296778998685826,-2.4178812804108256,-1.340409072804945,-1.7149011406147991,0.7684500865250771,-0.6227463401052681,0.7966275456620509,-0.5112389514025276,0.606008445466571,-0.6917751718691327,0.8951161422015181,0.209210478339098,-0.36446478674667526,-0.8789065668116913,0.1578299890329291,0.8465624825431806,-0.007115955665027762,-0.5699504496426564,0.39633966975220686,0.2638268977028398,-0.04066179749985952,-0.9728198916529489,0.31985704225980405,-0.7420159493699477,-1.5075405881265513,-2.947346823529336,-2.682200222027037,-2.398893131614603,-2.660075935035425,-3.214123069707631,-3.325526154390758,-2.7877737228627337,-0.28427983432512477,0.5766616464685892,1.0674768898730036,1.296664087801212,1.2516994671931347,-0.3026184620126411,0.8643052709413366,-0.20710554350242094,-0.8923032686564041,0.8494218976091685,-0.43894747632448405,0.058285229989859744,-0.026824874508572183,0.6163856794953099,0.5436210354796773,-0.025129391082479594,-0.7803723437281241,-0.08755083000421168,-0.7162608676906437,-0.21693441774010913,-2.382392448892272,-2.6555106037853795,-2.0805268035105113,-2.0476344387922505,-2.59801067324901,-1.6419857101537745,-2.9502014389362854,-1.3783596886736418,-0.9429122481785093,1.5256352126640154,0.06124739181455513,0.9283775055924215,0.12268453068766662,0.7728476111662035,0.19230890394884836,-0.15048171577701952,0.769241429523768,-0.32458543654357497,-0.10692311283958733,-0.008888009433949533,0.1518117864818174,0.7799364832017416,-0.42348722668925826,-0.06745954150630737,0.4496078776576703,-0.8999697247345856,-1.3824983733316694,-2.2724848367946398,-1.3040130848124267,-1.1073766200858612,-1.0549562956746006,-1.2710738021065353,-2.109586301307515,-1.2664933329770203,-1.4109796366798604,-1.609821952837542,0.2781480977355997,1.483950314974249,0.5737237998207881,-0.8855207909614979,-0.12127515519124465,0.4127288864273031,0.1805711744191032,-0.25438689420829874,0.9098940649381406,0.5718533933455319,0.01502939284174251,-0.49069607739347565,-0.7966841462368875,-0.3263476372116415,-0.694148508800042,-1.0361578805346798,-0.4154538781904576,0.22763435495861326,-1.6461155295914662,-2.0782410224303094,-1.7304844584006691,-1.4014406873781287,-1.5319471966626892,-2.135814907152102,-1.6186707870154275,-0.18498557640735738,-2.4456771689862267,-2.309649375353315,-0.08687772802554018,0.12506831401429117,-0.08457214746322711,-0.8774036677550576,0.8237072820654311,0.7781042792135291,0.48984598296662196,-0.9204252470980392,-0.34921344485414574,0.5485906297724099,0.07788074749395224,-0.21244983506021062,-0.48774699905503444,0.7948325557792223,0.12257620338786278,-0.861897078421502,-0.7527849291508317,-0.8478234675321987,-0.10311574276427327,-1.6464192203071923,-0.6929541720547154,-0.5033245118831294,-0.9731460116627405,-0.7196721403080922,-0.7252665607402627,-1.1541449170078542,-1.5415025600441357,-0.850256832155066,1.4270334200679757,0.4775835577693383,0.3544148726343303,-0.07675196112807135,0.5740704444684863,-0.4438012412056256,0.48978509933583525,0.919454673659666,-0.6335580590617942,0.929173345645159,-0.5422391811940898,0.5895909201637388,-0.8097442100270549,-0.041957767959333266,-0.29640384916179513,-0.8882138958489199,-0.20494397913118276,1.103632190117804,1.0373820869644772,0.36266315268266125,-0.8340665153456114,-0.24609295742940496,-0.11810930751552748,-1.4521663580665134,-1.302666467442293,-1.8374896008441524,-2.465920191729989,-1.4624208177101017,0.5526880898219995,-0.21384876256532862,0.5655213371370775,-0.05341105601626325,-0.22963094677422807,-0.6236372561937595,-0.9467435703284195,-0.6166656086916407,0.0031980486065366076,0.3749963013794384,0.738794979592643,0.040465349344571286,-0.8507291869305931,-0.9561424746737857,0.42475882803659903,-0.8956070734220348,-0.3093177045258466,0.21510011931226664,0.34046768917476766,0.18073096715313672,-0.6895281321670035,-1.225102519542481,-1.541120102151273,-0.8750614262306736,-2.1956836032385203,-2.5696768550637024,-1.3734654616984905,0.8323611506979652,0.056319564895264525,-0.5428838175831993,0.051811833660705485,-0.37292884622651845,0.4757154906054676,0.09065458711416138,-0.5355992341988142,-0.6377853252728107,0.09999943784089704,-0.5969971208407794,-0.37302205414764034,-0.46863828510850913,0.012537556295831075,-0.8626502154435334,-0.26660783798995197,0.5608956522300353,0.7065331386129385,1.5791475962648842,-0.11664705221412464,-0.8266508824667023,-0.1391886947837129,-0.5704257116199765,-1.0288127927145068,-0.9428777720596911,-0.926202403472455,-1.8540782465186108,-1.9245596572357824,-0.5201478716772439,-0.43347263964269206,-0.5051354110944497,0.6923929940245769,-0.8132064440927607,0.03666555688655784,-0.3186584007750579,-0.8812848713500161,0.8278254481700313,-0.8372208693614247,-0.7222053516765141,0.8004412608464775,-0.5149453593695834,0.7069974986928241,-0.9276925219460066,0.948549591153244,1.80439315992524,0.06299681618670384,0.14789902313581174,-1.054123325117325,-0.7309605531956049,0.0714047888253937,-0.7481016401850127,-0.08409909631058697,-0.9552949299665374,-1.3911262059335727,-0.37736886748011583,0.7043273410452396,-0.7231989297686077,0.42196144847795225,-0.8709732805953707,-0.2487593454051678,-0.10483664798918696,0.34476884531825625,-0.0696254958218383,-0.4792177376245239,0.03630505385648619,0.6880756301014748,-0.1154088620108571,0.5702861722354038,0.120649716298318,-0.6467046369942542,-0.5897090845580836,0.49124260746943815,1.3662136691637075,0.9909463167167804,-0.3217403679903739,-0.5359991884061646,0.4225687615185258,0.8509240609846815,-0.6077765926971233,0.16523588863522232,-0.4494017634627401,-0.24307725447660955,-0.9206453583802904,-0.5419701746318968,-0.3835241332663233,-0.433650267996296,0.5129328145710643,0.5774317736733799,-0.21678021515911067,-0.3338641565112774,-0.2164645950501547,0.09806411996671005,0.004931498079561614,0.657185396486506,-0.9416996389892347,0.6036212775961294,0.7592385217732796,-0.5183874864498503,0.3750880893377251,0.814247832015162,1.7810327705351727,1.1699996965042758,0.6231283538945915,0.38600893322896923,1.7326055218247978,0.5545346738069094,-0.7715076757542002,-1.1743335257039307,-0.17443687361072505,-0.3747450188282759,1.1261866119538164,1.4817466085114068,-0.4303727706539581,1.1939628282458228,0.5110092955932035,-0.4917403798256139,-0.3722563111176303,0.22882870137980788,-0.36678472216614044,-0.9696156098661108,0.16875356007167452,-0.2909603285098643,-0.7761293432280947,0.0655517601981539,-0.20979653791292407,0.17893420035175445,0.597493128747048,0.8785127458339254,1.5812478989237695,0.12155565202831609,0.31780806203203865,0.0284074851860028,0.17884389062502082,-1.0796408366008103,-1.7088604171971713,-2.3789363795065364,-1.7506218085262713,0.032706679041155894,1.8423581766396966,-0.37370363546811813,0.8813451235000476,-0.5918262389973292,0.015467663920375446,-0.4294927113882488,0.6063496805200108,-0.24897498774176,0.10540566153953868,-0.41089716145524413,0.41590723203348356,0.338965708706505,0.5126605063563363,-0.002863301632688886,-0.5721032410099092,0.4063893492744255,0.5090739528508043,0.16476494662446584,0.33969524216704106,-1.2158121727217546,-2.5776708103371164,-2.5720088291133374,-1.5002755958154674,-2.251007756387046,-1.816762824670569,-2.172494705160646,-1.2331989484306198,-1.7939538797283772,-1.60556382184156,-1.8181512781153741,-0.9604307120069034,-0.3520279620329361,-0.6778244514800996,0.7865991260651929,-0.5547947960050434,-0.3173032671725807,-0.4253653529750483,0.7772452124962572,-0.8608304614372078,-0.89856114689204,-0.24680894245884533,0.0007410327324051114,0.10360915513754332,-0.14113419723161447,0.10164881466789281,0.4274068279983241,-1.39113796063901,-1.3389357485924736,-2.9423041675726553,-2.292490851608181,-2.5624186015886625,-3.1606287667337005,-1.2054496701332453,-1.941378726249992,-1.6123913838991197,-1.3558794757683563,-1.060922245099961,-2.556433251771473,-2.088601764141608,-0.7872514920627014,0.48361625667554,0.3717338831028595,0.08732595107987945,0.8173078739235954,-0.19028509097235102,-0.9828966736201927,0.483118950564152,0.019726469925676948,-0.5383623231500634,-0.7823112146288531,-0.21110604411891654,-0.4146916518715575,-0.4358267181224077,-2.156820215806765,-2.1633468632429063,-2.8019091833288527,-1.7271341126118651,-2.7224478138328014,-1.4470953761054366,-1.3853131149537052,-0.8196749110057606,-0.10363157141206003,0.5160171874064456,-1.793244548053863,-2.8205656726961257,-2.58382827335357,-2.3012664892727193,-2.09076159035802,0.5854818740623356,0.4998435875114234,0.9524933459984389,0.13742710915734124,0.9085470073384763,-0.5197823311697907,0.7951876891618932,0.8485152322823235,-0.9150082818126175,0.5179632839342607,0.9577146040677949,-0.7674841304017599,-0.7800027005793773,-2.340202498100133,-1.4038920300643887,-1.3794209807223445,-2.708294122435852,-2.2664488470313593,-2.530115061905312,-1.2455883213693608,-0.9619779344860026,1.0639094907034576,-0.8691444555825093,-0.2660757320244771,-0.6366656136821196,-2.2067649112494223,-1.684374735306762,-1.36704674516498,0.07817875220909065,-0.09872379825441242,0.38923899638415405,0.19843268262005778,-0.959494984465681,-0.3672474800328289,-0.2993422719008798,-0.11113022280798246,-0.13517890677552247,-0.09039616643804815,0.10062922549940256,-0.5611367223912421,-0.37937841280774004,-0.9315494611690003,-3.07683302572787,-2.2814634117835957,-3.23943521854496,-1.86392482267428,-2.104164218835621,0.01871784255986742,1.125828159805835,0.8142253827135808,-0.19613560066500524,-0.030306084793872194,-0.2234022638533523,-0.9291773090384082,-2.472945156306202,-1.5516276919377676,0.06751731366641484,-0.5358698947473387,0.9092913660969982,-0.517333919081495,-0.4034515676599586,0.32693255146087385,-0.38353782507521883,0.6528206686605795,-0.0680629968142703,-0.9700589721422561,-0.2004493059682093,-0.9777746702599003,0.914123466875929,-0.3311086776840778,-0.9707393523257009,-1.773328540235615,-1.4774760646244425,-0.8783757813490146,0.8915665283581011,0.3218709165645026,0.6147601096111834,-0.8899415622322264,-1.0996541920584404,-0.6008775251938642,-1.2147275546793703,0.4309190525325807,-1.7126143291608773,-1.3715510779957802,-0.2502354241249516,0.501718575202839,-0.3137138836897724,0.6000849811765878,0.895249941015025,-0.9556379955283094,-0.20718468705646975,0.6053829426827926,-0.2678885992451361,0.9057945973448263,-0.4320281296185595,-0.8734537776727811,0.4703454708209901,0.9757655010599798,0.6079092346611398,0.17927376822971886,0.009776270681940456,-0.04920786377160321,-0.6386104647907113,0.7570835563041164,-0.01878176610686939,-1.189469461973306,-0.2692216674086038,-1.0489100923475652,0.1033480618820069,-0.3292665467999173,-2.351603484021097,-0.9833033571334352,0.5359005233543472,-0.8471546780849668,0.4833179137592505,0.267189353303561,-0.6406902779848409,0.8335281146800531,-0.6259302802461797,-0.07457463248706042,0.15849363665315108,-0.6851462381080395,-0.1665884952102532,-0.22405802040760658,-0.36631619566482154,-0.09153456743375231,0.35265409773450157,-0.9152096380393054,-0.6879617223143026,1.0827318806893236,1.2638971843479945,1.0033907820150092,-0.015338986628094482,-0.24797874269776654,-1.0139376646109595,-0.5441727757833141,-0.0989756512813285,1.0326036197957054,-0.1767753004503694,-0.5754321883492542,-0.7554295327355732,-0.3778221388329537,-0.7798461011670021,-0.3564924110792993,0.2673610860006488,0.7442638039822627,0.26706157658727925,-0.8421469679895792,0.6823629397932429,0.590070728094056,-0.4962550591260235,0.728367265004348,-0.31944203233726665,-0.22974386995617668,-0.08285458688807301,0.44305043247785225,0.5050584324799825,-0.2621076373734143,0.07272614179454426,-0.514921189495133,-0.3563491077499655,-0.7170456361467277,-0.8583155326004791,-0.5081213840279155,-0.7371476788495887,0.8656914038152198,0.0994344548541446,-0.9699085632612878,-0.657765225787375,-0.5803515101895786,0.48785246235405055,0.005287774756969954,0.3373840880871892,0.8171353856049748,0.5209824397840657,0.10559737111547052,-0.010763366854952938,-0.4927838503159019,-0.5800004713822078,-0.4806897865519508,-0.29209145391998526,-0.9289442050054051,-0.3989927714668937,0.7039400539908708,-0.06496629541765413,-0.6645801129781086,-0.8258645306017904,-0.7096208508175492,0.9954845434122319,-0.6496855034353308,-0.8024414991834549,0.6714694897712467,-0.34787054257745464,-0.20293619785365502,0.43430059311314806,-0.18330842981893558,-0.6599206282070311,-0.3494269496886009,-0.6487599260433092,0.6681065149801313,0.6271806258304415,0.37633992327805643,0.47019940804635363,-0.4181303083290224,-0.3491834365935589,-0.05611260730272449,0.4404518337862082,-0.12792074873145598,0.5745308654780632,0.028813765691197313,0.2245228369649619,0.1948481026822937,0.6798497790946978,-0.6271332947647417,0.7378817332658938,0.9010043203415139,0.5378703655899177,0.8774695173403645,0.8231478763080178,0.09943799643965963,0.17369592917221666,-0.897947571175542,-0.06332693023040048,-0.16647972851845894,-0.35597725429675675,-0.8276145804896573,0.5862031152889922,-0.8751721008250553,-0.24946606038230068,0.1727181800127271,-0.7349977528860758],[-0.7138639885074496,0.0859189850316251,-0.1011293766254584,-0.42531205804857075,0.8653874023409787,0.6835012424899578,-0.9401041157545924,-0.5834839616612602,-0.5712796436979481,-0.23978646505707246,-0.4358385185769966,-0.3031403415843912,-0.21550130988191496,-0.8837977717818479,0.3222853670059733,-0.5954642226459739,-0.44105127195668126,0.6292647822106241,-0.5087842047016788,-0.1388553794530003,0.659677356042379,0.47457635053722025,-0.7059492841206096,0.5958678810856022,-0.9500212059654929,0.7316841471120659,-0.8953296459926634,0.25439547691724207,0.7851841912156725,-0.8713522492799688,0.5688623013686043,-0.8336693253834291,0.7957777192009088,0.9725493576099897,0.21126687041110315,-0.4436073489417556,-0.6007524314036181,-0.5990098369173107,0.6993605368546638,0.38070957834011354,0.06951591746565677,-0.30438280091431147,0.3477125000922823,-0.2522026972555773,0.8962165183918009,0.5702815601448967,0.9661147623315987,-0.3239820288756845,0.7219737504203487,0.39435384883868796,-0.3027297087784242,0.766688794716806,0.5657578053911061,0.9849593296221197,0.30944791142119055,-0.5328663910536102,-0.13512843782042827,0.6166648061329554,-0.11742787584976111,0.5949623392335524,-0.6762000409116282,0.1728838303938327,0.4739243035251932,-0.7617501905607829,-0.8247055514572834,0.8974678217087453,0.939157771775966,0.8006540328972804,-0.857508957290593,-0.7639984073574464,-0.29854863570528334,-0.07959064663108228,-0.24485418756952226,-0.7014579129791556,-0.14966312574164964,0.7294119245400847,0.6378809727283503,0.7631453950416733,0.8844420507046538,0.7437206014011106,0.27111051396586827,-0.1717635032600222,0.6856201802832329,-0.8009118061095142,-0.6921652539481515,-0.9859696801865323,0.47741615723904696,0.5598775948157417,0.6760847145733357,-0.8309854428691905,-0.25133935118905537,-0.1635312858098137,0.27304018243609574,0.1163138806152535,0.949162338197864,0.622612557091377,0.9251486033294472,-0.9294154466401277,0.17189417596807824,0.6627482154408402,0.17542324119049948,-0.9302259005398953,0.7625617698749955,0.6956056458735861,0.4552079943151659,0.7665958968507369,-0.3583399704059287,-0.6550433944871261,0.0792830113037748,-0.7125498494398828,-0.5826438143546815,-0.7637492722602095,-0.9413406671817945,0.5223007571606473,-0.6943809429140366,0.5670325208204805,0.5552212424284733,-0.554822422784055,-0.15368849689023611,0.41277913054307747,0.31868314040481094,0.35320355346990806,1.5479162632781545,1.8759939511893104,2.2545832879621255,1.6957063962542027,2.013548745760191,2.6872860553001368,2.1602638404226164,1.8829167192663772,1.046635577432536,1.2069702028169962,0.5704635206645122,-0.5286448091577722,-0.3062508156204713,0.6100513956627853,-0.7391875770971035,-0.8369442684762622,0.07336548805962217,0.9348056563502292,0.11727254363757122,0.18280761887710617,-0.19695209685422665,-0.38824980219814775,0.3405523065136269,-0.5390970409615179,-0.7411479895498523,0.39000364941392185,-0.07161049662985852,-0.5365985928526198,2.5473591608485138,2.4713881398647546,2.641774642399278,1.4461746796874877,0.5583891506979985,1.67527717871814,2.5220740563869946,1.6364545893621147,1.8950319290663127,1.7796197637313496,2.3141111301738846,0.4650325362105054,-0.2877774273151261,0.9623492784241405,0.1630712188964063,0.359396425563421,0.0918664753313585,-0.7046188415043606,-0.9853139681467609,-0.42682336311069746,0.2547337404819303,0.28900682708426717,0.32914690003534,-0.7624842717580964,-0.04967973352815891,0.9163750030549722,0.3815597566901163,-0.5946560806267285,-0.30474233170794796,0.5066289245089816,0.5256376037908723,1.0750231146683826,-0.8341985125704171,0.7454730037334427,-0.3210940675300853,1.1558690033029468,2.2108486854951126,1.2819249684575365,1.7534873733377954,1.2625150532697753,0.3928274471680292,0.21195167557704497,0.27649667505889397,-0.2682712733726731,0.9471435523305771,-0.6283574619592034,0.12360333702260773,-0.30878932066197806,0.9909900899634048,-0.8648775998029752,-0.48486857025829266,0.3020288141879879,-0.9135376239779656,-0.7247912624850126,-0.03611070879345461,-0.9543808465453875,0.2601685530373295,-0.8934512934494955,-0.21843189479151726,-0.9769365093753252,-0.6524345257816473,-0.11226019231125489,-0.7086188211375402,0.6366052409275043,1.018219612086995,1.2612005647520386,2.2135672596108837,0.8771747327591293,-0.4961599973398651,0.011387376276185307,0.24134060476451322,0.6003666012743658,-0.23802045347133527,0.5719327035858011,-0.7020580914954875,-0.722463027406586,0.6608080703855175,0.2095673266656859,0.23297252201370044,0.0765978754041472,-0.33676632019918684,0.15317057892973573,0.0371600458396041,0.90940986378221,-0.3859517917832398,0.2075788069404484,0.8018088654874268,0.25570153503280096,0.5297362441466568,-0.06975490049266513,-0.41473989018063806,0.0371509829688053,2.6898912139871674,2.885909459381386,2.754273061809701,1.7690105038719248,0.6513329600993385,-0.6667617114738468,-0.49759277795112317,-0.2828266678089067,0.6626630984327015,0.5642038743120379,-0.4891030505677485,0.0970157602276549,-0.17166597328348931,-0.5595452634156821,0.8961854413744397,-0.34596351880263554,-0.33444386210635924,-0.2561247434654035,-0.47427388066036813,-0.16213384838413003,0.5576708415311051,-0.4385666195744926,0.2137660087437595,0.2078338835528126,-0.06282025649224274,-0.9078137930060052,0.9253510400478406,1.1392156979276244,1.744016179914739,2.475830849051409,1.5154493821346617,0.26621707923273297,0.6309230941357775,0.2080140005587036,-0.9707822860835607,0.5570741014389966,-0.7667809573798507,0.05536261578868351,0.07454383598112413,-0.9645469513312264,0.7883924083808271,0.17378523976753524,0.002113460657052091,-0.4805135212473164,0.938810108077772,-0.5758983383817471,0.33005680126944836,0.23399720118401515,0.18517271322445092,-0.5375364795860352,0.4794889463914848,0.290625045489401,0.5798081124578771,0.9647539736513535,1.992108569223483,1.6237235354576107,1.6975912736520056,1.1190284552888414,0.8212549953787806,0.4451621475312891,-0.48690521823343474,0.16493483002940748,-0.3794595264317048,-0.8302715944542229,0.2490109897878563,0.4396262528176662,-0.21183875371091476,0.9040487694593964,0.05666789030283259,-0.6191616162305911,-0.7582473201196085,0.8548452245546383,-0.4177518758853229,0.9743148605259999,-0.5232142579095928,-0.5565550765029301,-0.08937482717800135,0.6189341828442317,1.4678106498820709,3.1145041555637545,2.800011632839211,1.5788017551466798,2.730459070260352,2.470036311394395,-0.7446557278012798,-0.10589292074120177,0.9774890677462331,0.9241516003274661,0.21810056724224627,0.0695932746918726,0.36579746179777084,-0.9114995766709415,0.23913807124384046,-0.389344260521131,0.7972726384697948,0.6877974171917931,0.24612005032024564,0.7072036918584508,-0.16265337676939295,-0.26091610381587915,0.26339221207984465,0.4433663644873118,0.3330055086902348,0.19070914641643388,2.011333056394741,1.624584838464267,3.0502812695031936,2.1752498352740846,1.8212037993590355,1.9775962613414806,2.3964792597154903,0.973896409467603,0.8014355773070732,0.06129926575304212,0.39186930560782807,0.7572537011532122,-0.12777091958785589,-0.08536684755129609,-0.8917021512208845,-0.6715721606289582,0.08454090136328296,-0.26339979797059376,0.9641674585971758,0.44807443665099456,-0.5265035790333652,0.10357001232620355,0.6038097326623899,-0.49165683421982576,0.2705442582783544,0.294623770225233,-0.9776694445357464,0.812665583131194,1.6335046292127386,2.1935599607364766,3.0308470319730185,2.964694847721627,2.9704268627977934,1.3332730078554489,2.166589571542241,1.2808193752419201,0.34857483063072575,0.3880267059470922,0.8190867751637173,-0.8690302371189567,0.21423618851659354,-0.9217152152121926,-0.9898118935454054,0.013864743396484025,0.3872587099343292,0.95453431052266,-0.06032247025757109,0.6645614334641468,-0.23516448321699102,0.3577776670921089,0.5939170253701043,-0.437776747789804,0.8775349421484413,0.04573863395851263,0.7843531590032524,0.41091015527124053,1.3283123300812103,1.3218275434442024,0.00881950834749401,0.7672955094557252,1.386173635441701,1.389624704713541,1.4707111769530479,2.867928224466871,-0.09265532777944718,-0.8314918315213123,0.043820215963659766,-0.09085237374970179,0.6659534256172537,0.7443407158851032,-0.06919458279885182,-0.9985594436010126,-0.5547499471031574,0.9048426320577805,-0.6208022278312875,-0.26408444886934634,0.26725485719018605,0.11029803227447998,0.331111572454164,0.7022401991251548,0.0959560117116236,0.6964547964312607,-0.3565691409782368,0.4839133297040618,0.7787904675369591,0.188799159837965,0.4351614861021326,0.43054836361352167,-0.910281339684729,-0.3253088741779093,2.1108357992582425,2.160237697706237,1.1143337318976083,-0.06461922600592285,-0.25934959998760976,-0.054382527808156444,0.41755177447403,0.3414092222697167,0.06198426232075649,-0.48603889395359023,0.3631340869645703,0.2554076492482289,-0.23907208500656507,0.613099527932089,0.3057661371611595,-0.9400869516551034,-0.12023784625106981,-0.172468981516124,0.527031517822153,-0.12940504970255598,0.8234898398980228,0.1209699210217521,0.9983936765788606,-0.905465756998195,-0.802577812102638,-0.4035303134344693,-0.4762467893822351,-0.8134848356381825,1.4140117541478572,1.5512427633845591,0.5739790421433904,-0.9827412564521865,-0.6716912946116143,-0.6683784092894447,-0.002186244902025125,0.04950138442885743,-0.33143772823404305,0.9011794441882932,0.4050677661535331,-0.9895240851171376,-0.48163129078562883,-0.5109535583344353,0.6206935269519733,-0.36205834016511296,-0.8090026644898356,0.36998032511168627,0.3069479835413053,-0.9171140018725076,0.0002451217724740341,0.45954175668837793,-0.7291888450111463,-0.3654780704531507,0.7539745219573721,-0.7140754363407832,-0.3863853857901305,-0.8084084918164074,1.038044196046045,1.4099284547827249,1.251219882385511,0.8207593144994118,0.6336507034556111,-0.43381277712239763,0.9463631195681768,-0.4517539215057895,-0.2612576239011799,-0.31411517240010967,0.1915192113736357,0.8409983323393528,-0.8482426619865537,0.49638255315237423,-0.20546189455008323,-0.32163168538406994,-0.4579125832468631,1.1394810852257171,0.09988015214275743,0.6093141306434015,-0.4074196087329205,-0.8149486422002787,0.1643711407388753,-0.8824082579757213,0.7437964153235569,-0.17909280247078968,0.9587484470181078,1.402778734996213,2.4287607475472286,2.2173706211293323,0.00010910804506264471,0.880537019365266,0.0022737813107153422,0.5864649130945043,-0.7734517572120103,0.022848589844142175,-0.7146849851954251,-0.8967453360012454,0.997695313359255,-0.7816963948733215,0.03144102005032745,-0.794656105756053,0.2734819478486248,-0.4099981783068605,0.5567706816578724,2.51692277030744,0.6538556863416832,0.08940523306651964,-0.3785581748050806,0.38447286077852516,-0.8454481336419893,0.07308905557283066,0.45038036841345447,0.5623428244346246,-0.18076063409747578,2.974365883645493,2.5565325539715102,1.7451627174021684,-0.8182615216854916,0.6408084009038764,-0.13478305005267696,-0.6236366579187924,0.9950990232773747,0.30226136755620536,0.38095297800165984,0.17601390114335724,0.5253324552230658,0.22204645847757654,-0.35298955937569687,-0.691758712042982,0.21155729741420304,0.5684063399555808,1.6480392308340688,3.030758693163955,1.7779342820885156,1.1427234657472671,0.21869973914766863,1.0164411668789117,-0.5754098890920222,-0.502281844625886,-0.20006647890828538,1.7241522707967345,1.2821583652531912,3.149736005093649,1.1500841641701627,1.319545466796315,-0.7148465552145079,-0.49894785344822196,0.5086357650382081,-0.083183706984987,-0.16476885836227861,-0.40958426937898906,-0.7879345765595762,0.4981961497487659,-0.30530378013386694,-0.6677331791491505,0.36024881823253785,-0.7703384846978587,0.20788628570108547,0.013989817129121285,0.5050188981476583,1.5400869710537222,1.8076560148533676,2.555871100693752,1.0153148450514018,1.0994588794328717,1.2019790866630968,0.35374242117874855,1.1083575205449456,1.9972676087382744,1.7077697274707728,2.2491782667565787,1.357177956408134,-0.16108421958908056,0.5004184400830605,0.47092291162180433,-0.2679231767265404,-0.42823418862309226,-0.30367592600146653,0.97796065528558,-0.027409559629097746,0.34904888148935864,-0.5984543779859788,-0.9417512705489401,-0.9716631986520685,0.49478708465919663,0.10074872607095631,-0.37083144245253186,-0.4216644328052821,0.10392589361671856,1.3153596694538896,1.9372161237595116,2.1187823694178154,2.0267455326753194,3.035433059770033,1.4987894271335438,3.031179692707414,2.431888481030203,3.064250492004609,1.4964025211807255,-0.1244725135208889,0.12355261369699333,-0.4991587110950664,0.21388607178130048,-0.48020429119605446,-0.8998295852256633,-0.0921689990335055,-0.07934048996467702,0.3839777899427679,-0.09274586387976047,0.045086478877049974,0.7670098459144234,0.8699535129365639,0.40358050966824877,-0.2416407149126114,-0.1995257114710549,-0.012661463448662813,0.7866138642580753,1.1715570180661443,1.4362760037618558,2.5899915744624584,1.6956881051581862,2.8940593135078823,2.5652320142094904,2.6389260269420127,1.8438943861343449,0.9348051280073443,0.4143785852722477,0.6679956906899829,0.6182437230273108,0.06311030184704602,0.32013810596695946,0.06702775401549999,-0.9941024615501186,-0.32545598779823726,0.7511108712702192,-0.04994362966101806,-0.941104990291266,0.6408861251149209,-0.8780128730745862,0.743369328208243,-0.051262623414979336,0.766736805717926,0.28044742328567795,-0.3882486937055303,-0.62318808452549,-0.5703118052979058,-0.9700443826575951,-0.17470366886885033,-0.24591207534705084,-0.8678486496029649,0.23830713515903737,0.9182497940807335,-0.0010409556856534243,-0.507944551448387,-0.8526645413471865,-0.6960581087312925,0.962700885318656,0.12449611000480632,0.39551653176142376,-0.9730556810898936,-0.1965257725698788,-0.3519735915246762,0.043926336551456835,-0.8918068434832322,-0.6782636758999239,0.7768716160255433,-0.9342610387741666,-0.5243690852985392,0.8444577928459851,0.8505207375438608,0.9723337232310951,-0.5918005657474672,0.7918326358689407,0.16273184298648835,0.42560758919621655,0.7770005020871743,-0.12110973620218321,0.40555856296255316,-0.283337390666148,-0.0916808379540659,0.8251648036798475,0.5721539983701402,-0.043922930561455686,0.4180055726023062,-0.35466262780305047,-0.1524273688039588,-0.12109536512883823,0.5217214612790673,-0.24011895756814838,0.981295959202513,0.34468199781526443,0.8489973863089018,0.19209289479717162,0.7912733492289354,0.7598325514281752,-0.400831236354916,-0.7987417251375426,0.43237647659876544,0.39008579804615073,-0.7682937068801405,-0.5707270825080668,0.9327745921745025,0.029419190414509577,0.4298164707338488,-0.2506871101596084,-0.7914643896462118,-0.20396011260630234,0.943848080996943,-0.05554449487368207,0.9413762154410756,-0.5504663840287582,-0.48824349597517247,-0.06464010634537032,-0.4151307782965368,0.6997423258459003,-0.0843513018993034,-0.29265348470346586,0.9455769860884875,-0.5699301254646532,0.5064619230848921,0.35969254882064505,0.07638078920324243,-0.5406905360279011,0.3442662030400896,-0.9709012436403766,-0.4017988727264372,0.703468913204863,-0.9093572096827969,0.4149261250769323,-0.18188303226795055,-0.6387921306414754,-0.4015235703109179,0.12311116920925991,-0.7178578070718895,0.6935405169896494,0.8836593352923652,-0.8876146867519026,-0.5875938542165988,0.49893461803666384,0.0263399083421747,-0.5343687457755262,0.6486895157335217,0.9604921842580214,-0.2530642401681984,-0.5128576861477112,-0.008005068393748482,0.8581700985533187,0.6596922403027026,0.7678951886420959,-0.891025219462489,0.10380015015016775],[0.6243354652985522,0.14154280288622356,0.555911675710874,-0.9447152179721188,-0.10022972923612583,-0.6845999468638873,-0.5147050093952004,-0.5026525131685105,0.8552463077892534,0.1436082338239726,-0.646582016933448,-0.28247492598291646,0.43979818628726663,-0.859592745841733,0.7990038256673448,-0.6470399940540061,0.0498117001069609,-0.7596760814728778,0.11514348700844912,0.830776808746237,0.45780978514449755,-0.5148521482317758,-0.06993300035437633,0.36014592177650195,-0.39697775326706686,-0.46896788046396676,-0.426837361457008,-0.6229461425687666,0.4888570314634273,0.9317292382824032,-0.6579327485820305,0.18322374297435307,-0.6386979182591137,0.16007734842741672,0.12148503145490364,-0.8611516768283525,0.723212648858828,0.21341898407441828,0.8532788488841991,-0.6545352423014938,0.3118093039714105,-0.9136311717684993,0.7310402831893499,-0.8933617889070364,0.9501125416026073,0.15889152041278765,0.004391940768980307,-0.5170836576290057,-0.49075946977587126,-0.09574779690943758,0.4356715474295352,-0.39950530797051464,0.9249498622486827,-0.9245442940573274,0.6776656804254797,0.4267855979635462,0.8794133992021547,0.2290827932605457,0.49673011869578443,0.09019445811229243,0.894662392901227,-0.7226078481922937,-0.3190248986601134,-0.8709470884468689,-0.2724381085358498,0.958244292531812,0.10571839167422994,-0.5022894280561826,-0.34805667751524605,0.9804871287888367,0.3657863581324072,0.4524605680906742,0.3076824646661284,-0.5877869908911647,0.8259808001571713,0.9768561544740573,0.08051664052409535,0.4404056438938928,-0.07553552331773639,-0.5436519136757696,-0.8063365185396405,0.3482292843367074,-0.9363886349212973,-0.26693485824150454,0.9749167801165475,-0.5454827669401003,0.03198528540168555,-0.1641605050846915,-0.5147033711601363,0.9976902883791252,0.9436980481918578,-0.28712704797855343,-0.8448193459198063,0.18803534584910062,-0.7052563486087654,-0.27220552282495264,0.22174912998571122,-0.3643671005333341,0.5848603373992265,-0.6932953983486817,0.8320491562180857,-0.739144260416897,-0.514031372957411,0.23671649988068819,0.41341278900958955,0.49006528149729767,0.7677186370095876,-0.4522578747045023,0.5663210631518643,-0.2960804564607056,-0.5804616180459279,0.4453051289393548,0.4632147289797732,-0.7472211114077616,0.7391663625293956,-0.060531386282165034,-0.0609791085507867,0.01829514356989015,-0.7082295887018653,0.8251278439855617,-0.21766591838428587,-0.48210037606651135,0.6247939212370752,2.07635628722213,1.6797311669189594,1.5982877748978357,1.9904263715319375,2.3438939181928355,1.8047797425052037,1.8929177495035643,1.054624914003413,0.6907329651611824,0.5188829208976456,-0.5449282406434219,-0.3614399480327263,-0.6868498100937805,0.8824910778704691,-0.7257867565516982,-0.26254719469794785,-0.5562107769722076,0.2226627732160149,0.8306225031648011,-0.7648472308276142,-0.677649242894333,0.3524988184758511,-0.6022520460296512,0.6622441192710371,-0.29906925218136104,-0.7488477011026827,2.6641673524306286,3.5792068503421843,2.536938720558186,1.9410982881592098,2.668264951105513,3.4131707986227653,3.1042102224922017,3.051551216279779,1.7234596914989035,2.6772780609124855,1.4529225312683547,0.6489036437223191,-0.1665111460717944,0.28142162003983323,-0.08596928275978728,-0.07123218382325743,0.8575280880217322,0.5904311707360237,-0.5603536461137166,-0.4519375933245926,-0.23481649753513634,0.011051636645095675,-0.97482242842078,-0.711964156054177,-0.065195532965723,0.86217740677786,-0.7727378689263716,0.8865499531581855,2.8723395586328513,2.0667040068242564,2.9910600827207867,2.105923638811223,3.6442230277015524,2.753065822894054,1.969097748167635,3.4499224523884733,3.5364115980828874,2.5697059176039176,1.4686678183873634,0.10492055716497663,-0.6318179787712319,0.6241155832287077,-0.21069603340956577,-0.16766552085279124,0.5704557764485241,0.16033880506247367,0.6264134333997062,0.025687027765276028,-0.02744806376023729,-0.7455717188181958,0.9418162626348838,0.4316761108367293,0.8288850515012235,-0.6940380010885364,0.5734726036690951,2.940648615107579,2.71824236406876,3.637701177966135,2.7660911181165493,1.746944132427379,-0.35074410820798285,0.3672467347866351,0.07556050368727865,1.4858845974269523,1.8083128284425058,3.5142096273609043,1.906065139175635,0.38054977817268015,0.4082525301708339,-0.21308524399619155,-0.12659130753524794,0.8153575782587147,0.6623672562098634,-0.9172163897823171,-0.5361825077263569,-0.8709046321845036,0.6173428311166105,0.9939654772792401,0.814336470898051,0.7002135010928774,0.7499967469455787,-0.07204103979599563,0.713146055433391,0.6865588798193393,1.698552954525191,0.4346302345157537,0.12909361081046825,0.8681407079487609,-0.8695081444691782,0.21555299046549095,0.3148991276998247,-0.34579714671274625,0.33797658327525704,2.566077582674022,3.253033207877511,1.2819711680983001,0.7168380312093721,-0.3016389405058783,0.565537019087913,-0.2585580095640279,-0.0579776243588952,-0.8056359831209126,-0.36621565294486125,-0.8034104496940252,-0.20869173956755332,0.25552529471894586,-0.9549168797957805,0.6857540858806721,0.5651540934098573,0.260239299387333,0.10157831346134974,-0.5344473492914736,-0.5245897299061862,-0.18042600152662716,-0.10356101660619252,-0.31180606672373823,0.6174054025293808,0.0008584732533537232,-0.605562131939546,0.4361750466172515,0.6398198018442313,2.684329721205554,1.8235920728208752,0.691522351761971,-0.45389673392656366,0.28164467564354306,0.014514660459632931,-0.45281548458829846,0.06419772752925823,0.0616801877223454,0.7369687281866937,-0.04466994609537389,-0.8217161111174385,0.24835965245533975,0.06958548307542434,0.47230998816779146,0.08043739029036387,-0.003167358948225547,0.16100662132888285,-0.2161214466097753,-0.28350576269411887,-0.7726377214819742,0.735604924835799,0.6220314221390907,-0.12047775132129375,0.8099251554561655,-0.6880063251692999,0.5779282279332112,2.0021167976431142,3.431901458077398,1.161726773937725,-0.39096911749528007,-0.59477367730238,0.4662267467921926,-0.5923969739069597,0.8682669716444362,-0.8065742047763749,-0.4640671940074761,-0.877055377202206,0.7048834585508472,0.282111619280242,0.5097213366133804,-0.8877054553908588,0.07850139767321554,0.6916102207468563,0.2951995528624904,0.24876873970810937,0.9211522085747662,0.4657680948294953,0.2672145651069716,0.8320638654777184,-1.0053833439884619,-0.3125207720531477,-0.5743563242924233,-0.24713831320902369,2.7398814907386635,1.6457916298418291,2.408965639039103,0.33353336078704654,0.06964641571601506,0.6932469016443039,-0.7418810607918829,-0.3518916500196827,-0.6177301867355947,-0.4310477665575372,0.788653099046227,-0.4977264660229612,-0.4647507155036146,0.6034365313465311,0.8544490840719996,-0.46728466012692027,0.9296900314646005,0.20227385362360453,-0.015463370017327309,-0.5449039720340454,-0.2837233144999936,-0.5799510730026614,-0.2814855390140782,0.46455142429243185,-0.6116584892291492,-0.9508387294447724,-0.25451169854841005,1.329561310544497,2.614306571897542,2.555121676211247,-0.2187657310683062,-0.7261128191498102,0.1718700591974231,0.9585167502835633,0.7789803657509807,-0.9735411596983301,-0.24276888022615295,0.3327083692817414,-0.02602512628004927,-0.016730900978458862,0.7500901037443635,-0.47719016586120455,0.1894595729533619,-0.5813997066332994,0.6170070390321459,-0.23151553801068114,-0.21896257117677298,0.12375594797780252,-0.9446411045873055,-0.1960665893073826,-0.537747462186775,0.13730818965284677,0.79875745556922,0.9142218518872931,1.3041010690716857,2.2566311347609793,3.0461208647900424,2.6933926990837476,0.6720999219265703,-0.4867605607201298,0.5438377392794654,0.9173954735650224,-0.7941981963865489,0.21526713025593538,-0.5126986010977765,-0.7113084183337341,-0.7622606084647923,0.9376536921284466,-0.7906426466851435,0.868198480687822,0.9748677831923316,-0.3486461745893552,-1.023226993308733,-0.06384101310963226,-0.7205559110233029,-0.2950047155103511,0.6289766418190422,-0.2279079701852501,-0.13861570623443273,0.7388416677989018,-0.7820179573282439,1.926737441974146,3.305395945912498,2.0942097068944228,1.0237194237776392,0.768273598186009,0.5552155355825737,-0.9806152732753912,0.4992373180498208,-0.8161052128186623,0.4362567329903459,-0.16327719776732363,-0.4394418655118908,-0.6418556027339781,0.7918993698099259,0.7855320325946276,-0.3675385428394271,0.27416471528267783,-0.44846148118230467,-0.7848185284244533,-0.6168150308799777,0.6945850585779726,0.05883790723437498,0.7310690935293379,-0.4646535101775149,-0.5282051692465888,0.23398538615176254,-0.2902392311871124,0.69019752503229,3.016547654473941,2.9628806050862977,1.2887171921396825,0.46563727004229605,-0.7676830750414582,0.09518590818309196,-0.4300599279303685,0.306961024570604,-0.5622659607195495,0.7543854338985659,-0.5552672832262024,0.2017201772041325,-0.436921120244365,-0.8798212575865472,0.9794814399492535,0.3415351392114896,-0.3836495627859229,0.9190151428817108,-0.06986663473212329,-0.29362412392523224,-0.23271332606460488,0.7603171543152666,-0.5811471258880088,-0.15460240214492948,-0.24218639614703974,0.8656047520385123,2.179737887070411,2.510574629557006,1.7010894576852722,0.4602072659888071,0.6793876942213676,0.15797096147282813,-0.1857821114655596,-0.8244367869487951,0.02447972594913108,-0.2840458920815129,-0.04088882121747326,-0.5057157345235396,0.56250827570734,0.5958844020395673,0.23204662946570753,-0.6888178143084049,-0.4260240819206287,0.6229020051635261,0.5915444766934053,0.1353663529074456,-0.9384681335301419,0.6723447805116981,-0.7680294312028044,-0.22348281304986975,0.5553942037912528,0.19706213892191343,0.8984906592865746,2.4786214926184664,1.7331222243915483,2.9618739440798607,0.3387305410896001,-0.2998947214752404,0.5621943758168196,-0.13327683788377762,0.2030084055677283,-0.8809349348300987,-0.17185299078477254,-0.8783213424432321,-0.037842212201525914,0.5113532003750215,0.7609573134577249,0.8748507542859617,0.5370383955622118,0.23808787832461187,-0.9327244533531769,0.5422362780955869,0.0994739588861373,-0.03291510898827621,-0.2288036336997885,-0.12631501243925736,0.9307936518491444,-0.35259584868934024,-0.6949040149557565,1.0852949223103336,2.2463383833979327,2.910645771596621,1.03275952303576,0.22694683828177387,-0.34320695495881687,0.4570846141089892,-0.7615739016418941,-0.24514887051341525,0.9318384037432599,0.6761280722113117,-0.5135851210565914,0.9260118696057321,-0.5879464838967491,0.531351903928874,-0.1412939119673793,-0.7151841936266434,0.4020926501761843,-0.07946947248004066,-0.1793040561528214,-0.32129510833390307,-0.9250426448110283,-0.6726021279447953,0.14582461121025903,-0.4511816690387407,0.7990492194785256,-0.8331174338130506,2.163036212047099,2.595894163866166,1.9139025274251462,2.8330800912930028,0.22419678430437698,-0.2520136828497565,0.813141811462978,0.9672495623084149,0.6478469033042009,0.6302538633971329,-0.48887470293341845,-0.9032260157148596,0.5127707581432192,2.0709428623033235,-0.7178999351492025,-0.3614545133771917,-0.28806434121262925,0.23300846280767215,-0.4239951884475427,0.300390047730108,0.41093782380929134,-0.8364603449207386,0.0975691555687217,0.07355370068754175,-0.028824499955446115,-0.6059295742053752,0.634219080441758,2.3846715110966605,3.246272088848885,1.935569359393762,2.6979397732194332,-0.5102108483976767,0.06789150198469655,0.5747561936235721,-0.2655084433373716,-1.0072307656024728,0.19802250850187805,1.9644291808491765,1.3499548164833195,0.7970545206512899,2.1893523751090673,3.3675884654830925,1.5516865035877125,0.47119190246575104,-0.849846394602401,-0.12605725867771467,-0.6768158389308991,0.7559972733330762,-0.25517976847208046,-0.7674388196202746,-0.5462870280048984,0.4148952278099376,0.2748725452059204,0.23469466672396577,-0.7342723938804638,1.3890729905530186,2.9804804551512665,3.475875266902743,2.641937446712609,3.3331716041932653,3.437029440175748,1.8267191567232648,2.6731782917411624,3.6470500139468918,2.424635392645275,2.465189768624872,1.9138434858276219,3.0174942601007153,1.9043182361587394,2.2392278998081783,1.5815031567302575,0.020525065070157063,-0.2749331424671209,-0.31167726423425507,0.27074766338438105,0.69085118220653,-0.3118028587900372,0.8649340385119002,-0.23744883252599358,0.8669992073982271,0.3208112125598275,0.6876463843812601,-0.9796080663114057,0.5801186537922998,2.297827942626752,2.8206326985955723,2.303249279849176,2.5728777884475673,2.967082445928379,3.1403586513985426,1.698575558899786,3.058932607537401,3.25434931448375,2.2232036800815513,2.214165436615002,3.431100214444048,1.6470850102343344,0.9911875898688041,0.4951296003326758,-0.532921405948271,-0.02237265904237229,-0.8331489508833261,0.8838313852213173,-0.47057554150393943,0.4484069899747103,-0.5296571066319375,0.11221270857376187,0.47255484859787855,-0.8642937058080393,0.8484201996121552,-0.12740417671460857,0.4271149997568424,0.1261276600315436,1.7421868556788547,1.421281168603757,0.6967056601589704,2.4056293561326463,2.2491846295938176,3.1164826425387258,3.025232364848834,1.1983901269015327,-0.22547037743364917,0.8591891077146553,0.4113997094734898,0.22134354160580852,0.07807482826838816,-0.4297966692539815,0.6843513477951129,-0.7746767881963879,-0.6590230732056244,0.4703406063016946,-0.42260744228786473,-0.5232600291899197,-0.519409938550955,0.8614589836627493,-0.8502852320871963,0.8720133908077043,-0.9768478300450816,-0.16647028655952312,0.006647825963800672,0.00028231529208460596,-0.49132893702812347,-0.23526149272380548,-0.14522656530780312,-0.09127804686784155,-0.7616096016468956,0.5760500169244056,0.171594511987724,-0.9832683846645491,-0.6207569524395385,-0.529255968961746,-0.7851014051580409,0.2961574271811892,0.7725916901108075,-0.23334935567858808,-0.16100467985316524,-0.5193091792504905,0.14502351555222615,0.3929628544162935,0.3763417974658425,0.23630225304706487,0.685699837284701,-0.537896799183651,-0.03989531300895921,-0.9720355311073505,-0.7668071992793399,0.6783755674497878,-0.4620449339887849,-0.9504182895943368,-0.3119008912665316,0.71838419792907,0.15349703376445634,0.744577956573736,-0.39265574411927573,0.2876059881798549,-0.33635546522203325,-0.5091583369554421,-0.7980510148923633,0.5343886971126076,0.6101841303592954,-0.17895929010036823,-0.7290343792162928,0.3203763638566605,-0.998524661437806,0.8874168230970498,-0.06557538456839862,0.5157765578043843,-0.9998094326184064,-0.436667679841656,0.67567903093261,0.872733140832924,-0.7617330173658974,0.04457509688378969,0.5155997083936144,0.9315359228971456,0.6383841560563053,-0.24026655562741794,-0.7180926010631583,0.37891788402916604,0.42094815194186097,0.9355658014516102,0.38339711748896466,0.22364779631833026,0.26958699176406187,0.8655476527007192,0.14265529360892476,-0.8352661724923743,-0.7196451739805638,0.6997259712386945,0.49802014092681257,-0.4448437137455188,0.7319298926949847,-0.6655683122497067,0.8475087219403681,0.6424095711095257,0.4496247090872185,-0.8010877190091583,0.5833414345169003,-0.1594636799372271,0.7114594713405531,-0.17500493412158113,0.5188074546851582,0.09603785980933321,-0.7974240511276027,0.22893037468613686,0.29848477468221835,-0.11500209238210046,-0.5834930107629588,-0.9842249387210695,0.5873995000013386,-0.38255020188687805,-0.653646922650994,0.12800567390338324,0.306978069551298,0.6526416340591628,0.4501244635657302,0.5499136952948402,-0.15658335876800922,0.15532462631203936,-0.4305206451080428,0.3616664323215748,-0.48484485244335773,-0.7536836776987887,0.3587946928612693,0.284047077435267],[0.7776936361372204,-0.7381670156500604,0.15692884735251345,0.14291514099430636,-0.6185054724939791,0.30151480406126074,-0.053283531758792524,0.3630784126968132,0.5080963640935359,-0.3576307165663559,-0.5458887287655187,-0.13017250204307884,-0.7695221233392706,-0.9197497825069814,-0.9592451689858845,-0.1527636368879357,-0.15548200788098376,0.05156459746600861,0.4064678567635802,-0.46636698584828884,-0.8616818825353363,-0.7845945057611015,-0.7427466541981407,0.13416042256938776,-0.11043833538643666,-0.22588853876740145,-0.5221855220036764,0.3048453024056019,-0.07980592002802123,0.1248630754565867,-0.6893361189739753,0.157154703936065,-0.13306397007807358,0.7600586360389474,0.9234626094443992,0.012941472837040058,0.8554264812039742,0.7066005204255426,0.10656544797542322,0.11310997277826118,-0.8577012241442339,-0.25224512749066363,0.774230169059355,0.675486438049455,-0.011461192020209454,0.03260288059338001,-0.035104426727962545,-0.4672428982371033,0.08608550194348319,-0.8746008758564796,-0.8228506700499651,-0.09022099368653969,0.8796830510993845,0.7433153693756722,0.21529013857083035,0.5796499251120995,0.3368151131936974,0.5502616611524265,0.48189886981124075,0.9192302460480675,-0.2893310842239558,-0.5329492187506175,0.8269399121327501,0.790856565968554,0.7146585533259466,-0.19596348258288687,-0.6529847086408447,-0.6176630219181738,-0.7609320672751361,0.325302044227385,-0.15376341758028308,-0.3207661274304658,-0.9083352800143291,-0.9578057684544714,0.3477798222751658,-0.637191050931766,-0.19242683203186228,-0.5508207244421737,0.052939282532561194,-0.5018628364491069,0.3396648762254786,0.5718424189839268,0.6624541320026147,-0.6644364004623156,0.005668416713691338,0.6244319301248369,0.884771289530943,-0.04975363476047878,0.48447083420457115,-0.28277950761373916,-0.8833301217843517,-0.3295295560396201,0.6765775774249654,-0.4227651594337716,0.7581338705204677,-0.5203505581007828,-0.9173963429995429,0.59331395133579,-0.29097448585775537,-0.5611311166526597,1.2287642241593333,-0.5034551096765935,0.7648648818408856,0.3361236309286817,0.41260746947309923,-0.05593209000081156,0.10201889558658106,-0.6049040208566465,0.5950201388134366,0.7379669030372569,-0.772080593095223,0.5020055329036761,0.4211029926455496,0.04039736200709454,-0.44233639523147494,-0.14587681503560956,-0.880539461043498,0.9847841329615468,0.21144777149236504,-0.47139144390722887,0.43414510174120613,0.48808790689679005,-0.49794205296943517,-0.5284523831836845,-0.20492251890775634,0.5049596714982213,0.9546566645473418,-0.025801259268663945,-0.16990134564108245,-0.10979317284068141,0.7027979488604228,0.6858075129934172,0.6532226607740523,-0.8601696408535089,0.3661213995297874,-0.0782340924048901,-0.7303194363659429,-0.6867649693340483,0.2931054366666146,-0.8860824403248762,-0.13783241139444158,-0.9037634381618371,0.03846983337977661,-0.18980086773296412,0.8608188012930968,-0.3933206486994414,0.6947342872441431,-0.469807245389944,0.11129144011332426,-0.18192510748069002,0.28140870230675286,0.9193636055376803,0.5983570354059549,1.1400986310814654,0.3134474865957357,-0.6606042411300486,1.0995523530413547,0.7009483810067103,-0.2589695659562628,-0.21587277190587778,0.1069897589147678,-0.6681120190029226,-0.7554512560891786,0.6947714308545041,0.30221337404925896,-0.5210456543429325,-0.045877804240440634,-0.2807930828458436,0.601664012252521,-0.11519852991707191,0.518585099709931,-0.29224874322458816,-0.4152960792200362,0.49583659037067584,-0.08905659405290152,-0.08616275917540359,0.16394666437193822,0.6400414933061055,-0.31407758112529427,0.4810692952759002,0.4359061216914871,-0.6285578229261688,0.6449976054957327,0.22366675906270586,-0.956106658388635,0.6221983811949312,1.3641939678104906,0.08366652162083243,1.2288010096178337,0.3151922290241638,0.7564140151203713,-0.5353038808075994,-0.624899445703083,0.5260722425485822,-0.8567280709944246,-0.7941638296114194,-0.19841173091391195,0.8986567446998279,-0.28445658893099157,0.8995220171545282,-0.41067732951212527,0.8865191381129659,0.5173306543621886,-0.519811382564952,0.2991569888544549,0.46357899293500676,-0.02806765616552229,0.21713291455639652,-0.7250553890214411,-0.6216931108051752,0.7366126028782674,-0.24542010938330572,0.7490921954791822,-0.6969744506105792,0.8161868371808153,0.7426919738702089,0.9385359758551193,0.9194391010112328,0.19825341494917328,-0.10865173379883486,-0.9496973690872443,0.16020389712336075,0.25535922439695946,0.13665382251613678,0.6278460055654547,0.7723719041771058,0.12966003707980853,0.6116338627124159,-0.8694405641510631,0.20902557623869433,-0.5749821243732136,-0.3018447853732077,-0.26545467062021244,0.2627511418037839,-0.33211721448244197,-0.6397157046969619,1.1475171703149434,0.38729015269307876,-0.7415943661065366,-1.0630251798114465,-0.1607741265603714,0.7916158447360201,1.2402020992054539,0.6064443916389044,-0.49384023334962585,0.9333091345388592,0.40026438473473697,0.9670705097438438,0.5019048742076145,0.2732133550970785,-0.5606511540628943,0.7692060589028746,-0.7680709825803294,-0.08208914582052151,-0.2591126493239212,0.6740336229407321,-0.7408176442284174,-0.6499071355166803,0.7931457101612687,-0.596283840779561,0.23364196459401484,0.13147621312544833,-0.18716495876972628,0.2115741576889731,-0.624103888274658,-0.9624587118866229,-0.39790817341434886,0.13612191502848717,0.3129999988463635,0.4462809351970008,0.33449039753513987,0.3078664664791298,1.0175751048315327,-0.13270765538350263,0.5670050708747605,0.6832085060286153,-0.39406201219460546,-0.3350660494237814,0.5253710253412114,0.5145877112815278,-0.5259518006729798,0.510538134542047,0.6055622223672487,-0.5055774868367704,-0.08840116860499088,0.2576444654420575,-0.13337571041221075,-0.12364859895348598,-0.17270914535689377,0.09591282252074423,-0.013581230020092655,-0.9081131263198747,-0.32688688441816766,0.6065924238854259,-0.43474960853845435,-1.0139125532713416,-0.41828855150994154,-0.5190332429867668,0.2210973178268425,0.6063538933645215,-0.277657254926492,0.7525110194727755,-0.2658360104088583,-0.7961249800619864,-0.1184083398817184,-0.34616307434261695,-0.3100693319519099,-0.44148796789259914,-0.026694721148233125,-0.8225050573477803,-0.04513321558621216,-0.4208054806365605,0.9166235946045623,-0.48234669677526615,-0.17425698828312283,-0.4697411446103246,0.6923495794992677,0.8014410667013209,-0.13347516484125596,0.624076689591951,0.27949658882410017,0.6490288152584998,0.06236238445123116,0.31271424615869997,0.5489926331729811,-0.014509113966040136,0.41460119527871936,0.2821519292306933,-0.5353141595497394,0.7072432804552524,0.1815597780742591,0.6485661898227992,-0.33803575378013817,-0.46501575070014933,0.0010732940217179632,-0.8420810882921008,-0.3640636966466786,0.9148705589201991,-0.10007631995722566,0.5930582926806831,-0.3179086984889334,-0.6037326485845508,0.917025398826522,0.5811680722355851,-0.5391924110774682,-0.18530692528221135,0.3204248803407252,-0.3390171945173379,0.02622582643514522,-0.8167597462215324,1.2738566665964286,-0.45648382782864766,0.5467856255533332,0.9871091975269386,1.0111543535706187,0.16509722568304797,0.42763304461378865,0.020724546840296627,-0.8085872049612045,-0.6299781232376231,-0.7947665722780082,0.694872585916201,-0.8889979418726552,0.5041387774683139,-0.82426295827648,-0.1099757674912023,-0.3822086254157733,-0.5494108350363096,0.4277549055233926,0.10289356165850533,-0.8745446909308819,0.7221409930827947,0.32942084643247344,-0.19019340934723966,0.7760473201567292,1.1245880467393419,0.48435920580592084,-0.03452779700840328,0.9454485743559784,0.22456228434529582,0.178054761442021,0.8560115983209111,-0.2603397283411899,-0.4342342010155152,0.19069046896659558,-0.32043010345795586,0.02143030665458848,-0.7267480132357584,0.8166451353199733,-0.9319714459981923,0.32521350871039956,0.46897384322797975,-0.8656339687855299,0.19812923775534919,0.8457816892608647,0.4246575511026355,-0.8575726792951229,-0.8897642001182405,0.7713130268001892,0.48658895215713915,-0.8382328518780633,0.8547711786871932,1.153184980269259,1.0074250822861308,0.24228435297266726,1.1956441334538224,-0.14747892055502934,-0.50967616456018,-0.26931697703972346,0.6771966461395852,-0.37006672159562237,0.49548410057296477,-0.24116169022135417,-0.3322833406115007,-0.6425121359973497,-0.5614685380980711,0.06326820531999022,0.7135350671329856,0.414989945278033,-0.7680896670435289,0.48015672855008096,0.8776947842610536,-0.32106559335562723,-0.4614106916635925,-0.41195260485416224,-0.3516623228082923,0.3107597931075429,0.01802110256301262,-0.45474084498972245,-0.10167606815487686,-0.5436139057669436,1.2965860285095163,0.829545407799602,0.7627593343533752,-0.10637885772250774,-0.5811638310711785,1.1178307907653189,0.6687331932838424,-0.08736525908851948,0.09886965011931588,0.6239591324926788,-0.18011883900031656,-0.972105312107937,-0.6958136874364029,-0.6136220817198792,0.3376898244380102,-0.9367025770598405,0.7355559083410077,-0.12529053512632116,0.46671506487047787,0.613494492349526,-0.5788620444079033,-0.15026052009559043,0.9845817564165769,0.11531041653326231,-0.3665040266318555,-0.39676520948835275,0.8173417846110181,0.5511622597402765,0.8287066426402843,-0.7244680506104203,0.9504037871675081,0.3056461350873602,-0.31730957917641117,1.387969582971446,0.6171402741481162,0.1685406262514878,0.36654008369378527,0.6290175705257863,-0.5337123992559935,-0.8729386966045697,0.6412786224579414,-0.7880744459105803,0.2602258458789362,-0.5176979789321661,-0.1542993621071196,0.6623514300373252,0.526115492384374,-0.7154200064373852,-0.9251329884592312,-0.36581572504777027,0.5737018621803787,-0.10086216158795047,1.1121974194315356,0.1611528286655805,0.3299899106428683,-0.26921379959196445,-0.10919072556820848,0.20561824917540458,0.32615879835466105,0.9896239180722808,0.37362672490478704,0.053751751187655336,-0.684463159606362,0.2023224652409772,0.38811736306411204,0.4487819167648698,0.14560980867331236,0.48083492999436334,-0.39900995414703805,-0.29820990699702216,-0.6087639555932048,0.7746505897788201,0.9688024205464898,0.6587742648771537,-0.8634617280923558,0.5619890748037899,-0.6300779248969377,0.6445099566769319,0.815029366589646,0.22842360678511803,0.6831667015015742,-0.4030441121722043,-0.03984553908978358,-0.45725145561048336,0.8025298382438896,0.7996320108375894,1.039141159680141,1.0613077900514307,-0.1265012816428402,0.6664214441961505,0.8552779659006984,0.6803792283829113,-0.03393157442654327,0.9349064168352,-0.5402929955075638,-0.214159470159076,0.018269706070425502,0.4772249910993567,0.7183558411683042,0.24761975461063357,-0.842188319229511,-0.3144846458652568,0.27715184897269274,-0.1869902779284225,0.019754003470574544,0.056812285763214954,0.030128137724029225,0.4043752112087758,0.8732589177135488,0.7484363583044653,0.7685914542296596,0.33642037220841287,-0.555479941245882,-0.33114855737519816,-0.35183647080635844,0.5490616892722352,-0.10780542001170873,0.5015785816912507,0.6680883206281629,-0.6661687482618646,-0.08130705528405346,-0.5245872531326107,-0.09166289784617467,0.37174864655387246,0.5926263124340173,0.8553253075804015,-0.7316631635522717,0.07275360792436825,-0.2130409426567308,0.5242456690802311,-0.7988190952373553,0.905766681711516,-0.16712933633439375,0.46836614445315394,0.976076327930699,0.15549285110426259,0.7608947240925019,0.5062679454804856,0.06405854170355135,-0.07796245665158996,0.29263530439496255,0.984319089086098,-0.5120305740511057,0.7093460482499323,-0.36258619955096366,1.212307261740042,1.0000642132463116,-0.801284099154673,-0.5505776547378607,-0.19127041624399044,-0.9947447196989582,-0.554215810699786,-0.3406953857414558,-0.8933496781752219,-0.21859348164317272,0.1294242526104432,0.8401658443111235,0.8436829723150387,-0.7222545451678295,-0.18522526602924927,0.6038192803373392,0.05415978619737283,0.44609221263094456,-0.766824722953387,1.272453921782937,0.22598673643888476,-0.36605249366836473,0.48135959242202,0.06601610133585845,-0.18234761741818767,1.2112672791006869,0.8070786669407841,0.6646474355606179,-0.49155719178956153,0.42925861811721683,-0.02986990261607845,0.7283185991746863,0.39030263586278213,-0.7019021764954526,-0.3692393136188942,0.8254113556560589,-0.25269686227890653,0.24947219750734484,0.19828770197682188,0.8051594961231847,-0.7525495480700242,0.9169426828602392,-0.014564316506314512,0.8545769381180313,0.8767916622620158,-0.5802574593397085,0.8833144626449094,0.6482487041659599,-0.8421663980045431,0.890707457194989,0.5616201281698963,0.7135794414500227,0.3175964677102746,0.23346885452286045,-0.14439800550374993,0.31042712264498473,-0.8805631934385467,0.4617338716563553,-0.07549204192274456,0.27407445085881255,0.20357101577647188,0.14559307566505536,0.9912732174628691,-0.28951747347241374,0.3627537022770222,-0.9100068123906209,-0.6243145033758901,0.1867219789331056,0.46416505407000797,0.09088247256821647,0.17327379612245264,-0.4170402589710822,0.421175166441937,-0.387768480892581,-0.3861241357686573,0.8719863344903857,-0.6612791128619416,0.821940875228845,0.522900529831734,-0.19459394119385992,-1.0387871961468726,-0.6490864055488897,-1.0163033322859696,0.6723611823130473,0.8660330389565054,-0.4558074640452317,0.05348772484455061,-0.5814463102414735,-0.4338144063818996,-0.39639655660504064,0.8625370725639292,-0.5984896663594284,-0.550886754571436,-0.14451786165360914,-0.15909764189552944,0.4488170350444065,0.12683434889218548,-0.05708937094166444,0.5495554656372152,0.6607773355894111,0.5167744851529124,0.42997006338742405,-0.019267194532547598,-0.18106762396298626,0.8831845477861132,0.5756216104058728,0.4660757407113976,-0.9803541327205426,-0.17455482112036375,0.5366935147446411,0.29226939127922746,-0.847743520060199,-0.0733877339579517,0.23797615743828984,-1.0043070335356385,-0.33211956772189544,-0.2720317411778718,0.40310465027809933,0.5485971100424123,-0.31187796101699483,-0.782322161814546,-0.28508060327666773,0.3505145998059873,0.2305847749381542,-0.282740830107888,-0.5559466389886574,0.9955276372519684,-0.3684808630397285,0.022243240727641833,0.24170585438356515,-0.1627931761429856,-0.959060208066772,0.7680601767115377,-0.8663579837526787,-0.00015134446544074815,-0.45097640374366665,-0.38747120714686506,-0.32050868849786446,0.04560519873214416,-0.4889309943396851,-0.4440459665260304,-0.3654183140136313,-0.4662020495002712,0.6897900871202819,-0.4054335936798447,-0.9505304310669095,0.26988275945426543,0.6110444715066861,0.8428670715718223,-0.9721660065112907,0.6765893355180694,0.1631911670736288,-0.7405025483713106,-0.6966203204027963,-0.41095014637806604,0.3489728853876979,0.7874929679401661,-0.41585916905114684,-0.3371899460877134,-0.18802462184130472,0.0412988885505287,0.5708492655108143,0.5006644187104821,0.07643451808263958,0.20319536250848905,0.36113356972498734,-0.8808129682140248,-0.28598147913611527,0.32923858499448866,-0.4639388138891132,-0.2919296584083206,0.6738139981079102,-0.00047874014963910917,0.45601191663492613,0.39548369924159305,-0.7276713314036081,0.2902088037456112,0.3557573894826904,-0.5470085708632328,-0.40085355445702775,-0.8358775386564838,-0.6975587532763836,0.7614337672887503,0.45735189307971646,-0.9032708412161317,-0.9056959883717781,0.6167451479854789,0.13005232600850936,0.9718995574997591,0.5700310168243394,-0.5336351463740441,0.2175258174210748,-0.912415271475733,-0.9773953718351089,-0.4387607410672012,0.43721771419374494,0.6254120020425595,-0.35409198465794334,-0.31042007306803343,0.5142876807116719,0.31925766209579265,-0.7936457905191869,0.5721191996257031,-0.47890043831527906,0.8452748201375897,-0.1198935815561828,-0.8277194488900665,-0.09991788431877713],[0.013690578229552441,-0.07407029531910858,0.08958016114410294,-0.10415164967446366,0.9294018696716517,-0.12296923461429299,0.33233193168260633,-0.8558781761226251,0.53271692029638,-0.8344036367470606,-0.9733442541169,0.3774505425457786,-0.49897783335651047,0.5548896863423558,0.44651438361347506,-0.007087133577601046,-0.3759022733531363,-0.9665854105223501,-0.44354230518169646,0.5295680122011093,0.006706130002845034,-0.7519904007942033,0.014137779706626441,-0.5050324424326045,0.1998076942246707,0.5505803259611752,0.18928683807987245,-0.7210808490609435,0.6126451113582174,-0.21726759807707174,-0.5977526374713749,-0.08515942034448343,-0.3376001684958947,-0.6587379983007653,0.514437892136905,0.43807456411390566,-0.1398467393488767,-0.629573773427706,0.06529278792945292,0.01426591697599422,-0.07363187185314102,0.773557469890712,-0.8767956655975353,-0.38880354632500125,-0.9510013058235625,0.7306034789238218,-0.9172130985526941,0.7597168529165714,-0.37882946799367256,-0.22201727003681926,0.2098056214564843,0.08440651741510363,0.8500608412219786,-0.20876211348409446,0.7861792287052407,-0.725950299887093,-0.31630670954528206,0.4595986106868202,-0.6513995343139132,0.8817012859410922,0.7595100285385683,0.7243622863896795,-0.04851458452231361,-0.5306757411157177,0.5087696445125174,0.16905246297247678,0.42261693832398906,-0.39819329188028596,0.5783289500187001,-0.938736775693908,0.8367116496106832,-0.35214839064040837,-0.8711586295245815,0.7873839459807022,-0.9951997747196255,-0.4715315817218195,-0.22481123507638112,0.6117243119886613,0.7457697876119189,0.4008591058455613,-0.6266203074757168,0.4159488933857529,-0.030434902845827283,-0.8869230116805771,0.9098224293127564,0.36051230754954755,-0.7046679979918984,0.0397524752906222,0.16068368506802444,-0.7542920966088371,0.8114070430649609,0.9749624818253171,0.6936294922048765,0.7055019855882032,-0.08696860401356754,0.32004475021481693,-0.5569702498785116,-0.37283904060378825,0.6986442599030789,0.4567832787930455,-0.37386349626658644,0.4729543141555139,0.7897792213893627,-0.8740943201538894,-0.1518738853004118,-0.11587693197773108,0.5265086960891561,0.0541071255537422,-0.14110574727552883,-0.5954855199231512,-0.43922698719636744,-0.9861163698786863,0.7063263894089518,0.2937467869138404,-0.9207608100850109,0.7222205524550871,0.0030213110975712,0.08688592484518984,-0.5457473054085028,0.5943783483105439,0.7233057462033872,0.19199025376464518,0.4229070592790789,0.33890863216410116,2.8286879369804225,1.989684310950616,0.5528522112673449,0.19105056236738524,0.4429461929409818,0.256217590510845,-0.3636419345435816,-0.943968071198468,-0.6202137004765291,0.8202796043842779,0.5433130961802402,-0.760261767130658,0.47081911549994926,0.047255561844966376,0.5518879797438143,0.8173804988589954,-0.2295654407205412,-0.8271752903343459,-0.03924725010846197,0.5767328684821311,-0.20628605354103913,-0.48536749930313516,-0.6713267613640624,-0.033589035241154565,-0.38847500956819403,0.8568558202836211,0.9547403596844835,2.0057615329009333,3.0230131546163834,1.541203394743457,1.9298999274677613,-0.22774433196922172,-0.24800803521253523,0.5385856641577202,0.7494245024682445,-0.584497331548841,-0.35988584983505423,0.2291313230482585,-0.36040037386179213,0.9317372824537429,-0.7059937914978007,-0.8894106871406529,0.09221990789817935,-0.4268214877716845,-0.4081034556054466,0.24811290957946408,0.7348949456393308,-0.8835711087350377,0.00935358566531125,-0.2085513541193998,-0.64918211326384,-0.29255123885787454,0.241530089831996,0.4453543454562323,2.245877044204117,1.2894171459977435,-0.9602780348118889,-0.4554815403502016,1.2791975242862867,2.808069238909203,2.0062082318969723,1.8901103161479296,2.4947024984028996,2.937668370980091,2.3060929790344655,2.131408458911036,2.9835959344249248,1.9425277947004245,2.449493956168903,1.806550775790461,-0.33503317062793614,-0.8756275975822199,0.24137399504983437,0.32614157140578565,-0.6839412494887175,0.9266443740813739,0.1433461766491716,0.5731641423591687,-0.1998768748579869,-0.7281758446109896,0.1389803807660399,2.5257122074396396,1.5734634338488813,-0.8311614962992905,0.46359064106893233,-0.08054278113289554,-0.8759987684012266,0.7799115520342603,2.2448818110086224,3.9981255936553226,4.047996879566941,1.6543013818494325,1.2512000541037547,1.1866687343814244,1.9264385877094707,0.3078993356583884,0.6481097519591675,0.6983462217497675,-0.2904739836498631,0.5222151144958542,0.8125313954448705,0.07870989855743193,-0.8637513843172948,0.1798453648941076,0.8533048592871314,-0.5949176418290715,-0.8741965503935326,-0.31039658053421837,0.5631739585129976,1.0219104590588644,-0.3823109228416643,-0.44571077165921874,-0.24120359980065556,1.3568131937947345,1.904847512109,2.6871956396715375,2.114052400625573,2.197987124199143,1.938687785175151,2.0581853050537986,0.1928458810688198,-0.22481269644912596,0.23624418080186144,-0.13166161326287038,0.572448485140636,-0.5157739455520212,0.8269269369840389,0.8067341009617905,-0.626519408962384,-0.7176139367019978,-0.47702157982788324,-0.24999433419490866,-0.04742332949594033,0.6714165740845349,0.7553314274674866,0.46142446360316225,2.3846091263876166,1.4993148376852572,-0.4801065722729172,-0.5814878317199855,1.7217401589168597,1.297129159389343,2.618863013501336,-0.4482953464735585,0.45894210182826084,-0.05404363570619383,0.09067528200383279,2.2593722560719467,0.6091719201738266,0.6203086704596119,-0.4927000463054685,0.6851956655098067,0.21727625760932812,-0.3360478136487317,0.9906267810129177,0.6952052863442759,-0.08718027394197514,-0.6577340176697963,-0.23053993926395555,0.533890152313151,-0.5284911643493075,0.39135743640767,-0.5269453639607217,-0.07459783029899691,1.3229262815898557,-0.6036939792878091,1.2124101324664351,1.4193611535042963,1.2488905605913139,1.8566950512599103,-0.4735350715442661,-0.7528443475313822,0.08337867063214562,0.5686979209016801,-1.0672209352708306,0.20606353521701748,2.224656231659877,0.9942520176713542,-0.4910497803728277,0.35624942647784247,0.7248872518743461,0.26795197092102674,0.3406560530913618,0.013981502565893367,-0.6342738502948622,0.8630748088985365,-0.5639827757596494,-0.5824028920093827,-0.9000561358898326,-0.13952683348066522,-0.76868551802809,1.7487057983621583,2.245509460059115,1.2532191160894612,1.0890454329468138,1.5996554827898597,1.8662123020202506,-0.32476579511150466,-0.7894380607410653,-1.0106882164606137,-0.4366425121422127,0.5114282744976614,-0.45295487337101414,-0.08052543147313068,3.1271844748931383,1.7427341997168413,-0.5898452899764324,0.6551526178666071,-0.7874804945774244,-0.16099991394476,0.5354675315014024,-0.3606931067228629,-0.2224247089388074,-0.6119462427810387,-0.010906761908496598,-0.9960895038363389,-0.7425814842368184,-1.2136559432269525,0.5952018254919232,1.68292619796439,1.8499092552607044,1.1018846732360734,1.110250247283396,2.343031700736741,2.289650766866118,1.4137433205956085,-0.25934513692910355,-0.5212223520872142,0.11005661522152865,-0.034742320164470625,-0.5813424764507069,0.12916013024157738,1.1935045199652192,2.8421675195114444,0.5601180736348476,0.4090601953203719,-0.8581275841604967,0.12291524488325978,0.20194176098390715,-0.631387510810248,-0.8047551364511738,-0.09266910295199837,-0.25575936136552446,-0.960363336402313,-0.7671370882773444,-0.6759083047753263,0.04996529175333653,1.0425212201235494,1.4844143126869795,0.3591431481071036,1.266966051287933,0.6484990630147637,2.184866254999842,2.592963977384148,1.4333029152721042,0.33114592755233285,0.38936679180409,-0.3466157808548277,0.5811077694043131,-0.304231885059167,-0.011222831140738188,3.3767557464613644,1.6847291230835042,-0.2121305476917189,0.2906511284072379,0.10416436913624616,-0.4752280150618162,0.8541358905721101,-0.7020330161327972,0.8845213095225488,0.6346639206292264,0.7773694029377969,-0.43488750791209985,0.0746010577236158,0.8373801560622294,0.9582463147743688,2.288494943990372,-0.42696248255600033,-0.4269939514538252,0.7255385026740852,-0.21455345408653767,0.24154172498122717,2.032710611380042,1.689576701882126,1.1280267429946418,0.4455488467279721,0.4618134371878111,0.5835136703672585,1.1812952922582622,1.544734733717076,2.4713701736110893,-0.5389425474709508,0.761587506102929,-0.20725407297755294,0.39623246748635377,-0.15407722181986228,-0.31175157539657383,0.22188387596924541,0.6990584003110301,-0.12329349474668816,0.8675042166570974,0.8644213910521682,-1.0337457896689506,1.763987706291274,1.3985969438008736,1.2447749962700347,-0.5280826666288913,0.1304923354057813,0.16340837798791566,-0.057393372791952356,-0.7845544576962629,0.9733566251552184,2.0349243342822714,0.2385451221172946,0.30582376029145986,0.46147988802536316,0.7753964562402256,2.1942803237818356,0.6845567631241116,0.630204137558645,-0.06789283434279239,-0.380304894675233,-0.9510748113776646,-0.9845854320849476,0.14803302527639128,0.6473424263744203,0.2256865470061522,-0.14800231978068545,0.9455008202954689,0.14033196164674744,0.6380466948377769,0.8473173799490172,2.8991799942154155,1.090419137691165,-1.113227540155968,0.6322536832799261,-0.8995641526009643,0.09257288462679832,0.8999862558409456,2.716193170935671,1.5493688279481888,-1.2548530309387358,-0.8916687301689586,-0.9779031135803955,1.7715871513102326,3.490165310742053,1.6670324123886477,0.4619474946522035,0.20895808052511597,-0.8529593217888456,-0.7056653337106902,-0.025656984829061757,-0.45367844951898784,-0.9701897406137852,-0.9186707287023861,-0.5884152578810145,-0.17170104416964715,-0.4904870856624309,-0.9152397863003993,-0.47967098572818917,2.181163452945448,0.9250225176456603,0.3228259027866513,0.3255466208147854,0.8413057405713771,-0.9236604678732435,2.4051311794242936,0.9340173253530956,2.0970956742046902,-0.451987619062757,-1.1705838098178618,0.9406884864462937,1.8290109245302724,2.4036706235650316,-0.045518441856800346,-0.8376399861616971,0.9767918904460126,-0.683587449697932,0.93324254692144,0.36609118964816223,-0.46102704163007546,-0.5919682216709161,-0.8286340025681749,-0.9757269966922486,0.17252604965092155,0.9511151987993711,0.29461380190987085,0.6833552813236701,2.183167097690607,2.558966828263298,1.5216072966314917,-0.7665028563982935,1.0281438599524038,0.7530021817491593,3.0544007722260296,1.328316219779167,0.34965899072632445,-0.5776076228816202,-1.1427901996735361,1.1163390008940628,2.0988804833948373,1.7096637840706006,-0.7948131824501062,-0.6435418989116453,0.5821558109786371,0.1635990793523321,-0.1390443799237704,-0.8383703184361857,0.6492263642916307,0.9065053777813243,0.7839210174115687,0.6791418018747664,0.43762371771557396,-0.22477391805635633,0.7422959724308563,0.7409497227628549,0.5253052694146967,2.3407825316065636,1.115438424602714,-0.40060569266756524,1.3922818670005574,3.0252493538270135,2.373611198586989,1.3863313100554622,-1.2741605269808953,0.28223436640791827,0.9695595794218292,2.626175074121783,2.795155672172666,0.2015536610404759,-0.8726073306480284,0.5672128718006206,0.638579171170667,0.5142142519341586,-0.03683513073131839,0.7159175987308941,0.8512506719417756,-0.8566991463888256,-0.19814638880098534,-0.6254758487308696,0.6844180313735768,0.9793966044076645,0.6767936314367531,0.7394453188584105,1.264559843124447,2.208892103801233,3.533978027494039,2.03652342756841,2.960230717438319,1.687969601316274,2.3770693459752437,0.10777359488176472,-0.962731786870199,0.6716587126190691,1.042999403476118,3.134165552315297,0.8405979062395966,-0.3560915261495919,0.020924418415961495,-0.7957945230650915,-0.5223612707894278,0.2576298412138034,-0.8738786047499529,-0.6651277795811228,-0.5961062932027905,-0.7848953211697045,0.24990695554454145,0.8705610089715936,0.15227955615301658,-0.6483760718447611,2.375006968097766,3.0178693952797526,1.2478136607776449,3.0629533599240366,5.107026346007565,4.435240779931206,4.202080942902257,1.9798813339995214,-0.3354446225032592,-0.10096521936219993,1.8308539813797327,1.324248825808686,2.272189053873961,-0.004479023911782454,-0.4652053863622887,0.4778162235825897,0.008930963445991804,0.7399242240643207,0.4595030104767668,0.7908602142701178,-0.24310271280443274,-0.43100983008179017,0.13101964277736422,-0.11695107060666965,-0.5970661113798572,0.8360436143001251,-0.6817147084381892,-0.5526692411175393,0.6773854287149549,2.648406978108228,1.2921906625158603,1.8987947606974378,3.1826516767693853,4.042712858681048,3.8043304830579325,2.438066518785468,2.8108968362048894,1.7185187015032883,1.4459539826783807,2.1278144568063415,-0.8672802500797863,-1.2177996293788547,-0.72235277282902,0.14491430224485033,-0.4082464032487492,-0.8175469696191981,-0.795704192222954,0.5736995351385978,-0.8478950250894934,0.3232696346697277,-0.5581399007613301,0.31907840081800587,0.6175062252860752,-0.28365823800773193,0.2353241468544922,0.14070012854572056,0.8804734472531665,0.8449942965529728,1.3438874834525574,2.122015981964411,1.575614271958905,0.01870141245302462,-0.12418891612258942,2.4569365487146824,2.384534560785224,2.635965200827874,0.629312274814627,0.703190330877384,-0.9826118798240898,0.22668937179113574,-1.1627432264413475,0.3697207238108437,-0.6167037558758967,0.5106367066294963,-0.01511572225917135,0.941745646905499,0.6822701315377668,-0.04970697444407768,0.9378840050437756,-0.5084226463976798,0.4723440072444307,-0.16822793314813644,0.9160474101392093,0.5660904440390309,-0.06085591421190904,-0.8059524487678501,0.7118974213644418,0.8185757450211335,0.7061747329297691,0.2416165407775961,0.7586379130414885,0.9305352042023013,-0.10066940855840355,-0.9830189085366199,-0.05351948776776246,-1.1045535042240546,-1.0878120738110426,-1.3541984715741548,0.6947390942401115,-0.5900750257123069,-0.7356201627470988,-0.4658978450121538,0.5864806284464017,-0.13588402702784874,-0.8360628122874594,-0.5318882705190553,0.12582381705599088,0.6098211550386408,-0.9583823178595874,-0.1889512651437708,0.5886792738703142,0.7091842213428403,0.4433783330806567,0.39431267090669664,-0.014963432067786567,-0.42372468207780606,0.09441456750514851,-0.7983653454424438,0.8794551085252535,0.06577966130114055,0.9140471079063436,0.0045505223844586615,0.5380543974332683,0.8349731014113191,0.3095239288283175,0.2400330948329513,0.6871135022311279,-0.7728072258056534,-0.28996332368186173,0.9236678800492921,-0.5319905581643087,0.337922941032496,0.35010588751430727,-0.5024742629580652,0.9865694956628746,-0.49358396953606887,-0.5391598586978372,-0.8713823854364291,0.5508115220981256,-0.24503057612169243,0.7362113416730816,-0.2029080133750492,-0.682246673249174,0.8654198458528589,0.9571286612624433,0.22855453001160964,-0.6554873629769591,-0.4404341995776908,-0.21672214668614068,0.028549233721066308,-0.9753943289465916,-0.20758806049755785,0.266656764212407,-0.5533963819727428,0.38285243595535734,0.3011066872016195,-0.24243470399457423,-0.5389761474031165,-0.6867101557783153,0.14095755905516305,-0.10326260176067925,0.9047324592425343,-0.1084487092764157,0.634039517698562,-0.36466068558675757,0.7705208465673614,-0.15573690495897918,-0.001666036805692439,0.20684383398139738,0.12002939479495467,-0.4301799917119238,-0.3499945971977847,-0.3491213210418025,-0.8118586797024434,-0.20991312103013393,-0.4858072986584081,0.7082144727161703,-0.4232372649752076,0.41125985851751456,0.13337400764794843,-0.6153236456455491,0.19535927993528723,-0.6868227831425142,0.445806306855288,-0.5879113773820144,-0.8140281870746979,-0.11536216856153447,0.5956639713058975,0.13071347747684015,-0.8743954798257447],[0.07440351438670811,-0.1327212994956437,0.5639743950673937,0.580783993098106,-0.33103556639030307,0.420819115852594,0.3605435213848118,-0.9802178444881684,-0.22775755722358593,-0.6878574510413036,-0.5622667469858045,-0.8484231243381601,-0.33095171264734424,-0.556924864462174,-0.6600028664987989,-0.3738173448127995,-0.37850458941390897,0.40734543487414077,-0.8788589429286842,-0.9045718421237186,-0.24795811202020968,0.4567793265702089,-0.5832672970147781,0.021945103332357663,-0.7849847104962855,-0.2976986728438673,-0.2631358794948637,-0.1463305690863972,0.7470158870432877,0.7255339154394636,-0.4221492848301933,-0.46621953123940263,-0.557233396955817,0.8181462708064886,0.35338567551504596,-0.2720001694955019,-0.2416732591482753,-0.6716346832406086,0.918607871529018,0.4940230524779532,0.6105822755350561,0.7811204759476851,0.9941082254180662,-0.9569070943256446,-0.019036329380067496,0.4750538549804073,-0.9581068581881205,-0.9875148764575796,0.9752954696987379,0.8251082824747173,-0.8490111210034124,-0.41927546031187535,-0.7796103861941324,-0.4434935510245708,-0.6836016775407028,0.6525860193375652,-0.49032558523438285,-0.6934595541203856,-0.7377713895021689,0.15179047823291492,0.34127855335692026,0.27940204533456536,-0.549732649185589,0.7049236375397587,0.8149761404038884,-0.37500926700104964,-0.3648586437653045,-0.5030737708035695,0.35955592458997554,-0.13286567983927933,-0.37773126503028953,-0.9393574203901044,-0.3671642875872963,-0.1614859138938265,-0.08122514173090246,0.9043486226313942,-0.13332448593954727,-0.6242317072449193,0.013996209827489281,0.4274416778115304,0.08395660750130407,-0.4160614779777725,-0.24526908236672806,0.654578623374189,0.6218775101020071,-0.5963132976438874,0.7482033669215,-0.2706200381515109,-0.569214727842658,-0.5611564347880982,-0.9913451809042868,0.3016938942556877,-0.6231773078218341,-0.18680215151055735,0.7913088100795354,-0.33899833416902486,0.23518197443172506,-0.6803427523678149,0.26267594957214285,-0.8125621318379582,-0.8327115633203848,0.6893253151573336,-0.4174560385119878,0.5825444970526923,0.2870526161963616,0.15622248536402394,-0.7552274351498054,0.6412226178227551,-0.648904769730811,0.46437827323226766,0.04370133574024804,-0.1581214254211838,-0.7595505676193108,0.005846055281264251,-0.4354256645718062,-0.9461733700717709,0.006981813675263959,-0.8158471737636789,0.47606237014289304,-0.34340959269385163,-0.10543865661336599,0.40855932764986186,-0.03591442454286978,0.9005451333553338,0.12425080623498397,0.8257053086529145,0.030492069369090047,-0.04152726236697574,0.6650601866915067,0.06169658737714761,0.6996286113886592,0.7051928729459898,0.49056855728569393,0.21536315005046403,-0.7248363483363724,0.4402871071063714,-0.6634653528680092,-0.8416647293980093,0.31051660287250193,0.8895813547497842,0.9916115750768622,-0.2637374385267057,0.24375164010928407,0.6284297450512799,-0.7736018537350589,-0.4311020831356889,-0.049643607195102024,0.4451912928874234,0.07759413175445551,0.6844619585826114,-0.4699677432275513,0.6888556723448719,0.30472264498351526,-0.36500989234831294,-0.5091846088322493,0.8317444965588685,-0.3873725238940965,0.5300973954147623,0.8193868888757719,0.15146803545615053,-0.8210624243362729,-0.41981382136828144,0.22220203611944067,0.1509256239441119,0.8281902041355651,-0.22733743417167096,0.2096105590900592,0.9835263874992148,0.8025499978719783,-0.6024729096519135,-0.913279137600771,0.8970901219901533,0.15817966670360772,1.1699181414493547,-0.00879235538652967,0.1473872278102114,0.8081016002098871,-0.4712257190627816,0.12957073003295388,-0.7722378445742983,-0.5235143072391356,0.49048163192366645,0.15079936674348596,-0.34606327854766844,-0.16235971054702703,1.0105139660370108,0.07288031407295106,0.7359388191372861,0.33714457158181727,0.2838017861710599,0.5511461498046224,0.7823792952157288,-0.07643434983414929,-0.7500699678944327,-0.2590787750175958,-0.5739758752851696,0.926860209302063,-0.18947710356113623,-0.473808678834885,0.24048216967937808,0.45973715727304554,1.0399218145587454,-0.22800685736340492,-0.2069126064617852,0.6672357699131198,-0.20749044273524228,0.6424034781745652,0.5672142039628965,0.19847656795496382,-0.37264162683931934,-0.5747645666894646,-0.7104291767133702,-0.401536824687283,-0.26979599920412545,0.1327384647104108,0.3522390493249133,-0.7074436944961847,0.0981887151200549,0.7568522159930878,0.6523674468747528,0.39893688550948725,-0.9671057534457692,-0.6153623940259731,0.6958785724822008,0.18367238883549053,-0.8174300570607878,0.008192578423129149,-0.571714900313455,0.5357114724607057,-0.41615675273702557,-0.9291253060175919,-0.22590205681830153,-0.43254857557751686,-0.7847439808703297,0.10828534887055427,0.06554520130700345,0.19539553764647605,-0.44954731345126964,1.1052783090633285,1.038802701827781,0.365688000511461,-0.4436458445338548,1.1763095174611222,1.047823470250328,0.9176193876149413,0.7077468347167513,-0.5652776428083953,-0.18843235191397834,-0.9428403829693992,0.2592517344687262,-0.2978262109109877,-0.8250011526527232,0.1378612977762017,-0.21751658542888164,0.2624391471540781,-0.345769887397847,0.6184706820170391,-0.2577828272237691,0.5764715998138198,1.1079035051151915,0.9645957323978015,-0.5387701003700738,-0.5685025649702092,0.5948640564845978,0.6183174166924817,0.02795495112096761,-0.5185633378973893,0.18345278944619123,0.19714652044316158,0.712631035129718,0.1685458505503292,-0.8207750185045781,0.8388402728439192,0.5363957170909345,0.06579535611290943,0.0672017508142273,0.05938773531109076,0.05934110650399371,-0.814807077473813,-0.4048558638835338,0.48461566275198376,0.992860206549355,-0.5123030383104661,-0.4959952631275475,-0.4027523487633037,-0.47100660231544533,-0.3442243568584136,0.4482323378283645,0.9685669324530515,0.30586557860319025,-0.17501194385783905,-0.5546280383463603,-0.7808599075284105,0.36135561071434463,0.5599826479353678,0.8242884587356345,0.8167180650122285,1.3420978089903373,1.0695453891039142,0.7589784798296592,-0.508965769797731,0.7296903356629117,0.7540866198182417,0.12324155914075309,0.8883995433461035,-0.04433685243470298,-0.03612070584076066,0.9415185075049615,0.07364681524025096,0.25431505888734485,0.9977580845432781,0.5830263513615646,-0.805892400244666,-0.5087050632451928,0.09246579308658089,-0.469032828052123,-0.4844705799194478,0.7884637606416832,0.5524247813949383,0.6709576860219684,1.0364935829419606,-0.6718700223345135,1.0324150313628637,-0.38320881365130743,-0.2203256515924722,0.3978313195284083,-0.4064850920822352,1.0419181822041375,0.4701531219479753,-0.19577317183756113,-0.25845892255962677,-0.8563311286370827,0.5277153329026911,0.760513039932157,0.20549574327664466,0.033630232695705864,-0.7638463309751511,-0.6751365187456164,0.8271007974341433,0.893523953306118,0.3678421405693663,0.841218515813049,0.9566347054620002,0.0235463041902764,0.7771310558895912,0.6023803240415544,0.8693811529620564,0.09093373269668867,0.49604468465466856,1.0403647026219378,-0.7029996510712425,0.8470606170503674,0.7970012122658776,0.2998646646550581,-0.8634700477652508,-0.6186708995288692,0.26355523144392407,-0.11146745590282711,-0.9251175121849642,-0.7613750702584646,-0.08883793207768503,-0.39594428234791196,-0.2905535255888656,-0.26376016665247626,0.554481043380272,-0.18871780736241495,0.7826813999189743,-0.58160110345595,-0.9869667007833831,-0.8583556341588038,-0.5184253601633028,0.8458886904164123,-0.1692443729972401,1.1795836694615451,-0.2342128621671059,-0.033025541066699915,0.18828102799304036,1.0945491458596295,0.36938696216318156,-0.3910866096727171,0.7243204543092328,0.5833741742242967,-0.5766337850154055,0.830859915073785,0.2993786378774883,0.8160478976359252,-0.27937520941709204,-0.028128482447594035,0.3046394594150339,-0.9159781073729483,-0.946964753696584,-0.8645923488316085,-0.9131695408228122,-0.44236600308334073,0.8306179191384653,0.053318314099595136,0.8289996833537394,-0.5054902349138599,-0.8178914875295085,-0.12309690950380052,0.6418242929568829,0.16769642005017435,0.861882825119323,-0.188856722658026,1.296587957683925,0.9054369174990042,0.6130894190386516,-0.25273357132936203,1.2000168677446317,-0.07743899978789295,0.10248858804858134,0.42659051370178364,0.8191931238497885,-0.7467887741262406,-0.5841818054340207,0.5734903125990789,-0.3767706844110357,-0.14579410746560684,-0.019948693747689816,-0.41833964666563217,-0.18325963771451703,-0.1582850374215532,-0.8219923241817162,0.8523960673531243,-0.06769725205864859,0.8653005083128418,-0.6371439794037929,-0.1435190889192646,0.34128648909539594,0.1887524063463857,0.7252860550050861,0.5868124141607425,0.3617478483661831,0.27605026185487036,0.011291929607520736,-0.5148571731325737,-0.07114502228347792,-0.24348080011751638,0.957738017397054,0.7918447466703967,-0.6288491204865602,0.5399562508088448,0.9746148667247427,-0.09901334995430636,-0.020240042734119824,0.036794274393472826,0.6331402597271429,-0.425132667485298,-0.49545846236857627,-0.9767906324279212,-0.03502375373529287,-0.836177420131268,0.6912831607235563,-0.33478954990447246,0.1118811116008618,0.5090038318006713,-0.8720278597176796,-0.28680203946944605,0.6840700834008306,0.3550787401461267,-0.1847629265895411,0.8368148996823006,0.01099359504689325,-0.5918930158486729,0.7456463743674903,0.49811461976205385,0.07021580979900187,0.1438928361054304,1.0282941314371037,-0.37517246086323675,0.21694370718181807,0.37968553105322456,-0.3766181331289141,-0.5256704049467982,-0.6903713736983186,0.7545430967778752,-0.6058703958376181,0.6105872282504832,-0.8049212295989003,0.08012054324289819,0.5739179875053734,-0.21859895400006035,-0.8303245385801277,0.2290930978646363,0.28392051179352434,0.7332309019020908,0.8190081876614821,-0.4023061725999103,0.42925637864192956,0.4675443101015282,-0.7324374830578744,0.30607422440388626,-0.33164456348612537,0.3703812222057941,-0.34505215566059205,-0.046785805611002144,-0.5313082100670531,0.1491410979696659,0.8707230928184495,-0.03666031464029169,0.9466272579357077,-0.9578019564993874,-0.037710461495575665,-0.4014872016994262,0.26375173603923874,-0.25617293245857575,-0.5519981012459032,-0.002655756746803739,-0.9043018390419977,0.9347872292864595,-0.6612974109260615,0.543864699832605,-0.8889097775238795,0.27237410552469987,-0.9376344590767886,0.8720928632324464,0.40972793780135086,-0.5910496155576574,-0.63142269009926,-0.3290064645689628,-0.29290325370245424,-0.1349891305030117,0.569512376416434,1.2231853322093862,-0.283717716136361,0.5790122734248198,0.33874550809430426,0.9316185226566328,0.785186204832063,0.7291752544610017,-0.8883850116578789,-0.7530168897232241,-0.016024967394333345,-0.06134413580746556,-0.19330512796622856,-0.9199566966422841,-0.6027207461710131,0.3247187876954099,0.46798529946060224,0.9179900593392545,1.1869902512520105,0.4631375251321965,-0.3321823492282251,-0.09173556126986578,0.5049791974144522,-0.3468806635623968,0.3940573522983003,0.2562361691878861,-0.36294025107033456,0.7151559078394196,0.7257689455527992,1.156002765217496,-0.12927334958191017,0.349696706047289,-0.04187773706438794,-0.5112616053790233,0.003699982637306173,0.3319190681447113,0.8141402610200132,0.3564057543924095,0.6669213531423404,0.7800035065573636,0.14509505018843805,0.8646625120804674,0.7194343638481058,0.8359121312812375,0.004202218402354737,-0.19767233860210248,-0.08301636905955195,0.5214139115539076,-0.5211401970410608,-0.6453585610608938,1.000935861900049,0.7698527114335104,0.5004314437559871,1.0286368091000289,0.48087062167804784,0.2362412645952876,-0.5635740452670778,-0.44590226689914064,-0.14349547330482526,0.17506660647916722,-0.611267298951372,0.18828366788672862,0.7420121797878747,0.4307790074128883,0.17823908836186608,-0.6042989992150576,-0.38001584895890406,0.30450921379989526,-0.6523843242373073,0.020213755982627646,0.5783778599849578,0.47706192749442744,0.7821240652060595,0.324743547591534,1.164044818568415,0.2896572336065234,-0.338194140697872,1.324205478352093,-0.27605026149077116,0.6833566066147063,0.46765309154300305,-0.44288258493030763,0.9740921640982756,0.8290925083463346,1.0087762818411838,0.9548290955346314,1.2545751334860733,-0.5797223772143704,1.0917757555845717,-0.5586643775182174,0.38327048183639484,0.04746907192293095,-0.18788485434687496,-0.5422395164665643,-0.33633700689200063,0.257356099224497,0.697568911064977,-0.9589118156263483,0.08124927818024341,0.829054587943552,-0.5141951726480399,0.4488654216885242,-0.14033956684318744,0.3539576630012493,-0.3245348666317138,1.1112193647425408,-0.08332137566147085,-0.27542228797531776,0.9543276772423284,0.4070480956350386,-0.16101786467744417,-0.11527269284907127,0.6306784043034913,-0.4527260107896527,0.5861313461711726,-0.29867587583138333,0.37447107351418973,0.6812002427480496,0.5537477898551657,0.5060970303719622,0.21585477044911472,0.8979407721275414,0.5201155426622199,-0.9099293850371286,0.8912015438906242,-0.6594301181540707,0.5306730144944587,-0.11637850289717666,0.12037969198345269,-0.38598573069076514,0.054162598190289984,-0.6424373498856173,0.5211966514183134,1.0469369549814265,1.2348056247184394,0.6120384874797731,1.0833859396763987,-0.007179546034100481,0.6346583686597755,0.252717682603026,-0.18212721266270115,-0.6543514991194884,0.28583915802529586,-0.22646332065133984,0.48134106641367486,0.6852270233082927,-0.04049569703310807,0.6880520475923584,-0.21375066946250798,-0.8517496529881607,0.46545404450976324,-0.590789769707833,0.9122945097441804,-0.8300521300157542,0.16978997497890602,0.6411090050518349,-0.8421478072338267,-0.8957896779252326,-0.600855571618562,0.26688073704676357,-0.7936962469220304,0.8157404227108418,0.36978739038325503,-0.10399506192978966,-0.01739859455743047,1.008835521634133,-0.5993464464660385,-0.5328956751407412,0.1967170907993032,0.02528039747556421,0.9711617918518352,-0.3266637765274518,-0.8894011371571264,-0.38010224437470885,0.27937259475885523,-0.970605383124854,-0.9766441501226593,0.5056071204813515,0.7504705672966978,-0.35224459644306005,-0.4920190218961993,-0.9930804165860945,-0.2979396464498463,0.793629888956702,-0.17741663984178935,-0.7595141610443168,-0.11213565737772657,-0.9024749396924988,-0.3185926081436512,0.6167660321647709,0.7914460044628397,0.6657770771269284,0.5553883291911815,-0.055310138871041414,0.23807557207778077,-0.2874125207212831,0.8587445846364214,-0.4099246620030246,0.5226305883678788,0.0974722682595659,-0.958316929240848,-0.8461005590026709,-0.49316550863660624,0.19504530976072432,0.6815581321799404,-0.5352358027099726,0.07130819954583645,-0.7295888755804913,0.28647438803096414,0.8325630489837308,-0.8342764289189524,-0.9424650036253133,0.06712974916023273,-0.9087849142407225,0.3662408952336056,-0.9941903317010823,-0.4612735471564122,0.4117897874935861,-0.2435086356968974,-0.6576024291705942,-0.7801977006993485,-0.126693241503562,1.038112944528447,0.6897539871770946,0.34689939386163426,-0.09080053790594356,0.7095574393270871,0.2171565520997849,0.7826985504725921,0.6038386709735364,-0.2438960897768747,-0.24140367469226787,0.03616263811258502,0.810906217720369,0.1649527988286208,-0.1621441570586719,0.4562203630279449,-0.38918423387792633,-0.8392324347116964,0.09238116650193895,-0.3939570467673834,-0.07892102151423552,-0.37913682626389833,-0.578977962647123,-0.094005506188648,0.7332274581190679,0.9632289487423171,0.46480228677891255,0.04513101555206234,-0.8787297119525947,0.07895185609047206,-0.9981747332879154,0.07248470426728915,0.6741286993699838,-0.12611597232324567,-0.08012228936305399,-0.13010620041281173,0.03047186614413322,-0.39474216093359815,0.4989728364842294,0.32331313372258763,-0.6750225827852234],[-0.9322804719815225,0.7664142114255332,0.33234901428788977,0.20861507757835707,-0.4802159932925274,0.4621392222632432,-0.8355601992412496,-0.44316032201320055,0.04928626719351703,-0.1443033679836443,-0.4152888246749862,-0.7511744704805274,0.8036421427150509,0.7565380324326161,-0.33268215561872716,0.4161769979291463,-0.13058663760977485,-0.7305605550347611,-0.7106944527314127,-0.5915362920160052,0.8800931259701912,-0.33079958426969314,-0.7891987954021962,-0.7760577285269585,-0.8366663814917739,0.18116109134235647,-0.3651920841294125,-0.37678040484031183,0.9445389082101063,-0.5160802649947327,0.857336273911985,-0.5172640791824454,0.34479143720757377,0.16552654982352855,0.24342487553737868,0.06115847424060128,0.8479080570215776,0.40404718361317093,0.1929211219047977,-0.5925004430151903,-0.21154025969724333,-0.026683780494526355,-0.003233420805020426,0.5025835587684511,-0.9796956726779631,-0.6520122738068932,-0.3432598246538707,-0.19661325105547034,-0.009233221911481237,0.6717890281043215,-0.6376875632602212,-0.8549641307790612,-0.8774054481928251,0.9088696272299521,0.06135002126381428,0.4416927640623449,0.953749031514078,0.2948365349465425,0.5383750969707222,0.2877233296896877,0.8717389725233227,-0.23095972715405066,-0.6726683878196607,-0.3904106003809136,-0.49656817621303806,0.14841730240178697,-0.9963249930762881,-0.3164642290863571,0.018460285916613417,0.7270374338675394,0.2958893037163859,0.7712374103807516,0.5233778412992232,0.2555437098960156,-0.5708468810095662,0.5215238219493761,0.7546096216447222,-0.9523242594362995,-0.828803799361973,0.17064226327380472,-0.6951724317156027,0.35816407628226,0.7059813729071733,0.26795559764209465,-0.7189039950735219,-0.7162019947921943,0.6921750821407653,0.742906166970875,-0.7750928545857061,-0.5320498642271856,-0.16157902735413399,-0.03430858627496321,-0.26539566525504177,0.637259023396797,0.3382792188876662,-0.35082863568513956,0.7395538079850856,-0.8154457331476643,-0.1890059571281839,-0.4535069034907069,0.7861487479471738,-0.748120076489895,-0.30183590411011707,-0.9505762785929761,0.20059267278610693,-0.6841579892476792,0.9170427855915764,-0.23424256740214955,0.7205946757842439,0.9386352324857192,0.38669345071672545,0.3107912385920686,0.6809574538288898,-0.48699518803674935,-0.8950053276756909,-0.9410125866961694,-0.06078965832227978,-0.9442546460897465,0.1965259014432777,0.8541076475404931,-0.9049885136462265,-0.3813291386766088,0.3818402617307386,-0.6896029308715695,0.58366264055021,0.0442329700330557,-0.8771866346986773,-0.7110757243943155,-0.8553206694041795,0.4107617191281733,-0.6964359111928828,0.6819539859025383,0.512189308662851,-0.8737235701476218,0.5911832267458843,-0.32140965568740576,0.8415661800054501,-0.3910991311314387,0.32650103489982896,0.008641516081067335,-0.6901346119183804,0.3156237269413871,0.3098210961562198,-0.15312176940659628,-0.9413026029087859,-0.9959923951551768,0.68134332055493,0.2749794566671069,-1.3288679806543364,-0.4576103235208361,-1.2647430469395753,-0.1550872216056384,-0.3216139888419073,-0.4231411837423902,0.5674540537091838,-0.5121156413365652,-0.33463580677007443,-0.28256993922143153,0.5212474842942196,0.9633469782436741,0.8193977085762358,0.7668096046612747,-0.9424012751191302,-0.9265672919223644,-0.057454376103153404,-0.21222346239286383,-0.7174088910328973,0.919787499730113,-0.4515928322577365,-0.4292114023877156,0.051578391508689814,0.14883828411436717,0.30976060492716795,0.5189533722214388,0.22978935655278906,0.9197298358396322,-1.949384158090652,-0.7571533094433577,-0.07465098102441392,-0.0831573492338373,-0.9086430100959388,-0.8896360953173774,-0.7235432991005587,-0.6998339864923075,-0.890082008007694,0.5947491957215234,0.9395741982648039,0.9875560742302162,0.4546444540608534,0.875298615840043,0.34749580085064324,0.7018841148247819,0.5350683353959838,0.7903536626593672,0.828505288666477,0.5581661937356774,-0.9767372245421295,-0.16129629016598201,0.258906167756189,0.36784776184727064,0.23170556278040566,0.5714897486236192,-0.9268622134984427,-1.0875337859994367,-1.1974428871925291,-1.0741880669061201,-0.37082944389965056,-0.7821397377942707,-0.4126972316920553,-0.1844741226185539,-0.12290564406469259,-0.16026472192163996,-0.8585371297232479,0.49249360793488933,0.18837878007448944,-0.21980546675593485,-0.9798599699032255,0.8117568470472019,0.7939163603942927,-0.6448324150981504,-0.44428901968633916,0.6527050826383329,-0.6318423115677487,-0.814711235599255,0.46047607618278885,0.7160384803036661,-0.14648423485282547,0.5907043925657736,-0.4451067753181332,0.5755552640444715,0.6809878777353577,-0.7783829903772512,-1.6914377197791666,-1.5486059542042305,0.35268449560258397,-0.42710534128773114,0.12926614841954415,0.9728762319910128,0.8981360228614536,0.41936927679299574,0.5113213515492981,0.9119202950211655,-1.2741607428117638,-0.8403761830818097,-1.9041583736026741,-0.4928611720294199,0.3187461104364674,-0.38738756009221587,0.986317348945517,0.5484857739172442,-0.24970289102312604,0.47203556406380764,-0.7874355748500037,0.653133313499229,0.9111754462422519,0.5040848555740992,-0.7848999861072051,0.04419854968304516,-1.3102713179262102,-1.2248397662407084,-1.4009794806858287,-0.6434441770711005,0.09969072599135087,-0.7441985278126161,-0.6527853491937988,0.8325436245826304,0.7511943415764334,-0.7551784537783718,0.8920887462001966,-0.5513310404334442,-0.5373498692017924,-1.5848358492808927,-0.6656533041127453,-1.294467616986727,-0.35802391659523314,-0.03510719980002808,0.9524463162522683,-0.6044919771090203,-0.28511357077845934,-0.6897749456362487,0.5628311723864621,0.5675643367151089,0.6347869885026918,-0.9986529995056873,-0.0848532345731662,0.23711085090055176,-1.4344703982879616,-0.9728489694636799,-1.8541545805465258,-0.7645229994909896,0.9295639764429795,-0.011660965891165331,-0.3332685740978708,0.6809561115170715,-0.24185612316412822,-0.7128109805894011,-0.5039846145990623,-0.3643919511336078,-1.3334101817030846,-1.3994142621556707,-1.0365853745399463,-0.5295778365177951,0.08066962484012574,0.46146263137084653,0.3448990828739038,0.43996222087523273,0.19785342833603092,-0.8312210152560087,0.8714864777749161,0.04858235392356702,0.07869291972615788,-0.7240940042201951,-0.78345893830454,-0.7834943407343407,0.09786651262423207,-1.3715863901769167,-0.6224426772564129,-1.1177670602879637,-0.19904995256295285,-0.8934643480940373,-0.7860033856760724,-0.5147363421390025,0.8463925421657489,-0.2910107411763504,-0.9609423980233437,-0.7642853491953799,-0.3929178086311485,-1.8025680701307762,-0.16597372472296779,-0.36204754015299967,0.21701678934393898,-0.6160591019942148,0.4395524639369741,-0.19415927072855066,-0.9185843902183759,-0.36857403418116785,0.09899024305866955,-0.8776120882255294,0.830018794603067,0.5209686581720725,