{"biases":[[[1.0505325673628372],[1.3009268451250022],[-1.4388306243163143],[0.8273200703176989],[-0.014948212119487539],[0.6788584634252258],[4.444029364523234],[0.11677862991157684],[-1.2878113455928022],[0.10750256262756429]],[[-0.22970816978445271],[0.8796930989856402],[0.687601969280977],[1.0007616092285134],[-0.15357799829772403],[-0.7511300424819874],[0.37040085078480584],[1.5916325833702054],[1.2833312889137838],[0.9562389386825039],[0.20062399210771145],[0.6397974777470781],[0.31565834423581424],[-0.5879136480911703],[-0.581334284729106]],[[-1.3774280168913355],[-1.0366922273828807],[0.6227567434281646],[0.48562926846523385],[0.17746485610967344],[-0.865827288595692],[0.15909840013577461],[0.2002034102298634],[0.14407396501784064],[1.2254285654205868]]],"weights":[[[0.848700536581229,0.07910747716417155,-0.01248130609159892,-0.47613137175788434,0.9530638333368946,-0.7886706996040738,0.31330837084827756,0.6360560063703171,-0.7483827283848743,-0.5405372216951982,-0.9903839823204668,0.9929676294713123,0.7192152937084195,-0.8026656666965236,-0.5881584100758613,-0.05716762474494061,0.8839565100883717,-0.9131427832688535,-0.9359621106701617,0.974832717894476,-0.8774432746590473,-0.9974783454139686,-0.6466966324977221,0.022160314084851418,0.20033697332168554,-0.23691073152230668,-0.7049747294216775,0.08782425377541081,0.9091384817682866,0.07635266157980736,-0.09831548141393509,0.3211962771791699,0.13589162728490178,0.8812986632058301,-0.9668220555516146,0.0031544548567270436,-0.32753859047131273,0.27125167752050944,0.03458447119569224,0.16389106088976602,-0.6340563022722918,0.14969453032585425,0.3702330270193939,-0.5234534338585837,0.7904845643633754,0.02141828995079738,0.9010794154262544,-0.003118836069896763,0.9108054038695466,-0.9892956007872491,0.5262820648739926,0.7968290849415113,0.6609565033689311,0.8782401025965425,0.5216781349222552,0.5814429010848503,0.17244170489733301,-0.00415112954724961,-0.26094894886141784,-0.9879073329176298,-0.12196203101419126,-0.9905248325634807,0.46351260870592087,0.10705609820578697,0.6415376192809309,-0.36874364192583586,-0.798820942093653,0.38882671362975013,-0.550198504179895,-0.5738455123306543,0.3012237123485895,0.27279610441852403,-0.8744498177585565,-0.4823704113582076,0.6600291302178559,-0.2835712559335996,0.5284694556895659,-0.6991541658625814,-0.8322627055087414,-0.13307377891844963,-0.6279672694266507,-0.8483735737148622,0.5219731273298793,-0.7484934431268282,0.4591122760222832,-0.09451333202435985,-0.07135025360180447,-0.586730848604879,0.5082817199008984,-0.8653596268588635,0.8651924037104275,0.6935167671022647,-0.5852345374009531,0.549624856089583,-0.2999085713616392,0.6599353868806409,-0.9566496987876635,0.7357748216764807,-0.505197120625677,0.18345573590271438,0.582108886783075,-0.5942127064342211,-0.03202801784485624,-0.2475339545137089,1.0628036744173863,-0.8144379661015152,-0.4439924479836528,0.32828044383046223,-0.9017529323960607,0.38849601350053165,-0.8352571373279405,0.1614822532443927,0.24284089526400532,-0.08124587246790871,-0.09517199116503179,-0.28393379778523165,-0.9877743846770539,-0.7874134519750129,0.6687468575372801,0.27411176339625526,-0.6038394889432677,0.4879921803880919,-1.0348264082020842,0.49070474570050676,-1.0205067498720808,0.019350171630161377,-0.7554969111987164,-0.8546167517136289,-0.8354523314843383,-0.3439127335613194,0.3328447519060985,-0.7281611580123937,-0.9202310878112776,-0.4140173919626842,-0.27668447705247845,0.42748408936727994,0.42012648580240064,0.6826168544015221,-0.28747420857014905,-0.6919366839030423,-0.35603779226074317,0.30551460765663596,-0.5577259287619701,0.7682779961844696,0.9059901368260939,0.9157940147975607,0.1247364456152701,0.21556050468408225,-0.8172511977921331,0.4586562691784461,0.07618085864458725,-0.7060130735715556,-0.4630437521647796,-1.1626879624988342,-0.6040954283878827,-0.46838834876249824,0.14117427192483978,0.2659042242235041,-0.315356721551092,0.431535187653284,-0.027306041593896966,0.8417588040535413,0.20464821242063239,-0.23855018716263382,0.3402747069335677,-0.8722369766287984,0.5755155102641774,0.5219192828422142,0.6240663060907097,0.37866636027830874,-0.6037852324367551,-0.8075613909532197,0.7646233106623653,-0.05544281455818653,-0.6339787441795157,0.15222444352094056,0.5929094949169589,-0.7690703423757395,-0.16784987064534537,0.1355573713335652,-0.7769838668132146,-0.3601082883747622,-0.7103274164149839,-0.21902837341017972,-0.76154039590766,-0.7273283637972329,-0.6702934884746709,0.053550675554350856,0.423510365128112,-0.06351365691557101,-0.12922082333655727,0.14325090865370363,0.7236719865056763,-0.5069458428311364,1.0018682556882696,-0.4754546635652976,-0.4020836417261515,-0.5113507422675864,0.4875366557570709,0.37729276701185316,0.32575108097959415,-0.10437273093175115,0.8608563746117285,-0.4250492144395929,0.6043101759760453,0.5464659588135614,0.7543603710780256,0.024788499903344596,0.790281870036323,-1.043126752308251,0.6644205060559085,-0.956110071260165,0.4455132685957068,-0.37423320535863774,-0.7140857740434461,0.549629441875359,0.3233459812197582,-0.08905241267967587,0.14697178575563324,-0.4348860939858071,1.0323179937395373,-0.14204090840329578,0.47778494770667834,-0.8667692617395284,0.6696930746662093,-0.6339696524588344,0.4664789621060556,0.8979178018018155,-0.6500743761869161,0.9963634882520342,-0.4284407393680834,-0.336245838176638,-0.9607770076057212,-0.366476576977189,-0.11482789079199665,-0.39978963904206677,0.20443337730299876,0.46834920942178404,-0.7484538616096114,-0.5707118454268201,0.08602326479549732,-0.7804458195841246,-0.18114570650454315,0.7042864548006625,-0.5217663029108446,0.36683769535810584,0.9003674357558089,0.8060365779462124,0.722736285382737,0.22824549460542054,-0.503990160126687,0.4821754517670957,0.11218177632745799,0.741576182888163,-0.2905131542568884,0.1232903223350663,-0.45178671577084434,-0.1484942377770064,-0.8435157393289479,-0.4571225707516641,0.2666314678253614,-0.22071324739409845,0.32563541527581,0.6307985800133328,-0.20713224172338646,0.3760487314808288,-0.31669352153308844,-0.45885660567615766,0.5200499454748435,0.7499717965080208,-0.2650420189428248,-0.4174193605578079,0.31168237611136257,-0.15637364046391183,0.2382708590246962,0.5102715714881443,-0.35689016970831744,0.3709114273234882,-0.9277277831639318,0.017139208861199705,0.20403606398607246,-0.6370861914836008,0.18828315440913226,0.3040853336287875,-0.13304374815074418,-0.023451414697339374,-0.07977766752346627,0.772992499862015,0.4532614738375583,0.5545659312992948,0.18433714909863916,1.08281924088004,1.6054231485692139,1.3592442973079144,0.28767374079753333,-0.03272260424952661,0.2613956409567726,-0.7020743775909323,0.1744569008397703,0.4092065580958413,-0.055052192333528954,-0.3092358214210697,1.06003061996522,0.9507433376646899,-0.5669207929549682,-0.12574613499589876,-0.10980419719201248,0.6014630506862602,-0.9098809894075399,-0.44061883108600486,-0.025382805033555868,-0.14433005054641662,-0.4596596879417896,0.5050539988473247,0.395617221374381,0.04328735679016821,0.905231384346825,0.3987697355362524,0.9934991034142608,0.996137581608153,0.6979714076131096,1.6341658993686285,-0.35277221752031435,0.16296950023767326,-0.6180490100283201,0.7838564956213178,0.28199742232994146,0.5460702871322124,0.8931149306672294,-0.26559456876761645,0.2027941199816439,-0.1065805537565549,-0.1287573291678072,-0.8633919934719863,-0.2517916024552361,-0.47812207293672043,0.392996552605535,-0.8408747919649301,-0.8671686764706031,-0.05576343440916575,0.48839497121376213,0.6480175959663957,0.7864693774585848,0.5673562775698651,1.0943205654126746,1.2876469021644474,0.8598202680843068,1.2861233835621015,0.4890527617774186,0.05994073512443069,-0.11969049463837038,0.4946955086876623,-0.6041322534460161,0.6496628708472739,-0.3917487802698486,-0.40628940484501225,-0.1900073717823066,-0.12994359504217,-0.622650446037397,1.0079764829867364,-0.5461063696325883,-0.01580411636794658,0.9818309261162884,-0.42678305490870133,0.7059730322844402,-0.2582162367255872,0.8366469122064142,0.19595762957765042,-0.7098268310604586,0.05873685452818723,1.394284183206714,0.8001749613584777,1.5463534655841658,0.6669806951222239,0.16096315996599905,0.37021751016328075,1.0653987935176257,0.39740620105030594,-0.7168867557272107,-0.2890398650333621,-0.06500210607350566,0.47939561838840444,1.0068236096554501,0.4039812357544206,0.39114463519602694,0.7278479111011332,1.1859818533023612,0.9617593877543941,0.568616002765062,0.20583431942495048,0.9885172686476944,-0.416576952159933,-0.5762428045460251,0.49904819397049327,0.4549333903587053,-0.8142237660772211,0.7560287268749932,-0.31238107438409846,0.9618537225864542,0.7499571694993294,0.16374261937827264,0.020019460279741823,1.0634526453908035,0.41660215411831353,0.49815960565702594,-0.8230557884818325,-0.6972368112568873,0.7510443210687379,-0.2711743768116039,0.3937916302205809,-0.1501769269804392,-0.3580440009157382,-0.5765651902526537,0.35465977086013467,-0.05855761167223929,-0.07500089500343206,-0.8059294621876397,0.43859647688705233,0.037505542412056884,-0.9209154376769259,0.2544510980282591,0.6639893570578634,0.091539030342538,0.09401493434482852,-0.5381775202950769,0.78287376811201,-0.23148521260153615,0.014456077552446461,-0.36780681494569534,-0.6508451681423408,0.05471635791878776,-0.18858271644768496,-0.8867543388758902,-0.4464627175884899,-0.13266507760812926,-0.1497124408620445,1.01175585732765,-0.13543974605594694,0.942686861613739,-0.13483211489679206,1.0299488128875878,-0.30613915009371717,-0.5917880605545497,-0.5244612347342114,1.0048122084430435,0.7920112814457415,0.41403930639799413,0.40966501613798173,0.43975980287328226,0.20865370197032018,0.5971453207745234,0.45422841174370143,0.7888449798410002,0.8311264801125213,-0.33743196470980924,0.6688701634765079,-0.8957605519541254,0.3751930397912871,0.16006927925700104,-0.7086447558426376,0.10736799288404046,-0.19102845900464868,-0.885110908556601,-0.6793924886004027,-0.5106029781389796,-0.3271364090982019,0.21405716658773077,0.8997060554218799,0.34155314964387307,0.7958435492856243,0.1417854907977176,-0.8793323790711497,-0.047536552275083355,0.5054023596964877,-0.019213810856867013,0.2045738608234965,-0.7990920756765922,0.6004631021725074,-0.22373827015182554,-1.012231580554292,-0.3162954962394379,-0.40165278127305454,0.8615546724279552,-0.9650198153284186,0.19319711514129412,-0.6350180523767177,0.8482051392036446,-0.8860267567270391,-0.06847314907442699,-1.02653556892952,-0.7325768919597924,-1.121096587546573,0.7089431252222124,0.5850378608546464,-0.28151152182951944,1.142273366001933,0.6624631398072119,-0.25491878755936687,0.9257691504444531,-0.5683500695079874,0.7509874390241323,-0.27837989189058365,0.6276284429503027,0.7054985097232673,0.95551525450901,-0.600124748876186,0.757840975294785,0.42724873195635504,-0.1330522804522006,0.3004083384836357,-0.75816094957037,0.3833888456249362,-0.034926220096878166,-0.018640046152612465,-0.010870771742435066,-0.6434044365785722,-0.30334135321469846,-0.1929891839917098,-0.30079633584995974,-0.43026764373676857,0.5060446381794227,0.30494616471831515,0.26880995130128993,0.07319153994265243,-0.20568719886648276,-0.0716982820433754,0.09773500241914916,0.27753338553585366,-1.3420402300889223,-1.0905349178387587,-0.5694696785645221,0.4275983811877974,0.007184036785758963,-0.8902496438478674,0.9282133547231339,-0.9498383768096639,-0.18951044501442685,-0.7237739935119658,-0.5788070239073184,0.07035818677920284,-0.1471900902031302,0.01591963772852475,-0.3377854975448521,0.19967578868732683,-0.9480738238431833,-0.19364822479164287,-1.2388830053700106,0.7498272287381198,0.36188006139835444,0.427882716477127,0.014120853147897777,0.3664348979921565,-0.5908651233860244,-0.2724125558459102,0.2934132805791212,0.10233685228520925,0.22013991430694968,-0.5865374631109214,0.4753203779828108,0.6448038968188441,0.1685758290930106,-0.7197819735879264,0.7342187603981143,0.5653035775946816,-0.5242960466481864,-0.17784948114670346,0.1428352495522662,-0.20206994309063953,-0.7477312908700734,-0.9047708294801321,0.16914628822835254,0.6212626818800476,-0.17851527226283534,0.44910602616867296,-0.48157165852208655,0.142782948956658,1.0560032043760854,-0.3664608513465381,0.28477978746549043,-0.09682456401216512,-0.11439992896558857,0.34667683409558286,-0.290660997291904,0.12898732417865366,0.609108584228476,0.5898912586644417,0.673511293782756,0.6567820507644241,-0.005933888133362192,-0.29267556429210195,-0.5856966949625744,-0.43947216011955553,0.3832991835290299,-0.5028748222751284,-0.5168032341305296,-0.8273960123157457,0.5913634107259497,0.6272616428424757,0.1797273887374106,0.47538127113770207,0.3364089913226519,0.6032690259268926,0.43390689226128937,-0.4551865287963121,0.2881797781784465,1.2817016498161735,-0.7977464494350378,0.5213115274200544,0.32810583543145944,0.44991157497485196,-0.5291459597924082,-0.11923160567900609,0.7203619527119367,0.7468684435606794,0.40058378213145596,0.08094598799283471,-0.17484742079332913,-0.2336124854829758,-0.08110694848725669,0.8491271158029182,0.08262844895636448,0.5860551323895478,0.4862223877852339,0.01470106966778074,0.3880346510107281,-0.5867641089764243,-0.046190661192546695,0.15006517366711156,0.5878455572961467,0.939049110672279,0.1444162479170442,-0.2085614698408157,-0.18648634210465953,0.14515811534479908,0.38491950195969254,-0.9287319487527428,0.5514829383374663,-0.7287186168496242,0.1510423948155172,-0.580003553455595,-1.0556080102515906,-0.8332715809749107,0.4697243881519877,-0.6516765931130843,-0.5486908052640915,0.9749998017649659,0.16338122171624714,-0.6793990912156921,-0.5039030971809935,-0.3440154069778686,-0.6755155019348965,-0.47816123256374554,0.2484765326299646,0.38100016246545143,1.3534708148487071,0.31667946919408635,0.11902282803408536,0.051203970170165584,1.495156337935135,0.25037235912335665,-0.4440289946569044,-0.1705452998166121,-0.14567491788993533,0.15558391783323897,-0.3401778766973722,-0.03623904790016731,0.8928462666956892,-0.41599079711492126,-0.6572789550132734,-0.348766985664255,0.45261990812001784,0.32531379701110197,-0.9820103058970282,-0.5261454328529636,-0.6937775491730683,0.803798327832609,-0.738347739483329,0.8676365077830834,-0.7669126358349093,-0.15536691024603916,-0.3107276048523323,-0.40696059891882475,1.0029309458434352,-0.0355244928718438,0.9065380031592742,0.6366286689146385,0.9057914456475882,0.5773414212041448,-0.5624048997486492,0.18888499342427975,0.17775519009508628,0.9434717559310143,-0.36611149053767755,-0.7622878055224364,0.6369076889106019,-0.2637838677324482,0.9879120220435945,-0.846405709965012,-0.07686355092813581,0.01186899329898261,0.45627907372937293,-0.7208842468028493,0.6148926882558333,0.884813407359336,-0.8698989760446882,-0.15220345933997634,0.8575291534240034,-0.3744585249984262,-0.12011996026523532,-0.17935678105106767,-0.5394548249237777,0.5148717040065929,-0.5944440362541602,-0.9209645595294257,0.6743937273123877,-0.024895648651549477,0.3725253574002527,-0.588773353590453,0.8930429388986298,0.3246675346436127,-0.04595747863311327,0.014310591005937597,0.7372554049674225,0.28637582725966376,0.7738025765616476,0.569553619764311,-0.7552900652211656,0.958038451038999,0.9892101045577768,-0.6973844423997393,-0.15054138095108405,0.35805276634093786,-0.386483470379475,0.7301786878068997,0.01819317354584615,0.07196493344401994,-0.24140987515991402,-0.005913883930723475,-0.7675926726733996,0.45014926215497286,0.8640094149294033,0.3916696574472774,0.859376466170708,-0.28224130914266715,0.6466093043229996,-0.419693929849726,0.730195008725023,-0.9784564980979784,0.05199287884111094,0.0651109998227296,-0.6955586594107163,-0.32036251081042133,0.9759602337631645,-0.9456167243926195,-0.22949562127125356,-0.1259753240538113,-0.10469771526361793,0.8676775871493541,0.9098888302913526,0.2729267249309604,0.8973963891526126,0.10301705261890183,0.795552048516693,0.06884012334195325,0.1870549812899619,0.5504297420827278,0.3255407327548364,-0.2085285376465338,-0.6156205520699091,-0.685138634595718,0.11511852179479694,0.013845362967519249,0.33611488149125507,0.9433811475351999,0.5685878501417261,0.6159084679946536,0.5812191867705694,-0.803380747728451,0.8006632670561027,-0.8009664927512848,-0.5110516123599627,0.972915696928754,0.6728049187087839,0.1866426222662947],[0.3998035640729374,0.46043419275341746,-0.4211287852966039,0.051900308910350246,0.5562827377234478,0.855447119468576,-0.32586794429985644,-0.6134237784022174,-0.9227469899328502,-0.13639867474260714,0.20374050772011976,0.43415502196677047,0.15931546685540857,0.07053753602196365,-0.45988709942674527,0.5972571391256083,0.3048673853796362,-0.014900062782052581,-0.12446044684806368,-0.3922865430175835,0.09841937198324002,0.9456729475847443,-0.8308615754087194,0.0318802147262538,0.9947055986128339,-0.640778686985459,0.10636537107731336,0.2520643312820443,0.40211930995982126,-0.7154621948785695,0.8415824688090858,0.8896874858402068,0.729668186723051,-0.2726880783602113,0.6012414301438954,0.241282021235445,0.606694182389828,-0.9508722318309856,-0.22204381905140816,-0.7736123204382053,0.9443647210191355,-0.9117115252667105,0.4009131272408982,0.6644445313384181,0.05961607156314928,-0.6909852292983409,-0.4048902178219895,0.8397118833039465,-0.701436704373354,-0.14558763737431166,0.4515827236564013,-0.2295399131958336,0.24828123623451281,0.1615370719608913,-0.5639057110287362,-0.17673764725238073,0.4150194813901038,-0.7905908828241142,-0.058024832163378504,-0.959673071740148,-0.2509610905633273,-0.11534330445841423,-0.002892542892680871,-0.6378877117575592,-0.7904752151863736,0.028461744558143404,-0.8501987820652184,0.40362888759688414,-0.4277746867808272,-0.9472179480914182,-0.9191952254662047,0.8899379322713896,-0.7368624038634026,-0.07826895630218657,0.5456668539997387,-0.8317698341983626,0.6834767571529049,-0.5286587564145142,-0.6980441274097742,0.7141812742761895,-0.6531180837374795,0.86264098631024,-0.6664388443047051,0.6361758062957195,0.6615506402466482,-0.6746743079593434,-0.8213792535585311,0.20048839089887568,0.2611114630418052,0.9903961326056518,0.774318361544933,-0.7418297322927234,-0.2216413543615318,0.47039686610098547,-0.06666974301487438,0.6144241125206127,-0.13428821112191727,-0.43860580678587957,1.0196228504234723,-0.2041686484600876,-0.7014882659686409,0.8429810802634353,0.9986060586784269,0.536169839657134,-0.6888013780626132,-0.7277193978467327,0.3636704884850081,-0.8195267738108919,0.3284741493915846,-0.817719105791133,0.45332028237805444,-0.033041003969324745,0.7600216015156334,0.5909187063896597,-0.19505864167168374,0.7018377587703006,0.1848637679016506,-0.8264135994927734,0.4616280077286691,-0.3455003463692661,0.1780112548705908,0.19517837619443443,0.9254449608090224,0.7952885226320564,0.9498385126280146,0.7888459602692517,-0.1600461305339998,1.0419582864964227,-0.6610460256637254,0.8286333731719839,-0.7148688868159064,-0.6914100881959471,0.20583132440566568,0.5137765807392425,0.1919728059880829,-0.5375381333026583,-0.9037698262571885,0.5412417996564256,-0.1443529916687784,-0.6934186485796245,-0.033211800054589125,0.018855477055708336,0.40285551699328137,-0.12393767820202528,-0.021583687717654444,0.31661224212123945,-0.8832263140829236,-0.9247232445950424,0.14430388236911956,0.35511029588991194,-0.9208547121123346,-0.04890457135062281,-0.23247706591821374,0.20424090480403695,0.37269143243243635,1.1044172407236956,-0.10380179005404491,0.01965163039874311,0.9890285610254964,0.14183867444628956,-0.13842558878719313,-0.7338589380242106,-0.45956086097792187,-0.6003527640402371,0.5130539449895019,0.13691752617633862,-0.6889349287801034,0.44932666177170844,0.41081180822705354,-0.08459135871868027,-0.05162186719439903,0.49145206000229974,0.8221614265574857,0.712210841386683,0.8330626436734775,-0.5566944088512796,0.9493266887636416,0.07447756370448251,0.5812852554073177,0.7544679048585328,-0.07247939337997045,0.9632025792311367,-0.6478755908311151,-0.608248283213988,0.7963779640560046,-0.2815509092019304,-0.06539217555424949,-0.6284318375297454,-0.20654837427772554,0.25711079250022184,-0.6319341763220455,0.5224952248860054,0.26635150920056544,-0.3886323083514931,-0.9663015452211394,0.7024037623020507,0.01596464434149373,-0.8337110298583404,-0.9342087441567439,0.5346579129350695,0.7733268864190612,0.18926744688709893,-0.0667507326781423,0.18053181362462759,0.1841364851227991,-0.20441552079928396,0.05539816986283971,0.8330246463818042,0.5806730070883473,0.5781951421916535,0.3211525200224053,0.30083148465230936,1.1718321042207918,-0.1890968285714198,0.9094836766723962,1.0229753080740225,-0.5524562657977097,0.1934055550553021,0.9384948335350888,-0.5193910572600166,0.39128410906362177,-0.05572367294385125,0.3474557851441879,0.4951256948034798,-0.0699485181645489,-0.3678225621818726,0.5182293910922607,0.5086050602885882,-0.14505309808954944,-0.25919042140199056,-0.011905207279338026,0.7208340330676126,0.8499381595850312,0.3478036722888152,-0.7516176534020046,0.08660945878237025,-0.6232682133836343,0.8784748172942459,-0.48718120077429783,-0.49451152529572867,0.7618427768845073,-0.7998834959562166,0.040966535519555806,0.6118106378691236,-0.020551693779815205,-0.6280851198131757,0.33302032214316957,-0.08326699916520315,0.3323057688844432,0.2579253051875089,-0.5500230031796497,-0.7083176302024247,-0.7151361326242213,0.5463521248428667,0.013990160715694333,0.38827665651330684,-0.08273609912028955,-0.5893729788477978,0.8020714752951128,0.44905548263314393,-0.49986003464612894,0.13541577309037056,-0.11017773148474426,-0.46138316523175044,0.4306790834055466,-0.6830962214921866,-0.4926116462133022,1.0198563566055954,0.44790398099350415,0.8364632242261951,1.0358038903206195,0.27138845986067595,0.06583900923524459,0.7620244382843654,0.4489765392711271,-0.5149918604218808,-0.906872155636857,-0.37697131363503034,0.6764829704414913,0.29521556234527185,0.2010315234449834,-0.7713120601120603,-0.6300918537116051,0.07592286073594852,0.4110862213092655,0.05133959710367787,-0.18669532762680885,0.21467020788003835,0.3838520445971032,0.3155811441039414,1.0293779297194277,-0.18705697278644579,-0.3644245126959418,-0.7617169312946842,0.8487066074800338,1.0178230522937615,0.7195894414300054,0.21521274584131375,-0.12673297253446894,0.6573498910831969,0.8718508187963346,-0.5443901064809037,0.5337136134748235,0.6872993143380636,-0.6381914216376239,0.10987979079025366,-0.6792281887774851,-0.938858979310716,-0.9005646279801811,0.9356673529991222,-0.35383928500178685,-0.6611011307959388,0.9739337409794349,-0.6713442531386904,0.5202141647278746,-0.05361204280194832,-0.5557484423936361,-0.5986501074570678,-0.2880564116030394,0.0018914237514774572,-0.34134847450864586,-0.18400158734824823,0.1540621945285423,0.5826109298492388,-0.16758404666229115,0.7925237032445063,0.6663605167947322,-0.5351570404975675,-0.825550333565696,-0.27537899683269074,0.6135022751656806,0.9399773055102315,-0.9356756533846602,0.1495846468636342,-0.2389262343730443,0.6812753582540133,0.4725309104941795,0.743725173507712,0.5888554684219643,0.4448240878557135,0.17894542623517068,0.44815255583039276,-0.29296115115362464,0.7865859087355529,-0.4133502465529734,-0.5129677510648367,0.7202401380434128,-0.2930112401043676,0.19178831791000056,1.0090305416602912,-0.23195032672005103,0.13211778754628867,-0.0932410953065727,-0.31577056693988376,-0.2637621653325495,-0.780722975127548,1.001116354591404,0.8465633207956078,0.03009976854680529,0.7292018570211237,0.8724772313896416,0.329488372719462,-0.571694077064362,0.5975851453943765,-0.03181381815063977,-0.7408357120710033,-0.6341158073921419,0.7551992983828103,-0.7233348637277355,0.440957601141047,-0.16552465987814985,-0.8799853415127082,1.0876120880013465,-0.7804942594894283,0.4950629170380432,0.5709489102458952,0.7992140127195966,0.10176338931317022,-0.3540929326623575,-0.27043594727325637,-0.07749186977646236,-0.725910937424391,-0.13171806643352885,0.13816242816415114,-0.23417543263433052,-0.4224912560123443,-0.36194419446572584,-0.7599907807461186,0.4690633668831905,-0.5736907758264453,-0.7041804717260761,0.1586744139185169,0.4375643208143338,0.6051574126188878,0.6151126188748355,0.9096707827786558,0.9501004803980462,-0.8504717629621016,0.08304352641097287,-0.6291765355577094,0.1957011931700068,0.009352975050263754,1.0255120112667064,-0.14961770186087353,0.9125842566680317,-0.7525213840004279,0.7142909939113781,-0.09439034717037934,0.8738743618088985,0.6830582792799218,0.24510379471016516,0.7624359718451655,0.5564350422642108,-0.19717708826503086,0.14625053084992692,-0.17533065225229408,0.647722089715194,-0.5120320351391198,-0.046261154936313775,-0.4156090261323758,0.06984417421811265,-0.5692019836433156,0.6416371705837705,-0.2471304557050233,0.7646868711166299,0.25641105260320673,-0.30475403305776694,0.06965963595008325,-0.7576948437975052,0.3088320488715502,0.7051936104525713,-0.7539758454124225,1.1720873233282818,-0.3523825226915504,0.5300951233076553,0.8136443825469498,0.57751800629366,0.5498535739232479,-0.6056461805234858,0.9751474932328674,0.5072537471729874,-0.7319726057557553,0.9675112054594298,-0.5492243595233979,0.4183280582439821,0.6230244778274932,0.49216612752007804,0.4444752597797316,0.3246057519886825,0.0601716539209276,-0.748109112049279,-0.786335470268512,-0.006481294358402771,-0.4892986569932266,0.5030415088348673,-0.22057236316038656,-0.38601344392995013,0.32837238283948683,0.4802491874443815,0.07123347772646828,-0.2789541604428784,-0.634513935734075,0.9100209042068074,-0.2504622615178032,1.0011620185911942,0.4436757517925578,0.6048987982638764,-0.022850068437415202,-0.1952265223583207,-0.7779146545050605,0.8226702984556207,-0.43059316778090645,0.7628728111408934,0.7212836293230135,0.157235065323243,-0.08468307519336978,0.8183799736164488,-0.4608148488481757,0.9807208087932711,-0.2919160597258418,-0.38003216209544094,0.4897966362599317,0.862792955820936,-0.0011352741026726774,-0.3904110423842113,0.6727455339037496,-0.7636252804253814,1.0927850760885724,-0.7172919972508356,0.5423599013300581,0.29860035269560586,0.8873230320279314,0.3961119906917468,0.6201536596907271,0.7612451339956675,0.5179734499967495,1.063827978798836,-0.131716725498389,0.16048535797857102,0.9899893627107239,0.9837763272462214,-0.4700075183671135,-0.6137781677554941,0.9519229048398732,-0.42466998162515457,-0.32472123352629123,0.30396421983414007,0.35590116296397445,-0.1713440322525067,0.27783863130399444,-0.22205872819525063,0.20977255683856752,-0.163647430069695,0.01951729390733758,0.15542220477152854,0.21709494024196488,0.1629031632815554,0.9808644118351234,0.17656143986606762,0.40824349380816993,0.8153264574839251,0.5111467563697814,0.6994415369553187,0.48835564286245037,0.5888107517663922,-0.4847242186128031,0.8999742584282377,0.35031102793170865,0.5631637712732684,0.7208659215810425,0.39307583358411896,-0.2963949014781366,-0.1265380560374998,0.02295902061791872,0.43766954512561396,-0.0606983205087138,-0.6959483188940566,0.9328729886505208,0.8233427921444285,0.6650666420182467,-0.4619271262248569,0.6952632170495101,0.4075971341004492,0.401896599061421,-0.700766164638121,-0.16408836440860947,0.06117955008770678,-0.07105090748573242,-0.48875609837223616,-0.7100512195905663,-0.5367299324596114,-0.6373046477005219,-0.31219143815352024,0.5462683222225403,0.8661194988098893,-0.8056899931614697,0.7798315863441218,0.8292887518711348,-0.4635529746837801,0.5671902334087284,-0.0938982594571589,0.9493682082784594,0.8282865497565466,0.3229406569049869,0.8594923425985963,0.028833439392583857,-0.08312694132071818,-0.5683832377080333,0.08017212643902784,-0.09963548066431455,-0.6980471101620926,0.3931943546776915,0.028603170193212384,0.4697397509837884,-0.1096559152217233,0.30608184736402805,-0.697878810009903,-0.05947586834406765,1.035480408351267,0.0885617871691218,0.3891419299572288,0.0364058609181915,-0.9558493509072413,-0.1054341099444396,0.25735236222926156,0.16497436676863764,0.25863557539574816,0.9675549599146966,0.1445525733086503,-0.3453816846478233,-0.4897728596250966,-0.565986201447406,-0.4349394602780404,-0.7122207250340399,-0.49720068135935375,-0.037276042371715515,-0.4020497696361554,-0.39428730521085564,0.9674520594807193,0.4114379673686689,0.577270820457102,-0.1632117644012386,-0.24673644218270832,1.0115307858436828,-0.7817112591098354,-0.6069697522208451,-0.3771047390939259,-0.052722619772771394,0.48874233159713654,0.7875787331381497,-0.7587594130841102,-0.5212580009899749,-0.9761113003309703,-0.8832496103472155,0.8593861720396906,-0.5738478079051736,-0.9219418302569058,-0.7166737989422023,-0.5686450497262386,-0.02625902988004839,0.8552434267582709,-0.8780079936524829,-0.08221089597591458,-0.20829044954505813,0.7584891260873535,0.6208344842031198,-0.7893209496378181,0.7074716268318454,0.6324927222670237,0.3275564425276654,-0.5455900801134421,0.719311608346949,-0.34018945469750567,-0.6228646221758294,0.5515252450149409,-0.4832750864696744,0.60030949416746,0.37355796894590027,0.9869714476929562,0.8020440170558932,-0.6349175178326936,-0.8974933327916446,-0.5698979000962313,0.8477232223266133,-0.8439003556453253,0.7220708898883486,-0.46112293905559504,0.24673967902982252,0.8839335672584089,-0.7190206245354311,0.16864161974670103,-0.6275867006866468,-0.6737008573375205,0.45759810380459787,0.48567428508322147,-0.011358612877786722,-0.22476759549491868,0.9433933652604969,-0.8363177094741246,0.4145141285777182,0.9053313979902561,-0.8180620334114881,0.2750279720718188,0.47896143010264347,-0.5654523255309245,-0.4649884304987709,-0.3333627281718064,-0.12371407398292146,-0.7385890012112308,-0.5009288589350042,0.40681887285608254,-0.6326431399015064,-0.9741443395257814,0.1499824746150491,0.25079339114229754,-0.7219416160411325,0.0553904323641476,0.4664994502850487,-0.44353109767056825,0.7557717056510568,0.7657136014185153,1.0116493477283024,0.8776473419727682,-0.14407601694664404,1.0269974300410563,-0.8057943052523745,-0.3272340408319603,0.8780813171066807,0.23897072677910267,0.3413805308461604,-0.5400322848307937,0.6678475911606104,-0.33539591594870855,-0.08082091424488205,-0.38774459439307113,0.9852031724932129,-0.0012820802418091048,-0.8274460617264671,0.9300515054091084,0.9495350334597992,0.0794762679519676,-0.3061655795386051,0.8993588563683312,0.20640941936074816,0.9509439242918196,-0.6612530430751064,0.17379635625529433,0.13759580447803388,0.3429848620191302,0.21181227811140704,-0.8209980041548252,-0.8522525036926424,0.5889271321683516,-0.27272879431924835,0.4241900998968387,-0.42096787578307204,0.510251679323565,-0.5911200470758147,1.0020540388314758,0.14277107790616772,-0.7634894645634887,-0.32463566570039276,0.2096184309426455,0.7609953455964765,-0.403757546517816,0.05722770397617712,-0.8237848034796842,-0.5564454640439427,-0.23052437071537346,-0.9783249818315984,0.7158210098270852,-0.6746904848714319,-0.9714642382224502,0.5026340222301953,0.21450094255662583,0.7228984532480808,-0.2039975411379478,0.08582747037029576,-0.868129341383638,0.37775884783678354,-0.6768335366730885,0.7772057871213085,-0.3697843978927863,-0.3419297921628231,0.25503384358201997,0.7443519990552873,0.8680532113015957,0.20389163581242564,0.4787265896807033,0.8993748299372624,-0.5872641197603861,-0.15965356829579463,0.8975090553590188,0.4549506647261554,0.8295086555499029,0.993707421555494,0.33365311130567776,-0.6354157600766555,-0.5745055955794105,-0.8249893449547465,-0.5842674155874383,-0.7923123062838576,0.3639363412922211,0.7270529725885121,-0.20646473586304914,0.5944019517705644,0.6072035863513103,-0.8409592966745122,-0.06270869005220697,-0.3335730832580175,0.6044731091353228,-0.8088196885669068,0.9890613387870035,0.6865899229949357,-0.13692919751499713,0.8611948882666711,0.3446348675766273,-0.27465937777592453,-0.373016411427822,0.5465016650846625,-0.48407006349540893,-0.01735648804333345,0.7332722591224692,0.009021817984471658],[0.43838613490649814,-0.5840161288606938,0.38516192243623215,-0.9300365379480835,0.44376635749288895,-0.9669797638245399,-0.9258661252660529,-0.6379423987156407,0.062019676345009156,-0.1996697019352749,-0.2710821679770452,0.9328261539129192,-0.01666138656869333,0.978416536619946,-0.3763944630357673,-0.27858205352461696,-0.7020530170013382,0.08382419962033039,-0.16876680240047226,-0.29466076175232336,0.11481376486859807,-0.22788748268188153,0.24972399689847857,0.5264026522141103,-0.14008361947667058,0.21536829583941586,0.163656253611989,0.15690163072239693,0.9058235519231919,0.078406240676407,-0.2961876034768718,0.48065701129798755,-0.36736564879719746,-0.7308036583665768,0.09221935317243485,-0.35278072896799184,-0.1321968117122072,-0.9726705298273222,0.7261441484697576,-0.08199481598233621,-0.2161083452982832,-0.1981954392107111,-0.37565778033421315,-0.8370294161894514,-0.07481814034590116,-0.62749345369356,0.5700290349513921,0.21673324350689555,0.9207982763592776,-0.9147272502801449,-0.5845013110462148,0.36859189881984056,0.3999643692491126,-0.36915141603914736,0.4192449958168656,-0.2978478553689863,0.7007087650389474,-0.9118048142114885,0.13495111131606463,-0.8183701591562413,-0.7047653706608674,-0.24211472076137755,-0.22408322425833183,-0.39654441512094385,-0.22293529421489422,0.5426065416389079,-0.9905707933243328,-0.4225890138137245,-1.155346422805602,-0.3913473110443302,0.41159098011318723,-0.9180845641637772,-0.3109994906058482,-1.220236787755043,0.24123631658561048,-0.48452310404692583,-0.4360293312246664,0.3212894676941997,0.454891091402004,-0.305867895061723,-0.11174566354818927,0.5449875821033111,-0.78138527608246,0.616936978987705,0.3703518298763828,0.7636968994188609,0.8699775876244864,0.9079346109999212,-0.4982677594707557,-0.18715810628733473,0.4883777451704952,0.3913165566775442,0.3170897100648015,0.6015115930981337,-0.5655743466429476,-0.3446198861829585,0.005642693582525167,-0.18380408606627685,-0.9546706678631849,-1.500984155097774,-1.4806700084244184,-0.91977989665208,-1.4043437552935067,-1.3413661676090647,0.11471245996160652,-0.6109246354175711,0.2903562901098405,0.19912471330323345,-0.0315100353081741,0.04300908898400066,-0.6717557956872751,-0.07102709434704546,-0.3247720039418487,-0.46944184888698953,0.6944118883562785,0.9848955722952462,-0.7281789065103321,0.604970397942069,-0.20889271687525598,0.7011206093939195,0.48375987632893963,0.19652135505299978,-0.3119211473128734,1.1045251546640973,0.6030332904376429,0.4902259895676359,-0.44480468241321214,0.2576237535142766,-0.30181119467445827,-0.3597453777434873,-1.5682610583530432,-2.0478455907212894,-1.6372965154005532,-1.0560012514990287,-0.4849088106865498,0.5963269051213407,0.6754624608278894,-0.18277638621374256,-0.9828150553985959,-0.9540203858549842,-0.10755263933310033,0.8636387095138176,0.255566922743068,0.9225059676824278,-0.6249531854256852,0.9688428816019715,0.09638646127878442,0.2757415239297834,0.46889824670923475,0.039924819274881375,0.347274618753588,0.3654190319446943,0.16613657923125766,0.8466970547295972,0.22683417129160188,0.09139525284156821,1.1481717124182456,-0.3997891003814664,0.1307658947630089,-0.08487368768823964,-0.14159278579706283,-1.2453059269910418,-0.08688524672476583,-0.31246792721762706,0.8149287611355646,0.3282786808615687,-0.6823944794657109,0.5784665114568959,-0.9239578042012992,-0.5791334062071805,0.7555092736506094,0.7083978848525054,-0.3067668024381505,0.916513291454281,-0.15840475494637307,-0.7816311888283167,0.7151741100756893,-0.10737737412599341,0.4802305399984485,0.022554966616066676,-0.03982563904883293,0.6524730336582822,0.1614123483777596,1.5155815305259062,0.07355707817121737,1.4637256412607704,0.8487778614462386,0.21803696852222396,0.4998378214307515,-0.12629180549760646,1.1293187880917261,-0.4274459552023422,-0.13346142890106563,-0.6257175598977983,0.4893931084573537,-0.9383130759768386,0.295779369231019,-0.32301697391534695,0.6741029157169525,-0.9471129517622359,-0.02682116495219815,-0.3799103482211906,-0.06583598682642906,-0.9498743615836589,0.2849987630378947,-0.3136155982142495,-0.25101351953327106,-0.05842712224207762,0.3877513103854022,0.831465414079011,-0.09009231332863932,0.5138603663391327,0.2543275182345213,0.2956919215914783,-0.2002950616365674,1.0544868214529426,-0.4504458174845423,-0.00963366071429249,0.6343098447877932,0.8919741518095871,1.0919207689070582,-0.5984567402805662,0.24497293869725037,0.7349494034056359,0.6611232737430074,0.19982002743679853,0.12456193095078577,0.6237448256794392,0.41171583485039204,-0.6205522240828114,0.3385809189412546,-0.7340447000600276,0.04831319386715253,-0.18058137232534682,0.445147843990185,-0.7394781333133478,-0.38424787289651313,0.013236210454250809,0.38722848617687766,0.23877896864092205,0.6267445600972636,-0.26990885220714433,0.5734419505587998,0.5385743847593133,-0.11388311140859236,0.6423494270677154,0.7916875319042511,0.8982158815899158,1.01525607746638,-0.17432488119961997,-0.0374218746986289,0.6526492022744967,-0.6674366767744636,-0.5583514079375519,0.25589537941955526,-1.283500413957984,-0.05763878965806196,-1.2589315770001632,-0.012866076610018465,-0.3659139696410733,-0.38959528251612474,-0.33311662177074575,0.24984576516161527,-0.32926826508357265,-0.21241861855656008,-1.460884614706111,-0.9731753709693125,-0.24808580566629237,-0.1381735100467884,0.024876880508792887,-0.2687163393328337,0.034885591226190095,0.49765479465405604,0.37399104254880716,0.7713455931982122,1.0859785010291936,0.4322372795862002,0.4182015080816747,0.12817681737326195,-0.038985024052121585,-0.9382798852334941,0.7809504692277502,0.33306312062825544,0.266269841925057,-1.1013769164438825,0.12906573037548433,0.11781087697005876,-0.3928313829388218,0.6581444888510992,0.12681104570908774,0.28937681689368666,0.03850452943843601,0.2694472330077424,-0.2470501191473908,-1.2554785847211896,-1.360597206448404,-0.07609851237849416,1.0470955970474078,0.8059016926887118,0.5371994573430392,0.12941399204226076,0.9859181760344015,0.5511752281236958,0.6877824927172894,0.2967451742703532,1.1653444367182453,0.3900220157365062,-0.03065221683551525,0.5679225510079576,-0.034425562348588186,-0.9900488279746904,-0.3610495825074446,-0.5566057756373998,-0.36085043076225093,-0.9482246040258842,-0.22224540561078004,0.47312215877526725,0.6954812351171417,1.1071319030146065,-0.0535899636240145,-0.08747610709943604,-0.8881621002760106,-0.26994065146838164,-0.11298885221979066,0.1411474833778103,-0.5459488619380295,0.4092556435147344,0.14868570221181046,-0.16448108842100226,0.00354449524573058,-0.22931655187405883,0.2225112929912129,-0.09119943086010754,0.9148991241093819,-0.2537847540423765,0.2652739102691118,-0.8880913806455708,-0.5695537672342057,-0.2686941419501708,-0.7896480733152653,-0.154867673190491,-0.4099627773802389,0.6492760388646476,-0.32910005934890835,-0.33629086108555456,-0.1581069562715488,0.36560514176533243,0.1812529096376395,1.309795745856644,0.7165937355381609,-0.7673875765626804,-0.11919776873315369,0.2527529317870566,0.11538834302562705,0.1844154721379997,0.49007422442934295,0.10572144682777126,0.6327552472355107,-0.5491429222948283,0.08270212637108372,0.6330571351514303,-0.16172282639635677,-0.504387852203089,0.3310811107369967,-0.8318033307857977,0.2018305514667838,0.41819957280061737,0.7326975584889789,-0.5664686519895372,0.24063093646942985,0.8430863817867655,0.7487959629402947,0.22663644632572955,0.6074716573577326,0.7215685741569955,1.229542928551681,0.7862304426494584,0.5569765533827147,0.10569375862404155,-0.3626201621960619,0.3239594848892051,-0.4593230932827123,-1.1087509363327392,0.09328563615525329,-0.6773983242127128,-0.810845156689695,-0.4245114569550559,-0.4195986871854667,-0.3629823075932494,-0.5898736740883977,-0.046584914458058464,-0.10434835554340845,0.7810384123529973,0.019892327779019794,-0.15844253737943473,0.7631616513066757,-0.022437313896422572,1.2380537686593032,0.35801634768484475,0.008637942929828075,-0.08026060604622265,0.33463796462552603,1.3232275315577784,1.6697842179462847,0.7691946709839992,0.3265160486063535,-0.5420016885668207,0.05575157707153653,-0.36312986387187174,0.7203986563307059,-0.02026397842364064,-0.8883461159479057,-0.5481111363485738,-0.11291226327194369,-0.9728991994404429,-0.057074053445604976,-0.7092989811614835,0.19171211504754562,-0.6732727945404251,-0.026304968213468848,0.8984728445744178,-0.6541017372970557,-0.6823016087878859,0.12727466187155315,0.2848803746843883,0.3965851936750222,0.11758642764875557,0.1555600192424458,0.46317964050050425,1.638048542020619,1.0595461527284364,-0.1152587980539752,0.7743067185758049,0.5220512512205335,-0.09425276852693612,-0.6786142427636563,0.3382039908132461,-0.2285796976890121,-0.5430950972128595,-0.6567283647266644,-0.15491808365185628,0.0043461692382885855,-1.0064971596214765,0.2286914782980126,0.4013579632657543,-0.8460445788419863,0.1242676110915641,-0.02218083830905679,0.724970131132778,-0.7081463798314301,-0.21204811153003153,0.6845065084392195,0.18118196603289452,0.5624850252464245,-0.10634863448480283,1.1981013360026895,1.1811950397319646,0.5636714069748098,0.1932992972741063,0.42454568207160437,0.43243840081218227,0.6079129873919035,-0.7905703301604983,0.5502373771935576,-0.11170911589131553,-0.3718762901580319,0.5632697317065144,-0.022419793340405586,-0.24989429695089355,0.23941638488240666,-0.3957762903077589,-0.07357277237542073,-0.31233262096197956,0.9769839026371346,0.12560253964922877,0.13216106281121892,0.29914672605809867,0.5876388660371985,-0.34771884562751576,-0.7069461947146988,0.6899457134443697,1.0201118868959367,0.42099185584383964,0.4858837124558147,0.13838584066889092,-0.06019182279609625,-0.7054907388080767,0.6883527646054287,-0.384340727887701,-0.47462972240120693,0.35707007511251543,-0.36388616049616807,0.21998531215714884,0.9219436655607818,0.6724698682204928,-0.5897690402178579,-0.6906577630085479,-0.4084219069074358,-0.7345233880911517,-0.07092673530105278,0.2940446422355763,0.2673629035851362,1.0375692095066569,-0.6420798098770424,0.5409643212349237,-0.24998120320592482,-0.04743756183157112,0.5460323706908806,0.8648900957118577,1.1000794918762564,0.4993557018826159,1.4032593230881496,1.1508126902105542,-0.6529513900775828,0.09048952328716643,-1.4125754147741918,0.02982643737304288,-1.0432565474199977,0.10777866032450029,0.5425843526816779,1.0601361812475616,-0.5074298841343836,-0.5035428683239662,0.6449077346510006,-0.1751497893901524,0.25344056066697773,0.11815916599851321,0.9209850685394352,0.04091420289621794,0.7324116130691912,-0.5853167053285644,0.24535606439673804,0.9281514963646904,-0.2583373927078112,-0.08271234828314587,-0.03475492837729968,0.7750129695657251,0.6976142789811145,1.8878922682667294,1.3165108269176586,0.021034527693775226,-0.316036793585485,0.03297271782328372,-1.5630568702772474,-0.7538948851988069,-1.1656650559776256,-0.22718843094647903,-0.95436895225658,-0.6923321896949435,-0.10602779087994348,-0.07269874696360451,0.05253561184008222,-0.045829200746774476,1.0509843102799,0.3177763960799327,0.7013593501578633,1.0058110643019862,0.250434976673811,0.1822121136621925,-0.7380999451304409,-0.9732187682036231,0.7887066106455766,-0.2818108188337225,0.9509796336494423,-0.10599439555829625,1.0162608696425448,1.995219146214539,1.1458801870695827,0.9342505409944889,-0.9919223586675809,-1.3242170307164514,-0.47573302497664627,-1.0616604066282842,-2.037188958782638,-1.1251425917075688,-0.6402712919206673,0.5233631942840898,-0.14848261684128858,-0.43132935855862764,0.7263950549120192,0.42413211162603237,1.2469620515702877,1.3854899568908356,0.8751031840961211,-0.21186910682556598,-0.060892381766596955,-0.1262958299079019,-0.22359150058141533,0.3397740462465008,0.9753951120941114,0.40250106022135157,0.14330561789400084,-0.47476500582928616,0.6940045343030666,1.452752642758565,0.018542603337200272,-0.00042309431814379516,0.4311950756880494,0.21152985504132046,-0.5189170202839375,-0.671435976418664,-0.7414438256078538,-0.8206593801105956,-1.0617029092890091,-0.9033673572745249,-0.7363404490755185,0.21774277174291243,0.8441454983576245,1.670947999955396,0.14920281097846713,0.9742055280580125,-0.06602293731146747,-0.1849058794298908,0.20225978621162669,-0.2869861005648783,-0.5345162834575548,-0.3575665163414738,-0.20538634863826583,0.14258592918992605,0.10267802171553823,0.39706668125740757,0.44733524582208156,-0.25506784206208744,0.13646649054675541,0.3557003761325299,0.40531350596539545,0.7508956360109059,0.2547743372792175,0.7918604434241208,0.4394870652608197,0.20383672848031953,0.20550792455928016,0.04938007008920997,-0.33646578529645377,1.1928951178234521,0.21588042108165106,0.692307414220901,-0.1967627832328676,1.1683985387065328,-0.1271126410414418,1.006447833226018,0.5881221895968681,0.9123367157858736,0.9732204790975558,0.7697193203718469,0.7694096984845944,0.863905484625039,0.699484079780297,-0.36889454728123316,-0.3933543276413785,0.011072727075002264,0.05648620311450271,-0.8142871946734684,0.2729332771349338,-0.39183909540015693,1.3460624889944177,1.1859116828949017,1.0720755237567277,1.2559065295158311,0.6962489334404416,0.6783387382315661,0.5258581318071126,0.28957054907733615,0.8475505130661094,-0.22944378597759654,0.3327422719324798,0.8924633861025113,0.03322307222009267,-0.2100540305280479,0.7462277486445601,0.6694452168892717,-0.6103701802869061,0.7509118988981986,-0.6453949716207117,-0.8060223051999199,-0.1888319102418293,0.5993426852648709,0.022516783512457245,0.4164993725328735,-0.9541612895594048,-0.40190226581318006,-0.7574601268232032,-0.2789678939847566,-0.30758622173200034,0.04508997512719781,-0.5678879031883999,0.6332795716279794,0.16534503116326915,-0.08128443226490888,0.7639449886335632,0.8457389637303501,-0.30209887060828605,0.9053928576779745,0.4560133268993227,-0.36240167243663374,-0.7501868989569471,-0.7666969385504242,-0.7954241110290555,0.12889798539217365,-0.8996634984288132,0.08802429292472214,0.7061066082901095,0.432486742258904,-0.37477066098244777,-0.15608362059721573,-0.9490404140606626,-1.062892566033414,0.24259710911564078,0.0708683357505331,0.41534730063520414,-1.2282143009398936,-0.5036985475705416,-0.2747228749147762,-1.1762821388699478,-0.27153661536977675,-0.017224057314129272,-0.2465594462735241,0.22916814795220894,-0.46253526112687304,0.41200791803821574,-0.059872568296689514,-0.17636815772149692,0.2339411538126549,0.9908581447327038,-0.27645464328576436,0.3974272879528524,-0.6423909560245037,-0.5082510315985613,0.8496981372345886,-0.011143033804836167,0.14359431934778422,-0.337661277916552,0.6402747519395109,0.9459133664826437,-0.9071882074112445,0.23362657520636318,0.5329408062766319,-1.1800783014344962,0.10420936185086077,-0.15027497171056248,-0.9885912870876354,0.49623671664789853,-0.40194855156326814,0.06620274175302479,0.10870096523166146,-0.10841752224311398,0.51510580545972,0.2202554035999317,0.68998428598167,0.9462926688778257,0.9794696854873466,0.6964923311970922,0.7051055456773219,0.9474755847787628,-0.838441024738477,0.20149654168609676,0.4823937406143286,0.9771190980022939,0.4625119815097134,0.5000550288713634,-0.9776391050047281,0.3554355784700642,0.5996268794446703,-0.08184915152067607,0.637534144279909,0.6221430517972301,-0.8328986656909684,0.10634898904987676,-0.27514568653368054,-1.0343177593304924,-0.9655431419659946,0.8803809659753624,-1.058012271882199,0.5263297001081679,-0.6741570766284575,-0.8497935641631823,0.1609246285833009,-0.5467016153587643,-0.6110417610031368,-0.7752769576304204,0.3719047174208183,-0.008203049309111865,0.3389927605762404,0.6580986527002148],[-0.2594897363273232,-0.34984085411802246,0.5436750615208252,0.7005436196256929,0.8517440932787916,-0.8408527762670479,-0.1476246840370219,0.18418062294989412,-0.7980221735456345,-0.07766339857362414,-0.636130886169411,0.47987306709418864,0.14647813661915934,-0.5300542513339567,-0.3142001638004249,0.0033502549900677786,0.6895699966742637,0.8711962759506,0.8650676019414898,-0.25378963951172984,-0.5953958199117022,0.6258386088687273,0.29211272860461346,0.6395889701954813,-0.8410954641546875,0.9035226749167669,0.9307629992961879,-0.3640089870427181,-0.7534403611546034,-0.09999947569532885,0.8514481384741324,-0.7858564632019389,-0.5048215583878339,0.8815236572836656,0.9854040222351871,0.33765441748394487,-0.43891437231109637,0.1345727532132534,0.6828938992979073,0.5210563618634746,0.8578555763098169,-0.08205958286092752,-0.39662301006969597,0.428853471377837,-0.8990742773549298,1.009041966865952,0.0015773658465363753,0.4179936755043159,-0.661826614948976,-0.07723970296103137,0.12821723460710122,-0.795140197798081,0.5696301459398001,0.3409004575557917,-0.1044382763088123,0.2737004030227159,0.12445098641649488,-0.8873006276885858,-0.4481808587895104,0.27533254338223556,0.7811154496583204,0.23941926648548198,0.47426599897027033,0.8343296209734706,-0.7873207665948624,0.20073618500982784,-0.5357145679331214,-0.3019286448738579,1.1564963396733614,0.2287173364769059,1.1682169918126737,-0.44840351261977285,0.23868561901799393,-0.29067662215745443,-0.3414266034996921,-0.7667189266267147,-0.5672582197175478,0.43920096925870983,0.2348289701542889,-0.7954584622811149,0.658616713009719,-0.2169424744070234,-0.9016193964642152,0.8580049950305366,0.30737850016585955,-0.2830591051615199,0.22761536088814993,0.7499667620853948,-0.5781272363388881,0.9700826192066158,-0.6221983702106613,0.6532897514103421,0.8972765948325623,-0.27933100159262764,0.019648041943133007,1.3110164376614302,0.8801552329836334,0.28186332392009406,0.9921909298637577,0.9879646813763716,-0.40086219126998274,1.0518529041918634,0.8616566708930966,-0.08456919511133995,0.08293751029167591,-0.8424774496426862,0.3714983795146155,0.7806343854029207,0.3535180562955669,0.873286215213323,-0.09273664475940462,0.01584538450769779,0.5531439670928313,0.6445085485385115,-0.010520116692869229,-0.8073698816224906,0.010162459226224267,0.41105075134631736,-0.35282894340851373,0.45218561510974087,-0.4581567726151438,-0.3116486194622808,-0.2851396243681243,0.8493720001005495,0.22936676252626512,0.5347814288233014,0.16738420848176425,0.9065653002601304,-0.38709838051794365,0.13317618939742684,0.4364987258656633,0.2349054441567512,0.6803967491097248,0.5669066605627472,0.36416722055079387,0.8827208117726708,-0.24362697276352727,0.016609236887157337,0.7340496324915894,0.0376076164473438,0.6560048956756377,0.6596731820542181,-0.6990494461554635,-0.9125451997665657,-0.9679024935656073,0.29669630654688606,-0.31080428861856246,0.02519481015833332,0.21737999596336277,1.1897621804865492,-0.5050830192676956,0.8553961221900878,-0.3500334068484724,0.500486644124206,0.6834431912689581,0.27629099288808284,-0.1989921273908794,-0.6342901440709202,-0.016897505900758624,0.3227318987289448,0.01101717030914656,-0.8716807769461282,0.2170119865335286,-0.6777075702510321,0.17437281259448612,0.7847100907676292,0.3540247760578017,-0.1053475832268603,0.40546147231133856,-0.13338967114337746,0.7492894077517569,-0.9926380831864045,-0.333481434910815,-0.6997294624917958,0.41933779958276096,0.336947931580436,0.3861430663576076,-0.7264781133724543,-0.29578177104913655,0.892970236460343,0.5385759681133364,0.548627968546533,1.1180957653337984,0.9430403319096746,0.8250202264355193,0.37197821087595584,0.3388314934785499,-0.19128942978789687,-0.3470199780571319,-0.33959581823824064,-0.0999166838821366,-1.1029491960242386,-0.6636660757193136,0.003387388972997375,-0.12345577328514326,0.31577684108448634,-0.9638214428911573,0.28463284779377024,0.4155902639647427,0.780955183387452,0.3340677799434451,-0.740189813332996,0.4992623482052342,-0.7080746002612218,0.13721468952000593,1.0775498559563663,-0.035404781503243096,0.7682459252809162,0.6448172504303192,0.43911536807295737,1.5926705784609936,0.9819037822499928,1.4745876878654651,1.122475072444742,-0.16529182510868215,0.7162358695032836,-0.49405623734182763,-0.027648827195797226,-1.2122769033991019,0.33538479397330195,0.15532984844596592,-0.6467119720380924,-0.6197567051787806,0.9115810143779508,0.007266924843037644,-0.7704458751540324,-0.36749733514476063,-0.8643322965320281,0.326821766261209,0.24561406182870002,-0.6204414416906194,-0.42732789876900534,0.05454809484880586,-0.6589765292172415,0.911962625101054,1.2667847360618374,0.31150278368701906,1.2379117692138228,0.9921004935483191,1.3817677922955587,1.1199094485076282,0.5157324593812728,0.2857334596200297,0.8057836549282532,0.3960354604821788,0.505041463391008,-0.4290227537087295,0.49522429980235616,0.35438183716953664,0.7074412286116869,-0.7005561114109506,0.8566398472727147,0.7100377880147525,-0.5798581461922656,-0.7961693506526244,-0.2436799277284705,0.5425900371622429,0.26760422112889476,-0.5077516527657829,0.18848284667321502,0.41415842074887266,-0.44059533138082235,-0.2455407331859952,1.5000207716175207,-0.4666147675363977,0.71358919862224,1.7264905958291346,0.8851397518106114,-0.26716327616099106,0.058430543029277554,0.36879417079702337,-1.1388096900137195,0.7864832832556073,-0.1766290116869837,-0.4834697061326219,-0.4217489789944357,0.9638352865833618,0.22290831796704003,0.24595431526019224,0.5959096886024825,0.023844463594526456,0.05590273476171616,-0.9114818194974047,0.2472167368775358,0.3376494964262396,0.4518412838590362,-0.22127329776636834,0.8444877892788787,0.2765862724604766,1.0615018210647889,-0.02937746899628366,0.09891000264426895,0.3655780921729013,0.8607456250941711,0.7425908359019243,0.9300768511402726,-0.38092997718233834,0.35085379391152427,0.4717581854738309,0.7109412307565143,-0.8467849645223559,-0.48298513439660645,0.4246681194598989,0.4444434365248336,-0.39003098886065474,0.9406340088956333,0.96637933749385,-0.4003211507249634,0.6283382668023021,0.39428573992000887,0.5911430422183844,0.8229497616837264,0.8604125291857316,0.3769117138787375,-0.1882815755834439,0.03230639208692087,-0.25886530997714763,0.1333885690855265,-0.6724209403282309,-0.9294732659324785,-1.2687091885599975,0.7385281850255043,0.540004543563463,0.2967155653137115,-0.0835442884494532,-0.22818034773112333,-0.3182380079074668,-0.6277012879770016,1.075689699275302,-0.36786701591545873,0.8191722778639168,-0.42733047621970643,0.2996616404676672,0.0730807305728386,0.7968395726678373,-0.7391647667317325,-0.6271355322322041,0.6778032656596475,0.782530245720661,-0.766132455248299,-0.8202549731915361,0.38936594224252374,-0.0375715223387465,-0.5526300621556268,-0.17897942304183284,-0.9683478854427757,-0.22908217523817745,-0.9769144698046214,-1.2267345814350383,1.0216581174635375,-0.23298630122313294,-0.7974374945015666,-0.4267884962601799,0.2564817412355519,0.6788875021472819,-0.38008955123969984,0.2231436770712846,0.4597412898066072,-0.06808604752516152,-0.04551819316974382,0.9686320439880943,0.06768909502706073,0.5912580991614694,0.793238489466593,-0.21603001131219335,-0.35608290491335925,-0.45144619236782313,-0.7421869888107363,-0.18280935078696045,-0.27363613548018917,0.35885615621217715,-0.2100692870434897,-0.5035762813933381,-0.3328767716117468,-1.846291953558348,-1.6623897119263618,-0.11978696639722046,-0.13728155651879237,1.1683900071371456,0.0033037024006819737,-1.0804881822165013,-0.10549228229235535,0.06994114648694544,0.7907742029532023,0.7094625345976846,-0.4034617644249883,-0.6233680799056651,1.0160690979159614,0.016204761387204305,0.2036567541592121,0.21398844278532314,-0.35593252241448053,0.5885323185946352,-0.18990345236601552,0.03353360615324035,0.8322130544466524,-0.634361023760517,0.09595118159214111,-1.2028570677493187,-0.32037397752340757,-0.8710889872810291,-1.287904369483164,0.05442608768265625,-1.1530098121221755,-0.6265902136077453,0.5001486169375179,-0.3252894708762234,-0.5045658637053277,-0.06859602191302261,-0.14434542894390162,-0.969879961367037,-0.4229281831054698,-0.928960423121626,-0.6875437123956702,0.6110823478479049,0.061187774961151346,0.045428116996645576,-0.4444981787732075,0.7574537094669948,-0.2060980008680115,0.4185292434966838,-0.9888188013011678,-0.4491945836011189,0.14448433768425775,-0.04754200639732623,0.029731764268064512,-0.625918860364031,-0.6847994468888781,-0.9278945600916182,-0.0369882250561184,-0.8282080388344502,-0.887466969645239,-0.5663039727654826,0.22836357606312416,0.5953169645121678,-0.004590529766526159,-0.830897165969222,-0.5283040417897595,-0.2053884168489653,-0.7737274163359035,-0.44591586989375004,-0.43028544666605817,0.21152180097646692,-0.22995847554824764,0.39877806818262146,-0.5815862654642701,-0.21600938374680814,-0.1965450147310705,-0.5170130829571107,0.9687394850528754,-0.07221808925489633,-0.5443011909567435,0.586924718289677,-0.005968371748230892,0.013683743526758205,-0.9599864242530243,-0.41372453946286825,-0.6798866267989454,0.29248601004030994,0.5479855207745101,-0.4259904197918075,-0.8670782204500264,-0.9025974227047739,-0.7732360950322634,-1.1652266447012145,-0.8087798250915471,-0.4267757894241874,0.07571928617227033,0.4898645652276649,-0.4937478989655627,-0.19565118876339443,0.596609099714452,-0.7575711758852306,0.27116193710025754,0.3558190649700351,-0.7165430219490959,0.41153501511168855,0.11159084981933597,-0.1833988685727958,0.7533956302640562,-0.19808112454473467,-0.5336536830590969,-1.1105816193445377,0.14069533087881544,0.3614111394142205,-0.5743491066090218,0.08239535040954957,0.742176558328605,-0.36335685632904163,-0.5857251896024709,-1.2600240248322896,-1.2165134386891185,-0.21254709857826357,-0.7684067292177389,-0.059089179216720585,-0.17693132509026485,0.0001297617622966143,0.43381153238856957,0.7566036031181299,-0.39263659451104077,0.7948752282026341,-0.04139689715015655,-0.09698063058809658,-0.8159298894012826,0.687332104656909,-0.6198844087654732,-0.3898083367077261,0.6142461961732292,-0.4228864059403391,-0.2661958445978664,0.42685815564882407,-1.0735074913106777,-0.11898391889829435,-0.7129033370705206,-0.27023937751011745,-0.0241126352168707,0.8585683458387111,-0.9564003027566662,-0.2435703083639027,0.1333405863375547,0.5279284153986585,0.12223314654529421,0.2901505898811837,0.07560799242383469,0.16892589995224871,1.2532846100451565,0.8665834165746927,0.45791524900895547,-0.03735222923821766,1.0400825866696297,-0.26436892379604293,0.8187422685533604,-0.9456484410909689,-0.7944875697899019,0.14890800509479893,-0.8169600370095399,0.026882553291992847,0.19831722365371493,0.4569301602647766,1.3708753227379937,0.9682734670315563,0.6308762763366601,1.1818902878424364,1.7822921910559795,1.050158477558436,1.1533418372158781,0.9079529004330017,0.36826309031073345,-0.327305939942578,0.5237208726466638,1.2041735783650702,1.2882483395938211,1.36498733049397,0.316836770000959,1.0317175120373618,0.7880679256996136,0.12617137696769234,0.7080036735156058,-0.24470175778931394,0.7513773109866364,-0.8516724067267607,-0.4683318629421806,0.4691521525036682,-0.641151383583756,0.5966095164578799,0.5774687712167154,0.5372797471685119,0.6047689691460154,0.08522803773970072,0.38826021789419096,1.71933714218945,-0.06043456746653154,1.0809062370573534,1.4681793419037017,0.2578326838976293,0.1513042199185382,1.0761758260779941,0.3872088283449618,0.1754626069474217,1.1217564864661986,-0.06149611784023404,0.8223712112130035,0.09241609083979195,-0.15063575578630228,-0.038954509990503844,-0.6964193605135279,0.7776762577223647,0.7847459906512795,-0.9953906199253616,-0.7494408517680528,-0.9063998870687271,0.7654597284350423,0.5808426421347078,-0.13829227834560892,-0.08026378008066468,1.3921740526131579,1.0437277937043623,0.6922416853568079,0.8172653970093823,-0.4016445663721889,0.14505423721663793,1.2436019689836864,-0.19542267496350743,-0.11355419429554842,0.614054749561217,-0.36661206054866535,-0.7887079006940286,-0.841386639516049,0.8655134287673186,0.030021039058239482,-0.36564845440697685,-0.46238695017347453,0.7214655182254526,-0.0027580196311028735,0.14326256511849772,-0.685761531094313,-0.0982944635590608,0.8746998569212902,-0.22572523286897653,-0.2628850576759265,-0.7921737208229541,-0.03318081978493512,0.8370587671093648,0.8133383672156292,-0.5446157153453612,0.7962134270464453,0.6250954086202839,0.5309077739722303,0.33317237858055343,0.15034510458822628,0.9025913705112142,0.46668448482217123,-1.0618637958723391,0.6277211640184044,0.3284110324461115,0.26525669246623673,0.2847853994173681,-0.6986189310531035,-0.163618993648546,0.04910247907254691,-0.30414157650447354,-0.22633697673144118,0.7088373722905794,-0.6000604114452158,-0.5342717531957564,0.8472826115775789,-0.6714569764869197,-0.3901359422872742,-0.5133815813476116,0.9428861747479853,-0.8699235184738584,0.6979943147705914,-0.5710178772497914,-0.10807737893117947,0.11003880289565186,-0.6051842787311779,0.8132709002297994,-0.4190866063933902,0.6102032471012157,-0.9053796828752598,-0.6885740460825923,0.22710112919798808,-0.45106938419463516,0.6792053704450984,-0.7498416183596168,0.034299416913369234,-0.06673353713693261,-0.3180970011223162,-0.5597219965012317,-0.3923741596912637,-0.5306313812939341,-0.8383379170355956,-0.9182549096777788,0.4892558536454754,-0.05769252780267585,-0.4543329996575801,0.2292683525331122,0.11991829736436388,-0.9240421481794485,0.5679512374479299,0.7346529070464252,1.136127731732101,1.0440485744980021,-0.12195392224865402,1.240623933185987,-0.3643446628191516,0.40348460184089197,0.5171455268878065,-0.017912809413665864,0.510260100900225,-0.5111068743816573,0.23677003359565488,0.6303136144564638,0.5981253698316518,0.9142362864254349,0.09087979427857988,-0.21531753952586535,0.1962010747629479,0.14205114886463807,-0.2306352501752431,0.33628211318058177,-0.3864529011812623,-0.6383778598416704,-0.7832484384989142,-0.8163564889002056,-0.515993811156876,-0.8073163382394829,-0.6187343580240318,-0.3520528230749792,0.38770038573741245,0.48641836244612685,0.4071355766648369,-0.03975256630613884,0.28839236009779895,0.8052849731942812,0.7028721130958792,1.1806871142333923,1.3657339304186866,0.27072873030427475,0.34632656778529636,0.6317619550656853,0.0522337685680132,-0.16455836477969663,0.6422621156386482,-0.18076623156277846,0.07090366576425652,-0.9307256910146523,-0.1383102270289489,-0.023281193975904557,0.8361749883114138,0.2483790530817429,0.28349653983266343,0.33652917444417546,-0.43244711182026385,0.16560838689209462,-0.2638173650162362,0.5611893925863536,-0.27247775630290083,0.41584692926986566,0.5559414893643649,0.03953567193271167,0.7641527150384769,0.1673511314180835,0.08614286491179564,-0.04575886690022989,0.7920775666926648,-0.09549441218908471,1.128876066339374,-0.6656172978227697,0.5590182095027292,0.536546812937681,0.655235908273618,0.7144791951203362,0.6108659421144635,0.9033627719881281,-0.571536746028487,0.8764297791513238,0.020130731817574965,-0.6634930438128364,-0.8666464046774158,-0.6614626592130249,-0.4671615224273031,0.8081403339632877,-0.2625473707440553,-0.9596846791757863,-0.9472414918436429,-0.5345779978971084,-0.6845057351796711,-0.5811937794820823,0.002436313813715403,0.9695132895511697,0.3062165198503421,-0.6130518755304724,0.1074271018493139,0.10456388745089527,-0.16618646910852355,0.578489109244006,-0.4892929013865112,0.29212499688898086,-0.9210043990936138,0.8091091731282205,-0.5840511881785002,0.8053211261059279,-0.43241354825190936],[-0.2988297011186396,-0.6265301885214254,-0.6760188516090109,-0.06142177657485126,-0.14812356503281632,-0.904892520531476,-0.8562173149403061,-0.9619076782497258,0.61265288308449,0.7039033276737914,-0.5647103882624636,-0.35048407545119953,-0.8753252680787237,-0.43451753272036475,-0.9054921552497707,-0.38070823835160894,0.9387635655515192,-0.9987606452091293,0.04810077333654972,0.36611841683811197,-0.9668217417932248,0.7787779616498858,0.10918576248835632,-0.18442241624729916,0.2961967749138361,-0.8888085952652116,0.5190866143402328,-0.960516384213832,-0.4618933628475328,-0.9433705035154847,0.5725232003995517,0.0769130986045734,0.04489262335280597,0.9665482148794758,0.5693808218568429,-0.8229185995535812,-0.9726038771720297,-0.33920978465487683,0.6673531813531723,0.1891841470729215,0.789537619080933,-0.8053861676590076,0.5301867218534236,-0.1545306140511265,-0.5285364744059975,-0.9505183929064137,0.5922076176717397,-0.5452467817721923,0.26937980182401666,0.8985029373917035,0.08801984351585024,-0.32621176336535523,0.031770918375558566,0.14723627513425264,-0.9631892562878035,0.9929687893042052,0.9404542557403459,-0.7560501025667987,-0.4346918587858515,0.628958788502932,0.7619731387994304,-0.426213709645852,0.9653946660182088,-0.722154612055616,-0.3972371363757783,-0.1364027834924061,0.50611051979573,-0.19221077093774783,-0.8377047914174752,0.1906918707684785,0.8434573683194972,0.35701948255454824,-0.07966796249648446,1.0006482066776448,0.27674344522964706,0.5530642867260949,0.7777024116932395,-0.6707833611165467,-0.6881172834919764,0.032917209075853486,0.5799035205094273,0.6662665008569084,-0.8390782330823794,-0.2771697056049962,0.2244763136971879,0.6158167257892697,0.9569176536305894,0.1738479444437669,-0.8769472458090565,1.0013247971969763,-0.7029473070952954,-0.6321597193136909,-0.924008382115576,-0.32165393325769187,0.15920676410378856,-0.20341941078402237,0.09024015236207678,-0.7226238498265495,-0.790429185985438,0.6636078870136293,0.8569805700948043,0.5213031094136722,0.8022198898805835,0.5284521616141571,2.008739206705765,0.5096224433519347,-0.32560426859409297,-0.3437197830992467,0.5681219043457929,0.8436731555665464,-0.20484624501158014,-0.3829810147442889,-0.5065093366632389,-0.8822258524860841,-0.06618059034257509,-0.5924577748067715,0.4561466414429661,-0.7761228323807119,0.2078949547217092,0.2627528204541758,0.04686761903662276,0.4632858188721927,-1.088134399015314,-0.09114019871690072,-0.15595399853738526,-0.7484678652874235,-0.2977832413340497,-0.5049549650966824,0.3198354967650963,0.1084150948804339,0.7895007038164561,0.740236811323913,1.3442250628341992,0.18423374489661482,-0.16527944449143397,1.1329813363616215,-0.06130949802049271,1.0071757732091342,0.554503697671321,-0.9121826182187901,0.6043608233718705,-0.9634305909879661,0.7060412810112756,0.0758137626751823,-0.5807574230831807,0.29659307547301184,0.3349273463654428,-1.1721634855608565,0.47213108652902397,-1.1457573150739127,-0.16369158560350433,-1.6969349241202842,-0.956976148449142,-0.9927048937376748,-0.7061499587538295,-0.5032732206337878,-1.133053725565399,-0.3941393447600827,0.34080185793477635,-0.08579280648050036,0.6288437973393008,-0.047835139262693775,0.4326446762109805,-0.6423875440556901,0.8599477936717077,-0.2626588382289712,-0.6294199249891624,0.6917331067309997,0.9141383230827342,0.6594541723448663,-0.47431729852248566,-0.6577187095040157,-0.47591327783200965,0.45915955302587114,-0.8409539805959416,-0.11933712526307426,0.02362893321407498,-0.6233626541526485,-0.18469114287768432,-1.0478142553737633,-0.5061883694104025,-0.8073324932256873,-0.15386880704591127,-0.9522880558147283,-0.35531329160395864,0.17588237569105244,-0.9376346020243107,-0.07667998583785031,-0.7245482752926828,-0.8024228727687671,-1.0102081047315623,0.07568555685456405,0.13775031132992704,-0.9240171424146113,0.8351339552927817,-0.2601867222827113,0.35738789067520316,0.2569039350683911,0.7431894301510188,-0.9874644336503313,-0.9245941284616799,-0.6124354942717006,0.5499571983642547,-0.899932505231692,0.6114231669639021,0.3982498274932928,-0.4857239877102036,-0.16019577871624724,-0.3316759278757796,-0.6147273047818869,-0.22262890251031228,-0.09940258263693072,-0.46026897508368375,-0.4861708983028383,-0.1969057030829785,-1.237788356340119,-0.8022166016584373,-0.00796113971763201,-0.6454650740151701,0.35237948546769937,-1.1711002192448068,-0.7329162482931769,-0.5098450770267969,-0.38394854074862583,0.7799775177464533,-0.2557074710583983,0.06702520200869405,-0.3289238352430871,0.48792398881656235,0.22290110784887018,-0.5660102135653982,0.6581171159345313,0.2396365678946473,0.46421710587239545,0.38875101985647675,0.1243784581189601,-0.09013624805118485,-0.7620275869866528,-0.2415419956150438,-0.3635597615238506,0.017335955490860977,-1.278440737276997,-0.8492917974156808,-1.0496175886335175,-0.04392671892191958,-0.47933734551746454,-1.1762791316667045,-0.6752390737677857,0.550083735946045,-0.37854657141482845,-0.606618559560381,-0.6617522090075606,0.4801895422387323,0.28622034779653066,-0.480124188769888,0.3612962298425996,0.8281123521611122,0.07384795464345584,-0.29215419441760637,-0.4729261463040995,0.9725396320251768,-0.0610304229596308,0.9787542333319184,0.5994051077347831,0.6841625076575713,-0.188187050179641,0.19449595339670242,-0.9308533377474965,-1.3376521970451207,-0.39051177494345984,-0.8661301975517192,-0.5554850601065634,0.5536970841783385,0.7889485294815234,-0.00042509751163541935,-1.3950398677166242,-0.11053903959216387,-1.1819976420033929,-0.9278390170050844,0.42045451043130366,0.535169855792407,0.7969567856138293,-0.7773612028761743,-0.4931110291788885,0.2682334491482427,0.3619905480078304,-0.11608506710121745,0.3681611227087595,1.2836271026663504,0.7080551323785975,1.0599048727398497,-0.04852693808815099,0.13718358523945892,-0.45820177270437445,-0.5515822383223785,-0.8498569093979841,-1.4679889300696845,-0.27449123029295835,-0.9985215530665619,-0.25235533829755563,0.0160632726508195,-0.4932255422749271,-0.6699849062118247,-0.27704199176320665,-1.3338387354189953,-1.0370750934890915,0.23440661486503941,-0.4360678037640491,-0.4322162531758428,0.20569428043980387,0.38787280439197336,-0.580322976043708,-0.5660302851847471,0.8833105733689042,0.8915289816661726,-0.1583716727880866,0.8655709249368913,1.5672944217508709,0.9077315356914909,1.7345829783233533,0.393105186565507,0.8678659838773362,-0.3102862301092972,-1.49875386293954,-0.43758320844005416,0.0426681064765541,1.3731188601066033,0.3527964889728041,1.0741395289283082,0.21732145789267146,-0.022309125674896523,-0.43825780866763175,0.5178339572623195,-0.27509796567940903,-0.812082635216143,0.13380139593090767,0.728333136386172,-0.14197224165872102,0.7185471329644093,0.2947433887904647,0.11268354536257368,1.242380325540337,0.5961250413585502,-0.24150351105181891,-0.49377929494169753,-0.33855811681533593,0.047566805547943326,0.8790389498629448,0.10602511320835482,-0.5664848389017637,-1.0900281666641396,-0.2623961544478407,0.9376677969653997,1.220244310924337,0.10101669995314846,0.7032992623655379,0.944598944121835,-0.4334645321380863,0.9988407727644885,0.7955649341889278,0.9352983785487519,-0.938542960926246,-0.9975808880901053,-0.3767813321295312,0.9159603710928992,-0.13710675696588548,0.6442989706509512,-0.7761179828761732,0.36384090967379523,0.952927706424684,0.08048883451875873,0.23031287899699684,-0.24504987893307562,0.4103437944572658,0.48818787768499267,1.2442474369886696,-0.2911128604850159,0.118860375487559,-1.385566245348682,0.7769888613263856,1.3822482988385711,1.017945287041034,0.532988382241475,-0.20098551928357317,0.6817936349647457,0.7023327824696299,1.0806846387184827,-0.5380263872948036,-0.31955134311644345,-0.41330658143792187,-0.29085746973999743,0.2739215078991073,-0.936254775458804,-0.7812463101954599,-0.7685310840461438,0.8807278866713946,0.6934596358970883,0.13413484858707736,1.0000628979028534,1.0536503382062736,0.47552026732604613,-0.8232278026508155,-0.31336108961865655,-0.3780667335981368,0.8305701332854728,-0.7454596985486283,-0.681650986898772,0.25864839099025866,0.20738353434397502,1.1567875836540815,-0.5591778309218536,0.613647224933764,-0.4008296678481195,0.3397637920265961,1.5310658796520626,-0.23797295838851557,-0.12282547018529197,-0.6047400885830432,-0.33963147594895315,0.7979360666466626,0.9892171853020946,-0.4864245735009115,-0.35505993136549147,0.02958101551132969,1.0625172777166918,-0.13471245838119156,0.5947675903456134,-0.44328465213395146,-0.5502258358801889,0.3674597324927398,-0.31854198431160774,0.9493862904019341,-0.5185533904827919,-1.0070376731693658,0.33152037208621005,0.35750393097162547,1.9753858247654719,0.782671334628588,0.1691411650042605,0.39367288057206695,0.10601219759313174,0.23299075488748347,-0.16918217026300858,-0.042699832630900166,0.15347566290819156,-0.5366454128057072,0.17728440522701394,0.023038581563607732,-0.5172341189462625,-0.3321985464755767,-0.6118555682937208,-0.24823284578571894,-0.49749723605402174,-0.8690058631035911,0.7494513734194904,-0.5973100290112056,0.3723313578633994,0.973904085905233,-0.07656296394977286,0.8535721291189194,0.8233957181712803,0.10168347597010283,-0.2631032705823844,1.5234816825824207,0.48613748060150314,0.6721209645892814,-0.40775523118194706,-0.7601532808438728,0.41019487917837766,0.32058497420760085,-0.5981773926566964,-0.39749154685499977,0.8778456351641151,-0.40808535194142653,-0.9679698560218394,-0.6275434876066632,0.38247311864731426,-0.4156746453695468,0.1114828280940959,0.6803707047161779,-0.9987324998687609,0.16842544022791067,-0.47168284427446683,-0.4202259725695081,0.5838636868725274,-0.5952500106701244,0.10328972744182745,1.0864990626250566,0.25686261221442097,0.515590880520063,0.2577337897234693,0.04672817287047443,0.1336460468521812,0.004550562429940398,-0.025845804619914807,-0.7942675259532442,-0.8449233919967363,0.19323148378930471,-0.5553424466756341,-1.1846692185660748,-0.5138748839672705,-0.7235198929219283,-0.46040347242784857,0.6386909600763124,0.03015047478729625,-0.20584040979321233,0.17422064869769077,0.03478386345022403,0.08956533841300528,-0.18476667107572017,-0.8246863201224293,0.2832579353719517,-0.734499559832326,0.4273955601899382,1.1457025009840474,1.1818304708469847,1.0029346855725816,-0.2169893808438744,0.6937024765915103,0.0492847580051876,-0.25700123883271814,-1.0142513250180796,0.3030174680018848,0.48200787266003764,0.4269051193034331,-0.3622049617624649,-0.09206973012360932,-0.8733575667394522,-0.7524827561794789,-0.2907165358929859,0.7726116187807872,-0.7421959491207547,0.1403488157891395,-0.7971753743933444,-0.6729129247714573,-0.8586086912426003,-0.002968702140529627,-1.7434233820377092,-1.991904217388837,-1.2291742213321735,-0.8358733447688067,0.5784593931101693,-0.19258439286863968,-0.25143792116345254,0.6017246275112759,0.38619622133786674,-0.08474618888340758,-0.025232354976817598,-0.239534757370023,-0.24823411781181096,-0.3392833750209469,-0.5125726905748044,-0.7450056505337234,-1.1788622346110953,-0.9644021117343773,-0.720277012940124,0.2131038067436435,0.23023697800080511,0.39009607532639007,-0.7607382697744809,-0.0882434201031459,-0.21177431091576993,-0.8059035867880462,0.25299086498351575,-0.2700846812497739,-1.1902808686989772,-1.3180204722716977,-0.8377806627640093,-0.4157625968123382,-1.0771055761243689,-0.49273109357992656,-0.10792772767997699,-0.1935293206363513,-0.6027347094510188,0.8387852975086911,0.21117340943882307,0.6206663058083434,-0.3162133353105781,-0.9882417131301788,-0.6069022857085501,-0.6002802325805664,-0.35778294318266113,0.13694848928972336,-0.4625588380725367,0.24877482842328363,0.1753220979367889,0.7874728957474332,0.4578766922220417,-0.22635377394939746,0.40324415610614983,0.8750256657874653,-0.42247912312694474,0.13586743948449834,-0.12770933622487576,-1.170449989904704,-0.5339697813947794,-0.6069468886038686,-0.6653690031631947,0.3773744058518398,-0.3970898718752435,1.2990043208925355,0.1170824029299278,1.051611101378533,0.1319388310984435,0.16482826977908735,-0.8836707673554157,-0.06715508486821213,-0.037160988938942346,-0.8446261141608169,-1.153382988619432,-0.6167742150551639,0.3249975158020932,0.7803175526292765,-0.19575307591927257,0.05977628426143784,0.24330191348510885,0.9039743125447279,0.9994160711153155,0.6718362367272317,0.2898469538501759,-0.7957503072130755,-0.8339063666399358,-1.3319122868806201,-0.2072293684807723,-0.13033457991048938,-0.955770861320117,-0.41848232439556315,-1.1585588406374547,0.41015438056947284,-0.7807764036911884,-0.6655113734321393,-0.9681201089113777,-0.026706679784755674,-0.054096330284593,-0.20545886912153488,-0.44044320551022736,-0.34714776557322646,-0.21170282242542127,-0.3436716165261821,0.7388091335987778,0.6035917046687932,0.6857578922759059,0.4700962068004757,-0.9319128164454052,0.7151347693777201,0.20368982286800952,-0.04040882151220225,-0.13328183785163047,0.46876077111571085,0.0168943676352326,0.613903665995157,-0.5160507340115197,0.23235212333377334,-0.06133240862261766,-0.731810519992299,-1.0129801841517956,-0.3770284928869028,0.13461178795684345,-0.8187257435111475,-0.26814558866043886,-1.2978820743223913,0.3179261672647333,-0.6053899065998862,-0.45018396580634734,-0.1820889740839076,0.20186835733714903,-0.8835811358476927,-0.8691738739325213,0.8250685722953205,0.6909083267136722,0.7204352625604251,-0.5087222424216771,0.2595273668572924,0.9015281733327816,-0.08865025770390034,0.46528579035860046,-0.8419236294781531,-0.1550426378347377,-0.10673712677820331,-0.044413374572410104,0.35289332211845964,1.034723930999618,1.425893205997085,0.04993160881770343,0.2857952584578975,-0.22438117702492952,0.6684150700819689,0.3569225795967308,0.23831008880092516,0.18860740135648968,0.3498935747643815,-0.04534123340828056,0.4068937449002749,1.165036913872753,0.23569419726520516,0.3951835762929525,-0.16447479762170253,0.5145497800912462,-0.8133853774739062,-0.2991715540557005,-0.47786752356661033,-0.9344084938513852,-0.7518778144461896,0.02589138968485547,-0.09229310707285693,0.04869823341535425,0.5144923719978716,0.37814269913710735,0.7741772360675371,1.2852594077914252,-0.331116562429515,0.9854226160973448,0.8964804026791128,0.42926341032680665,-0.3215852893460089,0.8377935223766938,1.1488171372705795,0.5165468299384381,0.35265139472894363,0.024986917364178084,0.5961301614687972,-0.16099570412454953,1.0716020923429042,0.8414325650694159,-0.2334044773271027,-0.2979220237765043,0.07862494384998756,0.9879070312022724,0.8846940777782784,-0.4616270938235305,0.6385606527157599,0.09370431555622061,-0.896811066325176,0.5299246685985118,-0.8067449805349933,0.038596325901327694,0.9876665638862693,-0.6333009393032267,-0.014220563096418847,0.33042193226917393,0.8277348427772925,0.6443887510229781,0.8341125139063413,-0.07576055744758237,-0.14536551653695504,-0.08060151787954181,-0.37679800325541885,-0.388541577652117,0.9226536558992013,0.723663108379012,-0.9205774426268524,-0.557707188932123,-0.9088358434863759,-0.9050799813621904,-0.16101261374636944,0.009026036466485365,0.5801592698797287,-0.749086167319416,-0.577037001215555,0.07907072286075656,-0.5265886787284585,-0.8121161640092077,-0.5722601554377782,-0.7119538012693178,-0.16649556078362243,-0.2111057213342858,0.3847890931130847,-0.2139350598796349,0.9715224623532166,0.5578873940827341,0.05146702360712469,0.4196600759091137,-0.7483985968270761,0.7272773289718099,-0.08192236723856956,-0.5719540866640751,-0.06284883428657398,0.4077106423506114,-0.6601458573819567,-0.8247632258623173,-0.43500874407087453,-0.7607062136706408,0.3111588158092533,-0.0033969314281494523],[0.007319808897411573,-0.6560529215549331,-0.6417837323562168,-0.7353019393708426,0.279003891693846,0.07630839806056366,-0.45021215695893524,-0.42223635420146777,0.48849334574842374,0.1889808067226002,-0.736658870245964,0.9966560585209856,-0.8206028028829258,0.14252586938719547,-0.7753155169576894,-0.34154516601114476,0.7372085839562736,-0.4537306828204897,-0.43350815369695694,0.3752912018929089,-0.03836250812452979,-0.745527691949015,-0.14658706192634274,-0.22440045270455578,0.4227682863884952,0.08415620775873944,0.06332240920231813,0.1372613129536706,-0.6555995059831117,-0.7400855275711624,0.5149822214848849,-0.8048581398480474,-0.6802664964998364,-0.12021469784227375,0.37920724432280517,0.8916601064431944,0.5927214695513373,0.34310220164146765,-0.04556481167563555,0.15570077636654506,-0.7676624169419874,-0.8233774560141431,0.8790190572504479,-0.8201549011967894,-0.8506673381132288,-0.04514907765945591,0.9634007702425628,-0.6574441806651653,-0.8574146825816704,-0.6755209274111039,0.19458527840505307,-0.46671032045733435,0.27267332266196687,0.4954239869948689,0.2187128174454387,0.40259573968151297,-0.8054709912247544,0.9725398932614533,0.7277749562358349,-0.6552610713204665,-0.539655089732261,-0.1623287993553649,-0.825754211817351,0.823136714774501,-0.5661607597477902,0.8761189987205158,-0.05028483290858532,-0.13073774357217918,-0.24432618258890965,0.8972111144675439,-0.2765427323827995,0.7050435378979618,0.897784866228419,-0.2533665781919986,0.1502519671454217,0.41674723759404675,0.06673716912093934,-0.635755836499277,0.9674077939856068,-0.15465197111806184,0.6983125199198661,0.664558135933055,0.525035857251533,0.8499446258344041,-0.41375170083821833,-0.8093934359569983,0.16804023746692565,0.21975910734076817,-0.6835569192965516,-0.04477792656036308,-0.19830057696737094,0.03910664058313018,-0.13666095999801262,0.588474942962434,0.6491223839047937,0.8556867999547204,0.682142929031956,0.8776843763359764,-0.06248520196201944,-0.14053975335932214,0.7371559607847452,0.47538813159889576,-0.08695204778662344,-0.5398304700112784,-0.7573150221705196,-0.07839012653403213,0.2492611711084245,0.3257959131640706,0.4456462599637644,-0.03222609901891836,-0.052034117701423604,0.6395690388080124,-0.8902952360503296,0.08138966045945259,-0.112532267899023,-0.4862654462887317,0.2833182338738675,-0.0885685116553091,-0.9246371690254377,-0.8908751072398317,-0.1294316295863329,-0.8137487365107102,-1.165966262273297,-0.857400575058792,0.2021831410282018,0.4229691963375914,-0.7234483622852984,0.29202688926906245,0.5410134489369903,-0.3282242534441678,0.9849661314448983,0.38529156383075064,1.0342784297771388,1.0172713474969919,0.5308646160119235,-0.6750308930260951,0.6892690820172711,0.82931565650116,0.7084357577130577,-0.22491475792023496,0.8493292862212991,-0.8019485912827584,0.9513442443699813,0.7938844744974882,0.3119626145724889,-0.7976304008116487,-0.6029321459531215,0.19338523632756358,0.5187585216620467,0.04037316327346643,-1.173761321046807,0.01803230743063011,-0.16210092689623617,-0.20560287950663195,0.8292847699522751,-0.0008108832095717213,0.8890185265780144,0.5700471679170683,-0.16591381851124523,0.9509147429551873,-0.07025035101197503,0.13023588597943062,0.2501883876062417,0.7558411997690044,-0.2760715875684332,0.5166393990152147,0.6140710006772739,0.11263279038001651,0.2626083047316732,-0.8784589664379255,-0.6621217950346582,-0.7782319747055707,0.29158237545610954,-0.5105796442537752,-0.4302333806658384,0.5754964691490595,0.40731567755139597,-0.4209066769793562,-0.9256786788088963,0.6160904475403387,0.4224695760254684,0.32369619045769954,-0.39908701269680774,-0.4730909536245409,-0.3729684443373218,-0.4776505473004674,1.044389148256768,0.17896253599981443,0.9042082114801231,0.9942913940170504,-0.013502028398621217,0.3337430850746542,0.8287733218910002,0.30688031157005174,-0.655192442780649,-0.17177998952120394,0.7957261000146688,-0.6536074602193815,0.818734951557479,-0.3339316184041018,0.02992752734491794,-0.31033271853684136,-0.7150149913104138,-0.6826676020662924,0.3197804023700716,0.3622549763178865,0.48382732288115976,-0.5979614205706397,-0.594694003253826,1.064161952097669,-0.5062138635803353,-1.089120603152504,-0.3796905438443609,-0.3890332779115019,0.00955754533209925,-0.8012233918411727,-0.049021062191085936,-0.40052119469260994,-0.10522479239609886,-0.6130889092432097,0.9059449105458875,0.9925537033148087,0.6872740342816747,-0.8975053169099587,-0.08390242462408705,-0.26060519645132485,-0.9743748650759941,0.5062119587035693,-0.4898206402227442,-0.908794506923975,0.6727619402304919,-1.0037886626785801,0.022496118597545075,-0.5246695290272956,-0.3847134274368788,0.07823258410884915,-0.33111270145255767,-0.46144091034397017,0.3912231341372647,0.04415123143762832,0.2440851015867379,0.3674850394483895,0.39158386133116085,0.7711776582105527,0.5057455047703294,1.0594869066397392,-0.29081443112539546,0.0018808499344331675,0.5488179433644343,-0.4963251098925255,-0.4252091098648256,0.3909993730794176,0.46155905546804865,0.2605024979353934,-0.11053423064802843,0.3645269403979938,0.234789255636873,0.5766525189964825,-0.9815788293482163,-0.10055417183761177,0.3864517438518559,-0.6222718275758488,-0.22196959165538846,-0.3173777323346493,-0.8956901951890887,-0.7665933562909721,0.7750334463362576,0.5885059133737751,-1.0884381563988657,-0.6815553580172607,-1.0297625209585854,-0.7767670879766657,-0.4156968723755054,-0.4263990598280234,1.3626954106507918,0.39786325612321505,-0.17185421283121974,0.17529146945906698,-0.11673420426912913,-0.9687750385174306,0.33303585966714444,0.26575228149882485,-0.6056374830741307,0.5468610267077001,0.08234741619609202,0.31211963067908466,0.04101123334387107,-0.9605516657632562,0.6563170850290765,0.4764690353376153,0.39128619127493486,0.019287769101985576,0.592248692180921,0.49562863871273666,-0.19826122913241584,0.400162401770362,-1.0401435225711024,0.28887418132129783,0.5771335974957015,-0.8059394687776193,-0.8915920623110515,0.13094727907371814,-0.502616158123834,-0.050901051486443284,0.5149192781392613,0.8567627957682548,-0.002786889839150917,0.5876399464178397,-0.38811532496745976,-0.9240448198892746,0.6053094019552003,-0.16275746617475442,-0.7391814915662951,-0.15487051624947748,0.1711451521069225,-0.25991770828693234,0.6723966015249402,-0.051387989984103065,0.4129120361405761,0.3959021483310193,-0.10569697723196408,0.7896967530883063,1.5419992634190531,-0.6319508011858536,-0.5340918917944782,-0.5506111277877879,-0.6521992265531655,-0.39700195759914186,-0.029315842388399314,0.43006762476628235,-0.5340654152750087,-0.4247108956401587,0.45156057203410394,-0.5939665568931687,-0.4311427466838338,0.5917353859450856,-0.5797786142199055,-0.727776880248567,0.9521575849358134,0.2938994396064314,-0.32272244240358977,-1.0026443519253907,-0.09479987711488018,-0.00031666950212717616,-0.07917921945573261,-0.5287848711412783,-0.4504595575466308,0.53437435812084,0.38829873462674996,1.1902294062088294,1.3641786123841855,-0.03333543300551655,-1.0791649427606256,-1.2527954102851049,-0.6306614909829199,-1.182007478064633,-0.342973366115752,0.40575860521495805,-0.03384339944212646,-0.24206427800699165,0.4719875144552994,-0.07534013801961524,-0.4044624047333863,-0.2309182779099867,-0.5843290507954992,-0.8363244652067408,0.7286409709711003,-0.3521876556485875,-0.7075590696244903,-0.34949848198261285,-0.14044902667619616,0.5636811133362429,0.7724218674023559,0.23108535410982098,0.5485905289479898,0.5137558478268741,0.8204584157355436,0.6780944385032833,1.0148455012289719,-0.12307815368635269,-0.9931435845077482,-0.23887454956596357,-1.7524211591983172,-0.4243370310334856,-1.4096370536206042,0.22602696245168186,0.35025753740296944,0.7980827176842212,-0.78618401870239,-0.12413205610871177,-0.6839444125358561,0.9281769635564764,-0.19121021651051304,-0.34153629057727347,-0.7615009846226289,0.4347104421394021,0.6740338706982257,-0.03297622966310853,-0.6023344649225115,-0.84105550660653,-0.231892430128555,0.8931243149843762,0.5919516065180939,0.6693848102359078,0.2597286004058223,0.5547495413982921,0.40059697788005577,-0.2809014126020733,-1.1862071302773745,0.14756540049360906,-1.8931507470022073,-0.16778111384542396,0.2994838124661893,0.20775433734874443,0.777688100196957,0.03025353666378407,0.122208903699872,-0.7696252405527346,0.8344762817411187,0.373840945801605,-0.832945310217987,-0.728681950930893,0.6486821299098366,-0.9422332364671478,0.48681759767460997,0.20248496854247736,-0.988978148960368,0.5718894342079013,-0.5969834179781912,0.027606569396953513,0.43459449513120596,0.012465108285137031,-0.36835884558557674,1.0128754097739097,0.8499788125428507,0.0345660912318766,-1.5749001800440696,-0.9956658242816498,-0.20921225524914996,0.15814950686359056,-0.4105460574963813,1.1579343849373902,-0.43406366913780975,0.29146922083466614,0.8734021578800508,0.30229387937044994,-0.5785359018276466,0.3228700300998704,-0.7446595257433689,-0.7383690252382641,0.971472932561977,-0.8079160083360211,0.06342424459309093,0.2550695044725485,0.35920459591216797,0.45752889134985325,-0.8200281077326571,-0.20338203143716996,-0.05179380808232182,-0.5957585517874534,0.9661325914857606,-0.5607633300213666,0.08759713436394166,-0.6691515538302459,-1.6546264656041885,-0.7260591600637927,-0.9244897440368196,0.41288931250866767,0.0034697213999586593,0.17677056382323617,0.31764906009623806,0.5641911500710484,0.4849258700434048,0.8331872812788087,-0.2193317736988123,0.7371702645314767,0.21212088989175903,0.6250818223118911,-0.30633267092327693,0.8230130464257387,-0.7794265738302861,-0.35337162591014526,0.05186449838574215,-0.8790293005455572,0.152035519200994,-0.43979323334871334,0.05207551426524411,-0.7298396225273129,0.1653676033607429,-0.7719100139990515,-1.1035758431985345,-0.7784280031672192,-0.17800448471754454,-0.37364244886054204,-0.43259174163853753,0.4895666948904768,0.28445815605889097,0.0296427790863664,0.26716786239593426,-0.019470064976797024,0.18917643784301846,0.25993924578271327,0.6477898441257804,-0.46952434391376835,-0.5654780987179059,-0.46167322445531733,0.5293606034595654,-0.24896662283805945,-0.5279449899625919,0.8400086004570764,-0.4543501912923093,-0.007184685182082131,0.8574126733544647,1.0497782046276087,-0.06462109667659112,-0.2780455961079711,-0.5938537906334515,0.10474378570647504,-0.7059522672369066,-1.1354191649426233,-1.219354031882175,0.601921012037691,1.1557365006119833,1.0494941410155407,-0.10972442153653912,-0.5342272217093705,0.5371238146790438,0.06844143178734526,-0.5769249462653668,0.8641356216259731,-0.5204111692999782,-0.013024346948226273,0.11532332418996516,0.5711201590785782,0.2849530887087992,-0.5372353859629935,0.7534207303754686,0.036004548858944135,0.6792453870299167,-0.6918499970329673,0.16060669114791148,1.0167444673874968,0.9085769794904615,0.9119945635206261,0.0820510100082841,-0.3650532649924311,0.4305692290381973,0.4188980340615664,0.15140207368626318,0.5986881273466758,-0.23891954380803057,-0.1859598405899122,0.7054859415704671,0.513814055227803,-0.21106520787719255,-1.1881156412996163,0.7393261382418183,-0.8323544670290786,0.9813951333795835,-0.6247050744509607,0.5329107133982869,0.5281922569500307,0.876608607636214,1.0407225317636,-0.30284327190447374,-0.8489651474574327,0.03941802564487537,-0.38751268268533356,-0.18741689973933273,1.2157245102974503,0.6943752369578907,1.161311958136603,0.46110899512050735,0.5727103744461463,0.047980225071327674,1.0784071153494459,0.5593818105242534,0.07471214007013952,-0.018426897986923034,0.7045768040688538,0.22291566217948877,-0.2506468776035367,-0.5132866377522014,0.2611884384330682,-0.33039441282292714,0.2832472610408925,0.23431906599791574,0.3712989070251164,-0.21195224336008692,-0.18522012341724933,0.01888041018919547,-0.40728636516135225,-0.08985802300833116,-0.8649930673377718,-0.10139456584094408,0.3032918643558881,0.24286610530528402,0.8934410652169448,0.2565250770923278,1.0856331657297669,0.13734361379442306,1.097834799924189,-0.09031469778080291,0.7380218742664103,-0.06753523544699479,0.5594286133551576,-0.5384225350192254,-0.06037750176813495,-0.26554822786997023,0.0886106106301616,0.22029847962720117,0.2996055364616312,0.03504644670265946,0.21984231295839823,-1.0035299927175785,-0.824300508120231,-0.10226424357371733,-0.17834070725569906,0.794778419860778,-0.3099696324276579,-0.4348640703575759,0.7510566165116127,0.579029194656598,0.5420550243168442,0.762786383626245,0.0763597785572482,0.2855886075068256,0.8241555948324689,1.0839468320311378,0.6634495402857434,1.1906231419986084,-0.46292986710756556,1.4504595418906756,0.8413252303342931,0.40372826372675175,-0.560902464249186,-0.4947019339806152,-0.32702286247629986,0.2737341261277081,-0.7746510398503614,0.155997206778417,0.6997166304484664,0.970688071785905,-0.18088148228291784,0.14347031365193463,0.9880653702142617,0.10172401492210681,0.8162055860405348,0.6210176770266415,-0.5941837404657647,0.8690654060057242,-0.29200678821582154,1.152800198398865,0.29953593410333507,0.3534215889049398,0.389803390068912,1.2308951623322557,0.4153504040188019,0.5210214459266777,1.314550627885475,-0.25706623894467,0.9341839398067576,-1.0320079800040165,0.45834526927381863,-0.1816103813212439,-0.5768272303837862,0.7397228267264725,0.8543507736422417,-0.31593957034283165,0.1812062212212679,-0.8593977621963063,-0.5056101588519457,0.9884706483628141,0.8560809058728189,-0.6384740764361313,0.9430763846199836,0.2453151549389218,0.6280560935766211,0.25948581242754065,-0.20898304559815964,-0.7188838397076224,0.977566457038914,0.31934276106522513,-0.5115900172141923,0.9027351760340052,-0.7998651818164888,0.9489824901997709,-0.8612182069091221,-0.45357691841580106,0.061283610980381105,0.2681719909390505,0.7242269735633833,-0.9319240901472325,0.04507263911066221,-0.1865782499221958,-0.5429860317384303,0.7229789535923232,-0.5875753250586364,-0.9926825996632004,0.3151065169577214,-0.21918652520394333,0.7060243278470457,-0.6277110072528005,0.44635795063800626,-0.47854227613106004,0.5775539723969146,0.3752693896159384,-0.8959741574855595,-0.1474480373130136,-0.5002847316454985,0.26457386499307783,0.4406791247509786,-0.05222446176179564,-1.4299949678099386,-0.4126609745686445,0.389908705185326,-0.5752477357398726,0.5197774239175436,-0.036180800577158646,-0.447131346023955,0.5271788378201463,-0.1958176407318746,0.2190165070759463,-0.454026644940403,0.19303906896856765,-0.45903265843746116,0.8804093818703526,-0.7425014276686202,-0.07588169404167067,0.7733951107157107,-0.2398120396439538,0.42981986813694034,-0.3590782672029794,-0.3683885701176003,-0.8630172497855599,-0.26110473714152416,0.6121276415378937,0.17704460639695185,-1.0434177132539992,-1.0014927098125779,0.6726591192072968,-1.1047589450977457,0.46826979485787845,-0.850588032599655,-1.1665140053852134,-1.0141085844048245,-0.398131828701266,-0.7302553590200627,0.35845070951259445,0.9113548062485428,-0.013217940030479821,-0.3086263514932282,0.8302793520402405,-0.061659577314716385,-0.014269219694583501,0.633455744805187,0.43923548278961966,0.6679188149629982,0.7940400257401701,-0.5744995518036773,0.5610727034524909,0.7547451675350138,0.31935617539147615,0.46239850757711126,0.8956899713734633,-0.5846897194092123,-0.3600225456404578,-0.23123554959809262,-0.8118674090280108,-1.0312203105517994,0.6628940732602615,-0.002181448061617168,0.7773254662263179,0.7974419102858628,-0.3496224345051056,0.8170539623741587,0.0942630831547344,0.17983602022060866,0.09126172738767299,0.8475677777536116,-0.21012941573284816,0.6720520562776662,0.5747897542309603,0.704960600869994],[-0.2619927175219685,0.048862533977809264,-0.6944923026367318,0.4565564827342383,0.2600083113034559,0.8090141028413715,-0.15653675307587012,-0.8155871041243117,0.8849809284554595,-0.5678289417807101,-0.33665014678951577,0.044244713382624035,-0.16052568090205635,0.915344868241805,0.02278664086751055,-0.9768245789406954,0.5791147992406926,-0.8762201565964087,-0.41328596851440613,0.07890974316024835,0.5267108807809782,0.4790406650748553,0.5552977185297683,0.561486788381865,0.9119565434768109,-0.7094645340985102,-0.926639063176862,-0.4061902873477985,-0.06418724211156657,-0.3018650257462514,0.9119668471498106,0.3724808936339614,-0.442751565934822,0.17850322219623838,0.46524522767555454,-0.06939839394142856,0.7117757397204976,-0.1700459776397282,-0.6688856197702906,0.7617832595316082,0.05939412682805602,-0.2881660438147672,0.8263364579146453,0.6735622154380851,-0.9869413662940373,-0.857311312889277,0.6912347069541271,-0.0466897221036531,-0.8713947984163568,-0.37333678850469626,-0.20735188389388165,0.9543667494036461,-0.8369956105352405,-0.3732776509074416,-0.437428056987198,-0.23867784131586922,-0.4484706384424748,0.20899111844923035,-0.9198296019665098,0.1171969067435703,-0.12955894867083925,0.6598784163326598,0.48688291319202637,0.5673701048169534,1.0067380909454338,-0.5432713437533421,0.19638124904645773,0.27058337118061604,0.06549299592160418,0.939008307852627,-0.3173460222481387,0.8142912247632622,0.9491413507285591,-0.4748662436281096,1.0289416842235393,0.7707628745494216,-0.20932737909093688,-0.6583249546499151,-0.1602737921378756,-0.931347467436375,-0.5138643898461285,0.06946604278197366,-0.7523069448662045,-0.06330808514348973,-0.6547130589792074,0.9801431383617014,0.5941167586060581,0.8942025761160091,0.8237801166066983,0.1319840376048601,0.7880010188062616,-0.4809544078240708,0.3321509171791751,0.03409353682484104,-1.0590391893482956,-0.9280252865221329,-0.4266519914233099,-0.13034303242834022,0.08871788800666082,-0.46539594286345093,0.19680663127167614,0.2036757375637009,1.041791710948917,-0.3560477091038132,0.2064998217767809,0.842156089499381,0.408984672124961,0.8229973975925522,-0.7422736392091359,0.5469489087961642,-0.9918800416142728,0.9203662938379691,-0.1378616891247666,-0.80884340214821,0.3785715413303873,0.4568392492710647,-0.2219196262920882,0.06264507892579517,-0.47908571328672844,0.18321263554942893,-1.1917381358906833,-1.022116115532409,-1.1053585696575146,-0.24896395584586076,-0.24210874445830946,-0.9505572692612472,-0.2339830547071466,-0.39280025741408786,-0.31698720739450603,-0.44681841659784466,0.21162241640130555,0.6963426552049222,-0.09075431398809687,-0.1886406055468757,0.9007681942895966,-0.43545425478788824,-0.14488354557151156,0.1424662702335042,0.5062338802024764,0.056272250639035876,-0.9394444499355583,0.170236420153014,-0.25545272676493125,-0.26715630283662556,0.44752758372572404,0.6608914408063397,-0.18507433892585565,-0.0732497923214392,-0.9076766676039767,-0.43061491676419106,0.04641148203571653,-0.7699376650005838,-0.6274049301847758,0.3785348805203231,-0.3563711324647014,0.8911713687409166,-0.9040008984892672,0.15942315688946873,-0.2212279220156555,-0.8469998457548937,0.7837279605820318,-0.0018379635174172015,-0.46600358309167367,0.7697929903872662,-0.628453143674234,0.150533725117164,-0.09150866729353203,0.3583610385247271,-0.8374794130506382,0.7158824654435264,-0.49052599126876295,-0.3441747763935271,0.7777533450535185,0.2177594757686997,-0.36930635470623646,-1.2992519262068511,-0.3127883008330419,-1.0863510002375525,0.4179470293772451,-0.6433743416957846,0.07655619018953617,-0.8084900408960922,-0.909238190778409,-1.2958194898563664,-0.4627060470422081,-0.42237092423969774,-0.3178613962056897,0.4309839237514122,-1.254438710856336,0.4367752008969803,-0.6542986526773178,0.3986141644305055,0.2259096666830721,0.6323845747228056,0.3274242835076707,-0.11672693522287568,-0.6019029019669015,-0.15705062534624675,-0.012931570409588124,0.5732976191736082,0.14129582737355034,-0.355908854797244,-1.0072956884854116,-0.9022020028410063,0.4934399789388497,-1.075865905771257,-0.934105557753794,-0.39789394812539297,0.04424347205231798,0.15193743321665637,-0.020621468096440516,-0.19014176771914817,-0.3743251209956859,-0.16035226925796842,-0.6982187706525642,0.1460001638860121,0.23572944451135397,0.09347064458202033,0.18457738544473637,0.03131978733801045,-0.20265987965615964,-0.6058774266173214,0.8044241770626944,-0.10416036898848452,0.9898919921920186,-0.1293517001049975,-0.756513019813004,-0.7535437481054332,0.20299055111333944,-0.18565974544829725,0.39609442778559206,-0.7931929268787145,0.737452457222881,-0.8011728390228761,-0.3078444400233176,0.1986979720773867,0.5390048851932537,-0.581282566442268,-0.003461471736521927,0.29747202328922484,0.19548630992225136,0.048887182026054424,0.3836211652070178,0.6036901215749607,-0.605530357662008,0.22426354497705478,-1.521077220362569,-0.11642381054498413,-0.9288037109782202,0.4290202974328594,-0.34464799168714194,0.6494678723352539,0.9208603654385044,-0.14598139042395092,-0.04983126911652886,-0.007662573707966065,0.3580119581837578,0.09368376094561941,-0.24554904184324147,-0.21523374139943946,0.3342533221420666,-0.6581670129797507,-0.42986857154692104,-0.7001736325784532,0.0115888695667181,1.199612813747642,1.2483241733108477,-0.008821110167546883,0.4379654965858606,1.1422321749555755,1.012809653043438,1.059619244370254,-0.25772641456912426,-1.103107376359625,-0.054466032403500765,0.10772412066525631,0.4847883263053116,-0.9710536134678067,-0.08991333259293825,0.11722546684744929,0.12343900619543087,0.29854667675168206,0.14686675254665119,0.5235254265754549,-1.0654245927791337,0.1277414247201721,-0.5508632925839073,-0.18421807818548347,-0.8645403173228883,-0.6656567557416421,0.23316123163594402,0.5031596547675324,0.2829725979030682,1.2814656068928123,0.478672936071769,0.24488820156121993,0.12303851466184303,-0.06572050503252416,-0.28296600109329656,-0.25873352444124587,0.28084819513147424,0.4939644772560443,-0.8492691813115244,0.7681116998629907,-0.5848090977601927,0.30725534242917496,0.9547028572246783,-0.45741929678807774,0.5500643656323418,0.1773465095885605,-0.33545675831751537,0.0228926472712006,0.854003846783416,0.4100701263654886,0.1259024854026038,0.8989988031064412,