{"biases":[[[-0.7024045944507855],[0.051954423854273575],[-0.2548597359441179],[1.2234176112705422],[1.3853680204276029],[-1.1423616884066001],[2.005561293988318],[-0.4879581201660291],[2.621974934619691],[-0.13528665044913463]],[[-0.0333725393750653],[0.36544476450456626],[1.2473603386817191],[1.4057285191645275],[-1.0189693231310486],[0.06980322618416408],[1.1468595524449463],[-0.4015133976852994],[2.281226696298473],[0.07053266681069362],[-0.38702611820761074],[-0.8823707817379858],[0.9674400107567659],[0.3952723761603964],[1.2558381351071233]],[[-0.9845203610194893],[-0.7586299793652822],[-0.6233805472967185],[0.5546974963722526],[-0.24784942102687815],[0.22366912799374938],[-1.0261158623280604],[-0.7095769306083936],[-1.458356335366459],[-1.0323454653972006]]],"weights":[[[-0.2756750725094417,0.4074325294745478,0.2115592174521692,-0.5384934725952228,0.5993856438084304,0.17746579418127695,0.31089585847788426,0.09273832782168889,0.7535711071217712,0.21974951933348175,-0.2531370544819167,-0.5446043051978291,0.5619701485470884,-0.6927717494704424,-0.1302643577726091,-0.10007470510095297,0.34021388795642316,-0.8472413501642408,-0.7263057046281693,0.7030319248895305,0.0654729407707002,0.3001482621806906,-0.5760575357041233,-0.5187808377234953,-0.8796328981185613,-0.14552905454659903,-0.5780533061197615,-0.6663664304479191,0.1476778965754746,0.28815195361358836,-0.9964819142008028,-0.44298498345983206,0.5898921064040603,0.9374623769859944,-0.7375070344275336,-0.4507902097525478,-0.4810504496005352,-0.5419400083021608,0.5821578754170383,0.544187074075691,0.7886767253558291,0.7953573421739777,-0.24373838775327922,-0.162950796524637,0.30091038650812946,0.6908027671456277,-0.6605502497475146,0.9264707099515306,-0.19747063800719178,-0.7317035115656895,0.44938259810466163,0.09323972914982973,-0.5738904956203492,0.11968393930684185,-0.08813565770854748,-0.989011062239761,-0.30199201103971185,-0.09884017473335871,-0.8528189060462306,0.7976862575343404,0.14285392000004857,-0.8137389156210141,0.6269912950274018,-0.8955716353033522,0.5853394552552341,0.6847165428655884,-0.3384398393060882,-0.49471181395480557,0.8670932932734093,0.07722666469241364,0.244326337809674,0.347332939365051,0.5349960082639488,-0.04995568119787708,0.8052436438885707,-0.1803692434912572,-0.40971697042424166,0.6372085511571186,-0.9734608885633188,-0.35870851222450534,0.36363464632115866,-0.6891198824218054,0.7904670258839461,-0.9845576279716148,0.05478217684554032,-0.5421286827523533,0.8120806516313717,-0.3789021913374277,0.3777858745092838,-0.15747354659920673,0.6161281068318829,-0.5692344562084498,0.8858318089905137,0.4998155367067698,0.7723031263265744,-0.6540451429838836,0.20600802920711864,-0.15070702032291997,0.6771349913272664,0.19325106894726043,1.2441729226554183,-0.3885545556765888,0.3727228847191104,-0.13675142918926192,1.0030836357519621,0.12649408793003453,0.6474748211960288,-0.033137414198768485,0.2741328857370641,0.34568389800278626,-0.6647858098852004,-0.28697964107063245,0.31040133873774933,0.6123059841082543,0.9316737015151629,0.22354798891986388,-0.36812374580935087,0.0056332813243096585,-0.0642847252657184,0.09898258114510507,-0.6679575996505182,-0.14771652303199787,0.8281490244757859,0.7285526610112228,0.6217705876500759,0.7992430018432848,1.1441675079897338,0.07698854750673524,-0.18817459720005153,0.7525198341319381,-0.566206612303752,0.09467844514590501,0.7882738352507148,-0.4957068941383701,-0.15155075566686096,-0.5794650239705589,0.4744122307530969,-0.7491689473747011,0.31115481624227614,0.5669483681348583,0.9684299693945952,0.05334424699245166,0.1794476062635913,0.2021843549972445,0.34944500977248666,0.21879657584289494,0.27232241772167,0.7904790050142267,-0.2179935681499823,0.46891754022950655,1.3915178089394953,-0.41738216746666085,0.7295060706155501,-0.6335801067788052,0.03035717138348705,-0.1555383216376995,-0.04474335072118689,0.6025616033445186,-0.13492306496021,-0.450665302083804,-1.4105995086144503,-1.2033361740873045,-0.029117690751355566,-0.25263191917199446,-0.8132357913832672,-1.0085403205909016,-0.9850378803506696,0.5496411759971249,0.7137403353624969,0.5861642679439487,-1.0071985045911698,0.090306238830008,-0.4470314555639819,0.13085627546977038,-0.6399786499916815,0.023024312774674517,-0.16783703472168507,-0.7383115649054595,-0.3232513363727215,0.4171596164102039,0.16536170124920765,-0.3363377433138011,0.8634134741841389,0.37929932131247224,0.4582360802121834,-0.30733151760679733,-0.6471757308335737,-0.5322864083312527,0.46287181438323743,-0.2365252572637986,-0.6749986714555835,-1.1179839434601961,-0.48221616575358905,0.28262502209592955,-0.6122432640708009,0.9921147533419342,0.00031604407300993515,-0.2022404865369859,-0.9164138976391755,0.7884494279393824,-0.25962334377807744,0.20405698189292332,0.4839075288437925,-0.35837921075090734,0.282383412307872,-0.8273828023545049,-0.400116422348594,-1.2396708711170685,0.2922387489049251,-0.5369525838876743,0.774235510881571,-0.09614257192993524,0.90267956639367,0.4457546442621206,0.9842282148159904,-0.5907336775067494,-0.4227781982404812,-1.1605373424391838,-0.06239601870860267,-1.0810498384799705,-1.5787769609980553,-1.099081888785821,-0.040874997798138066,0.25346847882767365,0.8045079695714911,0.6101064310470403,0.48828348858010534,-0.24242165251946113,0.3459641313410194,-0.42421633765147765,-0.9934369230676644,-0.05223548140005506,-1.369755098006487,-0.1346589070791927,-0.9684882719261846,-0.9266881367906652,-1.0502103270258778,0.7606846493677021,-0.302903582111382,0.4880960894283286,-0.6741167764490934,-0.4942481586806896,-1.0225923296309425,-0.17773014766853448,-0.49888589706594744,-0.9854215117049046,0.11079620090442345,-1.5669466544288493,-0.14049980433183862,-1.1215823246762808,0.8834757847002362,0.735537652002133,0.22293802934767268,-0.6973000524099522,-1.1194793753522336,0.5133528096645198,-0.4973691602505395,0.5562280617446458,-1.0738352537249638,-1.1507731350770103,-0.6590629573902432,-0.37540807538760235,-0.6957593925644581,-1.0923317145327633,-0.3532043724337527,-0.5739900466332886,-0.7460570135894753,-0.6529120910071163,0.21009821843116797,-1.2933206374120976,0.18569481834924578,-0.36213554658297475,0.4216910806721412,-1.1315128920000153,-0.5735852423207436,-0.369176014103352,-0.09397132883479113,-1.3028157646885279,-0.3779981294052778,-0.7333681584263525,0.5420181313061528,-0.4507715738639091,-0.3191378676142472,0.639528538020411,-0.5867710368472391,0.15169907291764193,-0.14728500120737104,-0.7758697223909972,-0.6384129559563555,-0.24170900122245537,-0.39685898162539895,-0.9446591608294375,-1.0573085918965945,-0.7587800954225454,0.016863540548968207,-0.10688960950314776,-0.9982181905521772,0.47438720897890246,-0.42565871679176037,0.5966697280464615,0.3157539947998263,0.43498464128914593,0.04346221411733329,-0.025060538017709865,-0.3720920947051233,-0.9523730941904284,0.1685227477443524,0.465891428928058,-0.7011506996065451,0.9825454405519287,-0.13278260070302703,0.17531534677288346,-0.8372907120590602,0.0151308693010625,0.24163565518548696,-0.9437131340646194,0.16866459815500137,-0.48648830262208026,0.20038460671052205,-0.3483177818823508,-1.0734267704863933,-0.3269724498268924,1.0920628712346672,1.3230912358524884,0.7015134456614007,0.35310877554443415,-0.39410922465624565,1.0150255449192656,0.8046305171811232,-0.25030903053373804,0.555793270062863,0.300187082610425,0.08820934132285886,-0.6931608235191262,0.17432497130519878,-0.38342063996363696,-0.29452802568306646,0.3049577623285521,-0.47801791034384744,0.695001182885588,0.029706362308424657,-0.8791565545347517,-0.21712172848782563,-0.6416565853033336,0.32609659971129745,-0.8000523243168681,-0.6181130851082576,-0.24747936805901288,-0.299234538125616,-0.19949105836914682,2.0399659204406757,1.014652310588616,0.3173619361691653,0.6772446886599643,0.2594727131138379,0.26361639997843084,0.14398660170838143,-0.5968170046673688,0.018812705210382398,-0.8817389692493517,-0.13965471936998694,-0.46112907652418744,-0.2977463615010506,-0.683174822320654,-0.7089869749743292,-0.2394055232938107,0.47574319841485,-0.7481869776170325,-0.48159363977589076,0.8660924411447279,0.5285675129014787,0.6950745202407979,-0.5225173177411662,0.595297272923909,0.668470055702909,-0.3530436420021962,0.7604267084494795,1.2122510315378328,1.668076168825052,0.6463274824477016,0.10198504273398717,1.096054398057644,0.6292167482556038,0.3535989536283268,0.10735158738972593,-0.08642226101850183,-0.5808789861832435,0.24586754001491867,0.14093877745117092,-0.30817973418717,0.17797146983609397,0.40438286861009143,0.511981450058846,0.9422827907109795,0.904039074803668,-0.8674819266016454,0.4299066590153223,-0.37653591907510703,-0.3676270776775402,-0.18645862004846098,-0.2819229823153214,0.034788993699115325,-0.6066058634784253,-0.00509384442906524,1.419010499825937,1.3907471215642053,1.6338054943593037,0.1782546560705519,1.4903517352287998,0.8039026890285247,0.8247220839090867,-0.07186129397308323,0.5414782229092309,0.41204320805887124,-0.030537591584129387,-0.32886157916037273,-0.18161190422345408,-0.3833177100363935,0.44953694971268254,0.2570309577568962,-0.03188679409550284,0.9614493104849281,0.6321730954950011,-0.19221472189977978,0.32697843007764676,0.769646745656845,-0.05234363719794008,0.40004245206614353,0.7172508444745486,0.29504391633710386,0.2205993078424824,0.049563403544151605,1.0483970024583535,1.6739587067723485,1.0512536539278066,1.1042529378019295,-0.15002952684005377,1.4294661546120075,-0.2569632872168203,0.09756242332540814,-0.5160707311280724,0.3851525038953452,0.5823462908015254,0.44800453138631346,0.7003640332590855,0.840905223994868,-0.2672357642525026,-0.8838485357025888,0.6722696248197907,-0.12401777386765804,-0.039323756472076,0.991459773919699,0.6879422879117891,0.6662641825731672,-0.059104476290387814,0.724650276126999,-0.1672320246106701,0.6316364087072425,0.7992678781577836,0.6505735679906302,1.278350898358654,1.5611472344788242,0.49220455237239036,0.22434170321154942,0.07696945329796051,-0.06329294497530698,-0.010761008470395015,0.2600104638188372,-0.30508621040647865,-0.23946943220674394,0.5858813756515987,-1.078230103564509,0.7128908656701011,0.8199318284663217,0.1346735739995804,0.6220091373180484,0.1553615174604468,-0.2647856431011021,-0.15708824997281223,0.5424769496100131,-0.8040017686267512,-0.36558882058068504,-0.4993979210070358,0.24155404909865616,-0.46518878294177773,0.5974068616393838,0.4079605915939165,0.9630198225718656,1.266204401169931,0.10344998797979657,0.3303549767806561,0.40374155797646527,-0.4586237807901537,-0.6157850568144376,-0.42581020048199136,-0.7989407013522248,-0.4897963365795195,-0.2803582678524277,0.1969323327175638,-0.4054672958035374,-0.7428039997606923,0.5605463697211823,0.7332029398643236,-0.3549753208756247,0.07916170961408862,-0.07480504171422339,-0.47870066693022983,1.0101032939658243,0.10815493824946368,0.08063361662802335,0.29671923762968877,0.8731662379398858,0.9913035124864803,-0.5304542833213068,0.5161705501628703,-0.16631383361266916,0.30557529253378674,0.01230741706267961,-0.3449996623462267,0.67816731628689,1.0190262512019306,-0.18065206497641215,0.41431901361524526,0.6399774198916746,0.7519537228188359,-0.5014519926501714,0.18746390913594754,0.9931655493808524,0.13878858257949675,-0.5493241163833904,-0.39430788993936,-0.9577903113470252,-0.06342531242636351,0.3917385265946974,-0.8093715208047266,0.6141368455757751,-0.25753767104395636,0.023581294641237815,-0.467885868966806,-1.0326799582798345,-0.30451073606044526,0.21905308602438078,0.3249816751548344,0.3204079067408633,-0.16396029820683247,-0.03580370607890844,-0.06883521657685317,-0.8775955095453168,1.085797474744618,1.1180271839848004,0.7435620138002808,0.37500344050137147,0.4453174358127749,0.28946704657030714,0.40721150298287917,-0.17685038446955595,0.5661290032808425,-0.8295285462379723,0.11265309739884702,-0.7262997418135375,-0.28014584272783516,0.7327164644497534,-0.638091065526774,0.4440197937111843,1.011756890348088,0.879658637113788,-0.2024829007439146,-0.8892207652493604,0.4563869485682516,-0.9399405302120043,-0.5868175835463139,-0.32680931901460175,-0.4353223584961316,-0.9965776422325063,0.4469629308596148,0.23764756954417732,-0.029159114786142734,0.32065289170536315,0.11878032138407218,0.10441931800938653,0.30791025785295806,-0.5300224385654133,0.1402546629079993,-0.6017818529182901,0.14896524991551982,-0.6544038512979803,-0.9161014272286425,0.37354156680728356,0.45325353718784434,-0.15455225553011287,-0.09580119483664899,1.064105820091172,0.678874356792868,-0.5669631525116524,0.5542038667191344,-0.9874893628201087,0.35590974540735626,-0.36952201256974077,-0.35819025539435106,-1.1596248728320877,-0.9395031109207183,0.3518269540834513,0.8620547875851118,-0.21043639113722623,-0.07864261920855899,-0.33394514875574516,0.3772915014644973,1.300810405518519,0.9834302272971175,0.635189839808248,0.3974539640738161,-0.8395201839760912,-0.9807452131011084,-0.006808487481322496,-0.42771561003013203,-0.10124654404789081,0.10431007332186389,-0.5899897683517397,-0.49598574100856063,-0.035121307570920725,-0.0054322517091034235,-0.44873927250128354,0.04434748549825538,0.4748544278661019,-1.0922380209304001,-0.4367975680837444,-1.2365851778561767,0.022094664027923084,-0.8757246259500114,-1.232352056368024,-1.0229863807745845,-0.20105361037204483,0.5602030074945605,-0.44646817278735057,-0.5651340975555191,-0.042953476644216615,0.3976266982338575,0.8670000255962726,0.9201803565245061,-0.06577533466526568,-0.10901661448704408,-0.3617944479481681,0.44089120539726834,-0.714878634392588,-0.23127551610152497,-0.5435616937591736,-0.23099868134705817,-0.44607106435847393,-0.45158946498281216,-0.31525048913922704,1.0387188677688124,-0.08560426691640287,0.004666607306209707,-0.23206057459984944,-0.5467388104917735,-0.10963352938745081,-0.7826184892346065,0.012106042193510505,-0.5287463950870563,0.1692898823394055,-0.9388131199864245,0.046282302269372536,0.2914947154149584,0.2457291447389327,1.1627318071912465,-0.4002993035568894,-0.15779308839729492,-0.5263224522261107,0.3927587111748267,-0.8772324221227499,-0.15329180625570857,-0.9301320646532583,-0.23061846170508282,-0.32713479032143145,-0.2972849111143939,-0.8374461614098601,-0.11125482986357994,-0.7443708385957477,-0.6935635837266199,0.9273081394474737,0.11979905201139554,0.6634858176070941,-0.7373733319183337,0.013280517374191137,0.39409789359413755,0.5522134445322393,0.07710187089355075,-0.37913751196672707,-0.1503939350658696,0.39017871092129025,0.1985480980714366,0.021873877401265084,-0.48302832230829246,0.5808484481159264,-0.2137780754896471,-0.05272361839562299,-0.7159780712030276,-0.4566861564886285,0.3530470684718562,0.0883853857309207,0.45618081732434,0.5389239103940169,-0.23880158051825778,-0.011504743689454214,-0.6068112699499392,0.055454476063098,0.5193691648609033,-0.6452293634662106,-0.7806465660309675,0.3691379618547609,0.1477331489164367,0.6439461000324785,0.17351155794755085,-0.26641122897589886,-0.14269786150788047,-0.2605099463261083,0.06979169248551291,-1.1252721120002753,0.4305027376424806,0.8176100728832787,0.047689564712733556,0.18985932254426363,-0.5107761809405519,-0.7167999687005255,-0.48713401674123924,-0.07658169535426024,0.972058446029387,-0.015353591765906671,-0.019504572988189084,0.4625495804609232,0.29714769078664127,0.5587163326508259,0.9895330892385333,0.858540802009457,-0.4794382333184629,0.032766474740256735,-0.4856936268304027,-0.7414265892328701,-0.4883142709826204,-0.9543243034143924,-0.5863765823388504,-0.7979932718912438,0.1930105169505227,0.19163589919009275,0.6048911196152428,0.307981627694919,0.6467560491191665,-0.42673797782234923,0.21803035187343067,0.7714504148179152,-0.7474446962560685,-0.6762671437937132,0.5689000492839191,0.562914031709483,0.14389516428018045,0.00030722375131020385,0.6908776552174611,-0.7739638024010769,-0.5759596066552544,0.04442754183930142,0.09330963519829455,-0.4234854476393024,0.8603643880250776,0.5807141623328516,0.024181807894722,-0.7849417092242442,0.9532978004715537,0.4010476155900508,0.9485343180179507,-0.8573414502973253,-0.8547994562739054,-0.2908766249888274,-0.008660539878427015,0.4375045269604564,-0.6309954333617087,-0.39322665563816145,0.2819063902766263,-0.9005751520051981,0.10429789444411491,-0.7293728479175449,0.9325487937711887,-0.9888986498309817,0.211088009029351,-0.5799079270871674],[-0.7413617879582823,-0.6473310039397695,0.4748258108291181,-0.896103541276656,-0.21149098921941767,0.8185351809388015,0.2241163305462608,0.5911252085221124,-0.526335675592206,-0.20737522923020202,-0.06761111783234575,-0.46439068515883286,0.6486878363506764,0.6300395714084903,0.016365436301657824,-0.37052597775594776,0.30528538709176667,0.36802839435234147,-0.47494530402624835,0.3427621988201135,-0.005368700868122023,0.728423944756706,0.4730784330332407,0.9626760132317753,-0.9009196228934924,0.9995631991422922,-0.5174917840481272,-0.8450771079721935,-0.3147370439121282,0.26068658444917103,-0.04910768247943009,-0.8586531464236982,-0.41505170659275015,-0.03554190300507801,-0.5459180925513958,0.5381914738673448,-0.6375341471113913,0.5687477097319407,0.4947948299434005,0.36130361416356555,-0.6305664444273751,0.43704371792805596,0.5942122800543611,-0.7339485781211857,-0.869150088773822,-1.0027933942634402,-0.6362025829110803,0.050697886394731266,0.7303715129993286,0.8283993022086522,0.654618359158696,-0.27145952663739836,-0.5895412899837118,0.9399860797266069,0.3941758225359169,-0.9927587148146488,-0.13350680895257838,0.4876610996996471,-0.03813857164772205,0.5325483213831552,0.9543509188235119,0.9319947609670797,-0.6697158185462027,-0.9196426599926393,-0.1285075232192337,-0.9759911106328214,0.3725558340929865,0.6628482951737544,-0.507436504589839,0.0020604309839948633,0.35010107007618246,-0.7895383888018593,-0.9805946954331061,0.1097401491140106,-0.1315315590266689,0.7264602634174118,0.18460789916292297,-0.733904513858624,0.1392013386584247,-0.047048478542153715,-0.1430646556912453,0.2725255971876708,-0.7214813862465779,0.8576578274038091,-0.08829830733883148,-0.009335978102407827,-0.3339799099437315,-0.11692219958406319,0.3815489837686961,0.8515816230269287,0.6684144499796533,-0.7499584833423829,0.8544761006467967,-0.35091461413797703,-0.4442394379621054,0.08710476190127114,-0.5855347309293949,-1.5745518920763728,-0.38965890162137945,-0.1887686385347505,-0.22515015207282774,-1.025946960222443,-0.7626943628473924,-0.6223623902836684,0.6241035614016512,-0.9927441973207531,0.7987737257867211,-0.22535618912682248,-0.36113956827601024,-0.04219850122317797,-0.5637904274932083,0.6920311352077426,-0.0024957637027347435,0.11737790155473539,0.4046497026566705,-0.5139283301768812,-0.3247600289035161,-0.035018620497510304,-0.05590477873163244,0.16615404866440106,-0.5892750083476099,-0.6609673547765822,-0.5879172620320734,-0.7211155519603618,-0.6664102933122024,-1.1308686499894158,-0.25456540027198493,-1.2889821464160376,0.19258776118392334,-0.6514831158472704,-0.8461180313990749,-0.799612693400012,-0.7048503576746585,-0.2594288846465449,-0.825375990881417,0.6816684729222919,-0.4274249444692645,-0.009062211808610063,0.5941859362283286,-0.0903480882224301,0.9961161500839109,-0.44927352705194257,-0.1627785766280099,0.5553550978671214,-0.009097123849909305,-0.22032985790076945,-0.7003829993483373,-0.6501196893601976,-0.762879738421205,-0.2632939651764148,-1.243751596100156,-0.20518656307882424,-0.18777066702657141,-0.6564927134156057,0.3220701729230565,-0.5718254527961987,0.15217993910242428,0.5285097262176237,-0.17321536793828454,0.31649836914389357,0.22420123479767898,-0.1573645530262299,-0.09032759396793119,0.11397603307601548,0.16027286720251144,0.22637430696430838,0.680628836528627,0.9299258413718223,0.7756081389772398,0.20227694707513538,0.17076343204826178,0.31061639058974905,-0.8020032155063314,0.5339185289042869,-0.8640799450755666,0.021579526220348234,-0.7683163764651799,0.09630103747081893,0.2798944230234379,-1.157666725608034,-0.43763919875948964,-0.24351999321733866,-0.015715994440537593,-0.09432169470523885,0.26901136260069286,0.34232688674250794,-0.3226440351450208,0.09821071513980961,0.15830408676318367,0.370346391225569,1.0278453992911214,1.3048849446314479,0.0623675743937664,-0.09187432730061856,-0.8540039212478487,0.7252546473475574,-0.8988057254204965,-0.6677855523186486,0.2165973286426958,0.5747331451072181,0.7311228765852834,-0.049947251391914214,0.025057576544915795,0.49627718077111643,0.5060372669930105,0.4933481934114406,0.07504855795951848,0.32111726325330653,-0.173148643057426,-0.22727755950931253,-0.4729378271384201,-0.3889022237099144,-0.6398055221340314,-0.3172941122328027,0.37516629882146113,-0.17901317075384002,0.7846260460795952,-0.4171375453536314,1.0141321745807834,1.7447803159117372,1.5040638626965424,0.38496414950952795,0.7588606317299781,0.475593954509758,0.6774826159397612,0.8322473962132736,-0.7255490530918455,0.6382664002337939,-0.36323490608011455,-0.7047099688183897,-0.45774767059813065,1.1635236573179246,0.026840549353987022,0.967974101073363,1.1781406213034589,0.04196712220987946,-0.7408744086186019,0.2972044854096664,0.0051979667718398325,0.36993128462843744,0.7296292326371321,-0.910177049356428,0.5459929294001179,-0.6011058389633782,-0.5020813935124677,-0.10385562841780217,1.1386404066928775,0.8710450566098799,0.034385366386381365,0.5637698130628411,-0.24631448845980514,0.7313833842938783,0.5433624069358158,-0.17443442537047119,0.3795709071841956,0.9369229902690498,-0.8160015765943341,-0.16287200378715766,-0.3175633817082709,-0.07435848751057869,0.4990171087757096,0.9038912088938688,1.4691818221143764,1.135102308424518,0.324989398580875,-0.22518097504630016,-0.24078976703899174,-0.99853134767188,-0.9249305062821939,-0.2637168526416574,0.08096520366049989,-0.24874629648784466,-0.5165498623251933,0.8812187541549271,0.25390436106461556,1.2126008346350934,0.4592781672805638,0.4588493845787741,0.8019759689308081,-0.9498478642664325,-0.38378684041401345,0.32032106485375444,-0.4358476604472155,-0.02013511026166022,-0.02149463325235676,0.5995548766788262,0.39165971885063877,0.810608717790152,1.333756469256943,0.7222814942145073,0.2853052738713867,1.1740598206458668,1.340282313447336,0.30818614794151183,-0.9401301372704939,-0.7005130291118976,0.6510236383143978,0.46309181273668665,-0.6686708667026618,0.7309582207693658,0.6778295529232801,0.8911677216405083,-0.28002580152135575,0.4562669931865768,0.7622564638659133,-0.19454334466413098,-0.09937219934390557,-0.5596810997592692,0.5461339330499675,0.9151468769343468,-0.5576481225796861,0.11269171088024224,-0.052770518021693226,0.41791637439106505,0.7616980346243942,0.6803753310005568,1.2515822218180312,1.9034131458933112,1.7012119440165814,1.1837811243129075,1.8054118809147721,1.0400628088848498,0.3748653744439664,-0.908458608631456,-0.3767100848468175,0.1770470185953135,0.6918118826090378,0.5981522472656533,-0.4430135388327767,-0.09462609757393292,-0.11081115964555538,-0.08630635933121031,-0.1568659697241587,0.5521273105618514,-0.016412725498791622,0.6397521098584952,0.6667290297872412,0.12106127026073354,0.36306990116148957,0.9240930110547062,0.38789397492293776,0.19468892336186708,1.5488478700950223,0.9272263156445367,0.6294705845770961,0.010393567718240924,1.031597953388377,1.023392826755439,0.6338268014470485,0.48794121469457463,-0.9474110105910223,0.6952014552351403,-0.12283318794209169,1.1194473852432947,-0.07527852074572373,0.660685105190497,-0.24058852166157116,0.4581224293315208,0.14012805841018264,-0.45272208294951277,-0.2759848583828176,-0.3973785418909369,-0.14677978414217058,0.7731365362317412,-0.3833646694656174,0.6602797494662092,0.994586471947377,-0.7507412831438102,-0.1612348240530205,1.1762990592504474,0.32420091209052376,0.26503087251278634,0.797320097094875,1.2750570422562542,0.17386258278100228,0.3761618813656474,0.5410357103007439,0.44446045938214984,-0.7335568962098022,0.4078437194793929,0.17608232754719982,0.28572147408474663,1.3989797201344125,0.34368601414926225,-0.2867185592796829,-0.8820479859910275,-0.6204517024131447,-1.2140443495590996,0.2718435383354336,0.9675634424059246,-0.5676604643098289,-0.010452191692422471,0.4753222938201876,-0.39948598630824733,0.41124495736598626,0.5447267653810756,0.7155891606769839,-0.5714457306936986,0.47076726278348235,0.31309420212174427,-0.27727591806964974,-0.3129819211315914,-0.6577939349452836,-0.002665968350877378,1.0651032741254196,-0.1504101720992732,-0.28346638240924205,0.7039874684511347,1.3113373773384636,0.08778390848421642,0.5982936800588531,-0.5457476620790178,-0.2403955118797737,0.08585696603611327,-0.9611496695353745,-0.569297638787764,-0.7508718635049563,0.8557759113770215,-0.8406419505748135,-0.38773722841192804,0.7625031146109932,0.00038948053122812507,-0.39922806949207024,1.0458380636782496,-0.22710088951255122,0.28963018579463395,-0.023011159827376608,-0.8436993756384681,-0.9798177959871017,0.025620624801079933,-0.4466545951505754,0.5416097362144539,-0.19742857711257047,-0.31078425014730154,-0.6359590706253178,0.041550053368694925,0.5639389792557035,1.0683508786720741,0.3808848644751559,0.001338615692442094,-0.6550554249047781,-0.5401271045151536,-0.8269510937779541,-0.049256989544341434,0.45574949162388917,-0.7170960821423186,0.28013859187693196,-0.26621989720892336,-0.5491750696192762,0.4417454407265483,-0.06653000852456296,0.9863599769912754,-0.8630511470010247,-1.0668162194895545,0.3529857087888914,0.13638861300346405,-0.03304041190184454,0.03801143650019442,-0.23221633919340498,1.1032571560732545,0.7728750495776396,-0.1590492624020785,-0.43405117263596943,1.2037586361728876,1.095899135025902,0.9565973572699944,-0.8593215676412959,-0.13372081278978973,-0.36795543150517274,0.13891068455210362,-1.392189635841109,-0.9665933256852032,-1.1090075028659452,0.552083933307375,0.46139651585044766,-0.2738700723645972,-0.6689945098443257,0.3606687760885313,-0.06228628671687956,-0.49425291176989916,-0.4105996872016024,-0.8006120140824692,0.34277520748755946,-1.5098164491711983,0.26115430758144365,-0.2970907819356393,-0.46395627317506655,0.24097383210255127,1.3602616031878751,0.8515094978364321,0.3642234745911592,0.7503774151155453,1.2682137029920493,0.44112118486733287,-0.3857710562061217,-0.9420222689177072,-0.6664849116514927,0.03977012357753821,-0.4364250268138264,0.04865213424823747,-0.15965967023714842,-0.8143343134333201,-0.7387456770319054,0.7091787567729755,-0.264631005891948,-0.45890677371332633,0.7207585654326977,-0.7547147884058849,-1.0456853896251688,0.13170239360076483,-0.2800490717383902,0.4142741902705381,-0.4186042882951712,-0.3893138183811218,0.6306586222791513,-0.47647898300990765,-0.49820549286779586,-0.7714612230048197,0.9112285634279462,-0.24964097432332924,-0.09959735824402739,-1.2819200154779784,-1.292779397938395,-0.5567990140622521,-0.4028494007347593,-0.25911555806452324,-0.7788240414426584,0.4969327638259433,0.4680305247716006,-0.7966480240424116,0.5888300963083121,-0.6139660519367028,0.46842486972380226,0.023830026549009325,0.28383204028162257,-1.0223470362337967,-0.03822572554301364,0.32938101647761747,-0.594745059768737,-0.289724682422151,-0.26795703980877567,0.24771065723856203,-0.48931985035058406,-1.1594415638246913,-0.8569220450558486,-0.6257621627188787,-0.8093080120551409,-0.8831591195199038,-1.5400290357620903,-1.232533810107919,-0.2482022464574324,-0.2770613624132127,-0.5428653816070345,-1.012370731928875,-0.39527942055986753,0.7113151848473857,-0.7115614893619379,-0.1630507633328575,0.47195333737342327,0.954769696194675,-0.09550700240816945,0.6461415266894414,0.6598154044881537,-1.0532838236259843,-1.3418029260284687,-0.08149216999036576,-0.5429112866652126,-0.23630754906190324,-0.5020068300360047,-0.023875900110331902,-0.5399252054702203,-0.4707890247836411,-0.7736368229998638,-1.105598794100603,-1.4183096199588185,-1.0010413789747405,-0.2563922842660262,-0.721691672569658,-1.5104468640341855,-0.4333928163607093,-0.71984926079537,-1.2219273306984106,-0.6751546826633661,-0.9450176178410394,0.8470194444825703,-0.5563154663683905,0.43336653169369016,-0.9842303294738062,-0.22663582642470784,-0.26767263526893104,0.435059670736371,0.31989877475372247,-0.5935035517396697,-0.6235482946284993,-1.430069725718991,0.026064530366443763,-0.5651661590165924,-0.7121266943365552,-1.0466782971526112,0.18763047744239894,0.42144799858971915,-0.619306102072818,0.18404412646307064,-0.5060119494174277,-1.178104366519385,-0.7965001222757194,-0.7395290007572372,-0.5171164901158809,-0.7001903170861645,0.35415679249785875,0.05178353848853545,0.7106590132358129,0.7448799226488183,-0.7155312864797913,0.44127679536170106,0.20704219380809297,-0.789735075142473,0.44491055260361995,0.6165566428655656,0.567919947739931,-0.4707185788328108,-0.5028282373755473,-0.41465465401217066,-1.3007234356109285,-0.22980967778171724,-0.2773330463264575,0.4493122494830407,-0.26073966814092625,0.8656909115333357,0.5827710148087439,0.3475651903189985,-0.6982509686154958,0.06686371515408038,0.262769111802426,-0.1519073177181685,0.21765633387052835,-0.4938190268106975,0.7268656176237286,-0.16995859261221283,0.9718176612603808,-0.8360925744292104,0.025668674488570086,0.9517693346568933,-0.14757092519040121,0.37057205086245126,-0.8946233489999602,-0.33181727655245763,0.6943661175627818,0.45169628292173497,-0.4423933515932908,-1.517084921976428,-1.279898619123404,-0.1783287962307294,-0.5112425985095078,-0.2780044526799519,0.050061376886592096,0.6802737000067957,0.82318458283145,0.2776922737613228,0.6598171651959046,-0.948931120695271,-0.37334110659974057,0.813302967508899,-0.13954870356813612,1.1741546331666097,0.7766981063879882,-0.591073260841653,0.7680408317389402,-0.7097560379000899,0.768664524735071,0.6343504426315085,0.2740742360801718,0.9745888584662554,0.985414693132354,0.5542443796955978,-0.07453890865578376,-0.07907867494646505,-1.0306218401809313,0.5788620934886932,-0.7949758873782435,0.03942347649730508,-0.42530293580771494,-0.2595470113042241,-0.7531159024474334,-0.6959899281074899,-0.6289490499565735,-0.3125691528520944,-1.0372217443411254,0.8554022422293154,-0.6317792888129938,-0.5478179227160629,0.9421803953978218,0.49646478259114196,0.6126026898819358,0.8445934177770511,0.6423100213616524,0.6247686498269113,0.18082141447365307,-0.33651504731917997,-0.47644553594459427,-0.12108965163427343,-0.8905353592738112,-0.05964811843638011,-0.8984220925385433,-0.5263586679010143,-0.13114550668827088,0.008485734990569474,0.2157666126110152,0.5234108269036354,-0.004766966692352661,-0.07662225937154046,0.7139350311817628,0.4009336797283186,0.10788155672677084,0.6040713741885727,0.9907260961410806,1.1274733228988065,-0.3488451944058738,0.6720973084514613,-0.5017359904103209,-0.7821658819617339,-0.926804640839855,0.794710386271931,0.11559589489222974,0.433817101536402,-0.6313411460682851,0.46879397583383103,-0.8847067035063794,-0.3063927913146962,0.9171773070596259,-0.5621239702444107,-0.8566574347751651,-0.6977370496983109,0.7731693159190095,-0.12030292662968665,-0.5029760702521295,-0.13046475529333212,-0.7118469386909883,-0.48304048199332356,0.6010663288761188,0.8204585714503938,0.03187295626067362,0.926158441846126,0.7938126979742678,-0.7368183370884794,-0.8280330318394772,0.42025103319441426,-0.9645406324927657,-0.2951811869133971,0.828914532619006,-0.991412497274775,0.40169416248405865,0.5413631892807822,-0.9838821920039402,0.23100882086974783,-0.8065415831438694,0.1536042297606217,0.5066366224914336,-0.02164630247921151,0.9484679984461348,0.404071137685913,-0.6117055239937209,0.18946076689322985,-0.5494426766790674,-0.7539362870178863,0.40674904239596765,0.32814865796490317,0.15781978526437085,-0.3666010938491304,-0.648840355390129,-0.22773145747372475,-0.6373640407509248,0.5142685091011026,-0.7056663598982256,-0.6950507489647572,0.7202681899454262,0.981326705495806,0.5539774434964551,-0.30584112322277646,-0.7583965115212202,-0.9512726635634714,-0.6342342398386682,0.20538429767600386,0.7788352760922492],[0.15940651105775783,0.8143165751673205,0.8331457710470853,0.7434172525453036,-0.46655697246864913,-0.8701244744252781,-0.9254781780288126,-0.2664304045409236,-0.6390858677356652,0.7116451412705624,-0.66054113217046,-0.5385101610246346,0.5902263273353715,-0.12568715060347707,0.18654195844033905,-0.585849711450316,0.7113479021225086,0.6168648313346368,0.6317176300668388,-0.021211040943056148,-0.9171972448134966,-0.38309594646154,0.8181674860366293,-0.7222678732415742,0.44745735795174557,-0.7298340100291627,-0.06609783464477981,-0.06558925151702866,0.8338975512487081,0.5065866776075982,0.6050655207525204,0.29625112189452807,0.025332137752122286,-0.41850675328011677,0.6787049957204851,0.9251269941228839,-0.6641622592991787,0.10386617475299652,0.21604305266345267,-0.952250919995939,-0.1597148309477672,-0.46952348888086853,-0.21676157206948626,-0.26928967250513275,-0.6307807478019538,-0.036194959000646974,-0.9724205632660877,0.7038416053079393,0.9381026202549682,0.11233328290263427,-0.9135151714301131,-0.586286117287455,0.9209374882137547,-0.2990758254950372,-0.8288079925706986,-0.32883468268943794,0.4230735092175002,0.7506078675889429,0.5849919933553851,-0.43398397270471745,-0.33192553213876685,0.5183659354783569,-0.2499753016876519,-0.0035128474013113612,-0.8002530429665382,0.6850929828565688,-0.3899587202233721,-0.5496094674527187,0.31509893322298566,0.929899661510749,-0.9270302683092907,0.7726386538122608,0.08893092206613405,-0.8776616699279266,0.034234524308344595,0.6396610213789975,0.4683455084735408,-0.44401074947034785,0.6958717133420604,0.2482309489767141,0.00528140311704782,0.984332863225915,-0.588217654209497,0.9870859908532355,-0.5845167938117515,0.14812219238636137,-0.5810912003242621,-0.7181131992933147,-0.6738897103167842,0.2791836244846356,-0.30796206957086436,0.7413507815754158,0.6797655630348292,0.8803099428255168,-0.335572346334827,0.35526223971229637,0.7249685949768406,-0.4069835907588085,-0.4209647964688827,-0.05672796287114538,-0.1546707759297175,-0.65433527597422,1.2053951336103945,0.15103708856738224,0.15323929174478562,0.2891040479076867,-0.5377291621690937,0.23898800843172188,0.046833555225702844,0.9872381834831109,0.16031420511155264,-0.9456938935555077,-0.7510966097517477,0.16149817990002854,-0.16800280196010475,0.6587567245889122,0.8263904407110502,0.9366849921638579,0.7872269243102438,-0.10333898110623196,-0.9470283337790889,0.4971803632868824,0.591646092484014,1.0238680689560884,-0.33061000803890017,-0.009646782878004096,0.0028719123323192237,-0.3194701192309752,0.9147377614156512,-0.34975512951817056,0.37634851556054855,0.6346948481997096,0.21447317836235288,0.5751960558950763,0.8818906199125661,0.0856217374388069,0.14076564065108876,0.0628435725454746,-0.8164878773278053,0.5445234854437537,-0.49637328377428425,0.6955909030482339,-0.1881326817577528,0.04434397634901011,0.5722483705226853,-0.45830642001293054,-0.8852805240402195,0.7268604499389251,0.6667401271566035,-0.18088353320313283,-0.09304658638390743,0.11943309897463007,0.25490707605441937,0.19348620827917704,0.7698626603930493,-0.0747612254917852,0.1596389383252773,0.3332305327030339,0.46098690938406073,-0.5045373618004906,-0.031908828684576306,0.7567399186702091,-0.03685545718888036,-0.38197533116186155,0.350588639108698,-0.29383606012783137,0.7243865085591062,-0.9560873176266815,0.3003046680203427,0.2653605007605368,0.06901632563548124,0.4898720331439086,0.346396879094674,-0.21016943735853036,-0.6084779225621914,0.16654669296091135,0.7497709966653708,-0.3297607684397621,0.07587378250544731,0.1842886013767726,-1.5385112708286401,0.10100937201785613,-0.5639240505478899,0.06241199794994522,-0.831064718353198,0.6560696983789653,-0.5066010711689447,0.19743110415333534,-0.30367933962277904,-0.6278164032179577,0.2785572149009468,-0.25300169108330894,0.38567705469616664,0.737658295206675,0.07847992556609636,-0.6072142976737714,0.899026028173756,-0.4106724631317918,0.5858077072164423,-0.2689295059377024,-0.12262028935237065,0.06280366375581764,0.7692894068936388,-0.16123139915675633,0.25288905460632943,-0.3828689572296755,-0.3306600526771587,0.10674693224245946,-0.3725235730513626,-0.9044314473198056,-0.17823176661808907,-1.0537995653600514,0.025295701450559763,-0.423894455649069,-0.8973621323911496,-0.11208718003456052,-0.7766629828843765,-0.2611051992948852,0.3483574214112751,-0.8022107876843061,-1.258042303615982,-0.9768251059039147,0.6655244722481077,0.7437411523185373,-0.22885317720386852,-0.4691656115445638,0.7109123259976421,-0.49136048654915904,0.42526423576953115,-0.7909516391078026,0.8189672881566825,0.3984958237730369,0.0873631970022543,0.3904564202649279,0.5297035906256586,0.24242513693692005,-0.2442874837505784,-0.270048396042188,-0.09781113814245655,-0.7201240958774584,-0.16587658321170065,-0.7903155840726057,-1.1681716838378093,0.33074481270803097,-0.26150451728331814,-0.12490015845236382,-0.6214384877350043,-0.17050869471062202,0.3707533593150244,0.02620783233588187,-1.0398308094893303,0.3004174456319013,-0.445110559588969,0.6589080033417966,0.9236808087288075,0.6699501440542688,1.0798217610821985,-0.18453531707147927,-0.29157360054068304,0.14205303271604194,-0.16227445349694827,-0.5226929946585631,0.07107376001878832,-0.03320041113018731,-0.12196682907590378,-0.672493607330628,-0.4413821084036605,0.16527936450397446,-0.816187470412597,0.7239967365778108,0.21478228219639414,0.34351742875141583,-0.12858421758683425,-0.23302266133914215,-0.028256284772822073,-0.4616639200022256,0.2906843931046941,0.6227868625703277,-0.5824648637631704,-0.8215975438403215,-0.8762661374275288,-0.9010913546487836,-0.4773423146966376,-0.10689984782855017,-0.4358068543930599,-0.4216368976431278,-0.4197788803367067,0.4495584448847594,0.17104235089788708,0.9542376734154988,0.4377979191260498,1.0705765652066386,0.41524742327244707,0.041231368009055976,-0.6083648072771322,-1.0442696067381867,-0.24221354835258527,-0.7210467941539516,0.6814526379875882,-0.7679411402851687,-0.2672164069268639,-0.15476749568627984,0.6712157070606165,-0.8639292600507777,0.16911184435240192,-0.9022302780007992,0.9092836334740878,0.8297003081796341,-0.12410885802724009,0.058680843852215454,0.410074958178171,0.34969726931360784,-0.1817867057292346,0.4207958329631991,0.5776784749048123,1.023867257512392,-0.27639377184251623,0.49481373370794707,0.25518359076054975,-0.12792274413670549,0.02900022912922541,-0.23068407181907907,-0.9495213731103067,-0.6828442639261013,0.8643419210236155,0.717158732252235,-0.2106867427158672,0.7909119255510655,0.062344194865168595,0.01526048454058362,0.11158043720906748,0.5115405759456618,-0.8388978570386817,-0.4064952130703597,-0.827731492513196,-0.7798481261658139,0.8873933293904337,0.023730931936941986,-0.6394058729104328,0.3188184681164814,0.6238704257528475,0.04478894414434992,-0.31196996310028613,-0.3673559733599186,0.22724391012964493,-0.1415238224639742,-0.13700746828902446,0.46517293962957074,0.4504795115187852,-0.10910046968017395,-0.13070173340207597,1.0556772597266553,-0.23611014255996918,0.9264428451535416,0.45313957677429495,0.7734156350979081,0.1866454036724573,-0.434486341718196,0.7804703728757103,-1.3165143708188245,-0.3815282737579377,-0.44934494018710003,-0.19588374385862908,-0.8869800260190409,0.7330389546540133,0.340271132471282,-0.025308477467817364,-0.2486284736631762,0.8693376900651569,0.17592390376768816,0.5000139832407591,0.757528454096304,0.1571497195779806,-0.8094342090696615,0.539109260366184,-0.8971977579151929,-0.1651956634506664,-0.794129236378704,-0.9258679720838539,0.7819933484675657,-0.02649339934414991,0.8513385989529482,0.7197044884743878,0.8839893712325992,-0.03892756233168072,0.7810395859272642,-0.09409727388297659,-0.8290385089085598,0.22500521020059483,0.6633684108818912,-0.20690884898585657,-0.03932147203782075,-0.2555188875865287,-0.33791002405955844,-0.8133358754878292,0.8277074840340644,0.0893582844134811,-0.7495654573179343,-0.4105992096257178,0.09729535042250959,0.28492379486553565,-0.1124985118410034,-1.1183819026504644,0.6773380547928916,0.9721629633214997,-0.7707779325618608,0.7011910726343102,-0.38932345020336445,1.2870196020983866,0.505204337891741,-0.3614159231355564,0.38150112930714075,-0.14152307348848914,-0.8598480219353207,-0.0019064629674874112,-0.19040107563249417,0.012450268266515654,-0.534569262575583,-0.5732465007621548,0.27979237572306465,-0.2561381456273537,-0.5278617000018373,-0.5192431614673266,0.6866872055013102,-0.8865682029772994,0.45465472175246724,-0.3160416559213061,-0.3361697562089686,-0.7040606918482755,0.3984321306944746,-0.2039361498710174,0.34665548603344803,-0.012044907221008969,0.27116481366218614,0.5738998662492366,0.10898433239393651,0.7491408629711828,1.5570429322063715,-0.2966140465517907,0.14376973540483126,0.1668035311331273,-1.1310618536618786,-0.46957667245907325,0.3415064813107378,-0.9529901843015912,-0.5053147048517481,-0.36408285567987647,0.22283395804224268,-0.5498924640076249,-0.4484989918382582,-0.3906459844279936,0.5925103912160019,0.022654268526865758,-0.3409360750189301,-0.5967626747619892,0.6562177827371523,0.7205593079023932,-0.24518070585125562,0.8085756116366793,1.4719194172614394,0.8381368078433228,0.8447015012115444,0.1806495950932318,0.06214233039546192,0.9840710152513156,0.30535135392368296,-0.05752586776670177,0.2993979088074558,-0.6703531489623431,-0.11244780260960893,-0.3770667794309751,0.3968185576619439,0.4666214068899023,0.714046985147671,-0.6385789297201886,-0.9643062482245226,-0.7792356319614624,0.44214640339657246,-0.20001749335476154,-0.6057523588146961,1.029176158374923,0.3556827685707294,0.5191647567562432,0.2025615520242974,-0.3117652068366895,1.3454964286661946,1.2629942426745684,2.684096395100901,1.395689266508386,0.7173906899066284,1.3075586144409885,1.4242771890320474,0.45711329453941774,0.7853005232560049,-0.9634575312689863,0.10611574754658795,-1.169722304134976,-0.16913368391162578,-1.0331066346391582,-0.2910035558820909,0.1622073543742346,-0.5532661291364198,0.35357622910911374,0.8271963034471929,0.6005040957025589,-0.8777265277154079,-0.7734911346752282,-0.8040200184373599,0.6723626204077987,-0.8667527158271353,-1.0099815449208558,-0.8085063181726773,1.102467549602942,0.11050214075854983,0.9658457101187412,2.2640740772104064,1.374519217703084,0.7327204572140723,0.35800882048151667,0.09215542416037675,0.14450109244596362,-0.29112191973131046,0.25493293359162844,-1.487558462532677,-0.2606222515373118,-1.4235779215550706,-0.5904782853777121,0.7012971303450005,-0.31194502870654317,0.9058891361561281,-0.7577615044860527,0.0871641586697897,-0.831755096072015,0.44067771636071046,0.9224657569931728,-0.7143618810691902,-0.9611823265415869,0.08900258827743576,0.046931973118311245,0.4590691784323082,-0.13252854660521893,-0.6905293172095269,0.16898183597366112,0.6225455100181343,-0.07950286847710558,0.397868686395149,0.5836265074424103,0.5585331779182291,-0.5477091302128334,-0.698646031225739,0.09450013487784803,0.16019767630443596,0.3411855233742507,0.49360908661688646,-0.30284862772351917,0.3549338037644467,1.2121359543604453,0.02704453910408215,0.2625679832150699,-0.6969768112357997,-0.29637396338074495,0.1263252053145308,-0.45262105705047284,-0.6335662084968778,-0.09819366829416648,-0.9413295744538845,0.3210439977700726,0.40219091694352677,0.763345893663508,0.47372108618344577,-0.3284884445775173,0.36321287343797204,0.5114766964763102,0.36323994380487895,0.2753227558711783,-0.7102931466519381,0.41979796599544056,-0.41655689521863465,-0.38177306448808546,0.6660718100214509,-0.5708380014423012,-0.6073341809200088,1.2170453514898079,0.46495298510185007,0.5027920044595865,-0.4185154915589364,0.3714043744945246,-0.3969228291229815,-0.11967422365178973,-0.3149891479504005,-0.43705719527640674,0.20365501347474102,0.2821377460643477,-1.3541238257690018,-1.303963933642855,-1.038049692943581,0.3096546656965357,0.03946704193819024,-1.3232638237969208,-0.373015293799041,-1.036335869513248,0.5248243237753287,-0.7305273596458178,-0.1107721960547776,0.1946749286722064,0.047572375444745234,-0.728763887104968,0.18334866730215174,0.7589932444155734,-0.07908356267395063,0.5727529283037038,-0.06594352907109279,0.13771063883964357,-0.05446223001265538,-0.4383442227305637,0.8933104251528244,0.22087327633933287,-0.031302197531366906,-0.764696895091505,-0.28113141765151306,-0.6318417658874286,0.158144338952093,-0.11437592694967048,0.31854206236066906,-0.14425749821189018,-0.11334100396082267,-0.9792613360992393,-0.5218862270510144,0.18352424395929137,-0.6491266614748765,0.05371793383264767,-0.1490950772796509,-0.7650954258951468,-0.014160670016513091,-0.2551688918597969,0.7386266396163503,-0.38348162504252514,-0.1096352238669018,-0.19437959406115302,0.8977720424716569,-0.6704743273065891,0.579891813395392,0.6563852652106954,-0.38735620435733126,-0.3994874456760886,-0.21969929576692548,-0.6354051478530902,-0.2969671457580281,-0.35446754739905634,0.050931232560839895,-0.6986740418844084,0.43651187686490883,-1.157601196976928,-0.8269852759629936,-0.8387495689243035,-0.19818668749440654,-1.7134213638329572,0.08658638795403385,-0.9777210210075221,0.033790417548245855,-1.1122926436238016,0.5427494229057759,0.4151401178208517,-0.3084366377353324,0.17581784706402107,0.9904732883225118,0.5502711267345759,0.3781056497527898,0.12089146699611733,-0.7251281996553814,0.632635227871632,-0.5097696613009548,-0.0970627454651003,-0.4427585695871512,0.8763321048908761,0.4384956832617036,-0.14193440041072117,-0.6497558896666116,0.2158643272590568,0.6892240771978206,-0.09317226139979608,-0.24426577248343478,-0.45202954890107305,-0.20162975100955566,-0.10639834036688829,0.6430753296483153,-0.4144345621485532,-0.059409986402281574,0.9129959035574766,0.32654882479180797,0.6375775138868148,0.3474093087834977,-0.5527182284630123,0.3449190520853577,0.19098029890699256,0.5571996940160394,0.40454535910141604,-0.8874713999250005,0.4225292833467019,-0.016006895929923326,0.16076296214795072,0.40554769586170814,-0.6207074874006812,0.7055754117729967,0.6269259325275723,0.19629735410983412,-0.14234567402784876,-0.09381040872757537,-0.09711846192656355,1.1564279957763084,0.5260722654566162,0.6016085926261268,0.6423342520421397,0.7158579609428251,-0.07893479707954926,0.0784301618443075,0.38000169704747283,0.8500049267019805,-0.023866840604022194,-0.5457803282832973,0.8180521816221533,0.7172234813219646,0.3868230517999934,0.5546721824671971,0.4455944188647367,0.011995554258411725,-0.9090601319436393,0.4396665300179925,-0.9214379142794755,0.8477942997335555,0.6885805666048948,0.30740144712977063,0.4646201424045549,-0.8913592580503366,-0.03657702065672742,-0.5296158705797187,1.1421246234394202,-0.3411863546138025,0.1575475365873046,0.3118947466656377,-0.6249267520202196,1.218563299895969,0.5300096147446806,1.2871226924696986,-0.6234746876339109,0.6520709472827626,1.0644249005514808,0.14532487328409804,-0.06308977509253764,-0.4822661513535192,0.5260957699997942,-0.08748259415804442,0.3236885732149153,-0.23866972665822495,-0.5373773637977297,0.9886826728450608,-0.2617710936792117,0.9335527246303714,-0.6375818428809226,-0.8420771693350475,0.6590308781257687,0.15001226658996483,0.3077785056214745,0.07651642276001772,1.0001700997543426,-0.45944213809380546,0.2436427666613486,-0.45084834845027366,-0.41751439801643053,0.4304114402047484,-0.33593343929568825,0.16989038154400438,-0.13794052056194098,-0.07208976567009881,0.609365930172816,0.556500772470611,-0.5535826280788214,0.809340366603186,0.8314544825306845,0.7484154841967082,0.1746401627351193,0.04036326908216026,-0.21185482154827784,-0.35023697310702007],[-0.6727223229490902,0.9585916040246225,-0.9891130744131054,-0.31511021940684847,0.31012691228651446,-0.8289489844499258,-0.36278831300536907,0.45245848974343317,0.1932130460069328,-0.6488273293176725,0.22298731832972085,-0.28186010964893526,-0.45001410268180425,-0.3181520781291548,-0.9949715776437577,-0.2538746877741161,-0.6655593237159643,0.5349986034617109,-0.6655389508334226,0.120777476154589,-0.6808102912345957,-0.6957090897527083,-0.49514451939861415,0.033637234547000405,0.6510786650831974,-0.2275561872663332,-0.25084302542433035,-0.03871012407178376,0.0852788338905015,0.4164692530020553,0.9914625651097089,0.4968567209593999,0.44316350070200183,-0.2851877629307956,-0.6092059574650246,-0.8503601463337304,0.3135819895020908,0.5544932719990457,-0.9558419848533083,0.9037844612500395,-0.3809850461135159,-0.7878176492905202,-0.46185914177803844,-0.7136856146630296,0.15958013251252068,0.36385388005961017,0.38446913458981025,0.02983730017721092,0.8147805604556929,-0.260737272651662,0.06385943203803264,-0.13753125615992004,0.7214856976420612,0.7767379962935137,0.8329951937436175,-0.9444174547321811,-0.36965132950149604,-0.9213018210870707,0.5019051397659593,0.18406838797165337,-0.6761028129886779,-0.04545556885723805,-0.4535497165145644,0.29786451213430304,-0.2829992020880133,-0.0523712819326193,0.6178644383897033,-0.32031465404988696,0.7145939132139992,-0.09455678398943819,-0.1798339221935996,-0.0969044213863107,0.6079403396988313,0.6549933789422966,-0.17767949552211465,-0.36237950755717785,0.15326675042533827,0.35722616949290786,0.21584980679909138,0.2769997741369606,0.20957140407024405,0.6571202171925259,-0.19623357768469396,0.04662970246623788,-0.7122152951242484,-0.4847882006923401,0.21554748351972464,0.3781676697850463,-0.08035348116871903,-0.8278921534600941,0.9711013029341481,-0.923053818981162,-0.17875348701786914,-0.23069758144100988,-0.7094745940576993,-0.15015297892233306,-1.0053778480753766,0.2511026553292403,0.19857233319110235,-1.1004866534753683,0.42063556915540334,-1.1456613667770714,0.403536465094942,-0.0073347993054200394,-0.41917120406572517,-1.0104230129400062,0.696053683178658,0.18152545511785562,-0.7554457866905909,-0.1476576464640973,-0.5261408163149665,-0.19905291286832583,-0.07949424928412396,0.097444399923861,-0.8584957947960692,0.08184034309800427,-0.31738423604609717,0.206652577451805,-0.8337949458690329,-0.605030260934274,-0.7237040496792261,-0.7263606315170369,-0.27676274980190746,0.5528502308452382,-0.47201461517405247,-0.49428782345198863,0.6651200553687602,-0.8326726168647777,-0.5083826109498268,-0.9752977539044373,-0.2566572524163237,-0.8269037381991619,-0.5534917156075013,-0.5567284290194725,-0.4251446722051381,0.8269062649013481,0.5941236811641935,0.7822020351881032,0.06308959855028985,-0.8514775394037707,0.3990321655374549,-0.25509839732086115,-0.6306437407316066,-0.08227514797877974,0.9300043253620905,-0.562901452201582,0.6484622731127592,0.39767487951570574,0.25643539965451073,0.0035967413017116098,-0.25244231310524734,-0.6984703133370135,-0.5914716045679375,0.39052572396579394,-0.3482424929257135,-0.6501011055812954,-1.0119901460346048,0.46306998690910145,-0.4855334406580704,0.5640486130180896,0.865502593126035,-0.2705335558803019,-0.310462857622533,-0.4980330544376117,-0.551300364431553,0.16255102991004067,-0.5818648610210708,0.8078261629654663,0.5300572812472768,-0.8837815791827733,-0.1042650422865109,0.9645580437560355,-0.4477004804975576,1.0972860756585474,-0.6082295941989502,0.23344596265161707,-0.5329175034872512,0.5695389789634459,-0.4104717062064197,-0.304666656755669,-0.40200152903238967,-0.5340349511876595,-0.30503566162020895,-0.42394697138429416,-0.8735743226232965,0.04077082946436107,0.07095732817235718,-0.36963324195987046,0.6454048431906869,0.14377186331293335,0.4020668380245339,-0.31576978271288114,1.1469423652030373,0.07653111738608827,0.689345111579277,0.9819115054260974,0.9263974384068866,0.18992020789394823,-0.7860445028240748,-0.20199634976690325,-0.14399305953223054,0.22620502907238682,-0.21885046141070946,0.46123932198877526,-0.35770202204630874,0.8379293819690845,1.2777961448206676,-0.1551528707628152,-0.8571058186962319,-0.7973095197149239,0.5819291399407205,-0.39036180242778346,0.8503693519010749,-0.6863728867049556,0.06272542013501681,-0.22294257646679763,0.45670896972478253,-0.11901886821791348,0.25177839643509714,0.36667411090955526,0.4481216885894228,-0.8297403425670502,0.9321493689662592,0.13441391423650062,0.4011615692629687,0.9918643455262517,-0.13036538777927617,0.8929682174514068,0.7480532693760384,0.9637269913341022,-0.08197840662106044,-0.26309734837848553,-0.37037105610176935,-0.3013501251021963,-0.5238053027412242,0.5271242443568054,0.4976392122322657,-0.6932859255385487,-0.4269961905512074,0.12205620702492098,-0.8690105108480434,0.01043175069017592,-0.043694569771948896,0.4370250882220596,-0.010840782643005248,1.4244812697509528,-0.13897849390128683,-0.2603016400645217,0.27598526882122437,0.23355326679210076,-0.5824435588720022,-0.8079785804686386,-0.7837435218764107,-0.03073342777827846,-0.3604231189013001,0.16824342375133958,-0.021022703065464065,-0.12590520375313088,-0.18671720155137078,0.9632045794371293,0.24920037930023006,-0.6212691151642615,0.41929422931980215,0.22240819489222236,0.23685896765622405,-0.23748933414016468,-0.05927805570888413,0.5300440179997438,-0.025733995123506735,0.23963008446010908,0.3816245104131136,0.04021255279505291,-0.19947693140407374,0.3798914186331344,-0.382877480216692,-0.36248280639219904,1.072207645948697,0.2507084526054712,0.8674793153047052,0.7827083459782956,-0.5896957133942661,0.0531792818210751,0.21346568978440467,-0.11960715238930282,0.3923336764288354,-0.5663479700512322,-0.851491340009192,-0.11441505640463498,-0.19192348945543933,0.8341674764990099,-0.3358294149043876,0.4545747535716831,-0.4192855942076347,-0.5898905754972508,0.05457891156527618,0.5701877360466072,-0.27350829564027485,0.13747332123130535,-0.279345491893167,0.12063317184690606,0.22400843922052752,0.8539712711751267,-0.38789170697813735,0.7141844131633306,0.5065215109398662,0.9197485327868412,-0.9521373728252006,0.459085630933651,-0.6102828602019985,0.12568570201557452,-0.23845377870650517,-0.24108587977927642,0.6500797873907433,0.6070599001399226,0.016740522285193443,0.7668229676168277,0.42601786996729385,0.732859586469339,0.9804553484979689,0.39126941536331705,0.45848097798269455,1.0292009203140322,1.0843725519467602,1.137108444025946,0.11837808091294497,0.7177805628344467,-0.5710689141111428,-0.4244014612305457,0.0674866014115387,-0.5304896981188914,-1.0942600549962271,-0.842127077350748,0.08365467916974809,-0.8962026804942308,0.07695482062130819,0.24761267910083443,-0.904893373689811,0.5314630265335141,-0.7412163353679664,-0.09423554284807115,-0.20080197625509372,0.3820888878576392,-0.2713769034091017,0.1868008637904906,-0.6679763231891006,1.110128658850782,0.8574219692761795,0.08685539124813298,0.9461999361312772,0.9564769045214306,1.258376531622341,1.3810928195763594,1.2604923299596686,0.36645382493234163,1.0643614709771554,-0.6597664343151952,0.5570747166048627,-0.8004911308803555,0.06865774216261745,0.34247893099390997,0.34010218951860194,-0.4139159899172279,-0.5515614815150467,-0.09279861358439179,0.9975457377522867,0.8776139961150227,-0.5169813111973772,0.7223667718614868,-0.3397990750736795,-0.544804390489947,0.1631807762006998,0.9427036046427881,0.6592739966323061,0.8472749919876078,-0.0691111058681024,-0.23294721558876724,1.1077299151943358,0.8344992440303148,0.6170346531453846,0.32426840142911867,0.6896629320572278,1.010638151964112,0.3295617801834198,-0.1176549519089455,0.4948312724071984,-0.16347474815924076,-0.17188811646410163,-0.16315148462932738,-0.6292345436238613,-0.5602701073823942,0.22031573213045744,-0.48710405918447014,-0.5234795065651976,0.4052189651572515,-0.5818060079189473,0.3384837498137388,-0.27635317446231467,0.25474975510828907,-0.20583749156778303,-0.16319960457119198,0.2786708609849703,0.5524424171597269,0.10945853649285375,-0.043639642960237555,0.7009739628266353,0.371468362678049,0.29147951323080984,0.6189461942772009,-0.19232793700335643,1.4340658715235106,-0.40132028649731516,0.13662907733484628,-0.6941471322426309,-0.312367896942909,-0.7354206512379,0.6652307325805087,-1.067545766642075,0.20585079732712755,0.29042134008415016,-0.6707629756121914,0.12103179229211652,0.13347315493748946,0.7567060456693862,-0.46835709126997044,-0.7749508856408439,0.8985483195508978,0.38758929082507415,0.36652166083124255,-0.3335899705390111,-0.9893353951119591,-0.655485138354454,0.02344835927480198,1.3198955140622057,0.20119955927129554,0.6932853023031307,0.7266702701033096,1.0016243302130114,0.24102566380285012,0.6355038335462031,0.7708059839836477,0.3450833754254533,-0.25230625172801563,-0.5085996810622384,0.23593003574736332,-0.47147578391433825,-0.01823409057569738,-0.5549516812402232,-0.5305635752192362,-0.93358599021677,-0.16349242405678577,0.35193016540503175,-0.46573114282506894,0.22287611306633662,-0.37999627681912,-0.20148327474580857,0.4563690481370182,-1.5149490525896536,-1.0017471832086668,-0.9962479017833592,-0.9563757894378192,1.0464510871886097,0.7433466121544597,0.7832516520111148,0.9456956414950956,0.7783631531578787,0.22766100293130262,0.6393960984577968,-0.9805645603413241,-0.3966886989228061,-0.5289155931905319,-0.12096901567152797,0.5499127907177587,-0.7655997526520567,-0.7883329034483623,-0.1289202980633386,0.49665856497459976,0.42033798871816264,0.05474540306333556,0.9244481819193645,0.42189854143462424,0.7192929570767796,-0.8323978958807345,-0.4342498120310993,-1.0223221435193885,-1.004233032635512,-1.2167847085363315,-1.4185564743818073,-0.22423717091596176,-0.13796862400262083,-0.30564365011736316,0.39319107124898683,-0.9267244751845954,0.5723719068995293,-0.44140518874705853,-0.2852050259622953,0.2075245200210185,-0.23042518208450405,0.7906694564280429,-0.8857034100110486,-0.18337365165497535,-0.5531055848520995,0.39288079023454797,0.33638395467748133,-0.9170906723024773,-0.6131082090370296,0.8996979630677963,0.8478605515356205,-0.6532429749552978,-0.6176411842155657,-0.5868234010485238,-0.6091109328567549,-1.2967339977665073,-0.34881390155437414,-0.8524624746383592,-0.9696400355558029,-2.1251516969267974,-0.22927129867963617,0.0011754548559658258,0.44231390744098387,0.30610342392931633,0.22371969588241156,-0.8250870054102392,-0.41982783991595024,0.2691741739954659,-0.14696841603982638,0.16654637122825405,0.786549977715675,-0.7433129462331018,0.6383352193901222,0.10607506726549679,-0.011874884335940613,0.38271680545548364,0.5269356898955879,-0.9926142885804182,-0.6080017231986122,-0.12039242512325866,0.6163103299819082,-0.36528727246930637,0.426611559189813,-0.23150568240828792,0.03148848086152735,-1.4803209801095019,-0.8032924333623985,-1.5415493255985675,-1.2337887642241014,-1.0610305821530919,-0.8587708310854398,0.23427862375020414,-0.04770934526779698,0.31835503390999875,-0.8300523341551643,-0.4876827953304157,0.0019248490531983025,-0.020092926465945876,0.07951042476722182,0.369933835520575,0.33519802539046856,-0.11974792105389195,0.699345450736428,-0.6116500614475333,0.5549238344781848,0.47145816459517,0.016395349705931914,0.4516772680871812,-0.7869077215982058,-0.08530993504416064,-0.18204112199555875,-0.44335970672250924,-0.10550863439715195,-0.18264819827399872,-0.23301510554924967,-0.058033707581827576,-0.8599919957702874,-0.3432277988295439,0.004357162243610605,-0.04540978417808268,-0.42954312129195354,0.4042000522444342,0.5106516316483822,0.8033889636660286,-0.8351138254079732,-0.5877861863935743,0.15131673234994142,-0.13759877424246594,-1.2502540043454315,-0.10910769406020462,-0.16392320289419499,0.6943051382993142,-0.9309176947558425,0.6049884311665562,-0.9128804063488478,-0.3851071144603527,0.9959167368272996,0.032978800051006826,0.2854901685447894,0.6028483053986704,-0.6825457503548915,0.7978698864857927,0.1219405753914364,-0.7680156340000932,-0.5987818950345277,0.011395973080345831,-0.6448746733663416,0.392496474796094,0.22774125154371955,-0.32177316122281735,0.5865337322703018,-0.6269362654608018,-0.6854316277528242,-0.5111375289407866,0.07502699005864995,-0.537688451335146,0.7420602298524381,0.9059111675807523,0.5962863150262495,-0.7695406335773051,-0.4090007508465803,0.05525153478097199,-0.7684026679970465,0.40654502094918943,0.638119954010096,0.8384875301537277,-0.3865908199033531,-0.4324405706378023,-0.7586565440785067,0.5287932900302453,-0.34416853934239366,-0.4842111683556811,0.60593736001186,1.0473935102426188,-0.6826770919524543,-0.15849723413259373,0.5746206204193788,-0.2700683162705817,-0.12048935977699884,-0.7135425746248583,0.697650638146108,0.5327208964994635,0.059911059269816797,-1.1846319136805314,-0.8558345413712108,0.8958316828022961,-0.3124616007749543,-0.10983678432573979,0.09260582558638775,-0.10135842911014814,-0.6043453386372961,0.9120302534095079,0.8429107176638339,-0.1586874819452729,0.4936593389026862,1.0017962606830981,-0.5354165549297173,0.3329885669912558,0.2484474836044085,0.2432720576808473,-0.4663717485886432,-0.1887331997308119,0.898190270288251,0.05063766798967467,0.9140488393063677,0.4149755380890425,1.1659627210103811,-0.13465571884319882,-1.0702904982776633,-0.06490911525406887,0.6146277854856746,-0.6184696189136794,-0.6800641545124277,-0.5630698927983454,-0.6704631697242069,0.9766570808011565,0.4365527277417147,0.26723819872262355,0.9377759634321842,0.53256155231939,-0.09116605734092889,-0.1576594551936487,1.0024403555349404,-0.8766586305512925,0.8407064793430615,-0.5167548096502934,0.8142500260647548,0.9408427841257552,-0.4824857683170213,1.0655137031324933,-0.11970987139208035,0.46970072545605285,0.1901271980335114,0.9187593424049978,-0.556692139600008,-0.5531172496503244,0.17829547329679402,-0.9167034610572159,0.17460194604540324,-0.897227666609504,0.2750698590589906,-0.9980479113325289,-0.3632177300066807,-0.3483105595847007,-0.004128017396587413,-0.5066217456266848,-0.5527572322285049,0.9268300068500105,0.13606201345436525,-0.03760863377217547,0.41073460231956843,-0.3987260169030779,0.10767087747420473,0.29685379530519324,0.06653165373378185,-0.12685951114060443,0.5172508762283221,1.0038146441318228,0.46471135336700325,-0.2647968352798769,0.18967289768003986,-0.7459469855595973,-1.0213729835444294,0.7783239317025308,-0.6074834627762312,-0.08508367237606404,-0.7705238492018526,0.03523260756758998,-0.9541093879639726,0.6610821762740804,0.014105725351388187,0.2468350431899149,-0.14632506171665072,0.032573585447690734,-0.7438549630496156,0.008843145704734545,-0.31665497951187516,0.7532039532391153,-0.5868242837116908,0.27269206508311605,0.062682573800938,-0.5371437820846585,0.8768137041109265,0.2962031980765755,-0.09657021520567366,0.9018190504587644,0.3786415803340504,-0.4775814776018727,-0.9487528972076309,-0.4208024122417097,0.8042599423255923,-0.35738743178872484,0.47383628201959904,-0.30737836948560004,-0.14862928170273454,0.01996017350222376,-0.9150936197997668,0.30175005788507336,-0.31666754083438464,-0.01964552267120956,0.9031833613522837,0.14731432177978254,-0.7373811732652424,-0.7181788349272713,-0.9286402037448931,0.5165830095983603,0.6779434477567506,0.26639008440237644,0.6564474512714684,0.11030208187868533,0.4135223771043448,-0.2403607916587724,-0.5338518190871597,0.478629753577889,-0.8730272128863544,-0.2918016971840348,0.48262865298928315,0.1473518953741507,0.4202764299261692,-0.8161742509967649,0.6176669057303441,-0.2496476157035252,0.009567771987909491,-0.5839643803591489,-0.12268130657538912,-0.01770078617439319,0.9160262285490786,0.5889519387079523],[-0.6175611897554172,-0.5338361515431547,0.05803102590146603,0.2353616724792431,-0.46229701959895353,-0.25443791943819827,-0.031032711388778056,-0.07670752566049854,0.7003753208227224,-0.18808810412497134,0.7801677535142448,-0.19666950316695408,-0.9472066322319344,-0.3948412202311492,-0.8602171673945005,0.33944288689033,0.26332282648402194,0.14666275752671565,0.5687354890726493,-0.12588340726937886,0.743614828764237,-0.8804503360449742,-0.5575017132105478,-0.8152122708799472,-0.5239263948187649,-0.19006156535737628,0.732377867858848,0.7944830710155222,0.8226895197682558,-0.3300372275737413,0.39591879640411975,-0.3430495769175843,-0.3420498839296344,0.4353594795440373,-0.917138491071875,0.06373221172222811,0.3610652589315141,0.11847273230956638,0.2634602108889142,0.17597529635313006,-0.955225910253961,0.0900372092348054,0.8163769950747136,-0.7950955100888164,0.7799380866253628,0.6116464623401333,-0.0775353382489219,-0.7974002397445712,-0.3751084060995197,0.7096525688335588,0.379289374593371,-0.8953980463697272,-0.19359227330292894,0.42525789940661696,0.7944798015643493,-0.7405946700719293,-0.5539797474415642,-0.7654897021843625,0.5605762285482636,-0.38811377502486577,0.7027027219172767,-0.8396042046691057,0.08945380924274852,0.24445747429617837,0.9004819433063427,0.4959080883278777,-0.5177138857963793,0.1442335642650218,0.49912772711380426,0.36360138634199934,0.30154550320803725,-0.5526291733668851,1.0311459709780784,0.8406966941311018,0.0032634480171497655,0.4983110121551574,-0.9473763068575592,-0.13042802989223845,0.4552587299078835,0.32224482390087794,0.05066455065768045,-0.7357979746195706,0.5356761848145919,-0.7791869136319323,0.7080124634293057,0.987396236621404,-0.008589194752794516,0.9525794657868695,-0.27179736628613194,-0.7429632846617803,0.4148813483883686,-0.7498335845820414,-0.23952878426712323,-0.34824737800004246,0.14477487833945651,0.731960875553859,-0.6631587461171803,0.28482022475832147,0.8755998185478896,0.7550677623365931,0.8002682956930736,-0.061866507284389034,0.7742490419925604,0.032007788895461645,0.43239246826820416,0.42911954422017773,0.16525999888010726,0.6501488692148423,0.38942996911531425,0.7088532977013094,-0.4123428173870984,-0.3112066784819132,0.0493702215229328,-0.19972299679382466,0.47833018604432054,0.4866734092408067,0.06159304169581039,0.8800048760193488,0.5911853646179729,0.3879242949366327,0.2617819887063305,0.7016844472514844,-0.4586715840212513,0.8883634975776578,-0.33428361700371906,0.2227299085627255,-0.18317974526589098,0.2408231220468964,1.0347478596374153,-0.3198688261948365,-0.32015889407422765,-0.7616073505343592,0.31913738732287866,0.6678422831422697,-0.5358867061375577,-0.6110390151602934,0.026212831258539553,0.33671895479204045,0.9471193418498405,-0.4060752262078459,-0.9258839657872233,-0.495346871559305,0.7283388013953843,0.5003798145221402,-0.489044177893675,-0.4961555340259573,0.21182129041594677,0.5134963698153312,-0.6465577165498291,0.43754832068770994,-0.4586991572623221,0.38143047897120774,0.8203910059068487,-0.7376733830449469,0.43525051080115534,-0.222597735918938,0.34346497706888096,-0.48386991560789694,0.18230811511850104,0.47661402213569953,-0.46282594959833184,-0.6476165725284618,-0.8635127578721977,-0.38458223607429326,-0.46251484443911717,-0.7890593948681156,-0.11562423127661603,-0.13916041214660604,0.5884284698376707,-0.6331636055239528,-0.4827965999225668,0.023188836459691567,-0.4113451345035987,0.5259464286925659,0.23639852999490207,0.11186675113185057,0.6181183652752521,-0.6692767519818071,0.1475605614261149,0.7001981139361859,0.5045054507653305,0.8819209605139726,0.9874097605805193,0.25266337053085464,0.3212615916974867,-0.1528228458293588,0.700348228612007,-0.5579381421592992,-0.6633006454670765,0.6283288740175323,-0.5298012525372399,-0.6188692785155759,0.5683331977872659,0.5082959546721736,-0.9226034135080988,0.5450159728409241,0.1520762758398186,0.2019043094897463,-0.8686678353485685,0.24989836935648085,-0.47384892799742256,-0.1378161490849837,-0.07639215461187113,-0.009459289202973838,0.590320297712169,0.13167296074433285,0.4327860729302419,0.1775300948837803,0.5445355189636758,-0.5689934635728592,1.2257032088775404,0.6003716498038867,0.39027840146488835,0.8504917223599329,-0.415042209739119,0.9316644175987661,-0.3637182428038128,0.8357054575307654,-0.6911021124297082,-0.1238038478991756,0.8097846774361106,-0.7222168323074153,-0.3134189117323721,0.602558403593963,-0.019833860094542098,0.27942666838738234,0.7212852124319518,-0.527405243373462,-0.09228285230564194,0.0861792150957893,-0.3177391260864901,-0.11157976611058992,-0.06911016224743344,0.5256768196755727,0.7538901450948264,0.2587821472823021,0.70544467458103,0.818692375141483,0.2757986752632788,0.7387379739634271,1.2728000477620967,-0.44260246916730495,0.9246860635822705,-0.8428174388541417,0.679874821067044,0.09119231014774554,0.036437433646551685,0.12337097591565845,-0.8352363492391278,-0.3676692460177364,-0.3110430937523686,-0.5271602279296506,-0.6477706573123966,0.4072351589508211,-0.6985380025786484,0.9867320538004544,-0.3937713049125669,-0.3747129139208459,1.011659713519389,0.8534585809127992,0.47346808988012107,0.30030275689646363,0.8209966727341217,0.6809497894202726,0.44024685258138846,1.1933603313085408,0.36232184760408337,1.35955377923676,0.3327454575052213,-0.358165472104801,0.03711448271649263,0.5941745300533791,-0.2959463352166615,-0.5484104851915301,0.31434123401618475,-0.11136283095716448,0.6846208921103302,-0.031135198991685376,0.08911608687840898,0.11634108009806558,0.4230678432418493,0.6273174137147091,-0.5308752386278789,0.7123639905032217,0.6161113683936525,-0.7493906094324918,0.5923008720923251,-0.25717007015381305,-0.30870825320089673,0.872435098131391,0.4205710199653563,0.25246681733703397,-0.4071502804373612,-0.001110992258362445,1.4284429828373555,0.37133023042179286,0.11584905107164774,0.652769943844331,0.39922121701887675,-0.2140296644989912,0.016031620576597648,0.5462720735397582,0.258771150972976,-0.5071212596220992,0.03545064142219907,0.5127389368388084,0.8018555292991683,-0.07055857675394561,-0.20336321535055074,-0.8870497026178623,-0.42728981933612403,-0.8795796798293143,0.38499034696194767,0.3611282793147371,0.34305183810732226,0.12370173149884482,0.9796033187651876,-0.17884355515494135,-1.278076637133356,-0.3556128934843801,0.39658779073668227,1.1013668548578102,1.3878129017791447,0.5464546888046613,-0.4981880797845801,-0.46642065796226434,-0.641419728545637,0.48177340306689453,0.2234781603396989,0.7890715389170598,0.6408411073498967,-0.12213422327139442,0.9682180452271238,-0.058759641537756806,-0.30118649170217127,-0.07139175550528191,-0.8279726923656472,0.19925079612050792,0.7564143348463301,-0.3674746709276546,-0.1627203946677644,0.9577913758135189,-0.49214988660392983,-0.24070758297687112,0.01589158276766376,0.34330972869884757,-0.22955004559657566,-0.45483611883626474,-0.9065204766251448,0.13225171623387538,0.7808690418820979,0.5309481933772948,-0.015723828693970272,-0.39314393455482666,-0.025332312791574486,-0.768007733360107,-0.7093995069520062,0.3460101088688053,0.9394871944505305,0.7154489889435599,-0.7894078614711971,-0.17150750866302644,-0.3748078188104007,0.07015758806453068,-0.012604399307289738,0.2670776983997641,-0.4030350119109651,0.5231678193156523,0.7502870487577423,-0.14070581271361607,0.1918293630355752,0.603746122961257,-0.7216137278051248,-1.3754946760406106,-0.5823464765590181,-1.1788569648705558,-0.6258868766051843,1.179110982644018,0.9770311932772389,-1.0919042637041563,-0.42957762938060956,-0.9078785937681383,-0.02128479764427186,0.7005599057813464,-0.5936375004618932,-0.8476282871787101,-0.4044812050144695,1.0030939206072835,-0.15847228070175254,0.0833069266288335,0.2285700157612442,0.25649362388215957,0.5712787887239691,-0.1788642728519791,0.804976003752497,-0.4003247721947801,0.02153420282422257,0.19498631465980992,-0.7133202560355214,-0.36279629321181833,-0.7836350922694021,-0.2431925553874161,-0.3539565628843198,-0.7137982314290785,-0.7051471549413937,-0.5731387130808848,0.8290832288213298,-0.0644290006670539,0.05735599451337984,0.18631016069483874,-0.9115479807162976,-0.05538122948991834,-0.9025892621666632,-0.07737083131504024,-0.5466924520501785,0.3392630988518782,0.004753967195221312,0.15765526460725254,1.0110694480036866,0.9110152544753323,-0.703510368122231,0.7958467761810631,-0.2369427108366536,-0.566267840367224,-0.04008538308807483,-0.46076071475600855,-0.7225139002739251,-0.036362082947898146,-0.9757043011494735,-1.0085235237480685,-0.4730627039132191,-0.3703479580310501,0.49468260736579917,-0.30706357476995316,-0.0839458660712408,-0.3942710454688224,-0.48636122989333125,-0.7880407501079447,0.7060226710145641,0.007928591502634794,-0.9006507604885617,-0.6828350285104733,0.28100057717725774,0.6481911013553993,0.011755206658008383,0.7068404998591435,0.4608111223896053,-0.008202733599488329,-0.32399981682171797,-0.2747659931967431,-0.33409530543055255,0.8174802566287677,-0.7568806030502768,0.12214738698327782,-0.26619542884261677,-0.049286258314010886,-0.6538050321041653,0.43625091024805374,-0.488973096414608,0.018513442855192536,-0.3820339782074691,0.5766892826311409,-0.6021633613112367,-0.8382388134327435,-0.206634851362959,-0.3960447726450283,-0.5904766158840873,-0.09984472166503013,0.10209798896412071,0.0074075151763510405,0.6733752315406841,0.18725868548665675,-0.44362035444507414,-0.2786677305796974,-0.7870587099535319,0.7387750297994511,0.22037299954867473,-0.8051056827363355,-0.5606469453007814,0.37634061293622934,-0.16691350202079056,0.6416800146870612,-0.6873926380410237,-0.48245043786629455,0.3264292251125837,-0.9781273861574159,-0.7837590384989152,0.10892994530898494,-0.038864229507687274,-1.0713354935560044,-0.056599504510575736,-0.02316300870682155,-0.9740472180622661,0.3131007021103199,-0.6995000763133772,-0.03379574553748375,0.49464688224413883,0.6840502784496666,-0.09574945301965135,-0.38452301935860744,1.0686863979560923,-0.49435615984066794,-0.3735242510136532,0.08879127791286551,-0.9490996402433347,0.9608209144794131,0.8026565959182245,0.7783029810226134,0.5052422395972047,-0.22661086482777912,0.19134982011745716,-0.3039321164781262,0.4092757824162228,0.05548823455225215,-0.6279892024022453,0.34093316331598134,0.4047721087945582,-0.28639404839652854,-0.7263812269924946,-0.15700962645649266,0.46323685500820505,0.06033250802409201,1.0326029633507992,0.1730487452030629,0.6673200140240019,-0.05976524400128757,0.6181921401301221,-0.6281769403979337,0.5074453496927042,0.7328752820554991,-0.8174849047226469,-0.8223922427218919,-0.025237397435072584,-0.673136960202001,-0.38098531828628635,0.5556587437380393,0.9557349993495478,0.5714759793115327,0.6355783525605482,0.7573369585426216,0.39631553362884997,1.203357950334036,1.0396967956642076,0.5860256439635225,1.0542442376582692,-0.6147372774526976,0.05004664871079149,0.0560278089791785,-1.0058341425721808,0.6953407726329867,-0.01316655876372082,0.8019655613293405,0.7140532912781901,0.8218180670656013,0.833756502866277,1.1684772046069318,0.25414435470096686,-0.7419681669525127,-0.1130900892528824,0.47304143477076066,-0.8493373586215629,-0.8370947296624452,0.04834275172628469,0.12421530364820074,0.8308107228408499,1.105579071414432,0.37622513902645605,0.8814955044073234,0.600042877970961,0.5949653710970524,1.2154094720491688,0.36723872265567564,0.5174767006552844,0.8304907386143923,0.1613295756430454,0.4990405798839366,0.2623730665555389,0.2893145669665974,0.5304934098151596,-0.24073779607722248,-0.4375472457279652,-0.0021986203417053455,0.07107067482844003,0.29400330364825344,0.009678725828751114,-0.5069866429599574,-0.3221208626152635,-0.34934410850252506,-0.4078498913658871,-0.8481087742899596,-0.09981773945373482,0.07463981092730247,0.9214114963650879,-0.0036875720940129715,1.0615574934105092,0.888595901700338,0.6864099709829684,0.25233529634141605,0.6314151043707606,0.35176932861599514,1.2318091198942231,0.7331378286759567,-0.1413643388917687,0.6667068755607035,0.37376620154889784,0.3817044442113283,0.19170476605471218,0.7766774944094337,-0.07230735176703526,-0.47288629770034085,-0.16376485795343323,0.4770415362086448,0.3764734995420712,0.7083387945089425,-0.1786279445069378,-0.8715081606434246,-0.9140274420902035,-0.1915134849121135,0.592062982290505,-0.3395194473606834,-0.9242651095423786,0.9560052657202932,-0.38748368883111933,-0.39663737335115734,0.6562673992908624,0.3426642807226376,0.10314443030522571,-0.3774295171621577,0.43468110684637784,0.6978923007176484,0.6036049408334934,-0.4574149302915788,0.4486926466446853,-0.08204106277367143,0.061109666548239364,0.4960243000307855,0.6746941466481218,-0.2832694570872974,0.03876339355373629,0.6313446696569317,0.026686462775328636,-0.13807490156452826,-0.5810509244249351,0.8102339682262684,0.2609917578307912,-0.12081003686230285,-0.18776217221999048,0.9105623374475594,-0.10036193770881428,1.0112789795205763,0.3692270295619738,0.7505476944371998,-0.11076278602965982,1.036540190596405,0.6256808584597255,0.6566293590306055,0.569798093784638,0.5589687120588304,-0.28887247642021635,0.6488318684026448,-0.6390368161375649,-0.0016532024848323879,-0.9047755776002473,-1.1329614624116855,0.6062341334358767,0.2963239872391549,0.5822828183529988,0.8643586876645835,-0.4291419529984967,0.8530792567519941,0.24734391010398457,-0.27982761667944156,0.7647471653285043,-0.33990996736224655,0.44989848373607794,-0.2590318183415678,0.32323750689761577,0.27410329001691525,0.9373366192040038,-0.959833971690932,0.7027358232547808,-0.6705472062312238,0.045544132014393085,0.45901563632263764,-0.22240274549465625,-0.28433482380077924,0.27935691900096554,0.23323117854652048,-0.20889389519728765,0.31317147330026046,0.4978385528656517,0.031513186849454006,-0.7295815036338924,-0.8345228403571895,0.1876409361396302,0.42180083497970255,-0.13158117115205364,0.48567989834487996,-0.34363889669759184,-0.42679943260177744,-0.38516564223651195,-0.015822248411433426,-0.6626119831394435,-0.27490821033374513,-0.44677868271126886,0.20718984872459964,-0.8033877759721542,-0.20742465674370342,0.6475888679911261,-0.18580928196691102,0.3261440648765376,0.2669205203033048,0.3871240775980318,1.0110200458407974,1.11601957858588,0.4945618208133421,0.21650643821017146,0.41265918095662385,0.04907232115647601,1.2255044364032155,0.892285234825543,0.871939138303555,-0.36327706464042875,0.3077833512742847,-0.6163645326464519,0.9848717930990216,-0.27616973141945295,0.01090940033910659,-0.8570402175824441,0.6253983048415284,-0.6875136913007847,0.5466290305269264,-0.5036272338605491,0.921236473183357,-0.18394331862423682,0.6340917664762102,0.21590959656043576,-0.462558659635236,-0.1849575422868003,-0.5849603705033013,1.0106897968961515,-0.06605887127988369,-0.4364423625686646,0.8045507503666163,1.1214749705252487,0.795890926378438,-0.7589029622194999,-0.0040626027031495345,0.3897809962467864,-0.3985396892150476,-0.10338955379297114,0.164370403605635,0.3012654031298547,0.8491479991007931,0.18113535014401294,-0.933784497336533,-0.4712571883308345,-0.7777242078020821,0.1571012298554928,-0.9344806985399676,-0.29558314068042013,-0.9417888592471602,0.9441071865410862,-0.5139767211991337,-0.2992066091488259,0.16782652291424402,0.6166542740117383,-0.012364163533030572,-0.3466699329656799,-0.10491687401511991,-0.39710944146932436,-0.9478339355391262,0.7759674110359517,0.6757531184100272,0.4811207952133654,-0.5765539985867478,0.31103879090555037,0.5380570049918907,0.7329371477620559,0.38402279829130337,-0.7153156017943056,0.8053906129972708,-0.7615978121306657,-0.09665750332961731],[0.07539294147175157,-0.6335163617172974,0.05560473002426458,0.6709325456490309,-0.2226004583019221,-0.5528163254400533,-0.38090395196945526,0.04735069184841789,0.7555609872373084,0.3707897725247664,-0.5376262087563821,0.7155988833799176,0.6564418009607254,0.419137335266366,-0.28172135023637407,0.5668593834677655,-0.8165249329107604,0.6955709574497064,0.6141259004541333,-0.2041611590718262,-0.4070660422926684,0.8502725801654725,-0.5732627376993482,0.10995334091394438,0.787388076080888,-0.6931348566938418,-0.9070829674733123,-0.5218470449104899,0.8055725976613353,0.1975609742309994,-0.7692144414934547,0.7220691402169741,0.7593087742018088,0.10903277864135863,-0.5559745602522408,0.08699127928457209,-0.8781979409011139,0.19598621097024643,0.8256371175224174,-0.1307752167843381,0.768800409660722,-0.5621415155995002,-0.021401487453098115,0.89754099445962,0.4370550813556933,-0.3904213964739712,-0.0923568210116525,-0.9109556116393615,0.8788097946015961,0.05797002327820743,-0.8083682306608485,0.011432233432551054,-0.5793405714163025,0.484390686864256,-0.7633696777618688,0.6618235272098945,0.264620557485292,0.7627052265296832,0.1207938508956452,-0.33738336442483696,-0.6045092433359526,0.09147508581087382,0.7045372013765959,-0.7264020221947257,-0.8250326615291688,-0.22375263518100125,0.20134433631873402,-0.6298381226034158,0.7454660360950096,0.28206138221107957,-0.635565523722749,-0.8637930104997823,-0.4625272378164123,-0.3551683034738327,-0.5188498088608243,-0.1807394523914051,-0.6075095805258072,-0.24439281377483169,-0.4057428080084947,0.04106983679277605,-0.8371977437588711,-0.12018062030212602,-0.5347011255920819,0.25047904518065045,-0.07441861193038157,-0.22454616623433377,-0.5317961306295145,-0.5391528965656337,-0.6411734612559946,0.023158607614183882,0.6482099220934082,-0.4948195921583732,-0.3585550579620211,-0.060609232917115584,0.2727302429337604,0.04800270241456918,-0.00757170137632341,-0.16811722042166766,-0.8498012952251129,0.6075180814689726,0.41323447790811835,0.06346245457315364,0.6477591899303633,0.2670555850336053,0.3699470746545162,0.3805197514744794,0.4255097424311272,0.14351665971674063,0.4425049601040892,0.7739361360698531,0.4811233546107615,-0.27040805629326425,0.4835763954079091,0.2019413669088917,-0.826988640154674,0.578249095266965,-0.6563103094007443,0.17244373819023348,-0.6789510761866887,0.5701861193814072,-0.06650035475608286,1.0920159502420428,0.003509753420963268,-0.8706772276959271,-0.3316356149505617,0.1167369231258409,-0.19770001415166905,-0.059699532389670525,0.4840082971197292,0.4165879047812621,0.17513547450373237,0.372265042772966,0.046152447468312235,-0.127920594557119,-0.4078444863896721,0.1376987056843012,0.25977803398247773,-0.6045362493005793,-0.9544211388111628,0.5986877448641977,-0.5680996552892819,0.6816207814324748,0.13496816404995884,-0.3283432529747056,0.7396595516122434,0.0716567416532085,-0.5042378700492262,0.5395396536905412,-0.6251063281837561,0.9424217363655745,0.6980323439247661,0.6518253496583254,0.8794521101200266,0.5070681544270405,1.410324405197467,1.2608478447230753,1.1590663702775872,0.8471988302390098,0.7684859885977162,0.24200936878772866,-0.7284364918235862,0.42719403680432166,-0.2563206076159852,-0.6546883153650637,0.418563691980937,0.9669678581506964,-0.04308383483026638,0.9814516815456144,0.6776266713938501,-0.5241975761973372,-0.21145575428600646,-0.22103345943230554,0.30160643691382677,-0.16587805354967802,0.3538717003980127,0.04743023742727923,1.036987990102284,0.008857572863463732,0.33033284938405644,0.3979585135584336,0.6227965010610064,0.6985361123829344,-0.48192269277880045,-0.04933374493899368,0.6537021177280533,1.3511445061518537,0.321882978010923,-0.6118528062889705,0.753432625776753,-0.635923365595038,0.5304018243003644,-0.05650781469634692,0.8474577824556997,0.7845505664992038,-0.39888817201530563,-0.1303599631877958,-0.9207465466878353,-0.9308727858855806,-0.5320176160442728,-0.2449942132438244,0.6117102971512994,0.3157850779422314,-0.42407028909047395,0.7528544519397138,0.7252544797373118,-0.11675893090048695,0.3881760628832111,-0.47873459530344625,0.03734126792015214,0.25935939523318124,-0.808826804628166,-0.2714651840237279,-0.8646265538695082,-0.7029760283304828,0.18515462199587646,0.3544145341350955,-0.16434078835290133,0.13936968404720357,0.8157415127608308,0.12721669848318917,1.4666732921396595,-0.646502920139697,-0.06785075854957878,0.24924295847900346,0.0540495000522629,-0.4058820985939106,-0.02696338522787458,0.28988022718012857,-0.5055577324294515,-0.5930620138914582,-0.1346506964974431,0.7674058104208317,0.9682307363027756,0.1708964722588309,0.8872228270495017,-0.39119352128058416,-0.7940313145347918,-0.8850207167236726,-0.4731234999772805,-0.6601021494211273,-0.19907382336403479,-0.2711180997495058,-0.8592210326960559,0.8769509966277341,-0.20213476123746357,0.6778642153111584,1.2941667682364104,0.2297170421356694,1.3405473584119976,0.9403738945442947,-0.8832923436976637,0.9705721300823861,0.6411284113864795,0.4417895638319149,-0.08867907893342028,-0.04561982919679349,0.4585414938538124,-0.577423573742253,-0.37847930188374684,-0.47934860603438056,0.0526094206704653,0.48763983207824774,-0.35313047854713087,-0.1168327176454558,-0.3392280299048866,-0.20456571652530262,-1.4338745023428099,-0.9605381653205587,-0.1288862611996435,-0.5728603608319728,-0.805830857079291,-0.6538226951693341,0.21800593074936409,0.06192667882444291,1.7317929212379266,0.41137864971736515,0.38873931091636965,0.7520280501774593,1.018211988878101,0.09507813463377635,0.25491072214066696,0.9422043903141449,0.2111036729169802,0.34906664734952914,-0.26833931333744965,0.03021406903062446,-0.22618109300942804,-0.6285978319189094,-0.7207834594248194,0.12545122853321672,0.2931115035818465,0.21247056608416667,-0.1317892503881783,-0.5215150214128241,-0.8180893046949452,-0.6972191853920433,-1.5239985945604706,-0.19341021213065696,0.5751542598369788,-0.12725448321351585,0.22220575105001003,0.5757876789137122,-0.3517995268800756,1.486695699775174,-0.07291074164784639,0.027091672124967634,-0.6314604604659811,0.6207037216915148,-0.10351458904111627,-0.2592156750727957,0.09231738957577049,-0.16137959804175417,0.345551182096806,-0.764034059530924,-0.8466465553067654,-1.1276675430568193,-1.0354508636639739,-0.24068980164579978,0.03036603834434009,0.11025674191595959,-0.09905442937672092,0.49140108379334574,-1.8126125939005444,-0.9274505234833009,-0.2331547990391252,-0.7436688509833916,-0.35803358556280596,-1.0928299390868592,-0.3872405686748765,-0.32637769210507517,0.678959635122245,-0.6469454726318362,-0.44516504945360863,1.0131037705273909,-0.7578943901064542,0.9355827758644766,-0.5851826974175107,0.18852370849662078,0.7059566882060537,-1.1788108593037885,-0.8009988492972808,0.6014001844816179,-0.9463681121697394,0.42056344566580495,0.15230150859817762,-0.6506186978361319,-0.4144220801429661,1.0547237172667938,1.36546911475023,0.37680942008279816,-1.2700276352407016,-1.0651435882585758,-0.33017015542784756,-0.17554797444885212,-1.2425207022085423,-0.49289391068442234,-0.6042820482265713,-0.42055881040107285,0.03539644374566508,0.9962615279320467,1.177850522836906,-0.8485760559151246,-0.4715629018023278,0.07448788824315564,-0.2691076191531734,-0.24795663771852125,0.8700104083957906,-0.7992255216018612,-0.9338076228498322,-0.924872310615671,-0.04829788012011399,0.12144931616023316,0.39884570404263814,0.7955906392539264,0.571250181880384,1.4146115741571061,0.8577459462154822,0.29084612399228316,-1.3199898208523813,-1.064585561158746,-0.34589768820265554,0.17817919347013533,-1.418881889425574,-1.3493730625417963,-0.11502948264838632,-0.6146695234702904,0.8022514508990329,-0.14844801012842093,-0.024112236111798437,-0.17385355278207507,-0.14397686960344583,-0.5277571863219864,-0.23527158611194865,-0.6402727289843139,0.9090436697760808,-0.053441066570654845,0.15255787061323867,-0.5925647780123144,-0.24237492180647952,0.14391074461814604,0.13900423685381716,0.5182113150449992,0.9583751188379577,0.833323591439264,1.836972382627606,0.063428200756695,-0.8142148221378549,-0.45817173974573994,-0.1895334399816746,-0.9069878128888517,-0.7205048117147369,-0.25161423477957773,0.3569688631218322,0.6012783135425834,1.041442291855523,-0.5580896055686028,0.885319084218548,-0.6394345567616516,0.7086620453987454,-0.8462872676083896,-0.5674617328253035,-0.4658334840788839,0.6704080074864521,0.5281537846430545,0.5959902133903084,-0.2777297887944144,0.48803869498801833,-0.5910618849370226,0.2647283777573431,-0.4283874270211523,0.9565655273188494,0.9859977997282835,-0.043147255590525686,0.3337609444171914,-0.24174776176602067,0.05923906573098414,-0.3322851406386401,0.5360684591867526,0.5950237213976908,-0.3140554501786716,-0.13349088413470506,-0.5899875468421281,1.2552336410269378,-0.486489483776378,0.01146393884340806,-0.22252425073525223,-0.33995541810864993,0.4391608615522922,0.6804524163103545,-0.20974125301806162,-0.5943923127035434,-0.5534334276570034,-0.8890394265072203,0.014694302511149952,1.191653519654835,0.6665859551125226,0.5241251868820853,0.9571214981935748,0.2770797133264363,0.5116945747663694,0.4125095257482956,0.1578846625044476,-0.15010705670976665,-0.1857321285660125,-0.19363665743663985,-0.5462885488009487,0.33890066442910227,-0.36519376968367234,0.9024594658716988,1.1973975083387558,-0.07375422681659376,0.8469916864879118,1.0857635578142113,-0.15621917449318928,-0.5214795035860292,0.8309437955014213,0.9233818107904115,-0.3215032758383402,-0.37997652360509154,0.3420954099938522,1.016630344142042,0.3349263340624132,-0.5411066875260013,-0.14567756216988628,0.6920839058494124,-0.1672032229713467,-0.5902243726057693,-0.5037513413648983,-0.7058933526579823,-0.5148522612574036,-0.1571836069532938,0.5130620833327075,0.17264630108638063,0.4610576912199655,0.6260326305783981,0.6809313836956348,0.044784866726756856,-0.4786917903367419,0.3084821731326587,0.2503855293675042,0.5547138752289048,0.6889861982676002,-0.24465969605937551,0.25502631277475685,0.4175597047498379,0.9521989044991395,-0.24193785643476126,-0.3888384994809274,0.8568392897184547,0.31651607802912485,0.7773476998978899,1.4631299140569132,0.7142749625605528,0.4667496057659428,0.06786004193399231,0.5741494783370329,0.6867431878941451,-0.7285705948398142,-0.40034270001161015,0.5794016290448871,0.9794282281381769,1.369783643675295,-0.04696324314745196,0.7728973861090885,0.8298616446124357,1.3156228434304706,1.2281242202901073,0.08421974288477889,0.6402269891121665,0.8110669441353064,0.144505400965796,0.5317013967013677,0.7316612571444263,0.9770683174667627,-0.6130123466397207,0.42227507163543926,0.3723539083485842,0.9806091860796141,1.2679546572678337,-0.17723584531076736,0.9653610344994134,0.719763461061056,0.011335215473205963,0.7156297318471813,-0.7859473890099031,-0.22364379069583248,-0.1883658611741692,-0.0661618889398418,1.2999707103444982,0.012025918575428677,1.0357366216898367,0.17518260053973383,1.2356219397650718,1.5867564318930187,0.2089102550959099,0.02158114639637237,-0.5738532428419654,-0.7540633255238065,-0.6067661314950538,0.7043022965915169,0.5218180162266874,-0.7936837688971611,0.08152723093812257,-0.2060315980515366,0.5325526664866276,0.46221491812438875,0.13910206288874652,1.7769593197719853,0.19736777761064983,-0.4139064656571988,0.43767652897728027,1.161274225936696,-0.05973239877478566,-0.006041598580236479,0.022306517956173968,0.6137341338138459,1.1333902166692267,0.42810957972934893,1.6029114367925608,1.1846118956282825,0.48476422060580965,0.3984607019688417,1.0735741010845936,1.0580566091695476,-0.08057664603332301,-0.0246340469567348,0.661728355329642,0.9174306877327129,0.7937998127944172,-0.824937284110256,0.11266170700149127,0.6794840052969078,1.1101614754020208,0.012142255795119504,0.7273450386142247,1.5648919970757798,0.3015060399543982,0.21401557164091473,-0.16129299268762798,-0.08888499772342959,0.8528179440828636,-0.2944066667852287,0.6084213984956617,0.7263206360730603,-0.280153836122663,0.9056991878820668,0.6485788403216389,1.065757344527444,-0.17428736723273888,0.7407132322087163,-0.07837856673982646,0.30194369367164253,0.3366813040302586,0.9689995363534505,0.22669021194419242,0.07460734021612514,-0.8380044210708825,0.08902019421394831,-0.8399447765221186,0.7076134693707629,-0.28322570114159956,-0.20509106049158707,-0.0021081749044943796,0.8292834215412825,-0.39654901044842916,0.5112693391150364,0.690567750000056,0.65491281916808,0.8777558808478628,0.026895907825601126,0.4529915174839301,0.39266100456963293,-0.11974057234157068,0.20977670635839937,1.1454726739166374,0.8239493055052822,0.04389793055238871,0.7675587914633691,0.2614477084331967,0.5712015460160837,0.47481814720387605,0.0014982443026797148,0.3203269201904672,0.1643796025992903,0.12136445881473068,0.45992718420900913,-0.007096882247818316,0.756526986200576,0.6289213546497063,1.1377537204896626,-0.40435379849283115,-0.4352024171136284,0.16291560804973956,0.09400721172233535,0.6637948427276804,1.1494385028770189,1.5435567340222913,0.6589628728308143,1.0332389651990748,0.7109078759805864,-0.4172536414764227,0.003523844168568692,-0.32213055868479834,0.6457614688287819,0.37526371724203417,-0.6802327805114153,-0.8848090317771945,-0.3721975975436877,0.9345305247213407,-0.5406206980231056,-0.23803606897257204,0.3754644852782356,0.09784788410217882,0.8319043218530691,0.21811518273539032,-0.7338302143028514,-0.5991616500803073,0.1972153663997007,-0.19366080488804005,-0.044067622545708285,0.4906524915539704,0.4108719537022218,0.7558625174949885,0.0693860049883396,0.4243494685102729,1.5395602639799817,0.024601711497450114,0.44221937922076743,0.36155914772257736,-0.03249626673315664,0.44938836051513786,-0.7322343876951761,-0.2592781395791497,0.07560130875878689,0.643389848936886,0.9160610880582037,-0.6307653971214692,0.20285039124747192,-0.3222050174226606,0.5649315102689938,-0.26119930097533106,0.5920956362436187,-0.7480500594704554,0.15113963263663463,0.9894195567476451,-0.6059846235815364,-0.7319256395688732,-0.4542203701619119,0.02450332873178333,-0.957114767833027,-1.1857679118736788,-0.19800819181005258,-0.3328792493043212,-1.4909883900444991,-0.4233478132132075,-0.8352137624408842,0.08964016875748311,-1.376371517520364,-1.4895471173190138,0.03038355128306122,-0.22624666178118247,-1.0732986067276677,-0.5865280486222851,0.7814598204739273,-0.8540743858526753,0.4265656006768668,-0.8913634705612253,-0.7601006955779823,0.7562243838844,-0.06256436247497166,-0.8206064812543274,-0.42746270737646785,0.2527821680908902,-0.7577065690724962,-0.7515339090013701,-0.7859177876279365,0.738247604915284,-1.1507594884393457,0.05600946891209137,-1.092086415139424,-0.28987481564490974,-0.25697846502523103,-0.3857673035181819,0.44382440713558613,0.020071390489912282,0.3804072533506843,0.43295871960977117,0.1671000841000126,0.1730648838949497,-0.9544399869173212,0.9770088754336672,0.641847579169931,-0.02522636454936067,-0.14066513955090576,0.7637986831144259,-0.6162757764081943,-0.6805855733212962,-0.001032072338033263,-0.391989575907117,0.15365327391084072,-0.7085775432270809,-0.5282614464525668,0.3859955578894327,0.4868776390537129,-0.5505253758754962,0.09940172887359791,-0.9723772638530178,-0.39720174112523704,0.5019403469062008,0.256346442621207,-0.15754213211362394,0.16793694847350304,0.3939374339761912,0.03891338192806626,-0.8013406168854198,0.9613002870633246,0.8234009154359747,-0.09894719471086286,-0.42966213596124947,0.18741558619129947,-0.7973506012308147,-0.5638019866937345,0.5253890000563752,0.7422032230992441],[0.4714627628059216,-0.6015094270262284,-0.35749811063086234,0.6276750213344138,0.7291364460343599,0.03932981305560479,-0.34109071167932314,-0.6480526321655056,0.7012835878102761,-0.2683701391807576,-0.6583190071977134,0.019656239643528473,0.2411992920831498,0.11490752974020157,-0.06635259500256888,-0.23296334537836805,0.16662983569006196,-0.4645131863834957,-0.6942754909016238,-0.4038063570514343,0.518775749262189,-0.9128502795071516,0.6315758932468041,0.10488429077686479,-0.6672911372981478,0.21962583218866527,0.6325751237903343,0.7131138743578902,0.30251342886826915,0.5830586927330832,0.23099683253856318,-0.045238875877674944,0.5553973994703083,-0.7900352356284333,-0.7188449241504369,0.952481707044873,0.7603581747258775,-0.5393255829038205,-0.12311540192847806,-0.5893456450067321,0.1769338345038921,0.3898403537427996,-0.939974202614053,0.2593691243839304,-0.053201582660875824,0.4577552533075322,-0.7386742931060479,-0.6614923679482159,-0.567135072602946,-0.39897859248577855,-0.0612725744727375,-0.4944425943728951,0.2929046230730026,0.41311593824704573,-0.10143241853298957,0.06655287225619455,-0.6808048653144472,-0.6427472388232314,-0.9833575009962465,0.0032911944774032253,0.7948309683490407,-0.1558256275905374,0.2663061170962439,-0.1859155978878601,-0.5590872882106533,0.3825224500651403,0.36215710848986576,0.6609122937710507,-0.7547258084235777,0.046341181141575295,0.6739748791292917,-0.6917236534342116,-0.4003557428709711,-0.701629744235065,0.8794543242065278,-0.8237689029338092,0.5932951950208374,-0.5582934776335426,-0.16652657013328717,-0.4809245532064319,0.04489386675450707,0.9248229531580253,-0.8239189797785815,-0.6239881318616114,-0.5096987638997756,0.7659635860290093,-0.35626806556776014,0.9804095233118709,-0.43848405954897884,-0.4006031210997317,0.20064727271959387,0.6135961367890412,-0.11021234281124767,-0.6287814973128688,-1.1463962252685997,0.0565733734054805,-0.11049925534367123,0.28887408131441933,-0.11372528809899622,-0.4797424440469162,-1.1784218213297204,-1.1527939719472764,0.42366565166003467,0.19314473914767866,-0.6594302274359396,-0.13191451561474768,-0.21217488360203182,-0.12963879219944047,0.8649333956935189,0.9454625385134422,0.6635605601983918,-0.6714262049831767,0.22782839891854234,0.8683884951833443,-0.07926718304143811,0.14108034694457175,-0.5284888309749883,0.594130039575862,0.3137375773731422,-0.024064215975736297,0.49972096810601907,0.6761312982746923,-0.39048638813820047,-0.8290694749433348,-0.34157207434027814,-0.30718770494823483,-0.24521860431248257,-0.2944185358159051,-1.1163213271161565,0.3109937661326438,-1.0129278225445646,-0.4451997658985871,0.31661893400111224,0.3610329519312969,0.09809113999429618,0.40351319438253985,0.6944282221545321,0.14525683482989304,0.37677763636418876,-0.21105396836857007,0.9792043501164407,0.02123829634637775,-0.5049149295123141,-0.8308418498835929,-0.4714164933521472,-0.3164597855948482,0.07635387711749488,-0.07020437607525201,-0.8725351510004603,-0.31257365673171494,-0.5235090192116082,-0.9439067392230439,0.06326565134792167,-0.4094474340782803,-0.4261965980735509,0.2533114595990822,-0.7460744822874437,0.3952434851326444,0.12140458733884305,0.07383164128902292,1.270967815972392,-0.2411261156416959,0.9777746101128044,-0.0854906181422154,0.9450305834940271,0.1887565802542471,-0.5275765972171153,0.6368698356772331,-0.3765424342354997,-0.4984879324452702,-0.08553351169069125,0.36261283832920244,-0.8401493661411013,0.3951970396281993,0.7324763638712298,0.7126790594804131,-0.8355972097372061,0.3493287913706381,0.16463651791239955,-0.33807219241189973,0.5016161271073941,0.26099422685158385,0.23940756243291172,0.3813506940682531,0.24383768099337136,-0.7163272330397529,0.5034448925723263,0.287267573022686,-0.05884523747975591,-0.17475288969911554,1.2971082153890372,0.2723510468941047,0.4656990675118646,1.020274802263858,1.0063847647759936,-0.09994276153688951,0.5566850065905347,0.8018654928476774,-0.9562921601737638,-0.9962501097462897,-0.911243727020165,-0.5594312844912108,-0.9518053778661192,-0.0011799760200224413,0.4923856632920176,-0.5528937179230127,-0.4311939257478994,0.8291754396695254,0.10412198505159136,0.1911080223975357,0.7076099262497949,0.2883133289384474,0.15025881919575484,1.1924124270646006,1.2125699261416911,-0.13811252226302229,0.3246817840585217,0.10062927372248277,-0.21014809280788938,-0.40916534829666784,-0.0957817823069109,0.4480560146386609,-0.9141357470087006,0.679234150016032,-0.3090660046086912,-0.20171858556164435,0.020331655225626976,-0.06515243639001515,0.8506415597365607,0.06910977715480292,0.4777513462257672,0.43244188766328984,0.08429853724555225,0.4621636661254258,0.5672672183866353,-0.7291043339788539,-0.8362392678173647,-0.37462255980828957,-0.36862048049828056,0.4400685315468465,1.2126032862035452,0.6365474871684563,1.358831667033502,0.7447310960263174,0.4027184209208326,0.7757305780779196,0.11317523737288561,1.2503205295042719,-0.0852763405853792,0.5728412115893532,0.28475266039028724,0.6741807781452215,0.6516674720293717,-0.976953495677918,-0.9914807051547082,0.17960211108455262,0.4713510060944163,0.746124286536167,-0.054647512835620166,-0.44732960136949507,0.17285091690131027,0.07629373624829294,0.1539385418067494,0.6749735949759738,0.6934151090973227,0.40925433125853455,-0.30260168096222334,0.27950154203358935,-0.18587618267198383,1.1617709899883184,0.41184675748778254,0.9782578895711549,1.0308751305511288,0.9838526766368052,1.330204865865542,0.1718375797598715,0.7482714837734774,0.7093898380570648,-0.43440868713591474,-0.5094710147169454,-0.7789585871944543,-0.75478626511223,0.9503350192233586,-0.86433458775697,0.3449112871075842,0.9454628749316241,0.10266572301442382,0.5740660013287897,1.0197722648913214,0.12336981574895615,-0.6034858845000964,1.0645900774472477,0.47025213581066133,0.01645149730941939,0.6977970227222504,1.2311779443393003,0.219145109282874,0.18742580868783687,0.010651225726941334,1.4006961991720117,0.22488641084939767,0.17563035324550702,-0.09207229832127677,0.9726607375095715,0.9603424078299946,-0.2639651650199303,-0.31492983361595095,