{"biases":[[[1.2683404143257642],[0.5310072306108871],[-2.9130700524763977],[1.4511684490034409],[-1.4020381874822168],[-0.20867814112755878],[1.1157395217558324],[-1.2911791666814385],[0.5439886338073453],[1.4871039109050797],[0.3903216587335114],[2.662023146960884],[-0.9367602723660124],[0.045347476499659756],[1.1339077051430855]],[[-0.1544235025764935],[-1.2086876935108777],[0.9166110084740551],[0.5258377803035829],[0.9571942256257188],[1.2221396483289855],[1.5195574605996836],[-0.6900539079885567],[-0.5247804568325766],[0.5684400425073027],[-0.0849206092677852],[0.25226740374793466],[-0.5341751615945616],[0.14152917590204828],[1.1052091968004591]],[[-1.5142519549708022],[0.35996913192256724],[-0.9420543195618527],[0.25598773117804674],[-0.5058962000369865],[-0.06265433904829913],[0.36586602956089287],[-0.7041833688769896],[-0.7456737271897554],[0.8273875951358269]]],"weights":[[[0.15609096449705984,-0.5422208681399019,-0.3179989056384316,-0.2404563899700305,0.9978467487776992,-0.4380452965785724,0.6149498167704124,-0.8214863196652444,0.47860836597972756,0.24704144938848338,0.6994529953948676,-0.6802364598095292,0.9753060282374508,0.8220264077367725,0.7128945702526611,-0.49312987530090713,0.19028844113731247,-0.11276879009924912,-0.21685643427118695,0.09917497887838778,0.1491364928142438,0.7117223700741999,0.06770430122528914,-0.6513522506804565,0.8937562678573732,-0.2871026259499112,0.044731763715423645,-0.21793249836838502,0.09024167729539156,-0.44160653935062655,0.3022895867355484,0.4700308596373426,0.5257764850090576,-0.47755009750886784,-0.36126352209478746,0.46246153927732764,-0.5196858447184335,-0.36449016760393915,-0.49599963791639895,-0.5483473739120015,0.5793185381208343,-0.6897719692215832,0.5264651907874865,-0.8082611398724676,-0.8336909411753796,0.07820175135845127,0.673662003676355,0.13690121020038498,-0.21171599688259443,-0.8708875315795412,-0.12753024852689104,-0.4032290034011043,-0.7891792213421418,-0.6034466602072042,-0.8672838086954779,0.9101617801904924,0.2313668459342766,-0.5947679018562322,-0.17941533533295417,-0.44176759086214656,-0.9239727390096693,-0.767103030946183,-0.8499537069270223,-0.5463355499116515,0.8776050228152096,-0.8528584183472118,0.7652654566897359,-0.4993376298418767,-0.26367439760153116,-0.3720974578323576,0.013783879823525464,0.8920837125260188,0.9876684988471011,0.6676352818102422,-0.677534454209159,0.9244682798497652,-0.6217914506805654,0.8454662707613484,0.3750420154121518,0.23967351696827513,-0.6444448032096335,0.24723069070814993,0.3676327726431199,-0.26019150331024266,-0.47806277518397566,-0.44336365053049076,-0.5513657220259474,-0.9710866151584043,0.30634079590871877,-0.01085169562223995,-0.8098139393859031,0.4427394386875194,-0.005086699329947546,0.8476437259711047,0.6079196433072059,-0.6302321915442123,-0.08616979189414144,-0.24483956016259875,-0.25254036516263656,0.8323263663707041,-0.20238601466333578,0.23089375772517287,-0.3404956773457197,-0.5865776055043228,0.04078475590821069,0.4698146440894234,-0.08101961774892671,0.21662206894018773,0.7524206413623448,-0.31948430943741474,0.08488721274450484,-0.9906233430480174,-0.7641192589692198,-0.2127831918286795,0.037571750448801816,0.002300174006703957,0.3543558938254682,-0.7826893964428325,-0.9661256593891228,-0.2654395213787925,0.46754335730050406,-0.1893873294895088,-0.2390549196411154,-0.4103079432227287,0.6298527302123372,0.26729905931274023,0.8682890882009634,0.37793477841173156,0.49605650060653195,0.46399125370488353,0.2670838135278315,0.8115054971311635,0.16902828735563288,0.28358437165343814,0.43049949111566255,0.8290854915228827,0.947683492532141,0.7748960923031287,-0.026764767612771134,-0.7423625793081525,-0.7426372916066604,0.6957666676560721,0.3999944961452933,0.27990855522934666,0.4592907629796374,1.0024532019417924,-0.6249029771820037,-0.6526544118367795,0.4836908615456196,0.21546884908946745,0.32722912052299563,0.08464510917776799,0.7012139640485847,-0.08414520098137854,-0.2824098068079946,-0.02240902124999928,-0.2130289312068718,0.47380791230936864,0.14019528678389304,0.33490591094803235,0.9877282016719078,0.974621211240986,0.13813522837703307,0.64940095411377,-0.6247330545965264,-0.5323741655807983,0.09622905343229161,-0.2979302029128455,0.5942289624743566,0.4953099045548934,0.35312486689188394,0.5189267413351294,0.09974217246231942,1.007885841888304,0.7528575671674828,-0.7967150008201224,-0.49301233316191745,0.6700314262867786,-0.485218166008114,1.0107610143747265,-0.6465053183277087,0.36558439662515935,-0.38393451801361717,-0.20719022478184693,1.008549131264692,0.6562330540951911,-0.14703310190429675,-0.005783003779377737,0.35849667694724796,-0.11865174223465759,0.11050172888998964,-0.4117207416376012,-0.20637163882183124,-0.38924809422126483,-0.22097674409941878,0.1961544304409488,-0.9296505773168807,-0.3389739257783649,0.9234682801258081,-0.7752552271925414,0.2983483179405204,0.3255019366851183,-0.701442837413625,-0.6377197101759269,0.5333924072157393,0.9372482653516612,0.46630429459074957,0.2695212215059124,-0.8009035266790047,0.4887358737754196,1.1417875117792524,0.9386690356598458,-0.5554191426810318,-0.6038749286757925,0.2231837033901233,-0.055984885467894804,0.38996151088493836,-0.3033482945581313,0.8148919134331701,0.877410011708085,0.439161255315902,0.9664729854947718,-0.346337374781433,0.4705580843404153,-0.29175754205178345,-0.8284494125791806,0.13079862574513493,-0.12417156194280543,0.039887110478155394,-0.6068274891741163,0.9863988152207174,0.8842723283112006,-0.023729646275994103,0.40156904369061763,0.21370292712819297,1.0047130926549077,0.10787418276156821,-0.36923328071183076,1.1426661819009776,1.0726780897771004,-0.512367125287317,-0.10014322346488448,0.5590899644017796,-0.25145581485790813,-0.8586697943311867,0.5511175005969966,0.0047163973943871685,-0.1852947823218741,-0.025236219063096355,0.6452907905447859,0.7268235451114071,0.3005604142484837,0.19866113364745436,0.8169709093234802,-0.08375432212702699,-0.6558289305574804,0.2875000218920373,-0.8177673474054125,0.2242196316761401,0.9931245737584108,-0.36248185814375977,-0.010633071172971537,0.607753111860201,0.1756405191348178,-0.4570729528818961,0.21858617281809467,1.0558895758653433,0.8304241794133683,0.4185273642580681,-0.46588434142401725,0.15485567126772742,-0.7078585283067379,0.3858553714185012,0.36062557028671866,-0.4275634672049001,0.9522659236095823,-0.35122115687345323,0.8186253982611024,0.7258129895696365,0.5742273638110585,0.4703260992941608,0.9261576650366488,-0.4565408163271674,0.6766409664630069,-0.07824202745232288,-0.47162372222287396,0.48021362730785133,0.8857465526850999,0.2794675240307241,-0.6264021014098861,-0.8560202052870696,0.5188229289716512,0.27869392610167637,0.5376857002140182,0.1735331624193054,-0.08362440821667932,-0.41796177898677134,0.5920150955563801,1.017318857894054,0.46444570730085516,0.637994810207405,0.07363944511229505,0.5499259795356083,0.16695148452883307,-0.1288741042344896,0.7440030241079174,0.1616192159980016,-0.9719386116405525,0.8032154282900354,0.5604186348707219,-0.3115736680258831,0.961599323925437,0.7368259855403737,-0.8550974182752795,-0.8872283310830206,0.8708989726389568,0.9997382318657554,-0.35303796181632335,0.20377710005833974,1.0605530068569409,0.06473931795687764,-0.28429451794915994,0.7726432822679985,0.3413186433045654,1.0855270947539726,0.010621756651252983,0.9817949819907147,-0.6467883168778985,-0.38852613746337694,0.2200816244410891,-0.20520949227957727,-0.8157600907910341,-0.3467206555735816,-0.797677531428897,-0.36495015138047715,0.5768161569414731,-0.778397853850318,0.7674505633287405,-0.8811949132613228,-0.617544070251429,0.776263272211586,0.22626525765726313,0.06991346030747046,0.08596336614969988,-0.4503869136721472,0.336849815055868,-0.2104052642557441,1.0360932837162187,0.5089187033609646,-0.3208829623714898,0.929809588157196,-0.2236869958771889,0.4838079558071853,-0.5261286707014644,-0.37482766159313513,0.9803502335823044,-0.9433889078973738,-0.340420270103642,-0.4751894912302765,0.7600189822429566,0.7587641267083436,-0.7279111213254643,-0.9613155946586652,-0.7448247430423818,0.492205123416924,-0.9747222409355017,0.4498641228019265,0.6076928973213809,-0.009452208153203506,0.11815027394229168,0.6932226841146161,0.7326557030863645,0.9736834266183628,-0.494816624432872,0.38090741334137146,-0.5772430381921004,0.1402249684697298,0.9427823044988922,0.10818024146852759,-0.20904371773673902,-0.0908530736709772,-0.3018163654321558,-0.43302923277560984,-0.5783956640754359,0.16005647837379156,-0.5700885785873993,0.659708621313441,-0.2579503062887188,0.5582025211036359,-0.47656685201539717,0.9196422043932345,0.8851087181969746,-0.2228916489896725,-0.06681200684337847,0.12639851608895494,0.5008418973794847,0.9710356065400624,-0.17698087708638532,0.04239170157361772,0.6809758606963005,0.2570781270500056,-0.6207266185610049,0.5979229343589232,-0.10695016201309654,0.7259033961027292,1.0422752833119644,-0.486608685335861,-0.40092745462057466,-0.2668903461331363,-0.33047815982427786,-0.20290213439275148,0.3484866959913922,0.5227813948442961,-0.5018907568739004,0.63959194226743,0.6651727338538903,0.5580929696233468,0.3034402563605097,0.3085045843990545,0.11670548372576914,-0.1312798883227057,-0.7915292698646086,0.8725041644451192,0.16513050651162015,0.44043962516205265,0.1272087024925898,-0.6526691538904099,-0.8627711777655144,0.5520946541171604,0.6145899957255043,0.23936931724195315,0.42729476535356836,0.556454038026176,-0.5514122806556565,-0.1823867504479212,0.3096532485263821,0.35177094729006486,-0.674588690288527,-0.04438122428442366,0.42342925973856943,-0.9088585716305908,0.723719789604507,0.8033759032499658,-0.13243616180256104,0.4375760373333855,0.32739273757328935,0.12241920667075316,-0.7378608948938099,-0.40992862110935613,-0.6075854221052925,-0.4361679504335571,0.6780913058642277,0.04678867055959804,0.0006705659251444108,0.28789652801238474,0.9898648760621285,0.43725088716202676,0.7570620493359099,-0.3769406143912303,1.0105998658729185,1.033827085150828,0.9522248414299966,-0.49642513454621534,0.5946053931923323,0.23291417947418155,-0.30996183214676765,1.1125962333671524,-0.57590715107939,0.21551046116369196,-0.4829287185340257,0.9861444809891957,-0.8974166307030905,-0.4519689449804001,-0.6624944317050357,-0.8461514058806868,-0.9611509618821217,-0.8912591984532143,0.5847496836326057,-0.5938288587936913,0.041524969199425964,0.6267796947815543,-0.33093768462098444,-0.4466629204169739,-0.7463768177936405,0.781879745804778,-0.6897158654662916,0.01848256702029986,-0.9715969819566791,0.8645683115690833,0.5616719697087194,0.7902411356532124,0.8325627528399753,0.20621646118612977,0.8371610536554812,0.7480649479823458,0.32153838590795836,0.022265916148882802,0.01884197152407464,-0.9602040512927483,0.11894929254011141,0.4819785605713473,0.29425768429288696,-0.9503467242850593,0.8135470499693821,0.6118178899124737,0.05342934170976581,-0.713229712391046,-0.3067230717709934,0.9076729712460473,0.5379325258685612,0.5046969769850118,0.5808613511874867,-0.8064402788606028,-0.4834472913223566,0.5071292564520354,-0.1419334118372952,0.7014440167176755,-0.42974459503612306,-0.45506826566767744,0.5884060207206909,-0.824396793639008,0.921795425878099,-0.28682314736094966,0.45560695218429054,0.9865648897765441,-0.3995249883055656,-0.8977511123733806,-0.5276619241671754,-0.35726462829658445,-0.876699585551481,-0.6887689432040864,-0.6017646881855481,0.2799673906965505,0.9125277028736322,-0.2054147098560713,-0.8070061636172514,-0.029877218596098085,0.9827156283405202,-0.21929140283022666,0.8920324328702702,-0.6745290834920242,0.9182720869587606,0.9456842027864124,-0.5350167933910787,-0.11760463681397829,0.539620791819238,0.662629017914927,0.6271245023849994,0.21233113206137327,0.587595224709473,0.5031012708750653,-0.2990763445341004,-0.8963326594577363,0.28224731166533384,-0.5667651914645407,0.06942159811997815,0.7628844307808579,0.21246046079971992,-0.2126484233954015,0.17750787923333855,-0.644405143334601,0.978125254773981,-0.3070236140529265,0.26133822077460883,-0.24499504441974046,0.05310078808961214,-0.514215192371396,-0.41598806913896774,-0.39041001968829525,-0.2556947760447323,-0.14159682004976654,-0.1816591070667852,-0.8146869063298597,0.2979802184554933,0.4869504443114497,-0.5772456588815795,-0.5207731777271918,-0.2291627020775251,-0.05712800643433663,-0.17817063966501379,-0.12401820289631396,0.8821411508353971,-0.3186458324508316,0.4680761541854829,-0.5020615433797343,-0.3143574794937884,-0.2051693283485396,0.9287227612714086,-0.2865008039036167,-0.8958889883193663,-0.7519755991856478,-0.32918076922010103,-0.05923285471347507,0.9488413223280425,0.5819500006600277,-0.4641948689869214,-0.8715499966842731,0.9326712859198805,0.73912415449046,1.0720120057283,-0.7769943709814076,0.24961656491706938,-0.3929485278872589,0.5825243258123717,-0.6111629313858626,-0.6834658628132266,-0.04826785046708901,0.062002580821794974,-0.743705143558084,0.045565997960045214,-0.04680032478276504,0.8186221350850204,-0.19563360220525794,0.35880903990685703,-0.4260087190712708,-0.9267319119612221,-0.13405505875500268,-0.678840220736845,-0.5155890715272415,0.9606509535930163,0.6912604763458771,0.38409343224269515,0.47196571515046326,0.0604289304914311,0.8174262990024665,0.9910008974481587,0.38649375681331616,0.6734046917962532,0.5492060844951883,0.3396481008975164,0.2960747155644514,-0.3606870619865098,0.8877584058329226,-0.221488019344431,-0.5229135024653696,-0.34508692229395993,-0.7369465473852406,0.2393824789910419,-0.5066705114197385,0.3575233972878743,-0.3063924119427117,0.8004334017450914,0.24460452454429263,0.8386147595701038,-0.15953164070913428,-0.757777030068381,0.4623908505081794,0.4373088480163072,0.7614518482101511,0.5653775026330522,0.6231972383427481,-0.745943333019357,0.9906792419100144,1.0166201546578821,-0.05693404192523707,-0.0236028668702996,0.2999885874936809,-0.707491708899654,-0.7580481630879521,-0.30959764519577515,0.306473265396527,0.7832324659647235,0.3623158887902571,0.30043499967633364,0.12987784058747012,-0.5283169305243915,0.2501370282636883,0.6454306369927912,0.5321628460809155,0.9736079314610488,-0.15132915883159107,-0.5242992546295693,0.278703128208013,-0.03317993511289519,-0.5664277367476171,-0.41195136851417097,0.12317793252384959,-0.7747217756500107,-0.14635838378692245,-0.29154385785099923,-0.9304696987961238,-0.6891048272708586,0.36127863663928256,-0.7448540689100805,-0.11260782074013384,-0.2005603840634683,1.0383662635174993,-0.09614747223519247,0.16157525363611083,-0.3158148216177155,-0.859194101889321,-0.2649222087996735,-0.940012930583218,0.4759713753338042,-0.7793207686450311,-0.0972159787268953,-0.6598230386956081,0.6974801698697128,0.7829083693316263,-0.0834467387484834,-0.5410659354988376,0.5882405171415312,0.0334323774969773,-0.09916691470004363,0.2154221246651702,-0.11057155391069212,0.3333509612295961,-0.3756478898240533,0.7607761066983734,-0.901352380501253,0.4142442445043795,-0.3375889546875588,0.3346197273588354,0.7643273472403768,-0.451652713394019,0.681849738129817,0.7179149059990049,0.5039342013961179,-0.47134965194325545,0.7142846538666123,-0.5114994954016049,0.9705740121220454,-0.339570366960163,0.5741688590273267,0.6933862691788182,0.6976930368040835,-0.4490085735128431,0.09957080314492495,0.34289603013131975,-0.6321266185639376,0.951699389335604,-0.6503363871671192,-0.002065654565212455,-0.7943089858895138,-0.29953645884701,-0.2972540631793475,-0.5732412070070753,0.8723865608377068,0.4350068248808016,-0.06642773356566396,-0.030218002542573404,-0.4436632836216746,-0.11426809737105811,-0.5925602714572249,-0.4735583718800225,-0.41630803596586957,-0.5318845280835782,0.19411587005795886,0.7847858641689651,0.072619472843248,-0.4938128762943962,0.9556846343900844,0.13211406441437545,-0.49799989555389246,-0.6689872324693051,0.5649056723986083,-0.10983470360600811,-0.24276767060418547,-0.4272687855237123,-0.7642897876223429,-0.752653036335164,-0.04635373511744953,-0.6006005061925171,-0.6859179884023943,-0.7802049154798429,-0.4715942147790358,-0.679563287653342,-0.8544377580044983,0.3181188026617435,0.41754244996280465,-0.456559605843737,0.14711016625546458,0.44081488083273807,0.22679374646194317,-0.0873949132775645,0.6150870727320639,-0.7066712667803449,0.7660574638165283,-0.6734703313429914,0.2862100902418572,-0.9558244123967676,0.27217876796609053,0.7275848273030934,0.11179266865727588],[-0.7149528366244673,0.4267460601357622,0.3308207498725242,0.7820231506758386,0.6125165447490541,0.6279941084115874,0.6151735169996271,0.6975656687208516,0.7376568183397483,-0.7417470149446228,0.31391985158072,-0.9447572336391727,-0.9068381456319365,-0.429148283379444,-0.7356210336421917,0.22959087478830503,-0.7965140786072393,-0.45153314805640554,-0.7222698339082787,-0.26668200657404206,-0.6877646164309423,-0.14744398399970882,0.14792456064383153,0.8208885742970893,-0.788451139620028,0.15377458163859448,0.8146909572764867,0.8989273561980087,-0.2559899517395341,-0.5992520098472205,0.16693049039331265,0.6095276955537643,0.15772709898171833,-0.33043763566168083,0.7187003916382512,-0.45650968695397376,-0.08239227078434928,-0.3896916115919975,-0.9666730381773326,-0.4459723579596062,-0.949012822922865,0.07092944154160022,0.7844965923288814,-0.16574411174146214,-0.35023288509222855,-0.32245759624851655,0.9899237522097176,0.9872542298190977,-0.6886958349409805,-0.5832172301668485,-0.9409067204270697,0.38344493332147034,-0.7033905736933792,-0.37103411550270704,-0.9569138192656401,-0.7751823479841748,0.5597704786017783,-0.2905419706252961,0.007876228929401652,0.6153469246735799,0.7655621470052147,-0.8337094366319148,0.31809747218584433,-0.788715690101023,0.2160396139182579,0.36971437826092934,0.41343864043958006,0.9240543219923135,0.43294841068318435,1.050089178464511,-0.5915109410040349,0.19078485672511805,1.0926448860876958,0.23502118328804417,0.804711793882602,0.8004012502039964,-0.6513382237965939,-0.19929341357193214,-0.905247292384488,0.49521769119968223,-0.7356508809998077,0.016833630388160648,0.7312348632144317,-0.6872684390043593,0.37604236342698893,-0.8155546708554788,-0.4369590185983927,-0.4957010066926561,0.7733785371831348,-0.6558282675927377,0.7365051542203177,0.5320891316185226,0.6525031229533343,-0.2824235575109697,0.48865871008013884,0.45706975140691547,0.49113147144874514,0.6567851534466358,-0.9697324690618992,-0.09252414409690003,0.612695571979662,-0.08038310216175205,0.870892711165731,0.3136578304230397,0.021542322539707583,0.267021308179198,0.37288430040687603,-0.40379502967026204,-0.8270500839477638,0.8496488305919175,-0.5018725751732069,-0.7516096806726877,0.41598563305408787,0.4158304822973134,-0.5066863434005834,-0.027836669817306158,0.8640639374080185,-0.24375290620462484,0.7173836043866263,-0.49346410504916716,0.3057012759170428,-0.25878236662629467,0.03692351255760793,-0.8099498545709815,-0.8085578447827416,-0.10498456639108428,-0.48362841568401754,-0.19433220104654703,-0.28581071443791906,0.23725739793424663,0.049701893844843664,1.0674076106071368,1.2399979138564734,-0.13070951879827897,0.6403275740790982,0.22996665500450153,-0.44346304063905745,0.8764123939696242,-0.5138406505610206,0.21862744914435855,-0.6495173207748448,-0.13092264208763393,-0.6575849369312814,0.5622244332145366,0.8643429832568846,-0.12754811099865535,-0.85109792996912,-0.8522101095548399,-0.39465077867288034,-0.517606140516823,-0.5371854267128301,-0.8108861377802137,-0.7268732827662241,0.076836890790691,-0.5776052935193657,-0.3259412996091053,-0.17422788448751167,-0.6985189479361766,0.6999157759904264,0.4321980115499534,-0.603941784823459,-0.2952312696462654,1.0210387234868503,-0.7924971232462044,0.5014803571605023,0.4051233081576783,-0.4687235751006108,0.8586469805758883,0.3114659394856589,0.5199159896896663,0.7080810839824626,0.14576578949433314,0.4680827224696507,0.37050288288265293,-0.7574515796439953,0.2015801785611353,0.1596328166584167,-0.9069470607542621,0.06225116375346847,-1.2630855023407868,0.34819174546631765,-1.1648740044548331,-0.10969771803498513,-0.9048765107038091,-0.46254564416510296,-1.3009521658029133,-0.25166686118085513,-1.0140594970857881,0.5164410010684887,-0.03629656191283044,0.8254294819605947,0.42366596976381604,-0.09885359325571628,0.12907607985240577,-0.16838713030787353,0.5965813149201048,0.08587365790916732,-0.3665271801884706,-0.06908697859539725,-0.5306034345330822,0.5562056181997591,0.3899174365167592,-0.36869265659643213,-0.4412421967254256,-0.2336685634478317,-0.3473541263357623,-0.9636835478919321,-0.46395911245481974,-0.5767311517297529,-1.0510407613030293,-0.902777782354258,-0.2284067287262172,-1.175197150047682,-0.25360348047814846,0.08517872136866926,-0.2157071714843677,-0.6189060000076342,-0.9275564672319699,0.2259820999612359,-1.3396252508015982,-0.7044230304627344,0.10408434014510096,0.5018385617680043,0.11574149408649827,0.7582807429993461,-0.605622443870084,0.2122208374153663,-0.03757977588647767,0.349963895495028,-1.3651529109133669,-0.43801924690924254,-1.8249968346256846,-1.0274588004969336,-0.6635270594899465,-0.10274566381401963,-0.516624195577228,-1.011009454982896,-0.29014509050712023,-0.4345943853946801,-0.6860257897054131,-1.0895519085481493,-0.03535416757016437,-0.9237300274791416,-0.3494401742601182,-0.37566211823408796,-0.9539679357658395,-0.8948081985377344,0.20000983609855458,-1.1501160780900557,-0.786060098572821,-0.9903345412921806,0.10851687091115823,-0.2790047617799155,-0.5441460428091681,0.586909399474253,0.20693780004616108,-0.3418865666164887,-0.44019373713073495,0.3149557900207497,-0.04240566190202957,-1.1149660197758755,-0.7170678917447256,0.35305678270564644,-0.6259877744312954,-0.383036414904467,-1.3679901616432482,-0.4719543594911569,-0.41239332385209887,-1.280917258531269,-0.985425414293197,-0.6215772714693745,-0.5560330196929089,-1.1875761825691717,-0.580280059623482,-0.5815772138985538,-1.721726211623022,-0.09763063592903828,-0.35852156152083275,-0.23576536752881005,0.5251725935032494,0.5954454105662568,-0.6978250761219479,-0.21434988884114436,-0.30296221798851364,-0.9651982288292932,-1.0654096534000317,-0.21140730043988196,-0.17914490817949036,0.33768337629414413,-0.6837037949594765,-0.6235489079836779,0.2517752132530799,-0.030513545698673476,0.036606080486008004,-0.07284025665909455,-0.02386579000159759,-0.4573845420454947,-0.3384333586064539,-0.5030616559519409,-1.022961114287112,-0.2670557603223373,-1.079834727698888,-0.617726676951651,-1.828562058790042,-1.0471139071445317,0.3891862401963275,-0.6929672269546974,0.1655736422304796,-0.7388702438547586,0.5415404928114765,-0.8624361114287641,-0.22028093067784377,-1.0307261512074355,0.4808158326343301,-0.5651945142187468,-0.0734135168817463,0.589588091039981,-0.31864733159570424,0.5146100333908354,0.03735680870539971,0.28940500778570655,-0.6775824739974335,-0.3076451753311367,0.9195687925070898,0.21017116520067405,-1.1260339513809814,0.17072874362337653,-0.15844149209209873,0.38077564952980375,0.44555186760488863,-0.6221019250639316,-0.3847630123223319,-0.4672354057536517,-0.17516238192901962,-0.99254589547615,-0.3700326786575246,0.7973651212008552,-0.9279201455935938,0.7717874924334834,0.9167543581364496,0.039334035921685044,1.1614801193519668,0.0027265147898922018,0.22331179095607867,0.8446152107098353,0.7985548969823683,0.9139432051458543,0.4857865450997044,0.023418523028240185,0.9123467186008135,1.890700524843526,0.03195691626416458,0.766877922724076,0.03322497008272646,-0.3484000647005436,-0.2085164440085842,-0.4386384696233697,1.0608072662454988,1.1290765927637116,0.4041769058953128,-0.5798536628885823,-1.0253916481235326,-0.6762868376548938,0.11115143528346874,0.6842113375157262,-0.3474816616224568,0.6644972471612035,-0.09137616660511722,-0.8446765233354142,0.2914532383217547,0.10658138717985316,1.0592116030260206,1.147340418888163,-0.03351691525584322,1.6270114275623797,0.0665659519917128,0.3338194552438991,0.672465102942345,1.5456110129602074,0.5279768505187544,-0.24171987685017104,0.8250792662933605,1.2789293325690174,0.8102946740643694,-0.39865441127074486,0.20489591472583735,-0.08274215639808327,1.013203575887013,-0.6351643113585717,0.7650826356848033,0.09149742430309918,-0.11528545100384718,-0.13659401997464904,0.3064366578260204,-0.9322096553342525,0.49431075421205234,-0.659740275487068,0.5212529859470025,0.5083602899148078,0.4567644423684712,0.7717695277523686,-0.11260781970156471,0.6886173671367279,1.2270072063462294,-0.12495874523149839,0.5449271580199898,1.1790884294616797,1.0128664333137496,-0.02494675228286793,0.04000332117173931,-0.11740842785288153,1.1662467272359183,0.12622249154600906,0.6361054863572633,0.5679649636973438,-0.11043668150018465,-0.43295701585193486,-0.3227350588710551,0.9232354183173496,0.6866467819870905,0.042565868238981175,-0.927515003207618,0.657400029921646,0.9314534534351108,-0.3530340561065878,0.3607739462507252,0.7879387552307647,1.1113535572774655,0.3567720663865162,1.279176052053175,0.4048041841667423,0.1583472787474818,0.08745080392413304,0.37179206800575626,0.31698404852545625,1.0012613157930916,0.49336915587684904,0.5021473716119306,-0.12142474560157966,0.41316397219244305,-0.43051083115779337,0.33351368726717123,-0.2945668640653797,1.1564029700934662,-0.4364986019384351,-0.13162285462940942,0.008211717445193006,0.5814148322938687,-0.2234413778020856,-0.2514307608790724,-0.7509035519678297,-0.38245660191462266,0.8483451441395028,0.2976967908812298,0.12719902176397063,1.194805187450794,0.5284793050919363,-0.09778016709660392,-0.25113256747964613,0.6837735534608657,0.17405596934861223,0.31392709486605547,1.5273703308025546,0.8169324620673428,0.5405975723855273,0.05831439449701599,-1.192040104879116,1.0215087712147393,0.1196080445464358,-0.6254546331148018,0.18668302764614494,0.8833458122125799,-0.37970274726509456,-0.09227698086201272,-0.5069430285340836,-0.5359041398903678,0.8956404362770254,-0.23084693579338728,-0.25095507499434044,0.7143346662952677,-0.865575126923565,-0.2511488550612479,-0.5279227696958928,-0.9539743771494297,0.23805829364753936,-0.0014059059467318674,0.8002384120316167,0.08516871181155433,0.8226488659278984,1.2474994077765884,1.0170890238598378,-0.18484985976118837,0.2570539574670323,-0.25005093211951207,-0.2516719294076531,-0.24192499674980192,-0.14223188813485105,-0.48355438546015894,-0.6516785915844827,-0.12037707063622209,-0.0463713896044901,-1.0765963527135542,-0.6839117854417212,0.6168126351597153,-0.7363842009952931,0.34275526947468693,-0.40510530519009497,0.35573151233870287,-0.3516561231232217,-0.07039260409078427,-0.5406996833395187,0.2076210742499337,0.6693425417529763,0.9347962015307361,0.37367397553273757,0.13775973738783331,1.453896883624282,0.8687851872407854,0.9997926038533537,-0.07350955920081544,-0.28696080337069213,0.27631404077009925,-0.8467719399852197,-0.10901574242812295,0.3805671614831698,0.1906539212333411,-1.0206966887772406,-1.2040986904494626,-1.2531359940332099,-0.17221380310824358,0.02737109347529729,0.5269470515588823,-0.49375562529185735,-0.6568941038571412,0.36611274926136095,0.5347897149075412,-1.0275525497146683,-0.32873862378270513,-2.0066905461340787,-1.3531781028533556,-0.5109981708481757,-0.6000221201854571,-0.15980282911556726,0.3841966423630884,-0.1370779233904364,-0.4824134574548352,0.2184354936510212,0.3104124548576539,-0.16811062683796255,-0.7199362144872842,0.44002181966510356,0.5473232958170102,-0.3909991079606634,-0.15687786527798747,-0.9999211045070127,-0.8047426651429282,0.3867044887723707,-0.29880716247511985,-0.6018353003038639,-0.5114662639171723,-0.9845465226841703,0.872446531208047,0.5123855343714259,-1.074472311876156,0.06196397242870152,-1.5340646002255374,-1.129857021178239,-1.5104068668873851,-0.44251837418614653,-0.10715425134412927,-0.31484285568893366,0.028116632568037155,0.0379852144751421,0.46080337139293953,-0.23974306957923586,0.22836269430354778,0.289845866715501,0.9568010517075541,-0.7352057996460385,-0.24906755869718492,-0.7460702094106705,-1.3596843183953056,0.1515181659710321,-0.3407993803803881,0.48132963586457367,0.11102703345132899,0.03713878765957357,0.17266147344241106,-0.05209680369750628,-0.030933712708100206,-0.37837614239147505,0.5227557031001773,-1.008855175472023,-0.36104678811078983,-0.23867681216252468,-0.3104076731388106,-1.6357698376287753,-0.033233300866256595,-0.574850942465108,-0.0898392575575049,1.0845423089021993,0.04774473773774277,0.9681814812621223,0.7746969618631661,-0.8604151153167584,0.7973488590560971,-0.11731057473422887,-1.162589832887782,0.05144113225833991,-0.49177959686700917,0.21096320860198642,0.13016070841516159,0.6836930872176396,0.31647478959577713,0.3621465922891685,-0.1274722608970978,0.4392289984526694,-0.18199166208332937,0.5302314593198111,-0.5185852385558086,0.30856830268488905,-0.9178831122587036,-1.103611853109552,0.04808417575965743,-0.11774595586316354,-0.5205283069189008,-1.0718466472344579,-1.1384597568592743,-0.5707678696035197,-1.483203433727905,-0.7247942247329751,-0.3761621441524725,0.6356164705829839,-0.8496916931134896,0.397306786453341,0.1673765121767232,0.3181952339596949,-1.1375115157201803,-0.04777566514793976,-0.3796755147093961,0.9031368962547386,0.09469468812878634,0.08256329291862796,0.18122432257846322,0.20118297657138484,-0.47937464887057946,-0.7013923425161114,-0.5222945287190074,-0.9748850009897012,-0.8605274233966639,0.7072120397958992,-0.4931425449445859,-0.36016562463168006,0.08339977571003607,-0.3631611615454629,-0.756482697256829,-1.2816835210338406,-0.09346750842711572,-1.7607498358524265,-0.03718988572136422,-1.141785083069249,-0.4911174955366307,-0.8715223114106495,1.0217263299945365,-0.9276004015757168,0.8425323148002716,-0.28266116909750527,-0.17566428295236886,0.27316135677548786,-0.5413465993565458,0.3248557054398319,-0.7388500886301859,-0.22513844013164008,0.9496673718910653,-0.9299098744462169,-0.17745108207448165,-0.05769929392778598,0.6993386035885347,0.6954791241000207,-0.0866601670011361,-0.3366806867137052,-0.6092829465882901,0.19286332798872294,-0.6609983754778601,-0.595246946260919,-0.7434026316271132,0.0491759780664087,-0.5117116897377162,-0.7034556137652704,0.21564248561602264,-0.1775850624420897,-0.2831765265938858,0.3792983688332887,-0.3273904270452432,0.41048592871809103,-0.6906436061891096,0.047274532498739,-0.8266041757785523,0.9918028224111772,-0.21946390691232343,-0.3352196975951698,-0.8004210505603191,0.6325601489891065,0.9066119105659592,-0.9672370626261261,-0.7347797405365373,-0.026096501469104954,-0.8587001736802273,0.23983111502961002,-0.2117743456025067,0.5708542406649054,-0.6988459280755815,-0.7202128085616966,-0.5254431771448662,-1.199823554696458,-0.27687350255088766,-0.6032396160104022,0.0774584002424303,0.2580388644036088,0.49535522556681577,-0.7715132568433712,0.9282878125537849,-0.17832066552814374,-0.8184757744855249,-0.6858476609534699,-0.67264484986699,-0.8525148334782111,-0.9839062066624102,-0.6824083026930572,-0.3901266260643452,-0.36500067788989665,0.745871257111956,-0.8699225893852686,0.9216558366018831,-0.06468004983064043,-0.7469126362562807,0.7354922466509957,-0.11265784678706492,-0.6705163348798534,0.0984127726197337,-0.6891351937839995,-0.031115016758038412,-0.7200234634904594,-1.2106646739234506,-0.9786727474990967,-0.4006165810611065,-1.095660942229885,0.8042300168549641,-0.6056217448526743,-0.3364124199170746,0.1246414190232621,-0.7221902416581577,0.8525557383957314,0.576645475815911,-0.20079416232808422,0.0930514161358702,0.35643529985000866,-0.8502005416913261,-0.9599518097108595,0.007300424200169964,-0.9951563420628382,0.9113280984082374,0.43646630948519954,-0.42075205411808037,0.8555091089920849,-0.8099063261990552,-0.7905367229662444,0.1117737218819272,0.1436471963801423,-0.28169758556770436,-0.5267530030122816,0.1761238288218579,0.8140859352355269,0.9072492436894118,-0.28006170302339484,-0.7597371814473197,0.9022681543761146,-0.24924684729230714,-0.1301724163517993,-0.3653564212896635,-0.7327027567058328,0.8565342399650913,0.26804770132868927,-0.06313875074815622],[0.4780805898592313,-0.15695248622981195,-0.5986194732144963,-0.5968338622436782,-0.5229428362462596,0.6371856350544458,0.3305480140851087,0.22957856894066597,0.6790941194447819,-0.9785367797771911,-0.3671233712712161,-0.3751898903557822,-0.9750505908983994,0.210896689720888,0.8240037466141615,-0.4688180966858538,-0.09399617020057605,0.9566045726046379,-0.2194312815274091,-0.04054927891214799,-0.36975246777180737,0.5844990535661219,0.33579574264561307,-0.4698428337436298,-0.6242447543700116,-0.9756600339990429,-0.07488165811901304,-0.08010836288381307,-0.570112801617034,0.04129219033874243,0.13765547225591424,-0.2799197726559348,0.5610892456337964,-0.49598519762324533,-0.9235981223107986,-0.6682910353071574,-0.03041141360574635,-0.5037912742230175,-0.7749807469535656,-0.9416891500027098,0.4781899591607903,-0.9193970894891098,-0.012096098524194639,0.0675149625676984,0.37943891974964683,-0.7523345893846226,0.8239885556485304,-0.7124385906761688,0.41730600233593784,-0.41574741388909536,-0.575157491381428,0.821791253511368,-0.05720229472478966,-0.7558652289334604,-0.7486723531289503,-0.5300025595934466,-0.2902505273079947,0.12674567925046287,0.43606767823418435,-0.5755687130946276,0.44582801088037577,0.9994723997898717,-0.859736957786602,0.8958701517806844,1.0066417021046596,-0.07682484931777844,-0.834612103163143,-0.6957000747654091,-0.20978446658065028,0.9497216775230293,1.1762802388063602,-0.37501044581449633,-0.0955558461687279,-0.4808804468930867,-0.05157885009756711,-0.15964464019516686,0.04053079327943736,1.0027853263280109,-0.3470146063181318,-0.7146877524343076,0.28639858500004406,0.9724679604006475,0.8206859909061395,0.6900246033472304,-0.9506909598344284,-0.22580921223818318,-0.8292712080462972,0.16208221779953466,-0.37032255914477724,0.02099733699656279,0.47252863357505814,1.0198440480047035,-0.07573029697288465,0.6600372929853822,0.494773811339574,0.7982683504414447,1.1911899474323278,1.1759742795803805,0.884467197669455,0.4939116153319265,1.0090585083997157,-0.08904347330854848,-0.05053035836249631,0.801526946501749,-0.13544859334559203,0.06716025264422627,-0.730196835724069,-0.2962678984617216,-0.5671045261926545,-0.44244233203169264,-0.5515639615777359,-0.8202806205474571,-0.9401760837588891,0.9292309957136871,0.38172975427095335,0.6866163708043013,0.6291240515351886,-0.033961503589883466,0.020672258446475685,-0.10997547128008305,0.14155882917739873,0.15940128951434093,0.3494735566522585,1.119244348981867,0.18063799780763395,1.0648162577010833,1.533873936920241,1.4669838931170052,1.1852824097873589,-0.06717153448954033,0.6098276715673531,-0.1577268352660241,-0.2233086900154697,-0.8120784579290414,-0.7727618232791592,-0.60276162788161,0.4166747685067205,0.04174965465062731,0.6456575959803549,0.12082619239487902,-0.0197835920921825,-0.9383569805099448,-0.5260705925855571,-0.34810072052830676,-0.6737794906054287,0.6124672487787863,1.04637181398486,1.0131384334018783,0.010267007928781475,-0.01585071465425969,-0.06315962874760964,0.4044008820215995,-0.19676324592311348,1.3330965238525923,-0.002385985102237707,0.438943349708421,-0.3813316521166,-0.20329089855101318,-0.9867665822952789,-1.0882381469908542,-0.6983632712853682,-0.7705687634314361,-1.1215357482141128,-0.9915869739386005,0.6172593635020754,-0.9645327539979168,-0.9804590439024987,0.20949834841549358,-0.53547517740379,-0.16126246611037948,-0.2795487311786605,-0.7909511342315034,0.17392680220723108,0.5304292563911884,-0.16496258902380204,0.07021082031672869,0.06448190626822549,0.41924821177608096,0.4824819188156112,0.33311029535520426,0.4870820993695289,-0.4528445122044552,0.5523752649965064,0.5912576072703103,1.0681044041214984,0.2081505003012416,0.5393901865638142,-0.2649670566251281,-0.5392160466649621,-0.5936720993842193,-0.44350044024942553,-0.7557386262240824,-1.1429657298925997,-0.43518918864665873,0.05629443135768377,-0.5858444087496149,-0.07553816669674296,-0.14732860458943878,-0.4706774953239871,-0.792990525931837,0.3306951052134581,0.10148167347955184,0.0063747692073291805,0.4228194945287891,-0.20740398330905668,0.5605897955831641,-0.9357877191636332,0.13264912967778636,1.1090627725895246,0.5613866898303859,1.8265374198548423,1.323782654069386,0.43817914302983013,0.022165256538854313,-0.8968934851305203,-0.24080191518112817,-0.05493394577127324,-0.8641209042223952,-0.8201008230152134,-0.39268193849848465,-0.6051384951191466,-0.3231306947476311,-0.23488437294904949,-0.007665823992146112,-0.2658482203060554,-0.37048682344512535,0.5358336913641493,0.26391221173472384,-0.4007477482273543,0.10655085830005175,0.438786706004206,0.6083688833526162,-0.8919854321576264,-0.10711153961430202,-0.30860927518809184,-0.2801942285493835,0.05410348868133654,1.30749788319141,0.9024115242987533,1.0616998195941147,0.22927830888751444,-0.4145903035495312,0.17052824470612846,0.032168106730231884,-0.4684569342060362,-0.04492541441639861,-0.34589015181076166,-1.1597698662132887,-0.21975650723076878,0.2727510862845116,0.5292744151058005,0.6612344994492338,-0.8453846530246318,-0.15253722098022887,0.47430814661865595,-0.16068358490686155,0.8041380480392655,-0.967501267367236,0.3962682760558139,-1.1078017735681323,-1.3878313700224676,0.025315045687938145,-0.25294722119033974,-0.997705820946858,-0.23999666194048083,0.3321445581103726,0.037222492266700484,0.33560434708175235,-0.5726113801058756,-0.6523127203080813,-0.10243537211214258,-0.4800281460100664,-0.3520079284350917,-0.20622630164388348,0.06713410272976933,-0.4179601770188315,-0.25585199546824905,0.5329893953790541,-0.04387422356930303,0.3995757545150348,0.5494074276545325,-0.8584823900192948,-0.003446207351013717,0.813582777009215,-0.27962958293668694,-0.0694248064793344,-0.30936594553234503,0.5387773607362432,0.19991784608166033,-0.9028524013701783,-0.5030724464145352,-1.4595779676047609,-1.5039632143779573,-0.0492546815861383,0.025061174020483815,-0.07041242232023037,-0.38284985381037423,0.00018994599326980135,0.2058061824788672,0.47304398598404607,0.3958867043720348,-0.2949464176964093,0.20411946810395534,0.26304658847278706,-0.6372601552268355,-0.021128266062898745,0.40169114125550026,-0.18303028505407287,-0.9741586982390577,-0.8318436041449498,-0.4697876587347854,0.41593500016796786,0.22412384910572838,-0.7755323212657588,-0.3428230540413706,-0.7055577921071685,-1.1219605534619894,-0.17916519487921068,-0.5946229148917737,-1.886903296354474,-1.9132036745732413,0.25529878158489805,1.8858454494677959,1.534869748488768,0.6227046705101279,-0.384532341328124,0.3727632841135207,0.12911153048236473,0.4409159744134428,0.6699747392037555,0.9565689827163799,-0.5312365605369056,-0.42459436427352315,0.13382093836037245,-0.0074604147268511325,0.10016188503151215,0.7610115411022713,0.5702635141295376,0.46656200898329625,0.20087262402798522,0.38892415044554546,0.5866682438027403,0.25159696393151143,0.25409608149233487,-0.24176688419394635,-0.5571076349829074,-0.2881007315550066,-2.257434599903907,-1.8415849275418732,1.066958764267985,0.4943389533863391,0.12830750735951896,0.49769986436403774,0.8328674229414291,0.7014207611482122,0.2995066520725261,1.0408790843127866,-0.36852371484931024,-0.3643675120255035,0.6435970535143932,0.08788389692491788,-0.3749281881608475,-0.6660024326338715,0.11282583462025515,-0.80807070952543,0.5809738160328947,-0.6795133472325917,-0.7725933931161744,0.38585351531945866,-1.3277294268786421,-1.277945478977657,-0.041237811984944375,0.4006157838836139,-0.7280604111894861,-0.7120181202058741,-1.1594923782739248,-0.48689834637125706,0.9539069704964024,1.5210334430254289,1.2985447226622082,-0.014492391194180115,0.5937804974389023,0.6159922630086775,0.07277714091551707,0.14903231223600663,-0.20657669469329995,0.16104633413958822,-0.6695356779567577,0.7464846329133575,-0.6173389098707347,-0.19089739875656436,-0.07416823542868306,-0.8104672008841993,-0.009156021610948804,0.45673527188189506,-0.8697723210662903,-0.389490679035961,-0.16511766545107484,-0.5011908053818968,-0.23582832928581393,-1.0686485874545317,-1.2196586736959694,-1.6514709710435562,0.18892918104152936,0.6940438072876736,0.7963448830761375,0.7226451655544371,0.13115808348571611,-0.09864001999105666,0.509192597821962,-0.34050890630663583,0.16423539942864898,-0.3536665815841931,-0.018988056528010742,-0.6049547950604031,0.09078359190186461,0.5226136412776556,-0.26164974080833026,0.9398173376527329,0.9355099537171899,0.05418980811260475,0.00793368589995887,-0.6254804840795367,0.9875379218856079,-0.2856110421829189,0.3455257604831178,-1.300581271215677,-0.10687684104018222,-1.361025017197124,-0.2715375181485489,-0.016470044232654735,-1.1419835452982374,0.2745238136239011,0.24604469368926146,0.9338267269403562,0.628282943371302,0.3303378868753002,0.33328569501140093,-0.5706173001586029,-0.4351776749759349,-0.16985924301363634,-0.3522303953590604,-0.31055415632342875,-0.4661133930361695,-0.8375535053949695,-0.3500665793661931,0.547722857423699,0.1542520725720964,0.23827407526518984,-0.49023228580983674,-0.1387259793058485,0.5990428799013392,-0.9898570721513787,-0.6333016716189178,-1.311577211047531,0.13011989598436627,-0.5495121136441495,0.02578249342534507,-0.07921368027207244,-0.10147971171060524,1.4239088325165998,0.473758260466959,0.9353272445934647,0.28185447974905403,0.5718857620789752,-0.6356645602071368,-0.15424652399237404,-1.2919719027908574,0.27751891735032747,-0.6151330319399119,-0.7843105356146621,0.13019074671964906,-0.7118637011158342,0.8145462534491517,-0.14510968804919205,0.8651022967446932,-0.6731557275489031,0.7455214853927612,0.875262462121444,0.6963929345143517,0.68843357427812,0.4761470175283984,-0.5138690201636665,0.35583488288087833,-0.389098684189443,-0.5957552135454157,0.43568575765203016,0.728166392898405,1.1227089721004262,0.4150831548801039,-0.3258968516045268,-0.7659872142556865,-0.7682562968109616,-1.0173325144606296,-0.5364708587585942,0.45520314779816307,-0.4952039943796259,0.948375276646096,0.011875721353465315,1.177211306477162,-0.5981769513350631,0.39112545294339396,-0.5018220485198784,0.7915650468845719,0.5261575700138097,0.6377893643525501,-0.5906982893110583,0.14020653440837308,0.1968622233534786,-0.2703903442961836,-0.4272686022137553,-0.9446936967817494,0.23812456869847493,1.3830662335512618,0.36267530612813126,1.2681834190068713,1.6145045696864937,0.22028080310812403,0.6310233287568399,0.43280779945169306,-0.08139992701097885,0.16820673657508073,0.27384926784845615,-0.1957169470865008,0.31741569341026993,0.8981670713148698,0.5705460492561941,0.9177453786325216,-0.34307472365614516,0.45373160047221617,-0.5086716852642749,-0.13263782287050807,0.917095554070672,0.03773653793584348,0.9379018153490033,0.48525569267791224,-0.05998833216089693,0.468980304983556,-1.2056065850560065,0.1550734849593138,-0.1280643657942772,0.031290669114488925,1.6317928044553005,1.0285481579849995,0.7803581511807858,0.6662262897661506,0.31106013098348584,0.5208467531660418,-0.1632548302837837,-0.04121871520157212,0.7683742211356902,-0.1253678420138654,0.5643580600003122,-0.25176688420836607,-0.2592227483759111,0.6496909476075504,0.720861477589693,-0.15958905725732375,0.06187619105151928,-0.17884269210513729,-0.05365852080813238,-0.3789988882460546,0.5217162100790643,0.45432011147983287,0.6805674665343375,0.29710296327804897,0.3425739854181218,-1.2474761357566844,0.2931287592180261,-0.10138813230652644,-0.3504479227303361,-0.11317667521500323,-0.30529301905402795,0.5817783453828991,0.20423518169245278,0.44254847002304093,0.5438489354668574,-0.5328888857062766,0.5626329713135695,0.3692797700705965,0.15673330156083293,0.8922597065939626,0.052813116046590634,-0.25882808251000566,-0.12212436496418788,-0.3000519606078169,-0.7183380504575185,0.2550363774809152,0.16174349525167342,0.8341815831830641,-0.1396376981463293,0.49736427578770315,-0.5944601521305073,0.2331732038393966,0.33865149804479944,0.41901100450638795,0.45920112627942633,-0.6253788884470399,0.053999805420860754,-0.6541088016555483,-0.8460568759175997,-0.5363697180983296,-0.04493677393238247,-0.057466159785403516,0.4493336793678914,-0.3609723875776406,-0.45584506943704517,0.3749323417538561,-0.22338232432509889,0.19355954076460083,0.004294162056717401,0.7875069950608576,0.27478306849992284,0.4267345065210853,0.1886982452348607,-0.7274859347134284,0.10777730920018438,0.707023762888602,-0.8184569602892127,1.1563902260064063,0.8903172516457993,0.3008367320138915,0.5702005235408293,1.2219756781674311,-0.32587820555571323,-0.03032939527455832,-0.4632939145532744,-0.7701167737125456,0.31572973522361597,-0.5113591331191627,-0.5170238670266061,-0.4658665791848044,-1.1714774673471535,0.2798803029202787,0.7209122046089878,0.1485814037142642,-0.17449125301092241,-0.7462510167298512,-0.5388268637960139,0.5358692739653099,0.13663424818442407,0.09164909564185843,-0.720117199113959,-0.701692914273453,0.10211197903106362,0.3605416408790263,0.7163965562986987,-0.2873592544279403,-0.7429145520077572,0.7165140810219413,0.6579594304160271,0.30241777230053235,-0.6538474772240123,0.904792049005001,-0.6537354387932149,-0.567916477266303,-0.19657136715592505,0.06346779401355993,0.3828898942666721,-0.3104930020956495,-0.48018790829686553,-0.4405464060096437,0.20354195367278338,-0.15199660708946383,0.7320409870040033,-0.7630169588367894,0.18571207882616675,-0.6425476209496244,-0.37296893098138384,-0.30146733233542927,0.14956318965951354,-0.24019705939720315,0.9449609996419488,0.8593524605936442,-0.33919859522566587,0.5095913145189225,-0.7386368773814946,-0.10160432138927353,0.49979598451248913,0.31091866494028,-0.19330610609101725,0.20327489742713906,-0.1243591182869218,0.9868701984073729,0.3303496364180266,0.842184067147912,-0.13576936988585797,0.5788883011337799,0.9877876500608965,0.5890062035089172,-0.8444492006139366,0.3254420448596555,0.640594626063991,-0.3120056907468407,-0.3757877472704701,0.10763212620699092,0.6782376228063233,0.010458243952396551,0.8265028972435046,-0.7173560038591524,-0.9684324686256836,0.08072011742287222,0.11577963046781921,-0.5893973257743733,0.771675533980769,-0.15428850095582808,0.040356748221918766,0.17346891858653773,-0.8670362874240528,0.13599409058913253,-0.5375765797002897,0.6133951164303517,-0.21222423608008298,0.3493484088720882,-0.15050090631688282,0.6123579010942334,0.3018327075274808,0.06239408894339252,0.09898040963055225,-0.3264822229720648,1.0283713616986359,-0.39604429374574396,-0.29415894729624564,0.31219901328536714,-0.651490996212925,-0.6417353270240711,-0.20675104755517526,0.9522642229039502,-0.8068626077046772,-0.43618747631120325,0.8692291677134432,-0.9545615438424112,0.25122858833021877,-0.6939392937348832,0.5465051081892011,-0.8521290652787229,0.4723756291236909,0.09431134569941159,-0.7205890263816704,-0.5276139413241187,0.08298692346004839,0.5101785266090626,0.44054994157401484,-0.16237684316277706,-0.24351836254524092,-0.04121432767935071,0.11272371609478184,-0.29331512979457125,-0.7248274125272703,-0.9289408258591688,0.516798487738626,0.5957112597185482,-0.9533745676390137,-0.16572568465257076,-0.10079113141374063,-0.10398209853492069,0.5027510841552751,0.3629010858011825,-0.4008324941138579,0.13189074782133403,-0.4630101839942971,-0.5007898825386934,-0.4458626114714787,0.6770881839015777,-0.9493336548827311,-0.9373523615459013,0.6566401891384044,-0.338439061692329,-0.37441193167066,0.058148663454204434,0.08378100701913505,0.4395655195689673,0.3784409567522499,-0.46220398124465806,-0.3449044916452565,-0.25706140659894317,0.3984257788761629,0.35326661629919903,0.6956819735157644,-0.6514200221502271,0.7070374465261573,0.2727250672234185,-0.8226420893298194,-0.6715716566565519],[0.4708007151375162,-0.37267024604963517,0.13445129083185248,-0.8569106548618521,0.6828730747145173,0.07507429687511147,-0.26364098228809385,0.5578531849065174,0.9132704311119919,-0.48759342947083484,-0.9099359857147609,0.8127384932105644,0.19775856697162073,-0.41337093844590417,-0.5337426902504854,-0.011129020916401128,-0.31631656061023716,0.8630326267858053,-0.9045342942065417,-0.0922745470052948,0.6992731685544331,0.31709388113309944,0.497177812427845,0.16372569582493202,0.5820380071450799,-0.0020265680639981465,-0.5106763429436434,-0.580347223483604,0.7791309684761338,-0.6313779479174413,-0.4189664248556464,0.49310321190681905,0.8463780801772447,0.6269752120442391,-0.6464390840175019,-0.036950313195575575,-0.7667394168609392,0.3785423779640625,0.7598204305999926,0.7796608217559831,-0.29000561319639306,-0.8392909755615637,-0.19459270174038976,0.5259628764183891,0.8542962032540705,-0.7309206316505682,0.1971135709533042,0.9372840262123651,0.12359963506103562,0.029563310265517805,0.32511318501067016,-0.07684512786435214,-0.46156864858380264,-0.6681771545670263,0.9003770025482714,-0.5189035033221079,-0.7177172471320279,-0.9586123302143206,-0.2006375129746194,0.27328782989091915,0.9991250888494806,-0.019757115832968984,0.9175128639546836,-0.3918933116576153,-0.5250433952190822,0.40302120014350734,-0.45344328494019914,-0.7087278489624704,0.17839547751210522,0.7336092166623128,0.06737390296973253,0.5380065047878432,1.1593098276761626,-0.550956540703793,-0.19963357475476853,-0.26560517045797577,0.042998750748597596,0.3639182215539451,-0.33798554020507565,0.862435810409886,-0.7543598471227942,-0.765218770700021,0.14682593883856,0.5813893065801317,-0.682050758361356,-0.930344126136339,0.08935207115724109,-0.5357725643203541,-0.01333679079918451,-0.8078508263726724,0.5591492192241332,0.4117609244478548,-0.899246199860561,0.4705443427732867,0.5966974079608091,0.045339875604585966,-0.36547346770268435,-0.8873360147349658,0.5890469712832519,-0.40652683714931176,-0.16963799872972934,1.4018373567596505,0.44277744158366694,1.8337323463400839,1.6878059105929206,0.3070077173596269,0.8127345689861598,-0.6189952142611649,0.06444566224790395,-0.47858060744857744,0.03847978848731764,-0.9728527841503414,-0.6781234774716167,0.3656472944649128,0.7719229119362022,-0.11262774237793775,-0.005683156807943162,-0.6595949812600946,0.3665334781297285,-0.1725023437289098,0.07195917105991324,-0.40069278427997984,-0.3352630515275491,0.10676138899646394,-0.44309611439476154,-0.06236969983005618,-0.11529746409159297,0.021858335270344833,0.5058314920310386,0.5471800623132568,0.5799011883245704,0.34896097022556544,0.566329699963624,0.7530892394998592,-0.39958716375710734,-0.18057543220969322,0.11769752095686911,0.009788675187868742,0.13275651475749453,0.6027338121912476,0.31212837524925474,0.06399713330043255,-0.7077374676394999,0.6018428051203579,0.13257947404806786,-0.5655095015077503,-0.24111796818968084,-0.6356631384799706,-0.07826650140609051,-0.29225841049969997,-0.4738360684661899,-0.9745242361380781,-1.3311105487976134,-0.606718300169404,-0.9682099293810186,-1.5066228086197277,-0.6534344713140486,0.16363514454784187,-0.37395074233558573,0.3713187116432984,0.376520112423973,0.19303272450050943,-0.3421544891719344,-0.14149802997013558,0.5017846790259906,0.6010150705724842,0.210992687767396,0.9865926326953741,0.6697343189469713,-0.2620661057488207,0.4127870277165704,0.038832690614245075,-0.8366191302876426,0.15304876181269836,0.5583202483087115,0.4914136963436018,0.5167983369723957,-0.07788964409749881,0.29614045443127196,0.10109306182547963,-1.103872631973876,-0.8962747215612916,-0.0992198963534486,-0.3513983883011921,0.03208099233435797,-0.453969100792565,-0.8734846245683641,-1.0923890057750316,-0.37441425927970123,-0.7284573595208489,-0.23677806886433606,0.014172666165374298,0.16822200976459564,0.7189124289964423,-0.1344206346521218,0.634302084287584,-0.49131174893628565,-0.8711497460863264,-0.820015522550158,-0.8259216900472344,-0.13270306728676023,0.7395081045593713,0.3950468624488503,-0.699075994165866,0.5584240760984133,0.5105589412203619,-0.7716639489410525,0.37215683748439604,-0.41323540307994394,0.5513790755532768,-0.8798164102038932,-0.6168229275273912,0.634882437998292,-0.2782186184327349,-0.7541417182677448,-0.14717518773041185,-0.5453384745833376,-0.49315797425704805,-0.9068826207233927,0.1492367609467998,-0.06983671738022067,-0.236086641539749,0.47799866676384567,-0.21103662536399478,0.49693014320337936,0.07938447862740815,0.7907266083575258,0.6026212424512332,0.20724044982739828,-1.0527103359975636,-0.5422804534346143,-0.02878046618991489,-0.9732694992490559,-0.19716292548552472,-0.5727091145772077,-0.018077555529241156,-0.2628369326316947,-0.5541818939991566,-0.30612736449091354,-0.5115481978649902,-0.36868917226963144,0.45560431227988085,-0.1256340968193194,-1.0802283360864648,-0.0018652269483810141,-0.5639456381647657,-1.1334408021622875,-0.6764311235992826,-1.1478291086645775,0.05156750278816354,0.27567792523099427,0.4180756123816793,0.4590731560074265,-0.6287141364358515,0.9538974855583482,0.15972460020633544,-0.24561810801940093,-0.5252605523882214,0.010037857941593998,0.29854563350742924,0.3050562332941998,0.7748744405401522,0.16722465254098956,0.502511545238632,0.5837391026169293,0.39593836712148656,-0.2115119884277935,-0.1105247915945825,-0.5871821766375284,-0.40484304573684876,-0.7929391532647612,-0.5992319547967796,0.3943728306458302,-0.7727021189762638,-0.4856648670135739,-1.193103050681857,0.050208506935503334,-0.9027582398544501,0.4470530464175144,0.5459718795855646,-0.5219463086216202,0.43994258775805944,-0.4937586516574873,0.4748848711345467,0.5823589488520967,0.3505962588499545,0.2694955386600643,-0.6650290366224539,-0.28277536115580143,-0.31217702045578893,0.10917944339081674,-0.22418160497879716,0.32668981059021907,0.904038117299708,-0.4507584647665434,0.3400257270200405,-0.4996369258878199,-0.4665317089423343,0.9087052857161845,-0.07714262791348654,0.6554225366937811,-0.3969154496038197,-0.1783697348654155,-0.6762340421872232,-0.919096588554388,0.13044394093255662,-0.5096015912209227,0.9525819518556311,0.16496770984733256,0.268246550678629,-0.6361989917382024,0.1735939670219801,-0.6090023507737063,-0.07859163688044649,0.567693397042531,0.532917457992531,-0.13356877622622024,0.37977172817726274,0.4401394499533993,0.16901296593345366,0.19077779049338375,0.3438331434013233,0.17524272722301115,-0.3261778812009181,0.5706651174813522,0.07215769095728655,-0.34106199142669885,-0.2981102942988431,-0.09751383670818914,0.2959913911308716,0.7218407773722458,0.6558974540054539,-0.9726274663503768,0.27510348461629197,-0.2768391657531421,-0.4427110654801435,-0.1923033010680204,0.47448466313633064,0.8657497511249471,0.3959395233620267,0.8775813456633559,0.22972641612376035,0.09410954573455152,0.17051990056695054,-0.12024001287395625,0.8656020728962717,-0.2373295160413202,0.3770145889068582,0.4579968069067074,0.023389304602806433,-0.4714830702971149,-0.3106911700144003,0.21900447658780023,1.3211834075726845,1.328928518842297,0.03517021888063784,0.6523787301213166,0.8377176715556619,-0.05616711482970579,0.09374704109278463,0.864012634587045,-0.438479597359135,-0.6232751966130222,-0.8599061420744322,0.7991537939690359,0.11399593522715629,0.00031851739893346324,0.07316097986633928,0.02720570310621167,0.2609906276668312,0.17081468827208005,0.40295472067226606,-0.30607506089717457,0.0011282763700525486,-0.14438781208745283,-0.4529358763712767,-0.7079984612981873,-1.348689776741194,0.2526688398128725,0.5230705251338672,0.9843532939155735,0.7435515202652719,-0.06851814862408039,1.2791652880770739,0.5420832420035788,-0.16872297025033897,0.4685639314007993,1.0483619804931406,0.5737841459422174,-0.979788817142313,-0.7636442597935319,0.027400527463883,0.8692308977253224,-0.019171878132326178,0.24965091262512934,-0.76984626954983,0.989321967481278,-0.3007873617072662,0.8892076623176274,0.667178229832236,1.1324953673826037,-0.2227114116284014,0.41204150419952557,0.46626395565643663,0.0919951781000049,-1.4480595152457396,-0.6116325789999586,0.443017042606389,0.7496996340226634,0.7503013004493722,-0.2515664621741937,0.4996790159408735,-0.17289224348026333,1.182482087281872,-0.17508006854276834,0.6085681460134306,-0.43185054271238354,-0.8421884416895636,0.06702603234767204,0.8722020077122619,0.9173080299793831,-0.19460405162521782,0.7167642410879386,-0.3934382069413852,-0.5985496408326407,0.18869714847173458,0.6137975922141637,0.769406619703212,0.3070556798783159,-0.0711288742286597,-0.5421224961020825,0.09090648072817213,-0.5694910437587203,-0.23616729356896368,-0.23172155932308833,1.1035495453801507,1.1356370983406812,0.7147716217400395,1.2649052883141907,0.631274493726645,0.8449421608801896,1.2911145800558144,0.15094612816422415,1.2000985791886098,-0.8106532938640564,-0.37482211236371554,-0.08838824000454645,0.5672340047223574,-0.4844402078802557,0.012943315073029127,-0.22410133252085493,0.29333115903073537,-0.28737678070905964,-0.3722072676761745,-0.6433577198266779,0.5581402619778711,0.5518456315692053,-0.29358139278258116,0.33534429870976906,0.62482846225946,-1.0916275992526498,-0.44980506074584675,0.5559605629853381,1.0826731454519285,-0.6261852220323795,0.8580639634752848,0.42496864578489346,0.3326801755903518,0.38524597318205706,-1.0020817070902328,-0.47450499331863694,-0.5554049671952602,0.4558105116630302,-0.06133242244018507,0.8028678956847161,0.35077688597088363,0.8274494572469477,-0.888843861184056,0.04215508289649511,-0.8638468571079183,0.5230383775093557,-1.0917881387638222,0.3889140526785085,0.7435122358793745,0.9229381098915656,0.49293840698861074,0.33391016168752047,0.6810816898252469,0.34622749340911285,-0.6963055132648325,-0.612792592893864,0.15548173260511258,0.43278751435130464,0.09306203390798128,-0.7227143981373835,-0.3623304341985691,0.25791671432763735,0.6942668429852185,-0.7588451124597506,-0.23030002073753952,-0.7213623499776626,0.6729886723791638,-0.7114920203576202,0.06582518826567502,0.3952984163303345,-0.3927066183049047,-0.24400198534340012,-0.4266921242901621,0.07745010593470114,-1.5683657498835102,-0.5244118254190073,-0.2664393343724027,-0.7338210760582325,0.5887109546625278,-0.3560641814434121,0.2610584315171456,0.1139564875375082,0.47361676371429096,0.38709582084978406,-0.01820602393679767,-0.7056680894628233,-0.7933809581091822,0.19552906884626592,-0.8251857012523599,-0.16564848567535684,-1.142430572054689,-0.2905913586500099,-0.2545975964997046,-0.014927883451766455,0.19958542364729231,0.8775442479323747,0.5088728915784874,0.777742060739552,-0.464111503047563,-0.16844786258399327,-0.3406548264400478,-0.22245462059678128,0.041413477087112696,-2.250808688214432,-0.3417368669869042,-0.4507200307569317,-0.15452066069126888,-0.14611888849725307,0.27812064745886417,0.1161787672639052,0.33609707841726194,0.403008568612108,-0.7004238420171767,-0.1803270427537731,0.18864353143213877,-0.3483548542859129,-0.686034025486995,0.7631724822917764,-0.6112055099890856,-0.6637921331660419,-0.5352098527704003,-0.5372905314360173,0.7227732437159301,0.8706855385085573,0.9217949030919991,0.4418429243114854,0.8281123458441982,0.10709972869230826,0.7196737245202661,-0.025400552680973538,-1.315168883031279,-0.7391073240144588,-1.6365739719266685,-1.557466226312061,-1.11478768599865,-0.16811598044688808,0.9503977815664164,-0.46057045985050654,0.21866718804580526,0.3626942216017206,1.1369116388810447,-0.011678701889985458,-0.4565534374528328,-0.3464549891378799,-0.3949667481810644,-0.9811599378565025,-0.5206108877488121,-1.2373656255666028,0.05099972560582663,-1.230670066736921,-0.32793732218618266,-0.9827425198514936,-0.21385816068769464,0.5648690350749367,-0.22497586215262125,0.626248383515819,0.4626746854632851,0.03792618642224659,-0.7164895503205402,-0.4813829843879421,-0.9963546192880222,-1.2920823516443325,-0.8405905928511519,-0.7853136431389054,-0.46442200915218457,0.7695281702395205,0.06156607638233223,0.9032257262302293,0.22507291206143906,0.3253614505511477,0.20091696245046764,-0.5382112013539906,-0.9006511218670419,-1.4898169618251256,-0.5626313376491944,-1.0336738252075468,0.21072206869259286,-0.777657953085701,-0.9358108291921996,-0.6084766302217056,-0.2851227248660711,0.5726179458796786,0.5239632338526564,-0.9260261653760645,0.6837812075632662,0.29912485339287276,0.09349675965177368,-0.9836832309573743,-0.11309538250124647,-0.17190765214214399,-0.012778489069268316,-1.3431044420145697,-0.5111304562878174,-0.07990728418394327,-0.4067638297739296,-1.2265628875810919,0.21689837192510658,-0.2540888084754386,-0.33849118309684445,-0.22834727466059127,-0.1147712791394497,-0.12554770899394596,0.3802609947476901,-0.8960969504262918,-0.25432044830972556,0.0077437029431672464,-0.048005461270992374,0.7837150026706933,0.898594644053934,-0.7118779266468938,-0.9758649956190082,-0.7188104594006226,-0.7654994575485116,-0.1828118336582683,0.941915313133409,0.7760948941179633,0.19058685814633025,-0.5242366438329744,-0.33350948740562525,-0.04362413204002021,-1.4289829894001789,-1.7820459752402336,-0.7963562566493625,-1.7562637428834809,-1.313268881026754,-1.5476730405683978,-0.9749336706574272,0.059927139269181466,-0.7368177735070003,-0.8094497250573192,-0.3684427472787053,-0.6521167519512164,-0.11300726664956968,-1.0036748409869176,-0.962762955204533,0.5639288681576371,-0.7414655253380187,0.6931015707539467,-0.4518234123840905,-0.04953098038373922,0.43765751313208245,-0.542652894262795,1.0259949132981394,0.37426635754375737,-0.008748142291805367,1.1117056856300058,0.5267420037633288,0.5393923876049983,0.3311598579824004,0.2849088555430102,0.6121639250719009,0.23735451525404036,0.9264531924550334,-0.24161802694002385,0.42529608877317243,-0.5724184876986308,0.747322535762038,0.16541827105051335,0.9665340037057687,-0.4030357078747946,-0.843512457386298,0.2572718302152919,0.7534453784023728,-0.8016594083353689,0.761622554842547,0.37590303799156755,-0.24919531999456979,-0.3501497444627877,1.024713727678473,0.9639462948530642,0.6463082611733598,0.8713654802772391,0.9590640127353145,0.6022935574153753,1.0186996096816645,0.8902941456885305,1.3208546162765091,0.53508232113028,1.291187963681301,1.2087188835517728,-0.3676435803250478,1.1257740866514427,1.1360579012451077,-0.5866264250769422,0.5745074122434889,0.9784703104802217,0.7242597326317555,-0.505828885239932,0.11647287941897319,0.8165106485748781,0.5424099793228968,-0.9550693350722758,-0.9363799889015798,-0.8123108148204059,-0.26748379601564864,0.2716675357658047,0.8466073887605462,0.8498813370671718,-0.5242177153760742,0.4294939164784164,-0.4333448198887052,1.0336898726568478,-0.5131616607228529,-0.5218772153399821,0.21664762002707708,0.9460334651353671,0.4392924144982998,1.1637973270157116,-0.5750384004147076,0.45527532650377744,-0.7209960349624438,0.16434162251730622,0.0336705782951096,-0.39010688713458486,0.05969579978048174,-0.07302975610361453,-0.3371866168654183,-0.7256531483033093,-0.055623089208534315,0.08831768970822784,0.574276098797625,0.7465199077373761,-0.3236393050172115,0.29842795982147363,-0.1609112352117188,-0.31708189168368217,0.9948033518005082,0.029194222151495915,-0.23834011463612775,0.966960361113257,0.35586836230457075,0.3754253788822836,0.781226355573596,0.3246386163928536,-0.5560212903725558,-0.4256021574094652,1.0002776040385517,0.2200220353692632,0.22470761531035174,-0.5409281973371328,0.9929391409465815,-0.34362587483997575,0.5171638212953183,0.1602355255686642,0.7927886872427087,-0.342175139561147,0.5971546389403837,0.17343014617962882,-0.7652688058313197],[-0.7688189611001714,-0.955305601357008,0.775359521923153,-0.7124501002405363,0.7901566884465354,-0.8038850249128631,0.5386386332616948,-0.8298996590318446,0.28657603845162294,-0.8323970245611547,0.952869661914753,-0.5504468727406937,0.5428664512058604,-0.5861234216846583,-0.2800261477610808,-0.3322342947865962,0.05460968163064006,0.9154626696980519,-0.3162749306285768,0.5437631432845222,0.13977714587777545,-0.4782179771729693,-0.38585284467471004,0.48166441127494175,0.04283773669338253,0.6041599427410742,0.0036613601581343413,0.7985674371145886,-0.35533703909417036,-0.543649888604238,-0.13343152065705866,-0.2076689819703439,-0.32384705116703993,-0.40744301949307254,-0.291858471605891,0.7898519237116052,0.9316737454150738,-0.43151147521068056,-0.9174525499577121,0.35718678903784273,0.6053514643907946,0.26552124675835126,0.8139322126384348,-0.315367883219113,0.5236880028337122,0.32821252057606737,0.5835099238290994,0.6425017628998471,0.33833026032154184,0.18831443467531492,-0.40959680137117865,0.054012524423590766,-0.659178980860319,-0.4226011559253553,-0.9643700704480735,-0.25623248931721143,0.07139129761855023,-0.22662607212051067,0.32335917908366607,0.1641935053107133,-0.876017128454488,-0.9117452410002123,-0.24688412710599741,0.5434685189305343,0.5608197643495798,0.9519483785784891,-0.5890822950380575,0.6546187835040127,-0.7593618590416353,-0.04049043960756684,-0.610779876557586,-0.34001094400027615,-0.6479164390104168,0.05899197749356356,-0.3749540687323834,-1.0185776451165005,-0.1881611119379904,0.1719172415450288,-0.4921563588009043,0.9827715530354945,-0.7230113916735225,-0.6285796942300735,0.9452558929551989,0.26251602851780387,-0.3523029351332445,0.7843521545516543,0.06083623656458759,0.559124661428029,-0.7158893743651112,-0.8129710290396658,0.7077675499451256,0.03664625611951169,0.8883359381938437,0.40220559049044496,-1.1050216452362165,-0.9626018653837779,-0.04755276215045999,-0.9985119366648806,-0.7839170502308861,-0.787746225536186,-1.2723472414176829,-1.1622245448877004,-1.0613939959030467,-1.3008590350348364,-0.665250895897264,-0.5442521593526248,-1.0743156495109112,0.05752931972141155,-0.1611889629062061,-0.5263771725978701,-0.08396617092915024,0.8756520212167149,0.6243970631885216,-0.39554730253211423,-0.9644311055095905,-0.9703428324924583,-0.4473285032582716,-0.4049547282659153,-0.26482606828487565,0.3047714967591355,-1.1443031910724781,0.3964285088287277,0.4719205985644539,-0.05364737370974701,-0.31143788504677233,-0.7316413583958344,-0.9403926341855682,-0.8172792411081495,-0.3715913904593209,-1.058591701506151,-0.26806249494695605,-0.47931934629349715,0.20913608543450765,0.29391341421513684,0.17365519750828773,0.2971879052317975,0.48891996448791436,0.7308992190615681,-0.6039088709623163,-0.630303577711018,0.11514222982375144,-0.19697063300705264,-0.5773322010128685,0.3335925746603314,-0.1610466219227572,-0.41121236968987657,-0.8581060764847073,-1.1015270038243528,-0.14196175739682773,0.38676122777201183,-1.227802102556824,-0.6136279339673312,-0.34822596873354644,-0.12025103885706696,0.3152734732021385,0.4279745461508867,-0.5010712617965908,0.40863162920849294,-0.5948153953709003,0.2842831385609378,-0.7415701374578446,-0.6573251292560156,0.04492221087726735,0.6255507311801733,0.6007820818084448,0.4259810372683329,-0.7974252035523159,0.9104413227464443,0.9284443856990883,-0.9864378990025906,0.8101625019257095,-0.7874353453324872,0.20782617272075896,-0.4629496120370517,0.10934518630105908,-0.5480952133360952,-1.008492205378471,-0.9759742019460051,0.6704405505601577,-0.20547221574531374,0.3455384493135907,0.8135759919121865,0.903455515745707,0.09774124328958338,1.2403391778949127,0.7422542411446852,1.1526846529007102,-0.42216920167066807,1.1939814272050653,0.5206825535469252,-0.6791096850288393,0.14660227014123378,-0.43152995845889663,1.017154843793431,0.5894793206300702,0.41171174872652494,0.9683191379582792,0.29148679026148994,-0.8234711540778747,0.6182799721597642,-0.3787204566917108,0.08355439250676605,0.34613841507488785,-0.14638743121779516,-0.5432251408986049,-0.7796878251914148,-1.116424636556595,-0.5171550361262102,-0.7845523959218016,0.5844546681030217,-0.1986429171918065,0.972710788295487,-0.014461950999139607,0.8635080928427091,-0.2658794501289723,1.3405604443344188,0.32668387221908335,-0.6440871727136083,0.6221223241047555,0.48247644957030345,-0.268205836030642,0.33699109108783987,0.15009346432542167,0.8155134790993844,0.4076198137156094,-0.5586676804924889,-0.11333702578660064,0.0814902156117896,-0.4151928304007212,0.23279841381169536,-1.0863555529792333,-0.36172875870687804,-0.6570124609556428,-0.1745789170449981,-0.08797673487425897,-0.24531586825471213,-0.15282199391072235,-0.2917739176620216,0.8035885782005099,-0.1629213908172234,-0.15592463749364965,0.6869906942161571,1.1870735230391662,-0.4315435676021344,0.03574285270449028,0.6357586590041133,-0.29927929659230845,0.5454649889144491,1.016054099887117,-0.6725298881386184,-0.18703957686803763,1.0146107853950164,-0.43170179393260805,0.16828073848004038,-0.261014992645709,-0.4509390425523915,-0.09681878646165502,-0.23799518678937853,-0.8959705664487981,-0.3479344091645237,0.07518939362227525,0.013931956973637543,-0.3626006959253133,-0.37771113972756876,0.6747280118972332,-1.1580042170352172,-0.622491501508582,-0.22110076071396767,0.31566949877665607,-0.11535528187224302,-0.8417692712793473,0.9279625590137592,0.03859762437260218,-0.23535082161770562,0.2784545612460353,0.03168048021574629,1.2753030407242743,-0.289937934216901,0.39262735434316026,-0.22733492999255883,-0.23015545586508415,0.8504659711705157,-0.9090924475716643,-0.9616634721028942,-0.6352232226820472,-0.3265935521793981,-0.7270959963734271,0.004529815932264482,0.7219264863302872,0.43868692705680973,-0.4307754247700539,-0.2590000523575062,-0.6203544452791903,-0.06973155138039328,0.05746581022864952,-0.8201298188775817,-0.7151602551248859,0.28721259690959244,-0.6805656913419268,0.41514290424488026,0.43099030237742614,-0.18471340495988975,1.3017211231736594,1.2701940698207013,0.6424522253357722,-0.6377609762811349,0.6697378932905603,-0.7126891513956569,0.05816659472262138,-1.0080755140862627,0.6681510011409176,-0.0842299763062637,0.11443774440922863,-0.44525066916884576,-0.43821528191561865,0.3517679357026869,0.2577660822332722,-0.08711989820888955,0.034297983741910044,-0.03754366382776592,-0.06004448414400033,0.9629290693596769,0.8383559612883157,1.00400371108119,-0.310156395894844,-0.7271325238096706,0.258750158562751,0.1728452540186612,1.021611984945861,-0.0759071485240856,-0.05438137604020244,0.8040489720196173,0.3042297636565608,0.11629412632998212,-0.6393404974488911,-0.8183471429704827,0.7709564171143557,-0.14768351656755135,-1.0264048302421023,-0.7631783807074625,0.03747121742895187,0.2650078602850847,-0.23048753937212588,1.289510804034885,0.22493573499735983,0.22425121567011652,1.7094346991487277,1.23680114766419,0.6797039231002071,1.5802450790161398,0.7222408765257993,0.2828896744809939,0.850348346333916,-0.0911109237516203,-0.19802246457828943,-0.16634382609727197,-0.6010377833620999,0.6384903454230871,0.34112334792913174,0.4407713074855873,0.6811673543914887,0.46397555429469894,-0.9043648245480467,0.5189061072139143,-0.2454853885115491,-0.8300543393312839,0.746014081959978,0.17046707583620815,-0.4170190162739874,0.42646142056374453,-0.34289279860839406,-0.04904897079690506,1.3876767399971952,1.16177440193226,0.11724527515618662,-0.2828160043759156,0.35211117777447026,1.460308800480245,1.5221546062466877,-0.1947519058059388,0.1358298457407805,0.03143364207827683,0.19566481117419113,0.8673457080937649,0.09386502622295545,0.36593965258739364,0.7560532736835689,1.186376310340648,0.714614767201189,-0.26947685584088543,0.2524718240197458,-0.2653399915243501,-0.7516592278438526,0.21804441494162002,0.43043138969416206,0.672253018477239,0.04282591836696925,-0.5866602829498373,-0.21529063535066664,0.5354676536409066,0.9551265467578405,-0.09860088180333378,1.028062552022172,0.7137247180494355,0.19689475770815038,1.035863435292217,0.7156300648401093,1.111703203964747,0.562359185729484,-0.6362536975365234,0.2366721286754572,-0.7880942318855628,-1.176498220868984,-0.7176943582667418,0.8558318949127652,-0.7539075679684424,0.15459941150523304,-0.4677989432999812,0.6975253487999024,-0.31935194747276596,-0.3574415055965096,0.35626359087193205,-0.7135435133176488,-0.7465679966406956,0.9502807077515607,-0.8864677566141177,0.42066258334049533,-0.5984710056580814,0.24777158713344977,0.14424198247239015,0.1384840415016135,-0.4681056601520667,-0.10390729216239118,1.4861054014809354,1.1267847928509815,-0.7064441642384098,-1.0132354997224535,-0.15526220233085322,-0.7892065242161618,0.211375359804522,-0.4078034903429522,0.09060187928303833,-0.05976556120825144,-0.48764748594134755,0.4130516626935191,-0.8622574767406734,0.5876508946042517,0.21968423006328133,-0.1069101726272814,-0.656393270032357,0.7025509176297673,-0.7316611539491806,-0.5432546878690873,0.5948571737685414,-0.2794788124521238,-1.0173854749527218,-0.9766184822911759,0.5204495658157524,-0.4871786888164513,-0.09548282856360626,-0.0982696064723212,0.3167168409875574,-0.007604641833500006,-0.4705043950293059,-1.281751501309467,-0.5624194088064884,-0.47480043247464326,-0.31918695934564795,0.3265277290605936,-0.050748277215687046,0.7475888088881717,-0.052693119050230414,0.27752721694219934,-0.6552923276369741,-0.7098488177181969,0.6665240066635046,-0.992905310196442,-0.19353819058751673,0.937926656460459,1.0116989722695795,0.23632126632509098,-0.7481524152870921,-0.31596181298945153,-0.1724972884056022,-0.9442017118295786,-0.16543827324974322,-1.2473897268175802,-0.418254922591207,-1.0856637324606884,-0.9550259886417912,-0.4137255082191314,-0.05661082827686775,0.26125854197355314,0.5292440036787612,0.47563663206585094,0.16078571995036137,-0.06626476195736652,-0.2402555268327135,0.3704107787561324,-0.6479952414787101,0.46778382206061747,-0.5283266000178176,-0.6444637507115878,0.6179153631249606,-0.26956695437940376,0.9204119027845037,0.23599616605511248,-0.49188667612111686,-0.16755594861428647,0.7772002118619808,-0.5020207180892959,0.1096847349541779,0.7008243574796714,-0.2656404044596152,-0.5452054251459912,-0.7789587181658579,-0.23456171856163463,-0.4956448353619767,-1.2875551410495112,-0.38507117849879563,-0.032774362765688146,-0.7734754688170047,0.18153305876047376,0.6041859259253322,-0.12773893823902602,0.36989037597305696,-0.05926302606257667,0.22691889585364647,-0.33124052921516994,-0.9025384485690089,0.5522508998822511,0.9572994317275229,0.7837748881433704,0.5235131502903542,-0.772850518906379,-0.5569632276966333,-0.01676244910949993,0.7024453730299518,-0.6784920675458703,-0.20602587675862663,-0.6520098559131265,-0.04824403289856691,-1.4524539073343339,-0.5216123133043138,-1.4170634178685664,-1.0261762974968494,-0.6578867231920507,-0.03242927580520716,-0.0066920779825425675,-0.22330522312003787,0.04273422709725622,0.10614762011236059,-0.23467821921418686,-0.343695413377352,0.09746655449222884,-0.5036411422562453,-0.10047534956804484,-0.6502396892331778,0.25469782004654495,0.8276863303034195,-0.5901918723577617,-0.29005090021005747,0.7275608549545933,0.8164324969549389,0.5096773205456847,-0.08394735159356992,-0.7017474751056113,0.5559325467815822,0.3515306166698043,0.2337811918830475,-0.4707096072897794,0.1866968869787056,-0.8028647929043178,-0.679308215853808,-0.37776113487437785,-0.07844112508750695,-0.34023780608487864,0.03403994780825202,-0.34659765732641024,0.39522261999996267,-0.9614444435191416,0.2951442713168086,-0.46614917999412286,0.4505603589476547,0.016460809385897345,0.5735659451711732,-0.5556422967194736,-0.022610894392714038,-0.9288408982908399,-0.8338526242426918,-0.0803060251047457,-0.9065369736163784,0.023902747435218204,0.8087707127890222,0.48943891988905497,-0.8435514397782847,0.938066275704156,-0.2783310729677965,-0.619752209013919,-0.45748379521008353,-0.20885398102395003,-0.3022749653677881,-0.11109250954868342,-1.1510701250152344,0.09705332054435337,-0.19321969900793295,0.3894924122259872,-0.44293788637675635,0.1390333600508832,-0.5780448693490414,-0.4441953368331706,0.2574128289838404,-0.9970243465366975,-0.09265887528640372,0.8303387823852811,-0.13417507378777654,0.32935330931324863,0.772430375907236,0.3974202127021454,0.7758459356726928,-0.2194841114388429,0.5982228096463943,0.00855619156272427,0.11820649811508842,-0.03506053728397848,-0.11362338577154679,1.3069611961404153,-0.04414412843645999,0.29366639512896914,0.2837163888647975,0.2527347995853426,0.06608869221412017,1.0343587206439435,0.8699286455568137,-0.009452888393566014,-0.28920685048445033,-0.6836737642919624,-0.15909836691795443,0.13537609315504132,0.39265474797685723,0.5503014521582407,-0.8608724542514672,0.8033072960945845,-0.334853328130027,-0.963992076003158,-0.3795603938373695,0.8120568370490412,1.0297929560958043,-0.9154006150990278,0.10838037993252178,-0.2884095173236845,0.03378164277282354,1.0715079128387144,-0.30955794994508157,0.9489114180464974,0.5109471508832877,0.7319749968705718,1.5520132631060821,0.598428003770912,1.2344529136554725,0.4732314594466109,0.45712700495971625,0.33652256895910915,0.31372608309255573,-0.5512212833032695,-1.0024409025869763,-0.8271516389923048,0.24894218936672904,-0.9644724984293527,0.7396874068249945,0.45679090135100536,0.2546501064654294,0.02923284444227403,0.030153643962269605,-0.41339776763531455,-0.3495947069980859,-0.7815262898988897,0.3406218306087191,0.3710830590926832,-0.8287334518673691,-0.5419327150705182,0.16411888089365412,-0.555243422291891,0.02940057640417315,0.37599937619740287,0.15222620997241526,-0.17069003836818475,-0.2751982575894752,-0.01229890072408396,-0.17525708063121287,0.8194301648986716,0.16441582693500312,0.8237269925604508,-0.10836606685033508,0.3860922014903341,-0.8867429501750144,0.20843335949502212,-0.5186060160767039,-0.7170234484109087,-0.49448548542943205,0.5757918244524325,-0.45216249055381197,0.8189250173395849,0.577047114062346,-0.7884356753009321,-0.8322930440784918,-0.5468221021112886,0.20455668104355165,-0.6570067966318253,-0.5659266376694486,-0.9561053874049837,-0.6869751085528739,-0.23181288118317817,-0.08442152186701798,-0.39098439772629495,-0.49602855294734177,0.7138933916778385,0.9604947806206452,-0.19136158889401914,-0.8510860379274072,-0.2217185425993349,0.3795598242943694,0.8350992764909889,-0.04350088478104595,-0.27782038960780103,0.9374705509481781,-0.8384881408210025,-0.4304673659630591,0.6278261283979294,0.7316769715989977,-0.03126479819432637,0.7704837389706581,0.9110815843732347,0.36358329212541196,-0.04374006702757243,-0.5181577659293878,0.5976728176157882,-0.9137615789845889,-0.8760177694490164,0.5230757908237219,-1.4473735561532313,-0.30971472990899285,-0.7141672732406169,-0.4976722352192442,-0.31758486750812,-0.9853619156197151,0.9141077184724601,-0.0316961542776139,0.982251326705919,-0.5547416087029102,0.49883597235264754,-0.4513447725301486,0.10863026761552974,-0.9769188939637621,-0.75410750667227,-0.4339076926040182,0.8620547687906506,0.8705532954096893,0.6116654310030645,-0.9467944225560356,0.7150861806318952,-0.32071791293608753,0.06887449354717043,0.5790553459669323,-0.33315172815991306,-0.7720425729664188,0.3316167311613527,-0.639520651700437,0.23566693345092862,0.47689924382655025,-0.5243353642883106,0.8979895411286699,-0.9015693708049984,-0.12540291399417683,0.8181294664594079,-0.21178561086755568,-0.9530800557313848,-0.2530502976445258,-0.8192262466305862,-0.21824983776743395,0.171509974989966,-0.4231926693691166,0.6292558456825466,0.7008301124266212],[-0.5979918972739251,0.06218088787623266,0.22387153920652625,-0.1769881013954524,0.595434465970418,0.9553270427667759,0.4270114861625689,-0.17730845184119448,0.2598618527192198,-0.03717416581463362,0.45838039018487997,0.9419744471647389,-0.6923428054654314,-0.38912936874965526,-0.973943395929031,0.7772886455542254,0.6120898112794964,-0.36029929829398366,-0.4360978585431021,-0.2258631599248493,0.7227240861718005,0.8173889053163146,-0.7418606039884792,0.5897484898715186,-0.6784421668290375,0.6125837265284486,0.9761516323761585,0.6540722719430432,-0.569911722741103,0.6427055075594137,0.708948041043642,0.11021848201029716,0.0987668642562265,0.7112294365085563,-0.2387461680970216,0.5755749137379682,-0.7892504140380243,-0.6977608083862434,0.28256599333826726,0.21500200442998557,-0.016838680054808968,-0.1378686767953023,0.8721422689321443,-0.13889610353807733,0.5434687973800415,0.8630200787186901,0.449392506767153,0.8986589933132632,-0.6374406962524519,0.1235206043476093,-0.9109479539768736,0.5935935175816026,0.0856127983830337,0.6362757284234337,-0.08503926618347113,0.6073312045318109,-0.9931643743095633,-0.3383791691777125,0.6063195134685002,0.6383525497156848,-0.3201917117755198,-0.4749864154801075,-0.3150573025508475,0.3978871277362495,0.6163662738086325,0.55710362115464,-0.6312361711090885,0.7224857945561016,0.19537076054970898,0.9559746118078216,-0.04073540968305258,-0.8092234705914079,1.0704841581218805,0.3849967058215701,0.0011389953081265745,0.6227348785750507,-0.10339936940546351,-0.38420743107103206,0.6791675141788153,0.6374617649842526,-0.8503881126367024,-0.7809451594363241,0.6500399458112651,0.21920817612342614,0.06672626391078862,-0.726918737794402,-0.4785775488848758,0.4265508462858253,0.28648461468573194,0.3488018747797338,-0.7902353629354013,-0.8753502145582311,0.14521011097323605,-0.2127283575535886,-0.647907554466533,0.8150713575172068,-0.47877939180221596,-0.014037226417450935,0.1860519865065255,0.543497875485273,-0.03579228414981407,0.1290009020768933,0.17605689076276768,-0.42903478899074937,0.2545453870580437,0.021546726852227735,0.17785944315922264,-0.4013314561029542,0.9909711419264734,0.6023212541292445,0.8427921084106946,0.3876563657037,0.7796977600521582,0.6387438056861682,0.5070879854177439,0.19150376987329934,0.9916149135009334,0.2790474289702453,-0.037631490968386944,0.011854357964366216,-0.2782924196182732,-0.3860733202489818,0.14479911214831398,0.43830578947019116,0.4601992617090832,0.5241966807278564,-0.7204354759968835,0.21801650513357965,-0.04512529029052477,0.7604830496756981,-0.6711892888223574,0.15639084344097334,-0.05016848108958262,0.22325742228532483,0.1669634529947472,-0.4519073983512902,-0.4679055318237012,-0.8169537366743641,-0.13615251201089568,0.39963439584548854,-0.5322260780784445,0.9369908573764822,0.2675835641025202,-0.23616392922941135,0.4767769301417215,-0.33999361755263513,0.54294877433192,0.07772827517405434,-0.29549093384977415,1.1253234876899103,0.8521318263865972,0.20861969662804436,0.8452807272798974,-0.02615723472784125,0.9001577309487193,0.1522765699454566,0.8178215141920555,0.17865040740500968,0.20138909745882155,0.2936527373253174,-0.9371872052767451,-0.6559151934990448,0.2105939059085592,0.11720842454731573,0.256644692765337,0.4961062851126482,-0.20292944330830606,-0.7976584208802339,0.18282139218300597,-0.9898724162271342,-0.1290197242602536,-0.12071681111264304,-0.47399190346969433,0.5800411350730524,0.9415739475538438,-0.07340028138991128,-0.04163957737834806,0.745116429318826,-0.15366650128306264,0.7672353190166553,-0.49611268719006907,-0.3121110328441741,0.531045782713507,-0.2721474906473401,-0.41423314994501825,1.2281781418734508,-0.4962185836951524,0.35544116903210476,-0.7959166383595497,0.08369924148804797,-0.9086242695142202,0.2546671433098685,-1.2867071376896702,-0.22577047087640717,-0.18687917078685312,0.45094852009610026,0.852867876767302,-0.2132913698172778,-0.7080426267675647,-0.5096710975962255,-0.47022635494770976,0.5556282804167927,-0.08091621097957953,-0.21521203318182497,0.2708906918026612,0.5132221014111585,-0.23164739540622328,-1.059100489688056,-0.10792090791437486,-1.1366664783261151,-0.6465529495806921,-0.013822594453866415,-0.060363623775649446,-0.40632846472715695,0.12336304937118342,-0.32389180154931774,0.4804490558945112,-0.5302466127770247,-0.40005555839273593,-1.3907304845535862,-1.5911382474040752,-0.34988949371769507,-0.6038849044257613,0.2180922481360492,-0.3879891436206238,0.746200539323195,-0.8936882021821518,-0.4784150722658179,0.14963464057429723,-0.008245000804545197,0.3037477785213284,-0.5067909597473141,0.14027660774756978,-0.5268871685013846,0.07979236189095146,-0.15673288654004416,0.4714795912324994,0.12982924786069563,-0.48813039415727094,-0.024016089350347106,-0.010888514193171495,0.48621609100756075,-0.4273848967742372,0.20896265306774817,0.7370284272792924,-0.9323482611033546,-1.2792109913113656,-0.03378465568791498,-1.4919762156405703,-0.4268164860684341,0.648744769592699,0.17776555394282742,-0.5429339466866836,0.4819739074680135,-0.022547015493971798,0.0756225849488459,0.5104284491316846,-0.23975182434862205,0.13461782096082894,-0.21232445195388397,-0.5446623471578051,-0.28533294330638703,-0.8544879323615246,-1.0971877774048981,-1.1461623181814733,-0.43413570978692795,-1.0416167164587569,0.11018908048176157,0.4234740621363556,-0.7061460375450517,-0.2061110212462281,0.6544303815639286,-0.7923105504876877,0.1594741128636247,0.19591389347440033,-0.10508180850886666,-2.0836214128946993,0.22692490646795557,-0.4268017246279891,-0.5200591330832964,0.6367088363779672,0.541439476132505,0.6084163339388329,0.041069213433480085,0.57875893547657,-0.32037026444476063,-1.0329780878471677,-0.7639010606059028,-0.3090447359582235,-0.022127633994959622,-0.7951413493914388,-0.21416208762192568,-1.0881518590904384,-0.49983019523602945,0.4601752985191688,-0.23892823139805994,-0.6360980516044901,0.6761886868722065,-0.7137290707944096,0.15414138378106115,-0.2479041486187099,-0.22483237585989052,-0.7151914729426608,-0.10383384125277574,-1.2580007967488136,-1.0775385885482227,-0.35925404037670544,0.9207323293736184,0.8431640779140347,0.4597354068520428,0.35844087832625754,-0.7065915246670077,-1.2849341043302769,-0.8312183668896332,-0.8963562833080169,-0.044605737814462226,-1.3262088354626307,-0.6966501342751863,-1.5451275638320083,-0.14936328917573985,-0.3132052559428606,-0.7024381821333893,-1.3654831599937385,-0.6468173321185702,0.35408993114019366,-0.20137953260128816,0.5954073784919527,-0.5681656742408472,-0.32603201099029894,0.29347454758426056,-0.36463409728582236,0.4255469836173192,-0.15545717974355514,0.32735017585779047,0.3761655220501337,0.3531072559950035,0.11133406235309362,-0.04525891706487209,-0.3942079542068866,0.2794281541151483,-0.12263169294494386,-0.3948472313014078,-0.7961485678273302,-1.2245811692489754,-0.9499872946308574,-0.25443556842474824,-1.4662376292812715,-0.7464740462444369,-1.037109456787347,-0.7893994096964623,-1.2766327519697773,0.19329473574630263,0.35671257639925796,0.46490868710603855,0.42621240976575603,0.6233380520942926,0.09753420982749478,-0.2960695248347677,0.5021176215851327,0.648015689117544,1.1424784918140904,-0.36644652297877955,0.8523021988890035,-0.9548199478542132,0.01836228978124277,-0.6405651574642405,-0.46781524120119083,-0.3803756967598704,-0.1480820756925928,0.0669297015510789,0.48557989957031283,-0.6592807595969052,0.49826163512443145,-0.5310545014088061,0.36631694506830526,-0.7726915996799857,0.41112936271017847,-1.5136431605321257,-0.6360799380588277,-0.04361917486528311,-0.9179234598638297,0.5766128475935003,-0.48099994427396947,-0.38329516626124843,0.31246482374791446,0.30822020284081153,0.9956501486049123,1.1272996261645154,-0.0657934722954001,0.7924155571570148,0.21380346057405852,0.8731556601022036,0.5081466964108904,0.643354910720399,0.6554496252452701,-0.14469655701382145,-0.6921794422416487,-0.1487456384312701,0.009830595575332252,1.5251839466760622,0.7003280766607056,0.874331740595828,0.8191566108982492,0.8145293775177113,0.4352456624375147,-1.1013062022373068,-0.6767261469402072,-0.37576857127471563,-0.24458280368547053,-0.19689968434114152,-0.37094531817964704,-0.08301838322884324,1.0485628921986743,-0.1168353181709323,0.7545989359492224,0.9977937526308934,0.011157878962936487,0.5600850584710759,-0.32500709255996224,-0.23949422836657983,-0.5920540796263197,0.7209592095802724,-0.2507496296715767,0.025226787222049393,0.9143511516478412,0.09814246742181311,0.04628805068743195,0.6766985981520398,0.883696508511964,1.209174841824377,1.1198036057001504,0.22568381997923925,0.0985048170441484,-0.5819935461259718,-0.08691583023648783,-0.5709240054964965,0.26592816769240224,-0.4621596142085275,0.1790235089963297,0.4712905469549669,0.7166231880870585,-0.05712234497390627,0.05163862429301241,1.215273850753323,0.6693966487282722,0.4556136690828405,0.3286873279320163,-0.5925557181621592,0.24897917272127035,-0.7961765143204093,-0.2921787341590196,-0.14796092814734094,-0.6509884286843989,0.2088716213644171,0.5177544222229203,0.7028684704884088,1.1264473522605054,0.4061618925489281,1.3910158500687626,1.0576727228991334,-0.8917522532829417,0.11640199809062564,-0.1213010020811161,-0.33594841497964834,-0.3195261699939818,0.32067226563870255,0.9220205040259087,0.16348300257854465,-0.6971042749955935,0.7213472176649115,1.00361365426433,0.8294866473571776,0.902658195265721,-0.26105135227904247,-0.6551842209846542,0.03650373525374001,0.060811867097236405,-0.8575452964284247,0.6281712331582401,-0.5816600941672488,1.2091434584428058,-0.02892761508199671,0.50209630840734,0.570508547854041,-0.22705064526408456,-0.18415329096045993,-0.20057209027357412,0.4021967136494896,-0.6571221071355368,-0.23267002505530135,-0.9111909055040571,0.10919223998632956,0.3497022287860295,0.7680340111670351,-0.29731509143497503,0.1341369248009546,0.9747891563576097,-0.5653492379522831,0.11906876343062749,1.0868153843970947,0.19120144196700936,-0.1883064113697574,0.504336135833575,0.2478011500752123,0.9321116138057132,-0.2634896580812193,0.39010332247629886,-0.2929290928027569,0.07106615203131775,0.7651305191102382,-0.3973963007459915,0.3523646300656013,0.9005105262863151,0.6435147785571022,0.73561518895315,0.8014005635446432,-0.594092741141149,-0.4714094839657002,0.4207635769945446,-0.43096788736897795,0.6494305761495706,0.06323607487045554,0.32469373271963464,-0.03774186883853738,0.2059046063084616,0.5508638601475406,-0.2513930676768396,1.1952125182577225,1.3008854295985728,0.37397515956206134,-0.7338675866257847,0.5059205274439323,-0.8219135293441939,-0.5923288086380588,-0.660622625387013,0.3347499393136789,-0.18261662876456342,1.020463084524238,0.35445963672774045,0.06600620267642766,0.7126172718039686,-0.5621764918910872,0.5330057996635787,0.8847439071844309,1.0594910375138806,0.4507761606248024,0.5040417545716992,1.0846464416026174,0.34128039481261974,1.4021979066129824,1.415287518838234,0.728225151117703,0.3097731765604686,0.5280870423367376,0.5243297033202692,0.5703470679524809,0.0857160690925666,-0.5271791650520575,0.6219558394194067,-0.3052980061904646,-0.8713517126372259,-0.36893187439563246,0.17962497011347417,-0.4373323320870804,0.7209729547618801,0.8309619955624914,-0.5141088937306215,0.26434951927820294,-0.11396920276683026,0.1004415216792071,0.1974905068518463,0.4698568012992744,-0.5044010569140568,1.0056382738354346,0.1730718575155041,0.9085506330134505,0.7679658928523753,0.5884403482383272,0.04872808200237511,-0.031022301109151284,0.763820684074332,0.10590824742153626,0.8111711074229598,0.38510846012348754,0.2527544202329929,0.5288438691683833,-0.361340354096416,-0.7974426951219652,-0.3911646672616614,-0.04402775009306485,0.023736474852633176,0.24806084973200374,-0.09985057700080818,0.26966822715727534,0.9467436110419565,0.7796790115556022,-0.5860927290952018,0.6584087475911837,0.1658488262644503,-0.2722988265124911,0.00202489743554942,0.2740448262293331,1.0225639768623194,0.376801556155817,0.3306753802511683,1.660329451244441,1.0927098087661835,0.08306770566598173,0.15818460934929973,0.2619808124061421,0.2683301214031494,0.476329802235558,-0.17695374817848758,0.9549740681801031,-0.27674132928583617,-0.920943514331981,-0.2064220253624794,0.5926731788111327,0.24073117585310486,0.29960576295357183,-0.004977167409337108,-0.5907193603431047,0.5476117407149892,-0.5418608585154113,0.4628578508994091,0.0054952250927044425,-0.3600604672685291,0.46804159766482456,-0.9539642976475711,0.10308702230415198,-0.7633799418772726,1.1326999639815754,0.19456508252840604,-0.04918174450736232,0.018353078162046177,-0.03691495540637296,0.9369868022044603,-0.258475521126733,0.12780497380816674,-0.09993105038268299,0.16812600963189786,-0.7339638568644509,0.37810258125563545,-0.9867886727372404,0.5556406080416973,-0.6131765106147402,-0.48074992803011,-0.27343360088786683,0.26430351917444195,0.3591451797122649,-0.2830579251717377,0.6993931739443939,0.744073208303716,0.22005836462893288,0.25093082463870153,0.7262626443851266,-0.7245344613269522,-0.1566730893109976,-0.2414172777705642,-0.7180718265962001,-0.5671062777239639,-0.5767160632518777,-0.47172412162347316,-0.2772326356194006,-0.416155694368113,-0.7747796638642696,0.3556029244470717,-0.3186885046014325,-0.08144887344772037,-0.5382775794373639,-0.1098294923588803,-0.7762599279766214,-0.3092618298335248,-0.2846192009440571,-0.8234707456160459,-0.27647591572141245,0.8332568236823749,-0.03560111171317042,0.6431985505905338,-0.6424440880153773,-0.9273518652183838,-0.2685327524988089,-0.7572567475956241,-0.06112893456145973,-0.4214430163742039,0.0031472771099309896,-0.760984251525619,-0.44647934523111765,0.20177743195908496,-0.3429477196917065,-0.48845570701533036,-1.0181606792436855,-0.4037487811695194,0.677894174933335,-0.4074647089071056,-0.7053184882953083,0.9353143226408487,0.05540329736265014,-0.5098080540138838,0.35817884637688935,-0.9209770404971869,0.7373910738088303,0.993964232732015,0.24776024490476029,0.3078955478014669,-1.0780408654971345,0.43536915336255644,-0.820350176208849,-0.41100163165798603,-1.1059621745236417,-0.7198800228680877,-1.4107127045138799,-1.5566550303488744,-0.6387179480073892,-1.3388776284043125,-0.9823505646634347,-1.3251776211057475,-1.6847982285995657,-0.6238581635833483,-0.8828085055977906,-0.8616286936545634,-0.8269027164598638,-1.1369722651749827,-0.3156864906563322,0.6625660756698089,0.28726097741809326,0.3140858924275597,0.7429797995975314,-0.08716745303369078,0.013850611630411125,-0.888816560749687,-0.20115541202643042,-0.6203282001755163,-0.3639334430897227,0.21997104372996473,0.5671500582583621,-0.7991713180289646,0.4969444330642201,-0.7159502743303909,0.5863120804645585,-0.524506771292145,0.43171420651416764,-1.1230807734564088,-0.5510483169629136,-1.1213940859908653,-0.5106776462225681,-0.9740010771088082,0.5204780551978788,-0.8738157922220025,0.1540988740944869,0.46435547150515044,-0.8740711102811425,-0.7514051696173836,-0.7523626394278895,0.29138904802405063,0.09565386027510536,-0.941815207151836,-0.28771376260852355,-0.857912729740872,0.6225560460130746,0.6644477168661775,-0.3357464425169177,-0.03042941848341451,0.4556250361835984,-0.5745075514763716,-0.1667081334133676,-0.9491361639937923,-0.22237976019896985,0.5110801530965915,-0.3230509588737568,-0.6386860832078758,0.704947857255339,0.03868124079678531,-0.637040039727906,0.14656781435315527,-0.6266769383812397,0.8515324348281634,-0.4708016007662434,0.3591634525834851,0.5694415236971505,-0.02582815071766409,0.5499705947947449,-0.38749786779681106,0.838624244093684],[0.9697406982375323,0.5923969709540777,-0.01573499353209651,0.28270716423474096,-0.7859170726929319,0.6325241131586943,-0.19929169105054645,0.1784262843592075,0.2901442862771262,0.024489677578684477,-0.07123094776160754,0.8705998684753138,0.08220600519853438,-0.9563669861373351,-0.8419931773106709,-0.39491607517744753,0.2633094252554562,-0.46805598544405247,-0.15067412999096774,0.1800635563427877,-0.9249426211594165,0.07514204968176696,0.9302822979525971,-0.2786504240963428,-0.4325925753139621,0.10243578516905716,0.8291133037292748,-0.8573136248194149,0.32711399938044083,0.34793211327639106,-0.5696132953219537,0.5600127441792446,-0.5823291231144478,0.3112924151810102,-0.6979890382876992,0.16622243457241243,0.9008237387630296,0.9742050023668059,0.09019062311179481,0.28047213582077635,0.8994987747576998,-0.7076023174180079,0.1847250121901146,0.7150457554058451,0.6087427880776165,0.28498703897768246,-0.9162252264181043,-0.16574137675316344,-0.5439327339272715,0.8438960536373021,0.6358591715999082,0.9139418584764619,0.9870104246777434,0.7075877666725399,0.17932628587155341,0.25178652754075626,0.9418381710176122,-0.725199844700229,0.43451982644513354,0.9159710760063466,-0.030703946070067475,0.7154805151707453,-0.4364893505335299,0.2708268049174888,0.7401659123889673,0.05724354618345628,0.3906551725427038,-0.7879041919941918,0.38657238118464027,0.2890020467351855,0.029242411136828975,-0.6013154861607899,-0.806202121447267,-0.14585522724361566,0.2810267605819254,0.6076262821001247,-0.8221975427232053,-0.017523495741865715,-0.9833796249279608,-0.9468433705300021,0.22193969384889792,-0.004215556774162412,0.42286136819822584,-0.7677763476464803,-0.5572595731627072,0.42571506969034045,0.17661865845942448,-0.5727522664320827,0.8430967855470107,-0.32800641196989144,-0.5776949144213609,0.2857158460044483,0.017687419350807455,0.19854750488495548,-0.3431465305325501,-0.8378444453071898,-0.20748307420562292,0.14862621651614444,0.6649780241756883,-0.3924241805512331,0.23257797468974495,0.03817703680504556,0.991385398630175,-0.7061520608316564,1.0132683993137217,0.12333823258092814,0.15108520843797324,-0.40975507594539623,0.7947990096969396,0.006032283031473445,-0.948256637414182,-0.5569674806974885,-0.20382353425852773,0.1748281643207734,-0.1741235198610563,0.20861867311523136,-0.7603210984683363,0.34323966365866304,0.7508480630691959,-0.2218817666419396,0.2964480863074416,0.9198891995161063,-0.2563090091200776,-0.8043428997533698,0.7807074967698061,-0.6580500471066276,-0.29758439886543214,-0.15469799236352472,-0.5686772993562698,0.8058717450112849,-0.10350653157706173,-0.3231597530648857,-0.5507201034670471,-0.10013686680240268,-0.17269357400791804,-0.3931012045347694,0.6166410169058523,-0.6089017740067577,-0.5763372737188702,0.24073575706865913,0.40971334571614726,0.18588026018302206,-0.7443671466413239,0.7788636780967093,0.6873613161149837,0.8023255900286514,0.4670092752750907,-0.1261022037121495,-0.19428449038534792,0.8081415766550738,-0.26143764283717713,0.2820477534886709,-0.6867796623346047,0.7640812180092394,-0.3792586519228331,-0.2198521594884559,-0.5578039742175038,0.11160587478680635,0.3816484546536292,0.2927323814435068,0.11189395184426465,0.5103121523749052,-0.7079127369977064,0.5467849753172509,0.8293131731434931,-0.05025979265126533,-0.030084991784072517,-0.12980762603395402,-0.30293659312089916,0.231118805612204,-0.3211877477476991,-0.6427278314779626,-0.3369921693009444,-0.6006525562746373,-0.0993929937513591,0.11145101399571053,-0.02486490119592424,0.6606800665292223,0.5308884358870839,0.6395728285412347,-0.30691927124333623,0.2095097516750869,-0.1812418514196012,0.08705527342596343,-0.11547603908204938,0.9134516710075435,-0.887828904718517,-0.4383314472760228,-0.4078774651413906,0.5474252400926906,0.6559027361125558,-0.4675539833623459,1.3045812684769662,0.4471812326205979,0.05237661351242203,-0.14251992676350866,0.13301572263963046,0.09743589303171497,-0.6395938667891545,-0.12295119343883272,0.7155092266299846,-0.38136397646198733,-0.5058052908136011,1.0882000178714781,-0.17099682748974088,-0.8854144061717748,-0.06473713206587292,-0.13384598685529528,0.8334313358986913,0.7283125698757114,0.724063410932185,0.6136326414420945,-0.3573108092164819,-0.27160902004602505,0.23103075208108922,0.6139704301998278,-0.56503216612297,0.8485980673249786,-0.7373034074326539,1.0743738011634918,0.9578244769275116,0.7906126556290448,-0.405849348380253,-0.9792760180665055,0.9948571138250092,0.3664646890707777,-0.8157594965688234,0.9083846729899242,0.4913765106490985,-0.1891891698709721,1.1388856670313667,-0.9669054304079354,0.04908048295358661,-0.03850212129437662,-0.1754956015039155,-0.22073919807756973,-0.07996862861273904,0.25685528074159636,0.7346371498830593,0.8352155248138536,-0.1312058862763275,0.5252321025173752,0.5198889900475587,0.5450712058420784,-0.12755539049605422,0.8102130684831115,0.4586508798246333,1.0849724879142741,1.5025582924024734,-0.17334272797769795,0.7995974924558322,-0.14898592206553493,0.8242671450645971,0.3667992591110312,-0.45020364349116054,0.7663048120715744,-0.5157850955899909,0.12503060417926717,-0.027642471526354098,-0.2900493840266843,-0.274340202947917,0.05504252683427018,-0.6951634188596375,0.5261252624202983,-0.8862662817947095,-0.7378180274733649,0.5443477026332498,0.3397320102180995,-0.440801640127834,-1.0081508968235535,-0.9493762541486208,-0.02260480761292506,-0.11432752181080678,-0.4098517406609104,0.6653330242753501,0.2600548531961813,-0.46267304421650846,0.5120141930284683,0.731194480244011,0.4809666326235015,0.23115072053968008,0.5199358379119076,-0.44075554510909665,0.33837607149925825,-0.30481444153401976,1.024896918412324,0.7265072579766575,0.11891782417511032,-0.2505646924920681,-0.0028654080780423346,-1.2310362459876374,-1.1514182762269092,0.15536077843189183,-0.08922714235834281,0.779604615842256,-0.0039888086258715325,0.6197889982905211,-0.4290830315058562,-0.2930052383285453,-0.5537007709797456,-1.0548084002202043,-0.6087742759596676,-0.935511085701389,